tree
version=v4
num_class=1
num_tree_per_iteration=1
label_index=0
max_feature_idx=11
objective=regression_l1
feature_names=dow_sin dow_cos month_sin month_cos route_30d_median route_te origin_zone_te dest_zone_te carrier_te service_level_te origin_service_te carrier_service_te
feature_infos=[-0.97492791218182362:0.97492791218182362] [-0.90096886790241903:1] [-1:1] [-1:1] [1:11.800000000000001] [2.1261842446201022:5.6829063238477593] [3.640597385399877:4.4113892769414402] [3.7359833916300293:4.2745595723506584] [3.4177088249259193:4.4680954176667962] [1.9337481974093793:5.6118589487131993] [1.9596075202429668:6.3436635395259069] [1.7627606093843664:6.2430061090129598]
tree_sizes=5368 5719 5761 5761 5779 5738 5763 5755 5783 5783 5779 5778 5779 5794 5773 5736 5785 5758 5735 5744 5756 5753 5797 5796 5799 5747 5752 5801 5808 5821 5756 5799 5815 5817 5783 5827 5805 5813 5825 5825 5827 5794 5839 5813 5806 5827 5836 5840 5830 5824 5844 5834 5843 5805 5808 5812 5822 5839 5811 5853 5834 5826 5855 5832 5817 5856 5852 5843 5848 5838 5812 5836 5835 5870 5847 5797 5828 5847 5859 5854 5848 5821 5844 5851 5822 5868 5855 5842 5827 5849 5845 5851 5830 5845 5866 5854 5870 5831 5918 5881 5868 5863 5867 5834 5842 5825 5901 5879 5882 5838 5862 5843 5863 5861 5874 5915 5889 5882 5893 5859 5887 5910 5893 5868 5874 5870 5879 5862 5877 5945 5836 5883 5900 5893 5863 5887 5864 5875 5903 5867 5903 5862 5904 5887 5825 5881 5863 5845 5881 5876 5880 5858 5884 5845 5856 5853 5892 5824 5866 5864 5861 5864 5894 5894 5840 5866 5877 5835 5881 5815 5899 5843 5870 5872 5889 5899 5850 5873 5872 5877 5872 5874 5899 5859 5875 5868 5908 5870 5892 5867 5898 5892 5889 5893 5873 5922 5887 5879 5898 5877 5883 5876 5870 5863 5848 5840 5910 5836 5804 5881 5911 5896 5906 5891 5888 5872 5893 5826 5867 5906 5847 5852 5869 5887 5883 5860 5872 5866 5850 5861 5846 5857 5876 5900 5867 5894 5865 5887 5851 5860 5843 5879 5916 5881 5924 5894 5901 5890 5850 5886 5870 5847 5915 5829 5840 5854 5831 5807 5913 5830 5879 5851 5829 5884 5863 5849 5888 5871 5904 5879 5889 5877 5913 5888 5887 5888 5872 5878 5822 5906 5887 5896 5889 5832 5892 5840 5914 5916 5890 5882

Tree=0
num_leaves=64
num_cat=0
split_feature=11 5 5 11 11 5 4 5 11 4 5 11 3 11 0 11 0 11 11 11 0 0 4 0 5 0 5 7 4 7 0 11 0 11 5 0 11 8 7 8 5 6 11 11 4 5 7 2 5 8 0 8 0 6 3 4 11 3 11 4 7 3 0
split_gain=4047.86 3780.79 1164.45 682.489 523.146 290.705 205.995 120.85 112.911 90.3825 73.5144 134.295 61.5147 57.4421 53.9163 51.1678 49.1267 46.8906 42.3611 40.0026 38.099 31.6793 28.0235 29.2059 26.946 26.0813 17.735 17.4015 17.2979 13.0886 12.8215 11.2544 10.9054 9.81319 24.9387 9.78862 9.71966 9.64477 8.57955 7.51786 7.00827 6.90738 6.71828 6.70175 7.30436 6.34834 5.64166 5.57294 5.56156 5.38117 4.65984 4.3109 3.14605 2.34602 2.29439 2.26603 2.21594 1.8773 1.71518 1.73464 1.35423 1.35123 1.3162
threshold=3.6433078509430619 3.297454112770398 3.8768790448237795 5.1248781796567631 2.5855477754495282 2.5385183711115036 6.2250000000000005 2.5385183711115036 4.6888253271550946 7.1750000000000016 3.8768790448237795 4.4860084503720268 0.93301270189221952 5.3604969910918303 -1.0000000180025095e-35 3.0919156618309214 -1.0000000180025095e-35 2.328653222984828 5.7802770025882797 2.9927348747868261 -1.0000000180025095e-35 -1.0000000180025095e-35 6.1250000000000009 -1.0000000180025095e-35 4.7351896754076668 -1.0000000180025095e-35 4.609021289827445 3.9326509574309525 2.6750000000000007 3.8722631206127449 1.0000000180025095e-35 2.5855477754495282 -1.0000000180025095e-35 3.3797408938896321 3.297454112770398 -1.0000000180025095e-35 4.6888253271550946 3.9515558652552287 3.9326509574309525 4.1919113024992471 4.7351896754076668 4.025006223570962 4.4860084503720268 2.6745924164059312 2.7750000000000004 3.0681009788292686 4.0074508347754483 1.0000000180025095e-35 3.0516018240714673 3.529628600370712 0.6078576107927941 4.1919113024992471 -1.0000000180025095e-35 3.7482020034892929 -0.24999999999999997 3.0250000000000004 5.1248781796567631 -0.24999999999999997 4.2485396955780379 5.0750000000000011 4.0074508347754483 0.6830127018922193 -1.0000000180025095e-35
decision_type=2 2 2 2 2 2 2 2 2 2 2 2 2 2 2 2 2 2 2 2 2 2 2 2 2 2 2 2 2 2 2 2 2 2 2 2 2 2 2 2 2 2 2 2 2 2 2 2 2 2 2 2 2 2 2 2 2 2 2 2 2 2 2
left_child=2 3 12 7 9 18 15 21 16 17 11 32 14 50 19 20 47 35 30 43 29 41 23 -19 27 -10 38 -17 -21 -6 -5 -14 -3 -16 -35 -4 -13 -8 -22 48 46 -2 55 -1 -45 -30 -25 -9 -27 -34 57 52 -15 -51 -54 -18 62 -7 59 -12 -37 -23 -38
right_child=1 10 4 5 6 13 37 8 25 -11 58 36 31 51 33 24 42 22 -20 28 26 61 -24 40 -26 39 -28 -29 45 -31 -32 -33 49 34 -36 60 56 -39 -40 -41 -42 -43 -44 44 -46 -47 -48 -49 -50 53 -52 -53 54 -55 -56 -57 -58 -59 -60 -61 -62 -63 -64
leaf_value=3.4100000023841859 3.4549999952316286 3.5324999928474425 3.4549999952316286 3.4799999952316285 3.5 3.510000002384186 3.540000009536743 3.4850000023841856 3.5049999952316284 3.510000002384186 3.5599999904632567 3.5299999952316283 3.432499998807907 3.5549999952316282 3.4100000023841859 3.5 3.4600000023841857 3.489999997615814 3.5049999952316284 3.4450000047683718 3.4799999952316285 3.4249999999999998 3.5 3.4549999952316286 3.5349999904632567 3.4850000023841856 3.5 3.5200000047683715 3.4700000047683717 3.5349999904632567 3.4700000047683717 3.4750000000000001 3.5049999952316284 3.4350000023841858 3.4850000023841856 3.4249999999999998 3.5599999904632567 3.5650000095367433 3.489999997615814 3.4950000047683716 3.4750000000000001 3.4350000023841858 3.4750000000000001 3.4350000023841858 3.4600000023841857 3.4799999952316285 3.4600000023841857 3.4799999952316285 3.4950000047683716 3.5149999976158144 3.5049999952316284 3.5549999952316282 3.5249999999999999 3.510000002384186 3.5349999904632567 3.4600000023841857 3.5750000000000002 3.5149999976158144 3.6599999904632567 3.6400000095367431 3.4350000023841858 3.432499998807907 3.5450000047683714
leaf_weight=576 216 154 132 139 120 105 156 111 215 197 197 181 112 108 2851 185 383 145 162 170 140 664 105 176 178 237 200 165 107 106 194 134 130 250 111 263 167 330 143 161 141 111 157 105 115 168 106 156 108 116 130 162 124 155 135 152 641 103 3568 227 128 188 442
leaf_count=576 216 154 132 139 120 105 156 111 215 197 197 181 112 108 2851 185 383 145 162 170 140 664 105 176 178 237 200 165 107 106 194 134 130 250 111 263 167 330 143 161 141 111 157 105 115 168 106 156 108 116 130 162 124 155 135 152 641 103 3568 227 128 188 442
internal_value=3.49935 3.5201 3.47227 3.48387 3.49597 3.513 3.51439 3.46999 3.4786 3.47319 3.54568 3.53781 3.45655 3.53045 3.45521 3.50356 3.46736 3.46802 3.48242 3.46406 3.49478 3.45772 3.47675 3.47236 3.51534 3.49355 3.48685 3.50729 3.47607 3.51173 3.47222 3.48089 3.51694 3.45179 3.45956 3.45679 3.54591 3.54198 3.4788 3.48735 3.46572 3.47095 3.46033 3.45735 3.46477 3.48382 3.46117 3.48558 3.48319 3.51259 3.51435 3.54074 3.53774 3.51661 3.53475 3.45766 3.54748 3.51899 3.54959 3.54658 3.45281 3.45264 3.54532
internal_weight=18014 10199 7815 4221 3116 1362 1723 2859 1680 1393 5978 1986 4699 867 4453 1237 959 1196 495 1241 709 1179 673 568 528 721 483 350 445 226 333 246 555 3212 361 523 1431 486 283 506 423 327 692 796 220 275 282 267 345 401 338 529 367 271 259 535 1250 208 3992 424 391 852 609
internal_count=18014 10199 7815 4221 3116 1362 1723 2859 1680 1393 5978 1986 4699 867 4453 1237 959 1196 495 1241 709 1179 673 568 528 721 483 350 445 226 333 246 555 3212 361 523 1431 486 283 506 423 327 692 796 220 275 282 267 345 401 338 529 367 271 259 535 1250 208 3992 424 391 852 609
is_linear=0
shrinkage=1


Tree=1
num_leaves=64
num_cat=0
split_feature=11 4 4 11 11 4 4 4 4 11 11 4 11 10 4 11 3 11 11 4 4 11 4 11 4 1 8 1 10 1 11 8 1 1 1 7 1 4 11 11 3 7 4 8 11 1 1 4 4 11 6 7 4 4 10 4 4 3 11 4 11 10 8
split_gain=3941.66 2947.25 1019.58 520.265 366.467 192.926 183.322 121.107 114.465 112.851 110.818 97.7016 103.997 94.6272 52.216 43.075 39.1549 30.5278 29.9807 29.4915 26.492 23.9812 22.5661 20.2043 23.1988 17.4428 18.3492 16.0444 15.3627 15.3059 13.1239 11.6382 10.851 10.7042 10.1933 9.6362 8.65561 8.43096 9.04557 7.55396 8.67505 7.40652 7.2929 7.28178 6.91892 6.09267 5.92084 6.10084 5.84733 5.73139 4.87599 4.06739 3.8817 3.87822 3.92318 3.56369 3.44259 4.39441 3.43109 6.10869 2.70196 2.694 2.32099
threshold=3.6433078509430619 3.2750000000000004 4.7750000000000012 5.1248781796567631 2.5855477754495282 2.2250000000000005 2.2750000000000004 3.5750000000000006 6.2250000000000005 4.6888253271550946 2.7830831038071611 4.1250000000000009 4.6888253271550946 2.680448028830889 6.2750000000000012 5.3604969910918303 0.93301270189221952 5.3604969910918303 3.4447049554848332 2.8250000000000006 2.7750000000000004 3.0919156618309214 4.0750000000000011 2.6745924164059312 2.6750000000000007 -0.22252093395631442 3.7958256902531811 -0.22252093395631442 2.680448028830889 -0.22252093395631442 2.2036258632932877 3.9515558652552287 -0.22252093395631442 -0.22252093395631442 -0.22252093395631442 3.8485519699296722 -0.22252093395631442 4.5750000000000011 4.6888253271550946 5.3604969910918303 0.6830127018922193 3.8722631206127449 2.7750000000000004 3.7958256902531811 5.7802770025882797 -0.22252093395631442 1.0000000180025095e-35 2.9750000000000005 2.5750000000000006 4.8900170713600231 3.9075768722582347 3.8485519699296722 6.9750000000000005 3.1250000000000004 2.9850627697798671 3.5750000000000006 1.9750000000000003 1.0000000180025095e-35 4.2485396955780379 3.0750000000000006 2.2036258632932877 2.6858553628957198 3.7061722925931688
decision_type=2 2 2 2 2 2 2 2 2 2 2 2 2 2 2 2 2 2 2 2 2 2 2 2 2 2 2 2 2 2 2 2 2 2 2 2 2 2 2 2 2 2 2 2 2 2 2 2 2 2 2 2 2 2 2 2 2 2 2 2 2 2 2
left_child=2 3 7 6 13 17 45 16 21 19 28 12 25 30 -15 36 23 -5 22 33 32 27 34 -1 -25 55 51 -6 60 61 52 -10 -11 -8 -12 -23 -7 38 -13 40 -14 -30 -38 -17 -19 49 47 -22 -45 -2 -24 -27 -4 -31 -55 -3 -47 -58 -21 -60 -9 -26 -35
right_child=1 11 4 5 8 15 9 10 31 20 18 37 39 14 -16 43 -18 44 -20 58 46 35 50 24 29 26 -28 -29 41 53 -32 -33 -34 62 -36 -37 42 -39 -40 -41 -42 -43 -44 48 -46 56 -48 -49 -50 -51 -52 -53 -54 54 -56 -57 57 -59 59 -61 -62 -63 -64
leaf_value=-0.1005000013113022 -0.056250002384185788 0.028374995589256293 -0.066500004827976231 -0.028999994993209845 0.020000004768371583 0.019500004649162284 -0.0292499953508377 -0.091249998807907101 0.038000009059906019 -0.00024999976158142091 -0.025749997794628145 0.051999993324279792 0.057749990224838267 -0.018750004768371589 0.019500004649162284 0.023500000238418584 -0.038749997615814213 -0.011250000000000005 0.0039999949932098431 -0.033000002503395076 0.005249994993209839 0.0082500028610229537 -0.01499999761581421 -0.075500001311302189 -0.040500004887580876 0.019750005006790163 0.033499990701675419 -0.009000002145767216 -0.045500000119209294 -0.055500002503395089 -0.029749995172023772 0.061750009059905998 -0.014749997854232789 -0.043000004887580871 -0.035499997735023506 0.038250010013580332 -0.00024999976158142091 0.16200000524520874 0.101999990940094 0.096999995708465583 0.052749994993209849 -0.051062495261430745 0.019750005006790163 0.028749995231628425 0.0047499954700469978 -0.071249999999999994 0.00024999976158142091 0.014749997854232789 0.047250000238418591 -0.041250004768371575 0 0.0083750027418136638 -0.035500002503395092 -0.045500000119209294 -0.025499995350837714 0.039250009655952448 -0.061249997615814206 -0.057312502413988109 -0.018875004649162298 -0.009000002145767216 -0.057875002324581148 -0.041750004887580877 -0.035999999940395357
leaf_weight=1736 306 115 246 155 171 148 269 310 156 187 144 268 698 190 161 104 182 140 146 142 105 112 206 996 108 137 168 190 297 357 202 330 219 185 210 146 103 2900 452 440 187 156 130 131 138 323 189 150 355 119 135 199 100 153 111 201 169 126 182 159 238 326 200
leaf_count=1736 306 115 246 155 171 148 269 310 156 187 144 268 698 190 161 104 182 140 146 142 105 112 206 996 108 137 168 190 297 357 202 330 219 185 210 146 103 2900 452 440 187 156 130 131 138 323 189 150 355 119 135 199 100 153 111 201 169 126 182 159 238 326 200
internal_value=-0.00074109 0.0197323 -0.02746 -0.0109157 0.00329341 0.014245 -0.0225743 -0.0380657 0.0225792 -0.0136638 -0.0274701 0.0433044 0.0348485 -0.0204116 -0.00014245 0.026622 -0.0429831 -0.0135104 -0.0140904 -0.0239666 0.000117647 0.00831987 -0.0184173 -0.0440718 -0.0407118 0.0208537 0.0150794 0 -0.0387113 -0.035545 -0.0333942 0.0407407 -0.0091133 -0.0308869 -0.0272599 0.0199612 0.0135171 0.0483149 0.0434722 0.0435094 0.0408475 -0.0318985 0.00751073 0.0350847 -0.00359712 -0.0395494 0.00855856 0.0135294 0.0376543 -0.0349412 -0.00923754 0.00833333 -0.0393064 -0.0405797 -0.0359848 0.0300633 -0.0427184 -0.0388136 -0.0145963 -0.0118768 -0.0443431 -0.028341 -0.0362338
internal_weight=18014 10199 7815 4434 2004 1404 3030 5811 1105 1987 1842 5765 2145 899 351 971 3969 433 841 1137 850 619 695 3787 2051 820 504 361 1001 1055 548 486 406 654 354 258 381 3620 720 1325 885 453 233 590 278 1043 444 255 486 425 341 336 346 621 264 316 618 295 483 341 548 434 385
internal_count=18014 10199 7815 4434 2004 1404 3030 5811 1105 1987 1842 5765 2145 899 351 971 3969 433 841 1137 850 619 695 3787 2051 820 504 361 1001 1055 548 486 406 654 354 258 381 3620 720 1325 885 453 233 590 278 1043 444 255 486 425 341 336 346 621 264 316 618 295 483 341 548 434 385
is_linear=0
shrinkage=0.05


Tree=2
num_leaves=64
num_cat=0
split_feature=5 10 9 5 10 4 5 10 5 8 5 7 8 8 9 9 6 0 10 8 0 8 0 0 8 8 8 9 10 5 0 1 0 8 8 0 5 5 10 5 8 9 8 1 0 7 4 8 1 4 9 8 5 5 8 1 5 2 4 8 6 8 7
split_gain=3879.34 3663.17 964.599 470.596 401.972 216.683 213.933 172.26 155.804 119.874 98.1882 95.7743 72.5111 69.8231 84.3498 66.7799 60.1174 52.2432 46.1302 42.2161 41.4762 41.2744 38.6537 36.4882 30.2326 26.2916 25.3189 25.011 23.9876 23.9797 22.9195 21.2508 20.4285 19.9645 19.1409 18.1189 17.3119 15.7802 10.2903 9.58118 9.34487 8.78963 9.29943 8.39097 7.62276 7.04863 6.65079 5.88402 4.92671 4.87128 4.91476 5.8917 4.83365 4.33133 3.97685 3.52054 3.49545 3.40651 3.29245 3.29236 3.0598 3.63473 3.02832
threshold=3.297454112770398 3.693090667063252 5.1488421637163917 3.8768790448237795 2.680448028830889 6.2250000000000005 2.5385183711115036 3.693090667063252 2.5385183711115036 3.9515558652552287 3.8768790448237795 3.8722631206127449 3.9515558652552287 3.7958256902531811 5.1488421637163917 3.0382463972163127 3.8174209150822631 -1.0000000180025095e-35 2.4799292397069936 3.7958256902531811 -1.0000000180025095e-35 3.9515558652552287 -1.0000000180025095e-35 -1.0000000180025095e-35 3.7958256902531811 4.1919113024992471 3.7958256902531811 3.9799398714758145 3.0870791889639491 4.760105925251783 -1.0000000180025095e-35 -0.22252093395631442 -1.0000000180025095e-35 4.1358661007158295 4.1919113024992471 -1.0000000180025095e-35 4.760105925251783 4.626133316688656 2.6470379687772181 2.5385183711115036 3.7958256902531811 5.1488421637163917 4.1358661007158295 -0.22252093395631442 1.0000000180025095e-35 3.9326509574309525 5.1250000000000009 3.7958256902531811 -0.22252093395631442 2.0750000000000006 2.3680933138049798 3.7958256902531811 3.6295853134807134 3.0359584082919864 3.9515558652552287 -0.22252093395631442 4.4893792251054743 1.0000000180025095e-35 5.3750000000000009 4.1919113024992471 4.025006223570962 4.1358661007158295 3.8722631206127449
decision_type=2 2 2 2 2 2 2 2 2 2 2 2 2 2 2 2 2 2 2 2 2 2 2 2 2 2 2 2 2 2 2 2 2 2 2 2 2 2 2 2 2 2 2 2 2 2 2 2 2 2 2 2 2 2 2 2 2 2 2 2 2 2 2
left_child=2 3 7 15 18 11 25 22 20 17 13 12 29 14 31 35 23 57 32 43 40 55 33 -13 37 44 -17 -12 -25 48 59 62 -5 49 53 38 -14 -7 -2 -35 -9 42 -15 -8 -4 -36 -23 -19 -6 -1 -51 -52 -33 -32 -34 -20 -26 -10 -56 -11 61 -21 -3
right_child=1 10 6 4 5 24 19 8 9 30 27 16 36 41 -16 26 -18 47 21 60 -22 46 -24 28 56 -27 -28 -29 -30 -31 34 52 54 39 45 -37 -38 -39 -40 -41 -42 -43 -44 -45 -46 -47 -48 -49 -50 50 51 -53 -54 -55 58 -57 -58 -59 -60 -61 -62 -63 -64
leaf_value=-0.095475001245737101 -0.085706248924136183 0.011412497490644458 -0.013437497377395635 -0.033012502506375309 -0.031725002139806759 0.038525009185075759 0.02352499964833259 -0.066193754583597192 -0.013046872735023486 0.0018624959588050773 0.043050005495548251 0.036337509512901316 -0.0034812452271580697 0.031824991166591654 0.05336249095201491 -0.02794687774032354 0.046337499976158152 -0.036443747788667671 -0.03288124874979257 0.026387495219707492 -0.064450004771351807 -0.0068749949336051833 -0.081724997669458399 -0.014137497678399081 0.078662489533424362 0.0045124956965446389 -0.0071656235754489874 0.14290000064671041 0.010324998557567612 -0.0095500022768974409 -0.014987497627735125 -0.00066874989867209416 -0.072556251160800458 -0.063475004941225072 0.003512494862079607 -0.072946876548230649 0.016337504744529729 0.0085250020325183806 -0.0332500022649765 -0.027443745046854019 -0.030687501907348636 0.086400004982948295 0.044987500131130224 0.007987500339746479 -0.022937500238418587 -0.0052374950051307769 0.0063375023603439388 -0.025424999535083773 -0.032724997311830539 -0.10547499766945841 -0.065475000053644192 -0.042975000053644186 0.0085125020146369808 -0.014749997854232789 -0.052806252412498006 -0.038781247623264792 0.039281249165534972 -0.017350004404783247 -0.032218750059604638 0.011518750056624406 0.044887500226497658 0.044887500226497658 0.024837500125169765
leaf_weight=135 130 114 130 155 121 100 109 144 106 119 103 109 248 368 227 107 159 496 104 143 891 116 2347 150 168 111 172 3908 117 187 183 181 218 118 207 880 179 116 193 228 203 320 534 168 183 136 111 159 155 101 178 151 138 104 112 144 220 149 108 144 113 185 101
leaf_count=135 130 114 130 155 121 100 109 144 106 119 103 109 248 368 227 107 159 496 104 143 891 116 2347 150 168 111 172 3908 117 187 183 181 218 118 207 880 179 116 193 228 203 320 534 168 183 136 111 159 155 101 178 151 138 104 112 144 220 149 108 144 113 185 101
internal_value=-0.000610636 0.0188546 -0.028269 -0.0148176 -0.00372942 0.00933958 0.0140105 -0.0359343 -0.0273759 -0.0179978 0.0445779 -0.00129825 -0.0113483 0.0354766 0.0235874 -0.0379892 0.0154206 -0.0307692 -0.0285581 0.0306407 -0.0410339 -0.0169474 -0.0439227 0.00452128 0.0344371 -0.0141509 -0.0159498 0.0490775 -0.00543071 -0.025054 -0.0049832 0.0127341 -0.0378583 -0.0351811 -0.0101587 -0.0431006 0.00351288 0.0194444 -0.0329721 -0.0257225 -0.0263689 0.0428805 0.0403548 0.015343 -0.0215655 -0.00218659 -0.00154185 -0.0382443 -0.0344203 -0.0409735 -0.0383721 -0.0354103 0.00454545 -0.0196864 -0.043379 -0.0310484 0.0427835 -0.0115686 -0.0386364 0.00741445 0.0402494 0.0378049 0.0248837
internal_weight=18014 10573 7441 4579 3097 2029 1142 6299 3041 1803 5994 1425 890 1983 761 1482 535 910 1068 718 1238 475 3258 376 604 424 279 4011 267 463 893 534 593 911 630 1203 427 216 323 346 347 1222 902 277 313 343 227 655 276 565 430 329 319 287 438 248 388 255 220 263 441 328 215
internal_count=18014 10573 7441 4579 3097 2029 1142 6299 3041 1803 5994 1425 890 1983 761 1482 535 910 1068 718 1238 475 3258 376 604 424 279 4011 267 463 893 534 593 911 630 1203 427 216 323 346 347 1222 902 277 313 343 227 655 276 565 430 329 319 287 438 248 388 255 220 263 441 328 215
is_linear=0
shrinkage=0.05


Tree=3
num_leaves=64
num_cat=0
split_feature=5 9 9 4 9 5 5 9 10 5 8 8 5 9 8 9 0 3 0 8 0 0 8 8 8 5 10 4 8 10 7 10 5 0 1 0 8 0 4 10 8 5 0 9 8 8 7 10 0 0 4 7 5 8 1 4 10 5 5 10 8 2 4
split_gain=3793.2 3598.78 930.526 480.016 246.234 236.787 194.729 173.202 171.712 162.347 133.039 112.886 98.3859 73.3289 65.3817 81.2878 52.8879 51.9127 46.4343 44.0562 41.736 37.7095 31.6063 30.951 23.9725 23.2495 36.9155 22.6301 22.298 20.9577 20.6991 26.6041 20.4105 19.6901 19.559 19.3542 14.9686 14.2769 12.4212 10.5945 9.9059 8.69722 8.0694 7.93678 8.8165 7.25965 6.89509 11.6407 6.80803 6.34323 6.20355 5.92952 5.80178 5.51209 5.28986 5.11045 7.09869 5.00769 3.92446 3.89206 3.85545 3.40651 2.88053
threshold=3.297454112770398 3.9799398714758145 5.1488421637163917 6.1250000000000009 2.3680933138049798 3.8768790448237795 2.5385183711115036 2.3680933138049798 3.693090667063252 2.5385183711115036 3.9515558652552287 3.9515558652552287 3.8768790448237795 3.0382463972163127 3.7958256902531811 5.1488421637163917 -1.0000000180025095e-35 0.93301270189221952 -1.0000000180025095e-35 3.7958256902531811 -1.0000000180025095e-35 -1.0000000180025095e-35 3.9515558652552287 4.1358661007158295 4.1919113024992471 4.6811597513740617 3.0400572460354396 7.3250000000000011 4.1919113024992471 3.0870791889639491 3.9326509574309525 2.6858553628957198 4.609021289827445 -1.0000000180025095e-35 -0.22252093395631442 -1.0000000180025095e-35 4.1358661007158295 -1.0000000180025095e-35 7.1750000000000016 2.6470379687772181 3.7958256902531811 2.5385183711115036 -1.0000000180025095e-35 5.1488421637163917 4.1358661007158295 3.529628600370712 3.8722631206127449 2.680448028830889 1.0000000180025095e-35 -1.0000000180025095e-35 3.8250000000000006 3.8722631206127449 4.6811597513740617 3.7958256902531811 -0.22252093395631442 2.6250000000000004 2.7113616425029634 3.0359584082919864 3.6295853134807134 5.7116989357972363 4.1358661007158295 1.0000000180025095e-35 4.6250000000000009
decision_type=2 2 2 2 2 2 2 2 2 2 2 2 2 2 2 2 2 2 2 2 2 2 2 2 2 2 2 2 2 2 2 2 2 2 2 2 2 2 2 2 2 2 2 2 2 2 2 2 2 2 2 2 2 2 2 2 2 2 2 2 2 2 2
left_child=2 3 8 5 38 13 24 35 17 20 16 18 14 33 15 34 32 21 61 54 40 36 27 -15 48 30 -27 -6 37 45 49 -32 -9 39 -3 -7 55 -13 -5 -2 -10 -38 -30 44 50 -18 62 -48 -4 -12 -16 -44 -24 -20 -8 -1 -57 -39 -36 60 -21 -11 -47
right_child=1 12 6 4 22 7 19 10 9 11 25 28 -14 23 43 -17 29 -19 53 59 -22 -23 52 -25 -26 26 -28 -29 42 -31 31 -33 -34 -35 58 -37 41 57 -40 -41 -42 -43 51 -45 -46 46 47 -49 -50 -51 -52 -53 -54 -55 -56 56 -58 -59 -60 -61 -62 -63 -64
leaf_value=-0.078201247607171537 -0.081420936477929376 0.015170629636943335 -0.012765622508525844 -0.059297191968932732 0.011386246754229079 -0.032774372010678059 0.022348749665915959 -0.009566870468854894 -0.062884066854417331 -0.012394529098272312 0.004761557349935175 0.0017693711608648189 0.1357550006143749 -0.019191562856733804 0.03486031299903989 0.05069436640441416 -0.037715469822846362 -0.035440310482680815 -0.034621560399234287 0.025068120458722112 -0.061227504532784228 -0.07888874778598548 0.069999996805191034 0.0061582768991589546 0.0042868709117174003 0.0060206272423267487 0.040897505220770847 0.041598753957450385 0.010942812553793181 -0.010066252204775817 -0.0024875005036592459 0.045477494564652457 0.021915005239844333 -0.06929953272081911 0.0016834398552775466 -0.059357970039732748 -0.061301252250373375 -0.014238122746348371 -0.015097192204371092 -0.031587502151727676 -0.029153126811981213 -0.029352815245091923 0.0035868704766035099 0.082080004733800893 0.044763124862313292 -0.028838752274215243 -0.033314685209468009 -0.0063556273810565283 -0.021790625226497662 -0.0050821846034377789 0.026058741119503973 -0.0044881207197904564 0.041698436611890793 -0.024153749558329586 0.0075881253227591539 -0.065201251362264179 -0.048576245342195047 -0.014012497961521153 0.0080868769139051284 0.042643125215172772 0.042643125215172772 -0.01648250418454409 -0.025176244889199742
leaf_weight=291 130 212 130 105 202 131 109 153 144 106 101 119 3908 197 234 227 120 170 496 143 891 2225 188 111 111 166 125 149 144 159 134 120 104 880 173 350 108 183 103 193 203 210 173 320 523 103 102 101 183 202 127 170 175 159 168 117 137 104 138 113 185 149 107
leaf_count=291 130 212 130 105 202 131 109 153 144 106 101 119 3908 197 234 227 120 170 496 143 891 2225 188 111 111 166 125 149 144 159 134 120 104 880 173 350 108 183 103 193 203 210 173 320 523 103 102 101 183 202 127 170 175 159 168 117 137 104 138 113 185 149 107
internal_value=-0.000516265 0.0187317 -0.0278659 -0.0138081 0.0185466 -0.0216812 0.0136602 -0.0115013 -0.0353945 -0.0268497 -0.00436839 -0.0172768 0.0448823 -0.0370285 0.0357216 0.0241333 -0.0172287 -0.0433702 -0.0296703 0.0295265 -0.0407916 -0.044851 0.032493 -0.0152597 -0.0132075 0.0100236 0.0214777 0.0217949 -0.00464726 -0.024422 0.0040395 0.0145669 0.00214008 -0.0426018 0.0132887 -0.0381497 -0.0359791 -0.0133005 -0.0293269 -0.0320433 -0.0260807 -0.0273585 0.00256674 0.0429402 0.0404977 -0.0291745 -0.0260291 -0.0194581 -0.0202875 -0.00478548 0.0344875 -0.0016035 0.0428375 -0.0367176 0.0138989 -0.0410092 -0.0358268 -0.019338 0.00530547 0.0393424 0.0365854 -0.0115686 -0.032381
internal_weight=18014 10573 7441 4711 922 3789 1142 2278 6299 3041 1797 1803 5862 1511 1954 750 949 3258 910 718 1238 3088 714 308 424 848 291 351 893 692 557 254 257 1203 523 481 863 406 208 323 347 318 487 1204 884 533 413 203 313 303 361 343 363 655 277 545 254 287 311 441 328 255 210
internal_count=18014 10573 7441 4711 922 3789 1142 2278 6299 3041 1797 1803 5862 1511 1954 750 949 3258 910 718 1238 3088 714 308 424 848 291 351 893 692 557 254 257 1203 523 481 863 406 208 323 347 318 487 1204 884 533 413 203 313 303 361 343 363 655 277 545 254 287 311 441 328 255 210
is_linear=0
shrinkage=0.05


Tree=4
num_leaves=64
num_cat=0
split_feature=5 11 11 4 5 5 11 9 11 5 11 5 3 0 11 9 0 0 4 11 11 0 0 5 11 0 0 8 5 11 11 11 5 0 8 5 4 5 11 11 8 9 8 7 10 6 10 5 6 7 10 11 11 0 7 11 5 10 6 11 7 10 5
split_gain=3695.7 3603.44 972.525 436.888 224.299 206.412 210.128 199.473 177.13 134.527 211.362 134.465 86.0838 71.1895 55.1034 52.0248 38.6559 37.2752 31.8319 31.7963 31.7202 30.4298 29.0539 28.1299 26.81 26.3057 26.0401 29.0192 23.9613 21.1339 20.0936 19.8512 14.4819 12.8043 11.7273 10.036 9.70322 9.66592 8.85427 7.65819 7.35582 7.29944 6.96249 6.21736 6.19673 6.55074 5.73905 5.63791 5.31818 5.30275 5.10513 5.09464 4.95924 4.70958 4.44198 4.24886 4.23801 4.12667 3.77542 3.37416 3.32345 3.51937 3.09448
threshold=3.297454112770398 3.4447049554848332 5.1248781796567631 6.1250000000000009 2.5385183711115036 3.8768790448237795 2.5855477754495282 2.3680933138049798 4.4860084503720268 3.8768790448237795 4.6888253271550946 2.5385183711115036 0.93301270189221952 -1.0000000180025095e-35 5.3604969910918303 3.9799398714758145 -1.0000000180025095e-35 -1.0000000180025095e-35 5.3250000000000011 2.6745924164059312 5.6215725017286333 -1.0000000180025095e-35 -1.0000000180025095e-35 4.4893792251054743 2.9927348747868261 -1.0000000180025095e-35 -1.0000000180025095e-35 4.1919113024992471 2.874166744753174 2.3747185722904001 3.6433078509430619 2.7830831038071611 4.609021289827445 -1.0000000180025095e-35 4.1919113024992471 4.6811597513740617 7.1750000000000016 2.8682832386041182 2.328653222984828 3.2260077333115973 3.529628600370712 5.1488421637163917 3.9515558652552287 4.0074508347754483 4.4103431785532168 3.9075768722582347 2.680448028830889 2.5385183711115036 4.025006223570962 3.8722631206127449 4.4103431785532168 3.0919156618309214 2.9213356962648498 1.0000000180025095e-35 3.9326509574309525 3.2260077333115973 4.6811597513740617 4.4103431785532168 3.8174209150822631 4.2485396955780379 3.8485519699296722 2.2036826479626241 3.0516018240714673
decision_type=2 2 2 2 2 2 2 2 2 2 2 2 2 2 2 2 2 2 2 2 2 2 2 2 2 2 2 2 2 2 2 2 2 2 2 2 2 2 2 2 2 2 2 2 2 2 2 2 2 2 2 2 2 2 2 2 2 2 2 2 2 2 2
left_child=2 3 8 5 17 21 16 36 12 10 30 22 13 19 53 18 38 -4 -11 -1 58 24 -10 48 46 -13 35 32 55 60 -3 -25 54 -32 44 49 -5 -14 -7 -15 -35 -12 -16 51 -27 -46 -2 -41 -9 -8 -42 -30 -23 -6 -28 -21 -31 -57 -19 62 -18 -62 -49
right_child=1 9 4 7 14 6 26 23 11 15 41 25 37 39 42 -17 29 20 -20 28 -22 52 -24 31 -26 34 27 -29 43 56 33 -33 -34 40 -36 -37 -38 -39 -40 47 50 -43 -44 -45 45 -47 -48 59 -50 -51 -52 -53 -54 -55 -56 57 -58 -59 -60 -61 61 -63 -64
leaf_value=-0.078291186478510508 -0.077581139716617786 -0.0079246354020386708 0.0090725345186889027 -0.056332332370486099 0.016244426910988975 -0.036566910687871282 -6.4015606138867481e-05 0.034518821027949453 -0.036695473213195821 0.01208299837350848 0.040374969000667331 0.0024688079924136243 -0.042646734712794433 -0.083694312780871985 0.021739719216078514 0.12896725058365616 -0.055449228540780028 -0.025766127407737094 0.055538249001055973 -0.066209938083365547 -0.0049392175608873436 -0.078362678398098809 -0.046903627038188289 0.0075294395931810205 -0.017038884749375285 -0.016099376395344745 -0.016127145547140408 0.0064793931323569257 -0.035516192286983106 -0.031501450977157799 0.031824584440067395 0.033604445809945482 -0.00066790649205448202 0.0011395890391617924 -0.0035262147910892997 0.034632103414237503 -0.014342332594152541 -0.0036682997269183561 -0.0064979083961248301 -0.071903627038188297 0.01300127865150571 0.063159657620936602 0.040510968954414132 -0.010845872180387373 -0.0070311829476803703 -0.015726223630458103 -0.044719057715684178 -0.042296734465435165 0.07122936521649359 0.024464593287706383 0.0076825330682098736 -0.023885166972652083 -0.034612679590191701 0.0052075309582054535 -0.0092332990696467384 -0.03513708061773331 -0.021654284350415699 -0.057483613696470863 -0.035766129791922889 -0.028996736986711638 -0.060591789118787265 -0.036031418541418406 -0.0386943080125004
leaf_weight=387 133 117 111 105 146 113 109 147 178 189 703 287 127 1765 185 3908 181 107 157 136 168 646 476 163 110 140 161 188 100 187 198 189 208 130 161 105 103 107 145 514 182 547 344 101 145 217 124 332 117 109 226 211 349 192 150 142 119 109 109 309 122 133 135
leaf_count=387 133 117 111 105 146 113 109 147 178 189 703 287 127 1765 185 3908 181 107 157 136 168 646 476 163 110 140 161 188 100 187 198 189 208 130 161 105 103 107 145 514 182 547 344 101 145 217 124 332 117 109 226 211 349 192 150 142 119 109 109 309 122 133 135
internal_value=-0.000399689 0.0185993 -0.0273955 -0.0172438 0.010793 -0.0251769 -0.0150739 0.0154126 -0.0359516 0.0423706 0.0320257 -0.0216958 -0.0410615 -0.0426904 0.0261246 0.0474847 -0.0314 -0.0160606 0.0289017 -0.0322934 -0.0234375 -0.0402349 -0.0391437 0.0297078 -0.0279292 -0.00968421 0.000776699 -0.00459689 -0.0265957 -0.0371968 0.012837 0.0204545 -0.0106936 0.0158967 -0.0151584 0.0125387 -0.0269231 -0.0115385 -0.0147287 -0.0467267 0.0118959 0.04512 0.0362004 -0.0182039 -0.0189243 -0.0154696 -0.0367704 -0.0437984 0.0420455 0.00642202 0.0151961 -0.0217042 -0.0447739 0.010355 -0.0175241 -0.0355297 -0.0271242 -0.0316733 -0.0361111 -0.0411082 -0.0442661 -0.0405882 -0.0437901
internal_weight=18014 10573 7441 4216 1362 3392 2030 824 6079 6357 2103 1604 4475 4241 867 4254 1000 495 346 1186 384 1362 654 616 367 950 1030 707 799 742 853 352 519 736 663 323 208 234 258 3055 538 1250 529 412 502 362 257 1290 264 218 408 311 995 338 311 387 306 251 216 776 436 255 467
internal_count=18014 10573 7441 4216 1362 3392 2030 824 6079 6357 2103 1604 4475 4241 867 4254 1000 495 346 1186 384 1362 654 616 367 950 1030 707 799 742 853 352 519 736 663 323 208 234 258 3055 538 1250 529 412 502 362 257 1290 264 218 408 311 995 338 311 387 306 251 216 776 436 255 467
is_linear=0
shrinkage=0.05


Tree=5
num_leaves=64
num_cat=0
split_feature=5 10 9 4 9 5 10 10 5 5 7 5 0 3 9 9 5 9 0 0 6 7 0 0 0 5 9 0 0 6 9 5 0 1 5 5 0 10 3 10 0 1 10 7 0 2 5 10 3 0 6 7 4 4 4 10 5 10 5 3 2 3 0
split_gain=3618.38 3253.35 837.72 422.515 208.699 203.014 198.166 184.447 161.766 128.207 123.127 115.097 85.1053 72.1158 70.8233 66.2879 58.6707 61.1854 43.9659 41.6757 32.604 40.3763 25.9217 24.648 24.2164 23.236 20.6231 18.9242 18.1396 16.6197 14.7934 14.2215 13.9529 10.9787 9.94759 8.17763 6.93523 6.6528 6.52056 6.36739 5.74012 5.68382 8.96225 5.58195 5.02136 3.86838 5.40556 4.9541 3.83145 3.80772 3.77504 3.60874 3.36799 2.8849 3.52046 2.8724 2.80892 2.78659 2.74831 2.98682 2.69334 2.54647 2.48064
threshold=3.297454112770398 3.693090667063252 5.1488421637163917 6.0750000000000011 2.3680933138049798 2.5385183711115036 2.6858553628957198 3.693090667063252 2.5385183711115036 3.8768790448237795 3.8485519699296722 3.8768790448237795 -1.0000000180025095e-35 0.93301270189221952 5.1488421637163917 3.0382463972163127 3.8768790448237795 2.3680933138049798 -1.0000000180025095e-35 -1.0000000180025095e-35 3.9075768722582347 3.9326509574309525 -1.0000000180025095e-35 -1.0000000180025095e-35 -1.0000000180025095e-35 4.4893792251054743 3.9799398714758145 -1.0000000180025095e-35 -1.0000000180025095e-35 3.7482020034892929 2.3680933138049798 2.5385183711115036 1.0000000180025095e-35 -0.22252093395631442 5.1582534600528875 5.2627035316654629 -1.0000000180025095e-35 2.9448366796781063 0.6830127018922193 2.9850627697798671 -1.0000000180025095e-35 1.0000000180025095e-35 4.4103431785532168 3.9326509574309525 1.0000000180025095e-35 1.0000000180025095e-35 3.6969977743015887 4.5404033381702336 -0.68301270189221952 0.87837969732492682 3.7017046651919125 4.0074508347754483 5.1750000000000016 3.1750000000000007 2.6750000000000007 4.3020896800688755 4.5820251536149055 4.4103431785532168 4.2656660069855237 -0.5 -0.5 0.25000000000000017 0.6078576107927941
decision_type=2 2 2 2 2 2 2 2 2 2 2 2 2 2 2 2 2 2 2 2 2 2 2 2 2 2 2 2 2 2 2 2 2 2 2 2 2 2 2 2 2 2 2 2 2 2 2 2 2 2 2 2 2 2 2 2 2 2 2 2 2 2 2
left_child=2 3 7 6 -5 33 16 13 19 15 23 14 41 18 27 24 40 22 30 57 21 -12 -18 -11 -8 39 -13 -3 -19 -23 -1 37 -17 -4 -25 44 -7 -32 -21 -6 -2 42 -10 -33 -27 49 47 50 -14 60 -47 53 -30 54 61 56 58 -9 -28 -60 -29 -50 -56
right_child=1 11 5 4 25 36 9 8 12 10 20 26 48 -15 -16 32 17 28 -20 38 -22 29 -24 34 -26 35 55 45 52 -31 31 43 -34 -35 -36 -37 -38 -39 -40 -41 -42 -43 -44 -45 -46 46 -48 -49 51 -51 -52 -53 -54 -55 62 -57 -58 -59 59 -61 -62 -63 -64
leaf_value=-0.083720612715121392 -0.060370834939138973 0.042606216497518126 -0.0045093498656060497 -0.03064208863531892 0.032792879976551982 0.04122773348177225 -0.032818677674712603 -0.030976759427165625 -0.010817535651031874 0.0012266850638994688 -0.0099857945739179957 0.04018733880702037 -0.021712408086769289 -0.023821900360148397 0.060230516633115717 0.0061215946454890148 -0.02956841068081836 0.0017188504491671974 -0.073259595949735509 -0.055689697833536195 0.057172789413987207 0.0096988415577933251 -0.053799704130216022 -0.015798859864084525 -0.050819546892181967 0.02833983812115716 0.089943893117887933 0.018446983969420218 -0.017015475880275476 0.038576950425176892 -0.070479335666572704 -0.03790966792234407 -0.013813105174435758 -0.017517556439336401 -0.0035357870756536959 0.029416236545104557 0.022727728474982081 -0.048163083401447176 -0.050492815563259658 0.070957338462010022 -0.076575794427529917 0.01147219742145017 0.0053483837840594406 -0.030857878459926692 0.013537818385358903 0.018356215782262385 0.022367849224966031 0.018143710262872294 -0.017728037718050184 0.022140992860868569 0.012351214718930414 -0.021716635582942526 -0.012574994150612985 -0.022519406615942719 -0.011534402861308314 0.13151889787433854 0.1035188971590828 -0.035860699194908155 0.03960951793013328 0.053518897159082805 0.029643725521661324 -0.010852846972532571 -0.011449097651131446
leaf_weight=214 188 394 164 199 147 209 131 124 153 207 115 111 411 177 538 130 132 140 2257 674 127 149 365 394 398 112 133 144 249 104 134 268 156 262 121 168 519 112 190 139 485 114 253 154 132 146 168 245 106 102 109 236 107 133 153 3311 200 226 108 142 119 104 151
leaf_count=214 188 394 164 199 147 209 131 124 153 207 115 111 411 177 538 130 132 140 2257 674 127 149 365 394 398 112 133 144 249 104 134 268 156 262 121 168 519 112 190 139 485 114 253 154 132 146 168 245 106 102 109 236 107 133 153 3311 200 226 108 142 119 104 151
internal_value=-0.000229751 0.0186228 -0.0267938 -0.0130033 0.0177815 0.0123917 -0.0204705 -0.0339218 -0.025 -0.00999016 0.000287592 0.0429648 -0.0155458 -0.0420688 0.0330534 -0.0253374 -0.0332533 -0.0255287 -0.0438197 -0.0391269 0.0194949 0.0119565 -0.0379276 -0.0128809 -0.0358223 0.030659 0.0478277 0.0272249 -0.0131048 0.0231225 -0.0343537 -0.0306886 -0.00594406 -0.0150235 -0.0187379 0.0230583 0.0284341 -0.0402439 -0.0450231 0.0416084 -0.0446508 0.00153846 -0.00123153 -0.0251185 0.0172131 0.0236689 0.0214072 0.0188 -0.0224111 0.0278082 0.0139216 -0.0205549 -0.0191011 -0.0186244 -0.0169261 0.0484335 0.0451973 -0.0245714 0.0426893 0.0396 0.0309886 -0.0219048 -0.0134868
internal_weight=18063 10565 7498 4595 897 1154 3698 6344 3028 2032 1217 5970 1814 3316 1965 815 1666 993 3139 1214 495 368 497 722 529 698 4005 1427 496 253 882 668 286 426 515 412 728 246 864 286 673 520 406 422 244 1033 668 500 1294 365 255 883 356 647 514 3894 583 350 383 250 263 210 304
internal_count=18063 10565 7498 4595 897 1154 3698 6344 3028 2032 1217 5970 1814 3316 1965 815 1666 993 3139 1214 495 368 497 722 529 698 4005 1427 496 253 882 668 286 426 515 412 728 246 864 286 673 520 406 422 244 1033 668 500 1294 365 255 883 356 647 514 3894 583 350 383 250 263 210 304
is_linear=0
shrinkage=0.05


Tree=6
num_leaves=64
num_cat=0
split_feature=5 11 11 5 11 5 11 11 5 5 5 5 3 11 7 6 5 5 11 11 11 8 7 5 11 5 11 11 11 5 1 9 11 1 1 1 5 11 11 1 2 7 5 2 1 8 11 7 7 5 3 11 1 11 3 1 8 1 11 5 1 11 5
split_gain=3516.49 3273.55 902.517 388.466 310.627 199.114 187.297 153.688 161.777 124.856 99.8312 105.746 93.0977 68.6465 51.2574 70.7223 46.0409 38.0877 38.0755 35.4098 34.922 32.513 29.924 28.252 27.3351 26.9235 22.1812 22.0276 21.0266 17.5628 15.641 12.9536 11.5735 11.4563 10.6406 10.262 9.73659 8.61659 8.41996 8.22557 7.64595 7.46452 7.44608 7.41657 7.33685 6.66084 6.22001 5.55169 5.21699 4.93859 5.15583 5.11581 4.89083 4.8012 5.50676 4.74317 4.63964 4.52645 4.51869 4.31784 3.97996 3.94703 4.72894
threshold=3.297454112770398 3.4447049554848332 5.1248781796567631 3.8768790448237795 2.5164918393013127 2.5385183711115036 4.4860084503720268 4.4860084503720268 3.8768790448237795 2.5385183711115036 4.1885672108548855 5.2627035316654629 0.93301270189221952 2.2036258632932877 3.8485519699296722 3.9075768722582347 4.2656660069855237 4.6811597513740617 3.0307523450026026 5.3604969910918303 5.6215725017286333 3.9515558652552287 4.0074508347754483 2.5385183711115036 3.0919156618309214 3.8768790448237795 4.6888253271550946 2.6745924164059312 2.7830831038071611 4.7351896754076668 0.81174490092936691 3.0382463972163127 4.6888253271550946 -0.22252093395631442 -0.22252093395631442 -0.22252093395631442 4.2656660069855237 5.1248781796567631 3.0919156618309214 -0.22252093395631442 1.0000000180025095e-35 3.8485519699296722 4.3301805277870571 -0.5 -0.22252093395631442 4.1919113024992471 3.0919156618309214 3.8245267143580111 3.7728069409470062 3.0118910861714725 -0.24999999999999997 4.9802729696912165 -0.22252093395631442 4.2485396955780379 1.0000000180025095e-35 -0.22252093395631442 3.9515558652552287 1.0000000180025095e-35 2.2036258632932877 2.9725346405605659 -0.22252093395631442 2.6745924164059312 2.9504514795801535
decision_type=2 2 2 2 2 2 2 2 2 2 2 2 2 2 2 2 2 2 2 2 2 2 2 2 2 2 2 2 2 2 2 2 2 2 2 2 2 2 2 2 2 2 2 2 2 2 2 2 2 2 2 2 2 2 2 2 2 2 2 2 2 2 2
left_child=2 3 6 24 13 20 12 8 40 44 -6 14 18 42 27 28 -15 21 61 57 34 36 -23 55 31 26 -9 -12 -16 60 32 58 -11 -30 -4 59 -10 -28 -14 -26 43 -31 -5 -3 -8 52 48 -34 -29 50 -49 -51 -21 -42 -55 -20 -13 -7 -2 -25 -18 -1 -63
right_child=1 7 5 4 10 19 9 25 17 30 11 56 38 16 15 -17 29 -19 23 45 -22 22 -24 35 39 -27 37 46 33 41 -32 -33 47 -35 -36 -37 -38 -39 -40 -41 53 -43 -44 -45 -46 -47 -48 49 -50 51 -52 -53 -54 54 -56 -57 -58 -59 -60 -61 -62 62 -64
leaf_value=-0.084596619728527417 -0.10022104205075309 0.0048381198597222345 -0.011693333761487623 -0.028276954010309788 0.061374804785305825 0.011601426703960062 -0.0348239583031279 0.021978524088479025 0.1969429522653659 -0.013890128055848196 -0.034203527808365775 0.025285772589756374 -0.038980261388811645 0.017394295586039766 -0.010889531546471255 0.035841323561866027 -0.028592102217978612 0.086942937960251154 -0.058533786257378068 0.034007695094476258 0.00042174950320998943 -0.0050792166407551687 0.057982032717079302 -0.030518684394585618 -0.02146351486747038 0.12694294749699431 0.035475910441013794 -0.011975525615304594 0.012863784934640111 -0.018727934521374924 -0.014099861171322581 -0.018943518948579954 -0.0047361540427301009 -0.001669369317109859 -0.028036912037795614 -0.033006552153065243 0.036842941810711197 0.058449034858676398 0.0023928273455314343 -0.026053260836491111 0.0009405198604000687 -0.0028551343082044659 -0.056591394795270492 0.017767035130831201 -0.041420807984929392 0.039067781937177082 0.00033914968521591153 -0.005710945745352281 -0.0054577170452974949 -0.00084893789306283995 0.00063129712867924246 0.0095500960720501741 0.019294596814381705 0.0035968064392868371 0.01516465645205517 -0.070023955907021179 0.046517442279204305 0.0098756931894439914 -0.054653568385282306 -0.028289679693330096 -0.027028468867080813 -0.072151669412026512 -0.045846622112713203
leaf_weight=1440 255 136 109 108 170 184 267 183 179 199 104 103 124 100 207 172 144 589 364 142 205 103 100 222 122 2760 593 107 181 102 168 113 146 241 171 798 505 628 107 155 205 130 416 109 390 164 147 108 167 135 121 102 226 121 116 507 108 144 717 323 169 404 228
leaf_count=1440 255 136 109 108 170 184 267 183 179 199 104 103 124 100 207 172 144 589 364 142 205 103 100 222 122 2760 593 107 181 102 168 113 146 241 171 798 505 628 107 155 205 130 416 109 390 164 147 108 167 135 121 102 226 121 116 507 108 144 717 323 169 404 228
internal_value=-0.00024636 0.0183389 -0.0264337 -0.0156678 -0.00525035 0.0106691 -0.0345441 0.0411174 0.0303051 -0.0200489 0.00834798 0.00432661 -0.0397941 -0.0251069 -0.000904977 0.00705368 -0.014186 0.0396341 -0.0414606 0.0251163 -0.0149485 0.0330891 0.0155172 -0.0369015 -0.0376652 0.0467339 0.0410969 -0.0130476 -0.000715421 -0.0199083 -0.0087334 -0.0412442 -0.00585697 0.0056872 -0.0264286 -0.0323529 0.0383041 0.0435299 -0.00887446 -0.0236462 0.010262 -0.00948276 -0.0385496 0.0173469 -0.0369102 0.0330827 -0.00795724 -0.00245098 -0.0124088 0.000214592 -0.00502183 0.00527426 0.0293478 0.00633484 0.0111814 -0.043915 0.0372038 0.0121951 -0.043107 -0.0270642 -0.0276358 -0.046332 -0.043038
internal_weight=18063 10565 7498 4238 2876 1345 6153 6327 2163 1636 1707 1537 4517 1169 1326 801 645 1476 4286 860 485 887 203 2214 1362 4164 1404 525 629 545 979 1085 811 422 280 1343 684 1221 231 277 687 232 524 245 657 532 421 612 274 466 229 237 368 442 237 871 211 328 972 545 313 2072 632
internal_count=18063 10565 7498 4238 2876 1345 6153 6327 2163 1636 1707 1537 4517 1169 1326 801 645 1476 4286 860 485 887 203 2214 1362 4164 1404 525 629 545 979 1085 811 422 280 1343 684 1221 231 277 687 232 524 245 657 532 421 612 274 466 229 237 368 442 237 871 211 328 972 545 313 2072 632
is_linear=0
shrinkage=0.05


Tree=7
num_leaves=64
num_cat=0
split_feature=5 11 11 4 5 11 5 9 11 11 5 5 3 11 4 5 8 11 11 11 5 11 11 5 11 7 6 5 5 1 1 1 11 4 11 8 7 6 11 8 1 1 1 7 11 11 7 6 1 11 3 1 11 7 1 4 5 8 11 1 3 5 5
split_gain=3400.94 3143.92 859.016 395.867 187.112 179.536 175.061 172.245 166.813 150.604 159.876 124.43 88.1006 45.4731 38.1575 35.9043 36.6633 34.9207 33.1093 31.0891 30.3495 28.4607 28.0343 27.7845 20.9341 19.1949 53.2399 17.5323 14.8654 12.6924 11.1911 10.9976 10.7507 10.664 10.0034 9.051 8.66762 32.7151 8.41996 7.8304 7.76779 7.32677 7.22826 8.08098 7.17678 6.66692 6.41471 9.49443 6.32512 6.05336 8.18937 5.95652 5.62179 5.55169 5.19399 5.21789 5.0707 4.92244 7.77435 4.52645 4.45741 4.35511 4.14925
threshold=3.297454112770398 3.4447049554848332 5.1248781796567631 6.0250000000000012 2.5385183711115036 4.4860084503720268 3.8768790448237795 2.3680933138049798 2.5855477754495282 4.4860084503720268 3.8768790448237795 2.5385183711115036 0.93301270189221952 3.0307523450026026 5.5250000000000012 4.6811597513740617 3.9515558652552287 2.2036258632932877 5.6215725017286333 5.3604969910918303 3.8768790448237795 2.7830831038071611 2.9213356962648498 2.8526233873139666 5.1248781796567631 3.8485519699296722 3.7482020034892929 4.6811597513740617 4.4242467032267818 0.81174490092936691 -0.22252093395631442 -0.22252093395631442 4.6888253271550946 7.0750000000000011 4.6888253271550946 4.1919113024992471 3.8485519699296722 3.7482020034892929 3.0919156618309214 4.1919113024992471 1.0000000180025095e-35 -0.22252093395631442 -0.22252093395631442 3.8722631206127449 2.9213356962648498 4.2485396955780379 3.8485519699296722 3.7482020034892929 -0.22252093395631442 2.2036258632932877 0.6830127018922193 -0.22252093395631442 2.5855477754495282 3.8245267143580111 -0.22252093395631442 2.8250000000000006 4.5020061880434517 4.1919113024992471 4.2485396955780379 1.0000000180025095e-35 0.25000000000000017 4.9922548531444964 3.0118910861714725
decision_type=2 2 2 2 2 2 2 2 2 2 2 2 2 2 2 2 2 2 2 2 2 2 2 2 2 2 2 2 2 2 2 2 2 2 2 2 2 2 2 2 2 2 2 2 2 2 2 2 2 2 2 2 2 2 2 2 2 2 2 2 2 2 2
left_child=2 3 5 6 18 12 22 33 17 10 42 48 13 -1 15 16 -12 -8 31 59 24 28 49 51 34 35 44 -23 -9 32 57 -4 -13 -5 -11 61 40 -38 -14 54 -19 -24 43 -3 -27 -32 -44 -48 -7 -2 52 -15 -51 -34 -21 -56 -46 58 -25 -6 -36 -10 -55
right_child=1 9 4 7 19 11 8 21 25 20 14 29 38 23 -16 -17 -18 36 -20 39 -22 27 41 30 -26 26 -28 -29 -30 -31 45 -33 53 -35 60 -37 37 -39 -40 -41 -42 -43 46 -45 56 -47 47 -49 -50 50 -52 -53 -54 62 55 -57 -58 -59 -60 -61 -62 -63 -64
leaf_value=-0.075103992629957553 -0.095209989948215445 0.0063147750943657772 -0.011108667073413249 -0.042407073714884481 0.011021355368762066 -0.033082760387971512 -0.052780144296360826 0.033307266676446345 -0.012944774767535007 0.020879597884055068 0.028107052814486402 -0.013195621653055789 -0.037031248319371067 -0.053925912282770654 0.10759579106223859 0.072595800598981741 0.001192921571478145 -0.021490230563219151 0.00040066202804949218 0.032307310339752447 0.1205958001221446 0.054177573612106247 -0.023647598906198608 -0.038311829753728148 0.05552658311574258 -0.011490506957341596 0.035059632960940258 0.02852172119042902 0.0051840106353700181 -0.013394868112756454 -0.033011337896195737 -0.026635066435905831 -0.0044993463405936024 -0.016240724457265123 0.031666828262430967 0.0034090213902821299 -0.023741027602956322 0.011000460649061829 0.0022731859782548548 0.037114392840318235 -0.028680370906716737 -0.026255754091721286 0.0061341512233422657 0.016794936511736948 -0.0043846836063916707 -0.028210556479140048 0.0085652170800933469 -0.0030190297432871162 -0.039349767585682927 -0.060014329863167973 -0.046420894615180466 -0.062022762999251004 -0.043113205957169845 -0.0019787363599287565 0.023051612699271962 0.013108121724890421 0.0061078443969786907 -0.020037923748322962 -0.019294127560930352 0.009381908529971783 0.038289614001051603 -0.0031522628642848497 0.0047602950208755828
leaf_weight=2072 255 157 109 100 184 267 369 101 206 183 470 199 124 392 615 246 145 163 205 142 2760 186 188 212 628 148 177 184 193 168 468 171 146 103 370 118 250 106 107 164 113 272 175 120 126 268 108 127 390 308 127 569 212 229 117 109 103 169 136 144 223 130 237
leaf_count=2072 255 157 109 100 184 267 369 101 206 183 470 199 124 392 615 246 145 163 205 142 2760 186 188 212 628 148 177 184 193 168 468 171 146 103 370 118 250 106 107 164 113 272 175 120 126 268 108 127 390 308 127 569 212 229 117 109 103 169 136 144 223 130 237
internal_value=-0.000146709 0.0181306 -0.0259002 -0.0151958 0.0102974 -0.0338128 -0.0229457 0.0149366 -0.013564 0.0404536 0.0297503 -0.019621 -0.0389528 -0.040574 0.0390244 0.03223 0.0257724 -0.028022 -0.0145361 0.0243023 0.0460134 0.027259 -0.0367841 -0.0355917 0.0400285 0.000793651 0.00703971 0.0364865 0.0156463 -0.00832482 -0.0306864 -0.0257143 -0.00573366 -0.0253695 0.0345361 -0.00682819 -0.0208861 -0.0157303 -0.00887446 0.0317669 -0.0275362 -0.0267391 0.00982533 0.016065 -0.0035809 -0.0346467 0.00560976 0.000212766 -0.0364536 -0.0419069 -0.0393354 -0.0419875 -0.0421154 -0.00245098 0.0277174 0.0230088 0.00196507 -0.0250484 -0.0284483 0.0121951 0.0376897 -0.0110119 0.000214592
internal_weight=18063 10565 7498 4238 1345 6153 3371 867 2009 6327 2163 1636 4517 4286 1476 861 615 1001 485 860 4164 664 1362 2214 1404 1008 554 370 294 979 1253 280 811 203 776 454 632 356 231 532 276 460 687 277 377 736 410 235 657 902 647 961 520 612 368 226 229 517 348 328 593 336 466
internal_count=18063 10565 7498 4238 1345 6153 3371 867 2009 6327 2163 1636 4517 4286 1476 861 615 1001 485 860 4164 664 1362 2214 1404 1008 554 370 294 979 1253 280 811 203 776 454 632 356 231 532 276 460 687 277 377 736 410 235 657 902 647 961 520 612 368 226 229 517 348 328 593 336 466
is_linear=0
shrinkage=0.05


Tree=8
num_leaves=64
num_cat=0
split_feature=5 11 11 5 11 5 0 11 5 5 5 11 11 3 11 5 11 0 5 11 0 5 7 0 7 0 10 11 5 11 0 0 0 5 11 5 11 11 8 10 11 11 5 7 8 11 8 3 11 5 5 8 11 10 11 11 11 11 3 0 11 10 5
split_gain=3291.25 2995.92 807.571 360.995 284.688 209.092 160.224 156.922 171.191 96.9437 99.736 82.8584 70.7879 69.4275 68.0382 65.6846 63.245 61.249 49.2537 45.7029 43.0551 39.8486 35.4632 34.7013 33.7211 30.0804 29.3105 27.4494 25.5664 25.3311 22.9238 19.6032 19.4108 17.6579 17.652 24.7533 16.0507 15.5604 15.0917 12.7942 12.5793 12.1925 10.6313 9.75196 9.75166 7.90483 7.58197 8.66675 7.24983 6.96777 6.44534 6.369 6.23051 6.14603 5.83126 5.65351 5.26033 5.01898 4.72848 4.44972 4.00818 4.0028 3.84862
threshold=3.297454112770398 3.4447049554848332 4.9802729696912165 3.8768790448237795 2.5164918393013127 2.5385183711115036 -1.0000000180025095e-35 4.6888253271550946 3.8768790448237795 4.1885672108548855 5.2627035316654629 3.0307523450026026 4.6888253271550946 0.93301270189221952 5.3604969910918303 2.5385183711115036 2.2036258632932877 -1.0000000180025095e-35 4.2656660069855237 5.6215725017286333 -1.0000000180025095e-35 4.6811597513740617 3.8485519699296722 -1.0000000180025095e-35 3.9326509574309525 -1.0000000180025095e-35 2.7113616425029634 4.2485396955780379 2.5385183711115036 2.9927348747868261 -1.0000000180025095e-35 -1.0000000180025095e-35 -1.0000000180025095e-35 3.8768790448237795 3.0307523450026026 2.5385183711115036 2.7830831038071611 4.4860084503720268 3.7958256902531811 4.4103431785532168 2.9213356962648498 5.1248781796567631 4.7351896754076668 3.8722631206127449 4.1358661007158295 4.2485396955780379 3.7958256902531811 1.0000000180025095e-35 2.3747185722904001 2.5385183711115036 3.0359584082919864 4.3312211903042801 5.7802770025882797 2.680448028830889 4.2485396955780379 5.1248781796567631 3.6433078509430619 4.2485396955780379 -0.5 0.6078576107927941 4.4082624091190352 2.6858553628957198 2.9725346405605659
decision_type=2 2 2 2 2 2 2 2 2 2 2 2 2 2 2 2 2 2 2 2 2 2 2 2 2 2 2 2 2 2 2 2 2 2 2 2 2 2 2 2 2 2 2 2 2 2 2 2 2 2 2 2 2 2 2 2 2 2 2 2 2 2 2
left_child=2 3 6 20 16 19 11 8 32 -6 17 48 13 34 31 -14 30 43 -18 25 29 24 36 -20 27 -4 44 -10 46 53 -5 -7 -3 41 -8 -36 -19 54 -28 60 -22 -9 -25 -11 -24 51 -13 -48 -1 -50 55 -37 59 -2 -34 -33 -23 62 -38 -16 -26 -42 -30
right_child=1 7 5 4 9 14 12 33 21 10 -12 28 15 -15 52 -17 18 22 23 -21 40 56 26 42 39 -27 38 -29 57 -31 -32 50 37 -35 35 45 58 -39 -40 -41 61 -43 -44 -45 -46 -47 47 -49 49 -51 -52 -53 -54 -55 -56 -57 -58 -59 -60 -61 -62 -63 -64
leaf_value=-0.071263457953663151 -0.05561564541890146 0.02725285120358192 -0.0045034626667028515 -0.027538539879936954 0.055907872410267928 0.020749438089596329 -0.073483835434335301 0.032118773505841559 0.0046954420436885252 0.0065196551179966811 0.030487601946031662 -0.046876561981418541 -0.032235424744304762 -0.029661864480011114 0.025971856073311407 -0.0036322023439365417 0.014874393425785226 -0.02790335199047447 8.3859960520205065e-05 0.00038062892664700868 -0.064765227283973895 0.033363256099226302 -0.0139140750738471 -0.027246352361380888 0.044998852005821099 -0.028967063047353303 -0.00038948401652487701 0.024832952313568857 -0.024720686088499057 -0.0065049160096605999 -0.049550563068957221 -0.010111701901375182 -0.0013761051310833827 0.11846601015180017 -0.063421619961707573 -0.036730734668549106 -0.011055401024662959 0.01549871965333245 0.023362849612684644 0.1957209860578146 -0.036888199730103426 0.052750253959955445 -0.016148684097173138 0.025979851045016423 -0.00053479311264250653 -0.023835002932931049 -0.030916525288994912 -0.016554294191820418 -0.061367629693727443 -0.03328210642309766 0.0055989042091569409 -0.024615601757650409 0.032762039556524569 -0.034842500199781114 0.0055789526497669996 0.003309294621143888 0.094566005347665794 -0.00074258075674702448 -0.0043176180352214382 0.012952715161808737 0.049161474344876055 -0.021991217273767173 -0.012600176541197806
leaf_weight=268 140 232 117 135 170 185 1485 593 185 201 211 135 217 169 179 302 100 131 161 205 655 107 175 224 258 355 107 273 100 114 389 141 240 2393 740 506 101 141 143 227 107 628 160 202 132 464 141 115 145 207 174 153 251 112 257 139 630 325 134 102 163 234 178
leaf_count=268 140 232 117 135 170 185 1485 593 185 201 211 135 217 169 179 302 100 131 161 205 655 107 175 224 258 355 107 273 100 114 389 141 240 2393 740 506 101 141 143 227 107 628 160 202 132 464 141 115 145 207 174 153 251 112 257 139 630 325 134 102 163 234 178
internal_value=-0.000218679 0.0177615 -0.0255535 -0.0147711 -0.00472879 0.00313853 -0.0349381 0.0395527 0.0304644 0.0082894 0.00432661 -0.0216233 -0.0402626 -0.0428064 0.0159266 -0.023025 -0.0237382 -0.000754148 -0.0132558 -0.0189808 -0.0359765 0.0390939 -0.00785482 -0.0191743 0.0330922 -0.0275424 8.97666e-05 0.0227074 -0.0126761 -0.0213115 -0.0366412 0.00492958 0.0121839 0.0463752 -0.0443847 -0.0411433 -0.0199454 0.00768025 0.0128 0.0404321 -0.0413655 0.0414824 -0.0273438 0.0155087 -0.0102606 -0.0364648 -0.0226343 -0.0175781 -0.0359677 -0.03125 -0.000660793 -0.0399848 0.0291353 -0.0301587 0.00352113 -0.00535714 0.0481004 -0.00621891 -0.0121277 0.0240214 0.0352732 -0.0335777 -0.0111511
internal_weight=18063 10565 7498 4238 2876 1848 5650 6327 2713 1707 1537 1614 4036 3517 1171 519 1169 1326 645 677 1362 1843 923 545 1106 472 557 458 994 366 524 639 870 3614 3348 1863 366 638 250 648 996 1221 384 403 307 1123 391 256 620 352 454 659 532 252 497 280 737 603 235 281 421 341 278
internal_count=18063 10565 7498 4238 2876 1848 5650 6327 2713 1707 1537 1614 4036 3517 1171 519 1169 1326 645 677 1362 1843 923 545 1106 472 557 458 994 366 524 639 870 3614 3348 1863 366 638 250 648 996 1221 384 403 307 1123 391 256 620 352 454 659 532 252 497 280 737 603 235 281 421 341 278
is_linear=0
shrinkage=0.05


Tree=9
num_leaves=64
num_cat=0
split_feature=5 11 11 5 11 5 0 5 11 5 5 11 11 11 3 11 5 0 0 11 11 11 0 0 11 5 5 9 7 0 7 7 11 5 0 11 6 0 6 8 7 10 6 11 11 8 3 5 11 5 5 5 11 7 8 8 1 10 11 7 5 11 11
split_gain=3169.67 2874.43 769.568 362.273 301.803 196.808 173.706 125.101 149.103 109.182 91.7437 73.2468 71.6717 70.3428 70.0362 64.1521 60.7449 55.8439 50.6721 43.6713 37.2256 29.2685 28.4388 28.3665 27.5819 30.9002 26.5655 26.2408 26.1073 22.1917 21.4361 20.336 18.4828 23.3605 14.4996 13.9263 13.8253 13.287 11.4843 11.1057 10.4782 14.0432 10.432 9.95319 9.71725 8.41253 8.81767 7.89568 7.66301 7.42368 7.10487 7.08596 8.70293 10.6703 6.74858 6.59997 6.06606 5.9436 5.6087 5.95159 5.38756 5.07962 4.4315
threshold=3.297454112770398 3.5118622704904716 4.9802729696912165 3.8768790448237795 2.5164918393013127 2.5385183711115036 -1.0000000180025095e-35 3.8768790448237795 4.6888253271550946 4.1885672108548855 5.2627035316654629 3.0307523450026026 4.6888253271550946 5.3604969910918303 0.93301270189221952 2.328653222984828 2.5385183711115036 -1.0000000180025095e-35 -1.0000000180025095e-35 5.6215725017286333 3.0919156618309214 2.9927348747868261 -1.0000000180025095e-35 -1.0000000180025095e-35 4.4082624091190352 4.6811597513740617 2.5385183711115036 3.0382463972163127 4.0074508347754483 -1.0000000180025095e-35 3.9326509574309525 3.8485519699296722 3.2260077333115973 2.5385183711115036 -1.0000000180025095e-35 5.2333123587241444 3.7482020034892929 -1.0000000180025095e-35 3.8174209150822631 3.529628600370712 3.8485519699296722 2.6858553628957198 3.7017046651919125 3.0919156618309214 2.3747185722904001 3.7958256902531811 1.0000000180025095e-35 3.6969977743015887 2.6745924164059312 5.5163941329138222 2.5385183711115036 4.6811597513740617 4.9802729696912165 3.8485519699296722 4.1919113024992471 3.529628600370712 -0.22252093395631442 4.5404033381702336 1.8787396068888347 3.8722631206127449 2.9725346405605659 4.4860084503720268 2.5164918393013127
decision_type=2 2 2 2 2 2 2 2 2 2 2 2 2 2 2 2 2 2 2 2 2 2 2 2 2 2 2 2 2 2 2 2 2 2 2 2 2 2 2 2 2 2 2 2 2 2 2 2 2 2 2 2 2 2 2 2 2 2 2 2 2 2 2
left_child=2 3 6 18 15 19 11 8 37 -6 17 44 14 34 32 22 -14 40 21 23 28 62 -5 -4 25 30 45 43 48 -17 57 -22 -8 -34 -7 -10 -32 -3 -31 -39 -11 -42 -30 -20 -1 -13 -47 61 -19 -12 -46 52 53 -26 56 -35 -15 -9 -24 -60 -36 -41 -2
right_child=1 7 5 4 9 13 12 24 35 10 49 26 16 54 -16 29 -18 20 27 -21 31 -23 58 -25 51 -27 -28 -29 42 38 36 -33 33 55 60 -37 -38 39 -40 47 41 -43 -44 -45 50 46 -48 -49 -50 -51 -52 -53 -54 -55 -56 -57 -58 -59 59 -61 -62 -63 -64
leaf_value=-0.067700285055979997 -0.052899955858258678 0.027616950876967295 -0.0042782895333677079 -0.024745890846692077 0.057723708587586353 0.019711966185116503 -0.066709184856753576 0.0081300478562184707 0.030512834830549476 0.0036061856886193348 0.03543285879401719 -0.044532733882347623 -0.030623653507089534 0.029393352019099251 -0.028178771256010562 0.0039270291058632672 -0.0034505922267397239 -0.022543736606469092 -0.058352514089523355 0.00036159748031465715 -0.0041151835523156157 0.0021155542114782325 -0.053891628649056257 -0.02751870989498564 0.030505399559647442 0.075375205312740653 -0.0051600907967366497 -0.015490761225892059 -0.0067988952857650055 -0.02424280998769919 0.03498328169351872 0.016735184740285014 -0.055457542431450228 -0.036971917899445976 -0.0052892204481572065 0.053470187882574738 0.16792994576893427 -0.0013072998745292108 -0.007532097794635817 0.0017536993873131347 0.010800771709499802 0.033148032726236835 0.0068479314583315132 -0.025593395096785154 -0.058299248209041067 -0.029370699024545168 -0.015726579482229396 0.016689124066643003 -0.013018138155992044 0.024193780475054716 -0.031618001101942773 0.12364269530333263 0.091892705316912959 0.10113737907614243 0.033620571220476084 -0.026334248239432048 0.016702759093761965 0.017953786440987687 -0.044665105278241551 -0.029859615758698999 0.0031881005959243816 0.013994080299491941 -0.024270334608295831
leaf_weight=268 152 212 117 155 193 185 1798 113 670 174 124 135 217 142 169 172 302 137 720 205 150 134 197 355 276 361 603 166 101 171 170 201 611 158 193 551 141 132 214 218 125 145 117 163 145 141 115 133 315 107 207 1281 1028 559 164 781 226 125 118 142 261 102 100
leaf_count=268 152 212 117 155 193 185 1798 113 670 174 124 135 217 142 169 172 302 137 720 205 150 134 197 355 276 361 603 166 101 171 170 201 611 158 193 551 141 132 214 218 125 145 117 163 145 141 115 133 315 107 207 1281 1028 559 164 781 226 125 118 142 261 102 100
internal_value=-0.000224215 0.0174207 -0.0250867 -0.0128978 -0.00317201 0.00292208 -0.0342478 0.0398551 0.0296829 0.00918475 0.00512972 -0.0203841 -0.0397919 0.0153288 -0.0423514 -0.0231394 -0.022447 0.000511945 -0.0336237 -0.0185377 -0.00592556 -0.0181347 -0.0343137 -0.0269068 0.0449186 0.0372527 -0.0119718 -0.0393232 -0.0128358 -0.0108618 0.0297814 0.00726496 -0.0439367 -0.0399355 0.0041471 0.0406634 0.0384244 0.0128607 -0.0175325 0.00897436 0.0153153 0.0214815 0.00137615 -0.042752 -0.033871 -0.0221228 -0.0167969 0.0126932 -0.0196903 0.0344156 -0.0284091 0.0471374 0.0451691 0.0413772 0.0287594 -0.034984 0.025 0.0184874 -0.0405908 -0.0357692 -0.000660793 0.0084375 -0.0281746
internal_weight=18063 10565 7498 4493 3058 1848 5650 6072 2018 1889 1696 1614 4036 1171 3517 1169 519 1465 1435 677 1021 386 612 472 4054 910 994 1049 670 557 549 351 3348 1550 639 1221 311 797 385 585 444 270 218 883 620 391 256 453 452 231 352 3144 1863 835 532 939 368 238 457 260 454 320 252
internal_count=18063 10565 7498 4493 3058 1848 5650 6072 2018 1889 1696 1614 4036 1171 3517 1169 519 1465 1435 677 1021 386 612 472 4054 910 994 1049 670 557 549 351 3348 1550 639 1221 311 797 385 585 444 270 218 883 620 391 256 453 452 231 352 3144 1863 835 532 939 368 238 457 260 454 320 252
is_linear=0
shrinkage=0.05


Tree=10
num_leaves=64
num_cat=0
split_feature=11 5 5 11 11 5 4 5 11 5 0 4 11 3 0 0 11 0 11 0 11 11 10 11 5 11 4 5 4 5 11 8 11 5 0 11 4 11 1 8 11 0 8 3 3 1 5 11 10 10 11 4 5 4 10 8 4 8 11 11 5 4 8
split_gain=3071.07 2799.07 802.6 446.12 296.802 137.954 135.068 132.281 128.055 107.126 94.5409 79.8532 70.9574 63.0913 53.1932 48.8107 45.4562 40.8287 38.78 38.2897 37.6537 36.7936 36.4479 27.7103 21.4476 23.4586 26.9459 18.3116 18.1946 16.7246 15.6039 13.7901 12.6493 11.9639 11.842 12.2298 11.5355 11.5241 11.1001 10.014 9.58547 9.05586 8.80788 7.91499 7.40936 6.95392 6.44103 6.33853 6.19406 5.90048 5.42389 5.38856 5.1722 5.1476 5.77201 4.90721 4.83392 4.60712 4.49548 4.40169 5.53622 4.37676 4.19781
threshold=3.5118622704904716 3.297454112770398 3.8768790448237795 5.1248781796567631 2.5855477754495282 2.5385183711115036 6.3250000000000011 3.8768790448237795 4.6888253271550946 2.5385183711115036 -1.0000000180025095e-35 7.1750000000000016 4.4860084503720268 0.93301270189221952 -1.0000000180025095e-35 -1.0000000180025095e-35 3.0919156618309214 -1.0000000180025095e-35 2.328653222984828 -1.0000000180025095e-35 5.6215725017286333 5.3604969910918303 4.0145997749078921 3.0307523450026026 4.6811597513740617 4.6888253271550946 5.7250000000000005 2.5385183711115036 7.2750000000000012 5.1582534600528875 5.3604969910918303 4.1358661007158295 2.6745924164059312 3.297454112770398 -1.0000000180025095e-35 4.6888253271550946 5.9250000000000016 3.0919156618309214 -0.22252093395631442 3.9515558652552287 5.7802770025882797 -1.0000000180025095e-35 4.3312211903042801 0.6830127018922193 1.0000000180025095e-35 1.0000000180025095e-35 4.6811597513740617 2.328653222984828 2.7113616425029634 4.2974554551201161 5.1248781796567631 5.5250000000000012 2.874166744753174 3.8750000000000004 4.5404033381702336 3.7061722925931688 2.6750000000000007 3.7958256902531811 2.4604069238974771 2.5164918393013127 2.9871463151008015 2.8750000000000004 3.529628600370712
decision_type=2 2 2 2 2 2 2 2 2 2 2 2 2 2 2 2 2 2 2 2 2 2 2 2 2 2 2 2 2 2 2 2 2 2 2 2 2 2 2 2 2 2 2 2 2 2 2 2 2 2 2 2 2 2 2 2 2 2 2 2 2 2 2
left_child=2 3 10 9 11 20 19 8 -3 14 16 15 17 23 31 47 32 -11 -17 46 38 41 -9 59 25 26 53 -25 -8 37 -10 -2 43 -18 -14 -36 58 48 -5 -16 56 -7 -29 -1 -39 61 -6 -4 -21 -41 51 -27 -34 -24 55 -55 -23 -50 -20 -12 -61 -37 -19
right_child=1 7 4 5 6 21 28 22 30 12 13 -13 34 -15 39 18 33 62 36 29 -22 40 24 27 -26 50 -28 42 -30 -31 -32 -33 52 -35 35 45 -38 44 -40 49 -42 -43 -44 -45 -46 -47 -48 -49 57 -51 -52 -53 -54 54 -56 -57 -58 -59 -60 60 -62 -63 -64
leaf_value=-0.055486209320023509 -0.0376229411791488 0.0085818820006027929 -0.024924318343605492 -0.0069341576298127539 0.011818148736709944 0.023168066897315966 0.022639035999581184 0.020255750903462745 0.030621596555903841 -0.011144157536777234 -0.074688314896101199 0.0070864158137659674 0.00096106354027862832 -0.018858488699056354 -0.054207017509518153 -0.044704455616270788 -0.021619153142057802 -0.032803537051390767 -0.02924487231158104 -0.012516437206455112 0.0021431032125756033 0.020969486894926739 0.02973050069586072 -0.058717090984318238 0.11071057055174634 0.042117430093721847 0.15453347709071708 -0.028063519226094381 0.046438175818485743 0.011316196255341183 0.05554669780035093 -0.0032149310399891108 -0.042923097552112967 0.0040575846206695743 -0.018736376150013289 -0.0039469604706055426 -0.0069563255241187338 -0.0037620098902029445 -0.022979024586202868 -0.020227352684883872 0.030220794805219487 0.0034983825516789915 -0.01995342222023452 -0.039601364310958911 0.0058732382781678033 -0.0088942686465757429 0.023288907918882853 -0.0045609867899155223 -0.018076207009885326 -0.03112050761041061 0.094048060037486989 0.16404808864771647 -0.020024973603011188 0.019172986429149663 0.028052010944956643 0.027761755255616062 0.015472762608776704 -0.0020191508654606948 -0.021432828784242922 -0.061474183227687967 -0.037789435592653624 0.0035378333721285183 -0.02395215469499681
leaf_weight=519 232 781 127 106 239 109 202 163 838 222 1147 185 285 169 497 394 209 159 149 172 220 102 131 255 1605 464 257 548 220 130 384 102 114 100 155 157 101 167 173 107 261 254 176 113 120 258 131 176 109 293 789 210 243 138 232 144 179 140 268 499 510 112 408
leaf_count=519 232 781 127 106 239 109 202 163 838 222 1147 185 285 169 497 394 209 159 149 172 220 102 131 255 1605 464 257 548 220 130 384 102 114 100 155 157 101 167 173 107 261 254 176 113 120 258 131 176 109 293 789 210 243 138 232 144 179 140 268 499 510 112 408
internal_value=-9.0864e-05 0.0174171 -0.02424 -0.0130608 -0.00425743 0.0101852 0.0102454 0.0392275 0.028682 -0.0239873 -0.0373968 -0.0211429 -0.0160592 -0.0418886 -0.0352965 -0.0258025 -0.025963 -0.0271863 -0.0315789 0.00173841 -0.0109218 0.0218232 0.0443383 -0.0434928 0.0452897 0.0422622 0.0359202 -0.0365169 0.0345972 -0.00417661 0.0387889 -0.0182635 -0.0311931 -0.0092233 -0.00698035 -0.0105572 -0.0225869 -0.00720339 -0.0231183 -0.0416388 0.0300738 0.00950413 -0.0324586 -0.035443 0.000522648 -0.006926 0.0151351 -0.00841584 -0.0124703 -0.03575 0.0461722 0.0428783 -0.0236695 0.0304651 0.0282101 0.0234043 0.0236655 -0.00742972 -0.026259 -0.0466605 -0.0442517 -0.00130112 -0.0343034
internal_weight=18159 10527 7632 4391 3030 1404 1630 6136 2003 2987 4602 1400 1756 3304 1231 1215 1298 789 912 1208 499 905 4133 3135 3970 2365 902 979 422 838 1222 334 989 309 967 682 518 708 279 897 542 363 724 632 287 527 370 303 421 400 1463 674 357 645 514 282 281 249 417 2156 1009 269 567
internal_count=18159 10527 7632 4391 3030 1404 1630 6136 2003 2987 4602 1400 1756 3304 1231 1215 1298 789 912 1208 499 905 4133 3135 3970 2365 902 979 422 838 1222 334 989 309 967 682 518 708 279 897 542 363 724 632 287 527 370 303 421 400 1463 674 357 645 514 282 281 249 417 2156 1009 269 567
is_linear=0
shrinkage=0.05


Tree=11
num_leaves=64
num_cat=0
split_feature=11 5 5 11 11 5 4 5 11 5 3 5 11 11 11 4 9 11 11 5 5 11 4 5 8 11 5 1 4 11 5 10 8 1 11 1 11 3 11 4 4 10 7 11 11 7 1 5 5 5 1 8 4 1 10 5 5 5 3 5 3 10 3
split_gain=2978.33 2660.29 775.965 408.471 280.798 142.976 126.819 123.071 117.623 113.572 81.8704 72.487 60.0729 58.4349 53.0202 37.3446 36.2469 34.7835 33.9676 31.8972 26.4519 25.8513 30.7784 19.7865 19.4682 17.1997 15.9612 16.0432 15.9516 15.4754 13.4615 11.7889 11.7218 10.8715 9.34013 9.1677 9.04091 7.92443 6.77047 6.48379 6.30212 9.15286 6.21231 10.4796 6.16679 6.95112 6.13035 5.91063 5.8605 5.71864 5.92593 4.95999 5.54665 4.72295 4.49089 4.39941 4.33239 4.28436 3.97102 3.95977 3.92159 3.90529 3.77884
threshold=3.5118622704904716 3.297454112770398 3.8768790448237795 5.1248781796567631 2.5855477754495282 3.8768790448237795 6.3250000000000011 2.5385183711115036 4.6888253271550946 2.5385183711115036 0.93301270189221952 4.1885672108548855 4.4860084503720268 3.0919156618309214 2.328653222984828 6.3250000000000011 3.9799398714758145 5.6215725017286333 5.7802770025882797 3.0118910861714725 4.6811597513740617 4.6888253271550946 5.7250000000000005 5.2121979295739109 3.9515558652552287 5.3604969910918303 4.2656660069855237 -0.22252093395631442 7.2750000000000012 2.5855477754495282 2.5385183711115036 4.3020896800688755 3.529628600370712 -0.22252093395631442 3.0919156618309214 1.0000000180025095e-35 5.3604969910918303 -0.68301270189221952 4.6888253271550946 6.0750000000000011 3.8750000000000004 4.5404033381702336 3.8722631206127449 3.0919156618309214 5.1248781796567631 3.8485519699296722 1.0000000180025095e-35 2.9243717610963187 2.5385183711115036 4.4242467032267818 -0.22252093395631442 3.7958256902531811 3.5750000000000006 -0.22252093395631442 2.8848249419103715 3.6169517811344423 2.9871463151008015 2.9871463151008015 -0.24999999999999997 2.9871463151008015 0.6830127018922193 3.0400572460354396 -0.9330127018922193
decision_type=2 2 2 2 2 2 2 2 2 2 2 2 2 2 2 2 2 2 2 2 2 2 2 2 2 2 2 2 2 2 2 2 2 2 2 2 2 2 2 2 2 2 2 2 2 2 2 2 2 2 2 2 2 2 2 2 2 2 2 2 2 2 2
left_child=2 3 10 9 11 8 23 17 51 24 13 -4 32 29 39 49 -7 33 36 48 21 22 40 26 60 -10 -6 42 -8 -1 -31 -26 56 -5 -29 -34 37 -9 59 -13 -18 -42 43 -28 45 -23 -40 -12 61 -16 -51 52 -3 -33 -50 -54 -11 -37 -36 -14 -2 -15 -32
right_child=1 5 4 7 6 16 28 18 25 12 47 14 38 19 15 -17 20 -19 -20 -21 -22 44 -24 -25 31 -27 27 34 -30 30 62 53 35 -35 58 57 -38 -39 46 -41 41 -43 -44 -45 -46 -47 -48 -49 54 50 -52 -53 55 -55 -56 -57 -58 -59 -60 -61 -62 -63 -64
leaf_value=-0.065867522351243643 -0.051496666634042246 0.0098450146184811526 0.013664483409140216 -0.0065874497483221278 0.030162965070902683 0.019242963358289612 0.021507084199602112 -0.0010318946053661793 0.029090516728108654 -0.03098323887617449 -0.032870266422815923 -0.041752846066417895 -0.0059508836084826155 -0.057204001825195472 -0.027317970917145273 0.00641928741095712 0.028243975661067691 0.0020359480519468232 0.028709755064958521 -0.018250564416616811 0.10517504202415902 0.030011568125778921 0.1468068032361812 0.021172810391732855 -0.019081553608742252 0.052769362910333406 -0.0060119309085578942 -0.010753674531409518 0.044116267027561468 -0.062682458653527492 -0.032583692769467466 -0.02786217934942329 -0.015574631250100036 -0.021830073356892733 -0.0037591293769792204 -0.022281067984621372 0.017078894789074806 0.011995233096478231 -0.00049550035608676441 -0.038404528707342248 0.022353416508863511 0.026649410397708809 0.0092582726816471169 0.0057947953110378814 0.089345657035612647 0.10370219262243836 -0.0061590930424513246 -0.0012510289632599036 -0.020029085182869635 -0.016576289697210811 -0.017790161610557177 0.014318208434087222 -0.00015528544764391585 -0.02753644545121452 -0.033431112436626602 0.0053781567862563502 -0.031136602534305582 -0.029200606267075369 0.0050216059387836577 -0.0150153802944216 -0.041099032283969342 -0.029870851472594807 -0.030955958035178002
leaf_weight=1944 519 233 136 106 115 163 202 128 838 105 102 408 108 173 182 141 131 220 261 527 1605 220 257 130 188 384 128 330 220 364 108 152 322 173 116 125 281 235 445 128 282 232 178 101 789 454 301 139 106 162 243 253 162 207 128 133 110 127 110 113 165 101 910
leaf_count=1944 519 233 136 106 115 163 202 128 838 105 102 408 108 173 182 141 131 220 261 527 1605 220 257 130 188 384 128 330 220 364 108 152 322 173 116 125 281 235 445 128 282 232 178 101 789 454 301 139 106 162 243 253 162 207 128 133 110 127 110 113 165 101 910
internal_value=-0.000156947 0.0170846 -0.0239387 -0.0126281 -0.00429043 0.0383475 0.00981595 0.00961538 0.0273839 -0.0230834 -0.0368753 -0.0207143 -0.0149203 -0.038443 -0.0244462 -0.0156593 0.0436608 -0.0103206 0.0206077 -0.0280676 0.0446096 0.0412474 0.0345898 0.00157285 -0.0347279 0.0370704 -0.000649351 -0.00275182 0.0334123 -0.0416717 -0.0376266 -0.0276965 -0.0251584 -0.022043 -0.00827338 -0.0214286 0.014441 0.00922865 -0.0065667 -0.0363806 0.0287597 0.0262646 0.00479115 -0.000655022 0.045352 0.0418398 -0.00428954 -0.00850622 -0.0370079 -0.0212095 -0.0179012 0.0122279 0.0094697 -0.0330084 -0.0311966 0.00491525 -0.0351163 -0.0285714 -0.000442478 -0.0142534 -0.0403509 -0.0419708 -0.0346758
internal_weight=18159 10527 7632 4391 3030 6136 1630 1404 2003 2987 4602 1400 1756 4361 1264 728 4133 499 905 1035 3970 2365 902 1208 1231 1222 1078 963 422 3326 1382 547 789 279 556 574 644 363 967 536 645 514 407 229 1463 674 746 241 508 587 405 781 528 359 234 295 215 252 226 221 684 274 1018
internal_count=18159 10527 7632 4391 3030 6136 1630 1404 2003 2987 4602 1400 1756 4361 1264 728 4133 499 905 1035 3970 2365 902 1208 1231 1222 1078 963 422 3326 1382 547 789 279 556 574 644 363 967 536 645 514 407 229 1463 674 746 241 508 587 405 781 528 359 234 295 215 252 226 221 684 274 1018
is_linear=0
shrinkage=0.05


Tree=12
num_leaves=64
num_cat=0
split_feature=11 5 5 11 11 5 4 5 11 5 3 4 11 11 5 11 4 11 5 11 11 8 4 11 11 5 4 8 5 1 5 8 1 11 1 7 10 11 1 11 11 3 11 7 11 1 5 5 5 2 8 5 10 1 5 3 4 11 11 2 5 11 10
split_gain=2869.98 2547.6 758.094 368.195 259.796 142.955 120.021 118.392 117.923 109.98 78.3963 65.4012 55.8209 54.0464 42.9645 44.0599 45.2308 42.2633 39.8421 30.4237 29.9791 23.0739 22.2041 24.3264 18.4815 18.3397 17.1174 16.4131 15.9612 15.0151 13.7121 10.3672 10.2622 9.97711 8.79882 8.64404 11.9084 8.53424 8.07693 7.88164 7.74736 7.49426 7.23527 6.65565 9.53842 6.55235 6.47706 6.1268 5.91063 5.88215 5.47857 5.40682 5.34097 5.23265 4.90524 4.78618 4.66884 5.39331 4.62213 4.4257 4.27971 4.24381 4.19379
threshold=3.5118622704904716 3.297454112770398 3.8768790448237795 5.1248781796567631 2.5855477754495282 3.8768790448237795 6.3250000000000011 2.5385183711115036 4.6888253271550946 2.5385183711115036 0.93301270189221952 7.1750000000000016 2.7830831038071611 4.4860084503720268 4.6811597513740617 4.2485396955780379 5.4750000000000005 2.328653222984828 2.5385183711115036 5.6215725017286333 5.7802770025882797 4.1919113024992471 5.7250000000000005 5.1248781796567631 5.2333123587241444 5.2121979295739109 7.9250000000000016 4.3312211903042801 4.2656660069855237 -0.22252093395631442 5.1582534600528875 3.529628600370712 -0.22252093395631442 3.0919156618309214 1.0000000180025095e-35 3.8485519699296722 2.6858553628957198 3.0919156618309214 -0.22252093395631442 5.3604969910918303 4.8900170713600231 -0.68301270189221952 2.4604069238974771 3.8722631206127449 3.0919156618309214 0.81174490092936691 3.5074595037545557 2.8682832386041182 2.9243717610963187 0.25000000000000011 3.7958256902531811 4.3414093884010709 3.0870791889639491 0.81174490092936691 2.9725346405605659 0.6830127018922193 3.5750000000000006 4.6888253271550946 5.6215725017286333 0.25000000000000011 2.9871463151008015 4.6888253271550946 4.3020896800688755
decision_type=2 2 2 2 2 2 2 2 2 2 2 2 2 2 2 2 2 2 2 2 2 2 2 2 2 2 2 2 2 2 2 2 2 2 2 2 2 2 2 2 2 2 2 2 2 2 2 2 2 2 2 2 2 2 2 2 2 2 2 2 2 2 2
left_child=2 3 10 9 11 8 25 19 -3 21 12 17 42 31 15 16 -7 51 -14 32 39 40 23 56 -10 28 37 38 -6 43 35 60 -5 59 -33 -19 -37 -8 46 41 55 -9 -1 44 -30 61 52 -44 -12 -42 -40 -4 -20 -49 -36 -2 -17 -58 -26 -31 -11 -15 -23
right_child=1 5 4 7 6 14 26 20 24 13 48 -13 18 45 -16 22 -18 30 27 -21 -22 62 -24 -25 58 -27 -28 -29 29 33 -32 34 -34 -35 54 36 -38 -39 50 -41 49 -43 47 -45 -46 -47 -48 53 -50 -51 -52 -53 -54 -55 -56 -57 57 -59 -60 -61 -62 -63 -64
leaf_value=-0.067983933344428787 -0.052192477634871649 0.0075176671655264211 -0.024754817008332954 -0.0062580772609060146 0.028654816817357556 0.0067567334588859891 0.015254471406623683 -0.00098029987509787872 0.026930098333281239 -0.029434076932365771 -0.031226753101675133 0.0071871862993359466 -0.050266349941534297 -0.0081774892050883174 0.097070044936595754 0.031829819296196903 0.095750733772153512 -0.025581924152931836 -0.02111320818846564 0.0019341506493494754 0.027274267311710589 -0.013280662284605539 0.17487838372057518 0.063559627199827065 0.033602047376042554 0.020114169872146218 0.048133109920502772 -0.014250918919083101 -0.0057113343631300054 -0.0081424361029749925 0.00028754353727213913 -0.014795899687595027 -0.020738569689048105 -4.8836506481697577e-05 -0.018868969521020674 -0.020363128834584843 -0.0014273482979514586 0.037356399921789754 -0.033397191702940976 0.016224950049621056 -0.025831741286233181 0.011395471441654315 -0.073830316731796394 0.0087953590475647655 0.0055050555454859932 -0.011479141389617321 -0.015384416673085122 -0.037438729991780231 -0.0011884775150968975 -0.03022574768616141 -0.024341368650021147 -0.04142460491139377 -0.039608444827597025 -0.039899044296190934 -0.027913564410782944 -0.041048372943246439 0.025702794705787471 0.035654120414273648 0.060380884989654993 -0.012939446769476849 -0.029579772407590299 -0.0014233315684079263 -0.017075492241606493
leaf_weight=1289 472 781 118 106 115 208 169 128 678 105 102 185 508 192 1670 105 104 203 190 220 261 124 593 572 302 130 121 257 128 158 107 322 173 226 116 267 117 132 123 281 174 235 339 178 101 157 176 668 139 178 581 403 103 127 136 151 442 439 242 172 110 618 132
leaf_count=1289 472 781 118 106 115 208 169 128 678 105 102 185 508 192 1670 105 104 203 190 220 261 124 593 572 302 130 121 257 128 158 107 322 173 226 116 267 117 132 123 281 174 235 339 178 101 157 176 668 139 178 581 403 103 127 136 151 442 439 242 172 110 618 132
internal_value=-0.000134919 0.0167902 -0.0234801 -0.0122865 -0.00405941 0.0375978 0.0095092 0.00883191 0.026635 -0.0222129 -0.0362668 -0.0198571 -0.037801 -0.01418 0.0429107 0.038713 0.0211538 -0.0240741 -0.0314757 -0.0107214 0.0196133 -0.0336718 0.0412599 0.0381258 0.0363339 0.00149007 0.0324645 -0.0272028 -0.000649351 -0.00275182 -0.0159942 -0.023891 -0.0216846 -0.00809353 -0.0203833 -0.0189949 -0.0145833 0.0260797 -0.0297101 0.0138199 -0.0371795 0.00895317 -0.0428601 0.00454545 -0.0010917 -0.00625646 -0.0246269 -0.0399471 -0.00850622 -0.03125 -0.0330966 -0.0348369 -0.0291809 -0.0375472 -0.027381 -0.0405297 0.0333671 0.0321793 0.0431985 -0.0136364 -0.0332558 -0.00444444 -0.0203125
internal_weight=18159 10527 7632 4391 3030 6136 1630 1404 2003 2987 4602 1400 4361 1756 4133 2463 312 1215 1938 499 905 1231 2151 1558 1222 1208 422 1430 1078 963 694 789 279 556 574 587 384 301 1173 644 975 363 2423 407 229 967 469 1134 241 352 704 521 293 795 252 623 986 881 544 330 215 810 256
internal_count=18159 10527 7632 4391 3030 6136 1630 1404 2003 2987 4602 1400 4361 1756 4133 2463 312 1215 1938 499 905 1231 2151 1558 1222 1208 422 1430 1078 963 694 789 279 556 574 587 384 301 1173 644 975 363 2423 407 229 967 469 1134 241 352 704 521 293 795 252 623 986 881 544 330 215 810 256
is_linear=0
shrinkage=0.05


Tree=13
num_leaves=64
num_cat=0
split_feature=11 5 5 11 11 5 0 4 11 5 5 5 0 11 0 5 4 11 0 11 0 11 5 11 11 11 5 11 5 11 5 4 11 8 11 5 5 0 11 8 8 0 5 7 11 4 9 7 10 1 8 4 10 5 0 0 11 8 1 11 4 8 5
split_gain=2719.02 2422.41 732.479 361.383 236.849 144.72 111.332 110.051 108.148 106.721 102.595 61.505 56.2061 55.1771 50.4208 44.9939 44.1672 49.1393 37.6611 36.2683 33.8365 32.8628 30.4638 29.7676 29.7628 28.7488 25.1256 24.0864 19.78 18.6032 18.5268 16.7154 13.7537 13.6951 13.5062 11.6325 11.4736 10.9401 10.7659 9.70647 9.67098 9.00671 8.78013 7.75967 7.51948 7.49707 7.24535 7.16011 21.0025 7.13147 5.76978 5.52748 5.46172 5.30035 5.21801 5.18385 5.52514 5.11896 4.80589 4.70707 4.51895 4.41588 4.20443
threshold=3.5118622704904716 3.297454112770398 3.8768790448237795 5.1248781796567631 2.5855477754495282 3.8768790448237795 -1.0000000180025095e-35 6.2250000000000005 4.6888253271550946 2.5385183711115036 2.5385183711115036 4.1885672108548855 -1.0000000180025095e-35 4.4860084503720268 -1.0000000180025095e-35 5.2627035316654629 5.3250000000000011 4.2485396955780379 -1.0000000180025095e-35 3.0919156618309214 -1.0000000180025095e-35 2.9927348747868261 4.5820251536149055 2.2036258632932877 5.7802770025882797 5.3604969910918303 4.6811597513740617 5.1248781796567631 4.6811597513740617 5.2333123587241444 2.5385183711115036 5.9750000000000005 2.3747185722904001 4.1358661007158295 3.0919156618309214 4.7351896754076668 3.297454112770398 -1.0000000180025095e-35 4.6888253271550946 3.9515558652552287 4.3312211903042801 -1.0000000180025095e-35 2.2221389222454149 3.8722631206127449 5.3604969910918303 2.2250000000000005 2.3680933138049798 3.8722631206127449 2.7113616425029634 -0.22252093395631442 3.529628600370712 3.6250000000000004 4.2974554551201161 3.0118910861714725 1.0000000180025095e-35 -1.0000000180025095e-35 4.4860084503720268 3.529628600370712 1.0000000180025095e-35 5.6215725017286333 5.6250000000000009 3.7061722925931688 3.6295853134807134
decision_type=2 2 2 2 2 2 2 2 2 2 2 2 2 2 2 2 2 2 2 2 2 2 2 2 2 2 2 2 2 2 2 2 2 2 2 2 2 2 2 2 2 2 2 2 2 2 2 2 2 2 2 2 2 2 2 2 2 2 2 2 2 2 2
left_child=2 3 6 10 11 8 19 20 55 25 12 -4 33 18 60 23 17 22 -12 32 43 45 -7 -16 41 -5 27 51 -9 -10 -23 57 -1 -2 47 -36 -21 -15 -39 -14 53 -11 -34 -6 -43 -8 -47 -22 -49 -27 -20 -19 -41 -32 -53 -3 62 -25 -40 -31 -13 -44 -57
right_child=1 5 4 9 7 16 21 28 29 24 13 14 39 37 15 -17 -18 26 50 36 34 30 -24 31 -26 49 -28 -29 -30 59 40 -33 42 -35 35 -37 -38 38 58 52 -42 44 61 -45 -46 46 -48 48 -50 -51 -52 54 -54 -55 -56 56 -58 -59 -60 -61 -62 -63 -64
leaf_value=-0.051485700042564156 -0.031105358446407175 0.022464346451740516 0.012621899923716408 -0.020251641216516614 0.0059094449655514919 0.0056501613421896307 -0.073882628012905863 0.039782121674802329 0.02558359341661718 0.02267208869667885 -0.0088773480781270571 -0.012255525873307272 -0.046312209420596551 0.0011023666893670958 -0.042374933653073876 0.00091028348431071437 0.1118127919676557 0.032669502662055462 -0.028127541451726426 -0.016710219769627367 -0.010356388965199081 -0.049154444987043071 0.044571158011074363 -0.028923433503417108 0.025910553946125049 0.0039239592772099541 0.090958652634735418 0.056912898343230815 0.018382677063613496 0.031921945007240417 -0.029895072088459696 -0.0044630704719000212 -0.045625083378435828 -0.00082358760334861898 -0.0030613164662292359 0.015133659080557438 0.0059843020429679933 -0.01697720272220633 -0.00075055514027475576 -0.017597874255972302 -0.01579613697632043 0.0031244818867940507 -0.033253493940656222 0.026153415651885437 0.013135548529455244 -0.06972382768377515 -0.039174944798088453 -0.010207769603818107 0.014154760191847271 -0.005075333015835415 -0.020651220070725486 0.036531580064491066 -0.026775241704992347 -0.021780952965727841 0.018143531104874457 0.0010887871812522599 0.012155108809734938 -0.021374152272563007 -0.007799842844707805 0.057361840740172233 0.0025153455956828941 -0.019034101027626527 0.005678312585067658
leaf_weight=366 232 209 136 177 200 183 470 228 678 196 222 209 497 285 311 112 1908 134 159 209 242 306 105 100 261 138 547 500 218 302 207 104 121 102 228 111 100 155 269 107 186 254 139 162 194 553 1145 141 100 184 408 374 293 437 382 258 133 317 258 242 111 363 181
leaf_count=366 232 209 136 177 200 183 470 228 678 196 222 209 497 285 311 112 1908 134 159 209 242 306 105 100 261 138 547 500 218 302 207 104 121 102 228 111 100 155 269 107 186 254 139 162 194 553 1145 141 100 184 408 374 293 437 382 258 133 317 258 242 111 363 181
internal_value=2.75346e-06 0.0164767 -0.0227201 -0.0118766 -0.00363036 0.0367666 -0.035289 0.00932515 0.0257364 0.00904558 -0.0217107 -0.0187143 -0.0327782 -0.0139522 -0.0221519 -0.0279661 0.0421123 0.0373258 -0.0237643 -0.0228814 0.00135135 -0.0401634 0.0180556 -0.0319712 0.0192818 -0.00951904 0.040191 0.0366187 0.0304933 0.0350245 -0.0332746 -0.0246641 -0.0275531 -0.0152695 -0.00425791 0.00339233 -0.0079288 -0.00594623 -0.00938416 -0.0392977 -0.0293976 0.0135093 -0.0230337 0.0140884 0.00959821 -0.0437731 -0.0422261 -0.00962733 -0.00352697 -0.000621118 -0.0305996 0.0316854 -0.0335 -0.0322981 0.0300265 0.0112036 0.00874126 -0.0291367 -0.00597723 0.0419118 -0.005 -0.0201195 0.00603645
internal_weight=18159 10527 7632 4391 3030 6136 4602 1630 2003 1404 2987 1400 1231 1756 1264 944 4133 2225 789 1298 1184 3304 288 832 905 499 1937 1390 446 1222 1136 521 989 334 822 339 309 967 682 897 830 644 623 362 448 2168 1698 483 241 322 567 890 400 644 756 781 572 417 527 544 320 502 439
internal_count=18159 10527 7632 4391 3030 6136 4602 1630 2003 1404 2987 1400 1231 1756 1264 944 4133 2225 789 1298 1184 3304 288 832 905 499 1937 1390 446 1222 1136 521 989 334 822 339 309 967 682 897 830 644 623 362 448 2168 1698 483 241 322 567 890 400 644 756 781 572 417 527 544 320 502 439
is_linear=0
shrinkage=0.05


Tree=14
num_leaves=64
num_cat=0
split_feature=11 4 4 11 4 10 11 0 7 4 11 4 11 11 4 0 0 0 11 11 4 6 11 11 11 6 7 10 0 4 11 11 4 8 4 11 4 0 11 11 11 0 4 0 4 6 8 3 4 4 4 0 10 8 7 11 2 0 11 4 4 2 11
split_gain=2606.5 1878.08 573.949 299.225 167.407 167.167 139.776 137.06 120.513 114.187 68.1221 63.9043 55.909 45.8601 41.914 40.5453 38.8032 37.0174 36.6019 34.2348 31.6265 30.4082 30.1996 29.9623 27.7949 26.7571 21.1517 16.2759 15.5071 14.5893 21.3708 14.4683 13.3737 12.949 12.2352 12.032 11.5366 10.9878 10.3552 9.87097 9.47239 8.90227 8.89185 10.2337 8.5874 8.58583 8.53062 7.95905 7.69382 7.57629 7.39958 6.65124 6.4978 6.42848 6.26404 6.25213 6.06933 6.04979 5.9425 5.7752 5.75013 5.72567 5.64243
threshold=3.5118622704904716 3.2750000000000004 4.5250000000000012 5.1248781796567631 5.0750000000000011 2.6858553628957198 4.6888253271550946 -1.0000000180025095e-35 3.9326509574309525 2.2250000000000005 2.7830831038071611 2.1750000000000007 4.6888253271550946 2.5164918393013127 2.9250000000000007 -1.0000000180025095e-35 -1.0000000180025095e-35 -1.0000000180025095e-35 2.0780420047016954 3.0919156618309214 2.4250000000000007 3.9075768722582347 5.3604969910918303 5.7802770025882797 5.3604969910918303 3.9075768722582347 3.7728069409470062 4.4103431785532168 1.0000000180025095e-35 4.2750000000000012 4.2485396955780379 3.0919156618309214 2.9750000000000005 3.9515558652552287 4.0750000000000011 2.4604069238974771 2.4750000000000005 -1.0000000180025095e-35 4.2485396955780379 3.2260077333115973 2.6745924164059312 -1.0000000180025095e-35 3.0750000000000006 -1.0000000180025095e-35 2.8250000000000006 4.2359082058195456 3.9515558652552287 0.6830127018922193 5.9750000000000005 5.2750000000000012 3.4750000000000005 1.0000000180025095e-35 2.9850627697798671 3.7958256902531811 3.8722631206127449 2.0780420047016954 0.25000000000000011 -0.60785761079279388 4.6888253271550946 3.5750000000000006 3.9750000000000005 0.25000000000000011 4.4860084503720268
decision_type=2 2 2 2 2 2 2 2 2 2 2 2 2 2 2 2 2 2 2 2 2 2 2 2 2 2 2 2 2 2 2 2 2 2 2 2 2 2 2 2 2 2 2 2 2 2 2 2 2 2 2 2 2 2 2 2 2 2 2 2 2 2 2
left_child=2 3 7 9 6 17 29 13 19 15 35 22 16 55 39 53 38 56 -19 25 -15 28 -5 42 41 -7 -27 48 -10 62 -31 -22 37 -17 -16 -9 -37 -14 -11 -12 -28 57 43 -13 -18 -21 -20 60 58 -48 -43 -24 -23 -2 -45 -1 -4 -8 -6 -33 -38 -46 -3
right_child=1 4 5 11 27 8 24 10 21 12 14 23 32 20 34 33 44 18 46 45 31 52 51 -25 -26 26 40 -29 -30 30 -32 59 -34 -35 -36 36 47 -39 -40 -41 -42 50 -44 54 61 -47 49 -49 -50 -51 -52 -53 -54 -55 -56 -57 -58 -59 -60 -61 -62 -63 -64
leaf_value=-0.057490729160435454 -0.035002075779354817 0.0069904661031057191 0.0046351544221594045 -0.017323518581064869 0.027695851849309186 -0.020177956097402663 0.05245429215322122 -0.060688753413899704 0.027481117547923928 -0.018224740705402455 -0.03867686287632497 0.022419162325581499 0.0083409006973648846 -0.028579672798057423 -0.019010983521384139 -0.042767248169679119 -0.021585813315462679 -0.041956186794586486 -0.022237383155932624 0.0030760110983757863 -0.014110742848951308 0.021671275192499596 0.010015437902903901 0.024471623185108506 0.06032584298850683 -0.015260823721889184 -0.0019896506352401256 0.11241714784110807 0.0031914763752080911 0.0097075663619885077 0.027859845724006196 -0.0043147978220079873 0.0079703556987994924 -0.019512218920384485 -0.006628368486761127 -0.070188496612260565 -0.033743462494188046 -0.006774901550841839 0.0021718600816417522 -0.026800501165687243 0.011691712322501258 0.016390145834499669 0.020976668841639425 0.010222391344076787 -0.0087174803925241569 0.026718793956898659 -0.013643739819934875 -0.030678920077687646 0.070813580616357633 -0.0018502700278582697 0.027623543412440024 -0.0044478769379897145 0.053887825637255006 -0.010123528383543679 -0.00010717252633263286 -0.033093053238897795 -0.01000471381166057 0.045295025735092233 0.052622157173407305 0.014414410627864572 -0.022870053718487705 -0.012692524550940755 0.016275405813359022
leaf_weight=221 113 704 102 132 142 118 171 1138 126 119 527 178 173 223 684 421 501 230 147 133 439 108 104 298 723 118 167 1768 133 187 333 172 268 364 188 243 509 445 240 306 172 155 149 227 189 120 102 161 190 167 908 147 156 168 213 369 112 284 111 113 128 180 222
leaf_count=221 113 704 102 132 142 118 171 1138 126 119 527 178 173 223 684 421 501 230 147 133 439 108 104 298 723 118 167 1768 133 187 333 172 268 364 188 243 509 445 240 306 172 155 149 227 189 120 102 161 190 167 908 147 156 168 213 369 112 284 111 113 128 180 222
internal_value=-1.37673e-05 0.0161157 -0.0222615 -0.00772305 0.0348254 -0.000791497 0.0283021 -0.0310183 0.0101776 -0.0162999 -0.0360196 0.0111188 -0.00957447 -0.01838 -0.0285337 -0.0296435 -0.0164768 -0.0180233 -0.0239938 -0.00169082 -0.0115628 0.0289675 -0.00639687 0.0174178 0.0361223 -0.00843478 -0.00295405 0.0457033 0.0167954 0.0161826 0.0228846 -0.00649171 0 -0.0354777 -0.0208716 -0.041877 -0.0379923 -0.00404531 -0.00264624 -0.0365546 0.00339233 0.0322793 0.0121904 0.00954693 -0.0221839 0.0136364 -0.0151442 -0.0350877 0.0371332 -0.0098513 0.0297742 0.00378486 0.0409091 -0.0133452 0.00545455 -0.029322 0 0.0381319 0.0314229 0.0022807 -0.0375981 -0.0163957 0.012419
internal_weight=18159 10527 7632 4629 5898 2211 3687 5421 1351 3181 3884 1448 2115 1537 1705 1066 1229 860 646 828 947 523 383 1065 2241 575 457 2211 259 1446 520 724 886 785 872 2179 1041 618 359 833 339 1518 767 618 870 253 416 798 443 269 1063 251 264 281 440 590 214 455 253 285 637 369 926
internal_count=18159 10527 7632 4629 5898 2211 3687 5421 1351 3181 3884 1448 2115 1537 1705 1066 1229 860 646 828 947 523 383 1065 2241 575 457 2211 259 1446 520 724 886 785 872 2179 1041 618 359 833 339 1518 767 618 870 253 416 798 443 269 1063 251 264 281 440 590 214 455 253 285 637 369 926
is_linear=0
shrinkage=0.05


Tree=15
num_leaves=64
num_cat=0
split_feature=5 9 9 5 10 9 5 5 7 6 9 5 3 0 9 0 5 4 0 9 0 0 7 0 0 5 9 5 0 5 6 0 5 5 3 9 5 9 10 9 10 10 6 6 10 10 10 3 0 3 7 4 7 2 3 3 3 0 4 1 6 5 5
split_gain=2387.77 2155.11 464.06 252.156 192.703 149.08 148.429 144.757 125.064 99.3952 97.2239 94.7432 78.7473 61.9641 59.6916 55.9379 46.7729 47.9202 43.0187 42.479 37.7073 33.4136 32.0446 27.2828 22.6057 21.8742 21.3531 20.1411 19.7574 14.2692 12.7509 12.4413 12.3993 12.168 12.0983 12.0388 11.1649 11.7371 10.8742 10.317 10.3755 10.2617 8.76399 8.41393 8.1096 7.73839 7.71366 7.50327 8.70111 7.10732 8.16619 5.70151 5.81123 5.96398 5.37292 4.95254 4.86099 4.72194 4.67721 5.11664 4.35608 4.13992 3.81369
threshold=3.297454112770398 3.9799398714758145 5.1488421637163917 3.8768790448237795 2.680448028830889 3.9799398714758145 3.8768790448237795 2.5385183711115036 3.8485519699296722 3.9075768722582347 3.0382463972163127 2.8526233873139666 0.93301270189221952 -1.0000000180025095e-35 5.1488421637163917 -1.0000000180025095e-35 4.6811597513740617 5.9750000000000005 -1.0000000180025095e-35 5.1488421637163917 -1.0000000180025095e-35 -1.0000000180025095e-35 3.9326509574309525 -1.0000000180025095e-35 1.0000000180025095e-35 4.3195737625061588 2.3680933138049798 5.1431521056234279 -1.0000000180025095e-35 2.5385183711115036 3.7482020034892929 -1.0000000180025095e-35 5.1431521056234279 4.3301805277870571 -0.5 2.3680933138049798 2.8682832386041182 3.0382463972163127 3.0400572460354396 2.3680933138049798 3.0870791889639491 2.6470379687772181 3.7017046651919125 4.025006223570962 2.9850627697798671 2.6470379687772181 3.0400572460354396 -0.5 -1.0000000180025095e-35 0.6830127018922193 4.1371909815666497 4.325000000000002 3.9326509574309525 0.25000000000000011 0.6830127018922193 0.6830127018922193 -0.5 -1.0000000180025095e-35 3.1750000000000007 1.0000000180025095e-35 3.9075768722582347 4.5820251536149055 2.5385183711115036
decision_type=2 2 2 2 2 2 2 2 2 2 2 2 2 2 2 2 2 2 2 2 2 2 2 2 2 2 2 2 2 2 2 2 2 2 2 2 2 2 2 2 2 2 2 2 2 2 2 2 2 2 2 2 2 2 2 2 2 2 2 2 2 2 2
left_child=2 3 5 10 18 12 14 20 15 22 21 28 13 29 31 32 17 19 -5 47 -7 41 -10 -9 42 -11 33 60 -4 44 -26 56 -6 -20 -12 -15 37 62 -29 -31 -41 -2 -24 -30 -1 -23 -27 48 -8 50 -33 -49 53 -53 -47 -22 -3 -13 -25 -60 -17 -28 -37
right_child=1 6 11 4 8 7 16 23 9 25 34 57 -14 35 -16 27 -18 -19 26 -21 55 45 24 58 30 46 61 38 43 39 -32 49 -34 -35 -36 36 -38 -39 -40 40 -42 -43 -44 -45 -46 54 -48 51 -50 -51 -52 52 -54 -55 -56 -57 -58 -59 59 -61 -62 -63 -64
leaf_value=-0.049827968997463223 -0.045042276500994551 0.021111151550571795 0.0082728572253894291 -0.0049137497768651289 0.0025471977723789509 -0.021780914179495681 0.037567574531074843 -0.0001442821220822843 -0.0081956037641665262 0.056001401178128664 -0.010368138293027785 0.02846106788206211 -0.0031447935442650236 -0.062654316935297619 0.035570643311146281 -0.021920476990591943 0.086796285680681082 0.15570515840774185 -0.010393390691834072 0.063543433788423045 -0.035128884449892976 -0.05618082643333569 0.011209007588151677 -0.0090242116922557344 -0.0058645147582593654 0.016742444913148059 -0.0085180426217573713 -0.011890170487663922 -0.0068745703812793215 -0.053666677641098372 0.013960971044587834 0.010121106767828448 0.033641080016616413 -0.03486586253874966 0.0039078046891926291 -0.066679071781647545 -0.028215071922509074 -0.026290226195676961 0.0046275995502725875 -0.015835434409003101 -0.031925819867151352 -0.012666180698086582 0.024848987933348533 -0.017130080678842096 -0.02997043205674026 -0.029215962137155407 0.038544700303383729 0.030360005680209936 0.018717228210571736 0.023413580180890393 0.00026986366752761447 0.028991687108837885 0.049336080676306862 0.014002538408192634 -0.0251098448043248 -0.032985547760087497 0.031933268768288239 0.013391454626306577 -0.0095698160402284405 -0.019064205517434263 -0.013122849891792222 -0.013734105591529723 -0.019254140581456372
leaf_weight=212 140 142 122 296 159 333 153 518 221 191 111 199 173 451 543 105 1591 579 100 467 663 303 112 1027 164 200 173 141 241 132 112 711 103 400 203 497 991 225 122 337 110 205 139 117 113 456 116 253 362 205 108 112 228 178 126 188 243 498 110 113 291 101 122
leaf_count=212 140 142 122 296 159 333 153 518 221 191 111 199 173 451 543 105 1591 579 100 467 663 303 112 1027 164 200 173 141 241 132 112 711 103 400 203 497 991 225 122 337 110 205 139 117 113 456 116 253 362 205 108 112 228 178 126 188 243 498 110 113 291 101 122
internal_value=-9.63816e-05 0.0151008 -0.0217298 -0.00979123 -0.00187924 -0.0271021 0.0353957 -0.0189024 0.0066636 0.0169323 -0.0264249 0.00709431 -0.0342997 -0.0360815 0.0241291 -0.00732899 0.0410018 0.0364923 -0.0192523 0.0323731 -0.0324324 -0.0327642 0.00534759 -0.00984163 0.0120493 0.0340237 -0.0254522 -0.0150986 -0.01 -0.025 0.00217391 0.0187012 0.0122137 -0.0316 -0.00159236 -0.0404637 -0.0386649 -0.042891 -0.00437262 -0.0202936 -0.0166667 -0.0195652 0.0229084 -0.0159218 -0.0333846 -0.0379096 0.0259494 0.0276827 0.0230097 0.0158203 0.0137363 0.0308042 0.0277992 0.0231034 -0.0345361 -0.0380141 0.0263636 0.0188666 -0.01384 -0.0204036 -0.0222222 -0.0142336 -0.0464459
internal_weight=18157 10665 7492 4790 3246 6315 5875 2952 2176 1255 1544 1177 3363 3190 1952 921 3923 2332 1070 1753 1184 1230 748 1768 527 507 774 659 480 904 276 1409 262 500 314 2286 1835 844 263 579 447 345 251 358 325 885 316 1286 515 1024 819 771 518 290 582 851 385 697 1250 223 396 274 619
internal_count=18157 10665 7492 4790 3246 6315 5875 2952 2176 1255 1544 1177 3363 3190 1952 921 3923 2332 1070 1753 1184 1230 748 1768 527 507 774 659 480 904 276 1409 262 500 314 2286 1835 844 263 579 447 345 251 358 325 885 316 1286 515 1024 819 771 518 290 582 851 385 697 1250 223 396 274 619
is_linear=0
shrinkage=0.05


Tree=16
num_leaves=64
num_cat=0
split_feature=5 11 11 11 5 5 4 0 5 11 0 11 5 5 11 4 11 5 5 11 11 5 11 5 0 11 11 0 0 5 5 11 11 4 5 4 11 11 8 11 5 11 10 4 8 9 8 11 10 4 0 4 5 4 11 5 9 10 0 6 11 1 1
split_gain=2274.93 2046.64 539.36 241.563 180.714 155.102 145.954 120.688 103.061 75.9481 71.627 70.9916 61.7563 57.7296 54.0085 51.6566 51.3936 44.2874 41.0648 38.2992 38.2075 37.9243 33.8022 26.5335 25.0103 23.6578 22.6326 21.1078 17.0458 17.023 16.7933 16.2153 15.3571 14.3332 14.1534 13.9633 15.7518 11.5461 12.4437 11.3743 10.2644 9.3966 9.12967 8.73532 8.16182 7.64229 15.3215 7.21861 6.84011 6.63988 6.52 6.3758 7.17278 6.17456 6.08091 6.01798 13.8564 8.7452 5.72158 5.1719 6.10005 5.01721 5.01222
threshold=3.297454112770398 3.6433078509430619 4.6888253271550946 2.7830831038071611 2.5385183711115036 3.8768790448237795 5.9250000000000016 -1.0000000180025095e-35 3.8768790448237795 5.6215725017286333 -1.0000000180025095e-35 4.6888253271550946 4.1885672108548855 3.8768790448237795 4.6888253271550946 5.8750000000000009 2.0780420047016954 4.6811597513740617 2.5385183711115036 5.6215725017286333 3.0307523450026026 5.2627035316654629 3.0307523450026026 4.626133316688656 -1.0000000180025095e-35 5.6215725017286333 3.2260077333115973 -1.0000000180025095e-35 -1.0000000180025095e-35 2.8682832386041182 4.6811597513740617 2.2036258632932877 5.1248781796567631 6.3250000000000011 2.5385183711115036 6.2250000000000005 5.3604969910918303 4.2485396955780379 4.1358661007158295 2.2036258632932877 5.2627035316654629 2.3747185722904001 3.1779608948553739 5.0750000000000011 3.529628600370712 3.0382463972163127 3.9515558652552287 2.3747185722904001 4.5404033381702336 2.7250000000000005 1.0000000180025095e-35 3.6250000000000004 4.3301805277870571 2.9250000000000007 5.2333123587241444 4.6811597513740617 3.0382463972163127 3.0400572460354396 1.0000000180025095e-35 3.8174209150822631 5.1248781796567631 1.0000000180025095e-35 -0.56174490092936669
decision_type=2 2 2 2 2 2 2 2 2 2 2 2 2 2 2 2 2 2 2 2 2 2 2 2 2 2 2 2 2 2 2 2 2 2 2 2 2 2 2 2 2 2 2 2 2 2 2 2 2 2 2 2 2 2 2 2 2 2 2 2 2 2 2
left_child=2 3 7 8 19 11 13 22 24 32 31 44 -12 26 15 17 -14 51 45 27 41 33 34 -8 47 54 -5 -4 -15 -24 35 -10 61 -18 -1 36 -16 38 -22 -36 -25 -20 -43 -33 -3 -9 -47 -2 49 -31 -28 -7 -53 -39 58 56 -30 -57 -13 60 -29 -6 -34
right_child=1 5 4 6 9 14 23 18 10 -11 12 25 16 28 30 -17 21 -19 20 -21 37 -23 29 40 -26 -27 50 59 55 48 -32 43 62 -35 39 -37 -38 53 -40 -41 -42 42 -44 -45 -46 46 -48 -49 -50 -51 -52 52 -54 -55 -56 57 -58 -59 -60 -61 -62 -63 -64
leaf_value=-0.049719305398630946 -0.043122218402612295 0.00092344605446978987 -0.011979328546561675 -0.017912238093768552 0.0008177296257414258 0.021015949075071962 0.038590958926197128 -0.063345118192565164 -0.017982308064191457 0.022568780525155464 0.0096927704708488892 0.024156520022879359 -0.038079185273440987 0.019778011216797699 0.035047080195842906 0.085682152401452827 -0.01833535140953271 0.046721391950552471 -0.057771006291363607 -0.00046900708467394474 -0.029512324472621754 0.007331209802140571 -0.021162924254854356 0.0051834181630063926 -0.046634232165288982 0.049698924388180958 0.0037578461196788428 -0.023877880192372216 0.0019577915098855981 0.00098180505246445735 0.096261480693183465 0.00019072664036769995 0.010750604071025139 -0.0030368688629956787 -0.057265275397513207 0.1679198814138684 0.068859003830703411 -0.012575583083153541 -0.016785590969433242 -0.024852391374421103 0.030139270563025813 -0.025645534581260288 -0.043755897127036363 0.018028296394051003 0.010058055569303836 -0.042046955741505368 -0.015550959332498882 -0.021210431066535997 0.004114252193633039 -0.014331022653281856 -0.0074461541538515036 0.047318055255740711 0.013046086506891831 -0.016256181853399301 0.026790184955940124 -0.0017920150921765243 -0.013268651401634059 0.013588401553037888 0.017571471175247978 -0.020929660923866278 -0.012037658238729 -0.0053743477827281399 0.0055049709080485128
leaf_weight=232 126 173 212 400 429 106 228 703 137 358 119 309 275 291 772 521 683 321 357 217 243 105 351 124 576 251 131 156 264 113 1017 165 180 101 100 323 356 303 458 289 111 504 101 170 569 517 122 125 101 212 147 135 466 175 301 100 164 115 388 331 101 278 349
leaf_count=232 126 173 212 400 429 106 228 703 137 358 119 309 275 291 772 521 683 321 357 217 243 105 351 124 576 251 131 156 264 113 1017 165 180 101 100 323 356 303 458 289 111 504 101 170 569 517 122 125 101 212 147 135 466 175 301 100 164 115 388 331 101 278 349
internal_value=-7.9859e-05 0.0147539 -0.0211959 -0.0101245 -0.00285331 0.0340379 0.00257831 -0.031008 -0.0203331 0.0076537 -0.0134758 0.0226268 -0.0196025 -0.00452854 0.0396938 0.0323757 -0.02311 0.0258755 -0.0359891 -0.0193215 -0.0316908 -0.0172666 -0.018598 0.0273218 -0.0348851 0.0299039 -0.0156342 -0.024375 0.00353319 -0.0116474 0.0442869 0.00317797 0.00177994 -0.0210459 -0.0272947 0.0408339 0.0382092 -0.0256573 -0.0297432 -0.0214653 0.0155319 -0.0390852 -0.0352893 0.00910448 0.0103774 -0.0428465 -0.0388889 -0.0217131 -0.00492958 -0.00846154 -0.00467626 0.0188826 0.0168885 -0.0196653 0.0264529 -0.00101089 -0.00443925 0.00581395 0.0238881 -0.0292517 -0.02393 -0.00304102 0.00822306
internal_weight=18157 10665 7492 4657 2611 6008 2075 4881 2582 1594 1755 1991 1283 1612 4017 1549 1164 1028 3483 1017 2141 889 1398 463 827 1249 678 800 934 777 2468 472 1236 784 621 1451 1128 1179 701 389 235 962 605 335 742 1342 639 251 426 325 278 707 601 478 998 643 428 215 697 588 257 707 529
internal_count=18157 10665 7492 4657 2611 6008 2075 4881 2582 1594 1755 1991 1283 1612 4017 1549 1164 1028 3483 1017 2141 889 1398 463 827 1249 678 800 934 777 2468 472 1236 784 621 1451 1128 1179 701 389 235 962 605 335 742 1342 639 251 426 325 278 707 601 478 998 643 428 215 697 588 257 707 529
is_linear=0
shrinkage=0.05


Tree=17
num_leaves=64
num_cat=0
split_feature=5 9 9 10 5 5 9 7 5 6 5 5 3 0 9 8 8 0 5 0 5 9 8 8 9 0 5 0 5 5 9 8 9 8 8 9 10 0 8 5 0 0 8 7 8 8 9 8 8 3 8 10 10 6 0 5 8 10 8 3 6 7 5
