tree
version=v4
num_class=1
num_tree_per_iteration=1
label_index=0
max_feature_idx=11
objective=quantile
feature_names=dow_sin dow_cos month_sin month_cos route_30d_median route_te origin_zone_te dest_zone_te carrier_te service_level_te origin_service_te carrier_service_te
feature_infos=[-0.97492791218182362:0.97492791218182362] [-0.90096886790241903:1] [-1:1] [-1:1] [1:40.98575358997337] [9.2987043436262162:9.3319594018942382] [8.6494734882084039:10.448095936301893] [8.631919167370615:10.196092673950858] [8.5122934476525511:10.032496922759389] [3.1817529699799936:16.885854011385479] [4.6443636125458401:15.703377970006823] [3.4116834720651332:17.669827936477663]
tree_sizes=4623 5719 5534 5440 5348 5151 5457 5521 5729 5808 5810 5783 5757 5789 5744 5788 5804 5805 5795 5820 5794 5800 5807 5806 5793 5773 5760 5803 5779 5767 5775 5793 5829 5829 5751 5803 5791 5757 5789 5804 5781 5777 5779 5772 5810 5799 5801 5807 5801 5789 5797 5810 5826 5832 5783 5819 5770 5827 5772 5818 5828 5836 5861 5859 5804 5795 5824 5813 5799 5816 5808 5793 5789 5790 5770 5819 5822 5852 5832 5828 5846 5822 5828 5865 5816 5884 5848 5852 5841 5811 5856 5890 5874 5856 5834 5866 5884 5865 5893 5907 5899 5865 5947 5889 5850 5854 5874 5885 5855 5873 5851 5906 5869 5886 5885 5899 5904 5907 5854 5855 5870 5922 5890 5863 5879 5884 5886 5911 5874 5847 5887 5900 5895 5907 5906 5924 5879 5878 5874 5896 5921 5926 5916 5929 5914 5899 5916 5879 5869 5900 5926 5894 5911 5955 5903 5880 5899 5916 5906 5953 5907 5933 5901 5904 5884 5912 5884 5893 5891 5904 5938 5907 5932 5910 5891 5909 5922 5877 5904 5865 5891 5923 5899 5880 5899 5920 5906 5912 5901 5878 5891 5899 5917 5904 5944 5926 5934 5900 5907 5884 5872 5875 5898 5924 5921 5888 5942 5918 5871 5918 5879 5935 5907 5897 5916 5918 5904 5898 5921 5866 5870 5876 5862 5893 5936 5946 5948 5925 5907 5932 5956 5896 5929 5927 5933 5926 5897 5899 5898 5945 5898 5944 5914 5934 5949 5920 5930 5919 5960 5951 5899 5912 5951 5915 5938 5948 5925 5884 5934 5925 5944 5888 5955 5929 5936 5970 5951 5960 5939 5872 5926 5908 5931 5907 5954 5931

Tree=0
num_leaves=54
num_cat=0
split_feature=11 5 9 9 11 4 0 9 0 7 5 11 8 3 8 4 5 11 11 5 3 4 2 2 4 5 5 5 6 11 11 2 4 4 0 5 9 3 3 4 0 2 5 7 8 7 4 4 11 5 3 11 4
split_gain=2879.97 933.895 54.4701 47.854 27.3377 16.8755 9.05065 5.40013 8.0765 5.17281 4.91191 4.65337 3.97215 2.55845 2.07065 1.89407 1.37719 1.35609 1.34211 0.786585 0.770559 0.583177 0.267634 0.444365 0.213112 0.239937 0.121945 0.106046 0.166653 0.245971 0.0717253 0.101404 0.0638107 0.149451 0.031076 0.0414868 0.0395864 0.0463289 0.0734352 0.0608503 0.074718 0.035276 0.0282079 0.02714 0.024936 0.0442129 0.0137997 0.0471074 0.00726353 0.00655463 0.00650012 0.0041852 0.00513909
threshold=7.7587673633605343 9.3191751683565318 9.0946630588034569 14.118550572800176 7.181604240573022 5.9750000000000005 -1.0000000180025095e-35 5.9216033086211768 -1.0000000180025095e-35 9.1447522124391654 9.3163489023961343 11.557762842549858 9.900517890831539 0.93301270189221952 9.5733586346751469 6.575000000000002 9.3236339036701974 11.047258580585028 4.9764203298643164 9.3223615895979268 0.6830127018922193 7.5250000000000012 1.0000000180025095e-35 -0.5 9.2750000000000021 9.3242570829484936 9.3110149445958221 9.3258050135772734 9.8000992955088666 4.9764203298643164 11.230199926841854 0.68301270189221941 14.725000000000003 16.825000000000006 0.6078576107927941 9.3235579490310325 4.0934403019151535 0.25000000000000017 -0.9330127018922193 7.4250000000000016 -1.0000000180025095e-35 -0.93301270189221919 9.3262239737218184 9.4906651436118512 9.7056298421001497 9.016545159098408 9.9250000000000025 7.7750000000000012 4.1529854962911825 9.3239652873979804 -0.68301270189221952 5.3841725086658512 8.3750000000000018
decision_type=2 2 2 2 2 2 2 2 2 2 2 2 2 2 2 2 2 2 2 2 2 2 2 2 2 2 2 2 2 2 2 2 2 2 2 2 2 2 2 2 2 2 2 2 2 2 2 2 2 2 2 2 2
left_child=4 3 12 10 7 9 -6 13 16 -5 15 17 -3 27 21 22 -9 -12 -15 -4 24 -8 23 26 -10 -26 -2 32 42 -30 -24 -32 34 -34 35 44 49 38 -38 -39 -41 -36 43 -29 48 -46 47 -40 -1 -37 -44 -43 -53
right_child=1 2 19 5 6 -7 14 8 20 -11 11 -13 -14 18 -16 -17 -18 -19 -20 -21 -22 -23 30 -25 25 -27 -28 28 29 -31 31 -33 33 -35 41 36 37 39 46 40 -42 51 50 -45 45 -47 -48 -49 -50 -51 -52 52 -54
leaf_value=7.5300001859664913 7.6850001811981201 7.7950001716613766 8.0300001621246331 7.7950001716613766 7.7950001716613766 7.9150002002716064 7.7550001859664919 7.7300001859664915 7.7300001859664915 7.7700001716613771 7.7200001716613773 7.7900001764297482 7.8175001859664919 7.6250001907348635 7.7850001811981198 7.7350001811981199 7.7700001716613771 7.7600001811981203 7.7100001811981205 8.0450001716613766 7.7450001716613768 7.7800001859664913 7.6550001859664913 7.6900001764297485 7.7550001859664919 7.7500001907348635 7.6800001859664917 7.6600001811981198 7.6250001907348635 7.6900001764297485 7.695000171661377 7.695000171661377 7.6500001907348629 7.6500001907348629 7.6350001811981203 7.5800001859664921 7.6800001859664917 7.6800001859664917 7.6700001716613766 7.6850001811981201 7.6700001716613766 7.6300001859664919 7.6675001740455624 7.6650001764297482 7.600000178813934 7.6300001859664919 7.6800001859664917 7.6800001859664917 7.5950001835823056 7.5750001788139345 7.6600001811981198 7.5900001764297489 7.6700001716613766
leaf_weight=123 101 140 151 162 165 118 104 106 278 133 139 102 162 150 143 114 145 177 157 8058 135 148 204 105 104 144 102 126 110 104 150 135 134 168 101 114 132 124 209 123 166 1524 104 100 113 141 338 121 1031 337 217 109 101
leaf_count=123 101 140 151 162 165 118 104 106 278 133 139 102 162 150 143 114 145 177 157 8058 135 148 204 105 104 144 102 126 110 104 150 135 134 168 101 114 132 124 209 123 166 1524 104 100 113 141 338 121 1031 337 217 109 101
internal_value=7.79995 7.81734 7.82417 7.78398 7.77695 7.79885 7.78759 7.77612 7.77972 7.79246 7.77936 7.78385 7.80331 7.7756 7.78348 7.77731 7.78735 7.78085 7.78005 7.82493 7.77682 7.78075 7.77644 7.7776 7.77595 7.77702 7.77623 7.77537 7.77592 7.7771 7.77572 7.77623 7.77529 7.77599 7.77524 7.77534 7.77551 7.77566 7.77544 7.77609 7.77569 7.77508 7.77546 7.77589 7.77514 7.77559 7.77522 7.77545 7.77504 7.77511 7.77516 7.77503 7.77524
internal_weight=18002 10253 8511 1742 7749 413 560 7189 912 295 1329 418 302 6277 395 911 251 316 307 8209 661 252 797 308 526 248 203 5970 761 214 489 285 5209 302 4907 3072 1664 1213 800 413 289 1835 547 226 1408 254 668 330 1154 451 321 1734 210
internal_count=18002 10253 8511 1742 7749 413 560 7189 912 295 1329 418 302 6277 395 911 251 316 307 8209 661 252 797 308 526 248 203 5970 761 214 489 285 5209 302 4907 3072 1664 1213 800 413 289 1835 547 226 1408 254 668 330 1154 451 321 1734 210
is_linear=0
shrinkage=1


Tree=1
num_leaves=64
num_cat=0
split_feature=11 4 9 4 4 11 10 7 10 7 11 11 7 6 7 6 4 11 3 7 8 11 7 10 6 8 6 6 4 4 7 1 11 1 10 4 4 4 10 4 11 4 11 10 7 10 7 4 11 7 6 1 10 4 8 1 3 11 10 4 11 1 11
split_gain=2854.86 299.989 51.7902 41.0775 36.6235 35.8585 22.4261 43.9504 17.3384 94.2134 14.6841 11.3488 6.22608 9.53249 6.0814 5.9921 5.74595 4.67838 4.5352 4.14541 3.94235 3.58791 3.53662 16.9005 4.99456 3.51963 3.50885 3.42237 3.06319 3.01868 2.79059 2.55488 2.46935 2.31916 1.41745 1.36167 1.12684 0.724286 1.8405 0.576983 0.558211 0.252585 0.211906 0.199752 0.167516 0.158641 1.5857 0.137054 0.155011 0.204522 0.097985 0.113254 0.0859509 0.0595729 0.0495179 0.0384494 0.0545955 0.101741 0.0371204 0.0359141 0.0344108 0.0220845 0.0221412
threshold=7.7587673633605343 5.2750000000000012 9.0946630588034569 8.0250000000000021 3.1250000000000004 7.0123631223962128 11.777409958626853 9.705883641112715 10.916961605044801 9.016545159098408 11.608931165950542 11.608931165950542 9.705883641112715 9.6209964920993407 9.3245199254859106 9.0858994153333601 4.6750000000000016 11.938909388457553 0.93301270189221952 9.016545159098408 9.473476925930802 6.823508529069926 9.4906651436118512 11.409098604199476 9.6209964920993407 9.900517890831539 9.0033576129865747 9.434560002614786 6.4250000000000016 7.9250000000000016 8.8143815630184132 -0.22252093395631442 5.2737722407001817 -0.22252093395631442 10.668650684810805 8.0250000000000021 2.6250000000000004 8.9750000000000014 10.916961605044801 8.6750000000000025 4.8407585130206465 6.9750000000000005 11.938909388457553 9.2620231683076941 9.3245199254859106 10.916961605044801 9.016545159098408 14.525000000000002 4.8407585130206465 9.4364667067356276 10.080977544275127 -0.22252093395631442 9.2611474705230226 7.5250000000000012 9.7056298421001497 -0.22252093395631442 -0.5 5.6381062815907201 4.7646067334081312 8.4250000000000025 16.480018423360558 -0.56174490092936669 4.1529854962911825
decision_type=2 2 2 2 2 2 2 2 2 2 2 2 2 2 2 2 2 2 2 2 2 2 2 2 2 2 2 2 2 2 2 2 2 2 2 2 2 2 2 2 2 2 2 2 2 2 2 2 2 2 2 2 2 2 2 2 2 2 2 2 2 2 2
left_child=5 4 25 8 17 18 7 11 9 10 34 14 13 -8 15 30 -13 36 21 26 33 43 23 -21 -25 -3 -10 -24 -29 -22 -6 35 40 -7 -4 -23 -2 38 -5 -35 -20 -33 -11 47 -31 46 -39 50 -49 -50 54 -52 -43 -53 61 56 -56 -58 -57 -40 -48 62 -1
right_child=1 2 3 37 6 20 12 -9 19 42 -12 16 -14 -15 -16 -17 -18 -19 32 22 29 31 27 24 -26 -27 -28 28 -30 44 -32 41 -34 39 -36 -37 -38 45 59 -41 -42 52 -44 -45 -46 -47 60 48 49 -51 51 53 -54 -55 55 58 57 -59 -60 -61 -62 -63 -64
leaf_value=-0.23875001132488252 -0.12275001883506774 -0.0047500181198119945 -0.069749999046325686 0.21774997234344484 -0.10887501120567322 -0.019750003814697249 0.071499981880187982 0.22775001049041751 0.13674999475479127 0.20774998188018801 0.030499972105026266 -0.019750003814697249 0.15774998188018802 0.23274998188018803 0.15524999618530277 -0.044749999046325685 0.22274999141693119 -0.019749999046325684 -0.17625001430511478 0.063499990701675432 -0.029750018119811997 -0.074000009298324579 0.24774999141693119 0.22775001049041751 0.23775000095367435 0.014125009775161734 0.22775001049041751 0.19774999141693117 0.23274998188018803 -0.0092500138282775712 -0.069624999165534981 -0.066500004529953 -0.055500013828277607 -0.050625008940696707 -0.036000008583068864 -0.033000013828277601 -0.099750018119812017 0.49274997234344486 0.23775000095367435 -0.022249999046325675 -0.096250019073486348 -0.04724999904632568 0.49274997234344486 -0.18400000452995302 -0.0090000140666961492 0.23274998188018803 0.21774997234344484 -0.17187501907348635 -0.11300000429153441 -0.10950000882148743 -0.11662499934434889 -0.13150000929832459 -0.042500004768371596 -0.12637501418590547 -0.10887500673532487 -0.11649999976158143 -0.12125000894069671 -0.11799999952316283 -0.13050000905990602 0.22775001049041751 0.51774997234344489 -0.16150000452995303 -0.14475001871585844
leaf_weight=149 141 147 105 158 200 148 127 146 120 407 117 159 115 154 100 101 129 118 124 142 154 104 266 176 241 164 519 146 173 114 178 109 107 110 123 114 117 125 159 101 107 105 129 151 104 3572 1097 180 119 103 200 102 116 212 152 128 116 109 472 276 106 2695 1244
leaf_count=149 141 147 105 158 200 148 127 146 120 407 117 159 115 154 100 101 129 118 124 142 154 104 266 176 241 164 519 146 173 114 178 109 107 110 123 114 117 125 159 101 107 105 129 151 104 3572 1097 180 119 103 200 102 116 212 152 128 116 109 472 276 106 2695 1244
internal_value=0.000155538 0.0174656 0.0213923 0.0221558 -0.00116246 -0.0227481 0.00253726 -0.00140671 0.0170608 0.0113224 -0.00905797 -0.00568051 0.0126263 0.016637 -0.00971503 -0.0120564 0.00243056 -0.0150266 -0.0238458 0.0198962 -0.0122093 -0.0241317 0.0180944 0.0152504 0.0203237 0.00136656 0.0231221 0.020812 0.0173197 -0.00860215 -0.0149471 -0.0202555 -0.0181953 -0.0159471 -0.0164474 -0.016055 -0.0187984 0.0246268 0.0229764 -0.0193128 -0.0211039 -0.0230303 0.0244403 -0.0244781 -0.00481651 0.0248265 0.0243599 -0.0245235 -0.0236318 -0.0227477 -0.0245877 -0.02393 -0.0220588 -0.0245223 -0.0246545 -0.0243347 -0.023939 -0.0234444 -0.0245833 0.0246552 0.0249169 -0.0247309 -0.0245693
internal_weight=18002 10253 8468 8157 1785 7749 1409 1013 2664 881 345 867 396 281 579 479 288 376 7018 1783 731 6680 1144 559 417 311 639 585 319 372 378 548 338 359 228 218 258 5493 593 211 231 330 536 6132 218 4900 1328 5981 402 222 5579 514 221 314 5065 977 377 225 600 435 1203 4088 1393
internal_count=18002 10253 8468 8157 1785 7749 1409 1013 2664 881 345 867 396 281 579 479 288 376 7018 1783 731 6680 1144 559 417 311 639 585 319 372 378 548 338 359 228 218 258 5493 593 211 231 330 536 6132 218 4900 1328 5981 402 222 5579 514 221 314 5065 977 377 225 600 435 1203 4088 1393
is_linear=0
shrinkage=0.05


Tree=2
num_leaves=61
num_cat=0
split_feature=9 5 9 9 8 5 7 0 5 8 0 5 7 5 8 4 8 5 2 8 5 0 8 2 5 8 7 4 7 2 2 8 2 4 7 4 4 0 4 4 5 5 5 1 7 2 2 10 5 4 5 4 6 4 4 5 6 10 7 0
split_gain=2812 909.003 73.4982 42.5245 32.2283 19.3404 19.2393 15.0401 10.6332 9.33536 6.33817 6.08014 5.486 4.22669 3.09821 2.87351 1.6677 1.09862 1.0008 0.8962 0.688976 0.503778 0.391722 0.418223 0.344691 0.308384 0.251583 0.222609 0.221277 0.205097 0.322941 0.196636 0.281912 0.163274 0.116351 0.0996451 0.0889515 0.0906055 0.0730178 0.136908 0.0634504 0.0625708 0.0572783 0.0480837 0.0413134 0.0558192 0.188813 0.239511 0.0386281 0.0339608 0.0250801 0.0158618 0.0311154 0.053442 0.0144368 0.0131661 0.0462857 0.00746747 0.00731396 0.00379468
threshold=9.0946630588034569 9.3191751683565318 5.9216033086211768 14.118550572800176 9.473476925930802 9.3217354035251052 9.1447522124391654 -1.0000000180025095e-35 9.3166829797593511 9.900517890831539 -1.0000000180025095e-35 9.3234760752953765 9.016545159098408 9.3167430061726915 9.3942245828887128 6.2750000000000012 9.0481405873201606 9.3223615895979268 -0.24999999999999997 9.5733586346751469 9.3191751683565318 -1.0000000180025095e-35 9.5733586346751469 1.0000000180025095e-35 9.3233874251375202 8.9094397566790562 8.7383080020964687 9.1250000000000018 9.1742463098550626 -0.24999999999999997 0.25000000000000011 9.900517890831539 1.0000000180025095e-35 11.175000000000002 8.8997148111845252 12.075000000000003 15.225000000000003 0.6078576107927941 3.4250000000000007 4.5250000000000012 9.3245698547093792 9.3110149445958221 9.3245639085507914 1.0000000180025095e-35 9.3245199254859106 0.25000000000000011 -0.24999999999999997 5.1932109514156641 9.3254685977214109 6.0250000000000012 9.3239652873979804 9.9250000000000025 9.8000992955088666 6.4750000000000005 6.9750000000000005 9.3237462861019491 9.0690940665605861 9.0975780453512254 9.1742463098550626 1.0000000180025095e-35
decision_type=2 2 2 2 2 2 2 2 2 2 2 2 2 2 2 2 2 2 2 2 2 2 2 2 2 2 2 2 2 2 2 2 2 2 2 2 2 2 2 2 2 2 2 2 2 2 2 2 2 2 2 2 2 2 2 2 2 2 2 2
left_child=2 3 21 12 7 -6 8 11 -5 10 -7 -4 13 15 -15 19 -13 -3 -12 26 -9 22 27 -24 -22 -26 -2 43 -27 -29 -31 36 -33 -20 -25 -32 44 -38 -14 -40 -30 -41 -34 54 51 46 49 -48 59 -46 -36 52 55 -54 -1 58 -57 -51 -23 -47
right_child=1 17 4 6 5 9 -8 20 -10 -11 18 16 38 14 -16 -17 -18 -19 33 -21 24 31 23 34 25 28 -28 29 40 30 35 32 42 -35 50 -37 37 -39 39 41 -42 -43 -44 -45 45 48 47 -49 -50 57 -52 -53 53 -55 -56 56 -58 -59 -60 -61
leaf_value=-0.17667500418424609 -0.11430624848604204 0.20711247229576113 -0.098281258612871167 -0.0037625181674957099 -0.17613751745224002 0.015487511396408095 -0.032075017213821423 -0.22817501384019853 0.10741248071193699 0.018418730676174146 -0.015387505650520317 -0.026850017428398144 -0.11286249881982804 -0.036856256246566792 -0.0062000133991241494 -0.034575008392333982 0.004424998641014111 0.22111248278617862 -0.0060125151872634681 -0.076150007307529466 -0.03710000431537628 -0.23342501145601277 -0.095425013124942781 -0.12592500907182697 -0.054425009310245548 -0.027887518882751428 -0.10189376339316368 -0.12117501360177996 -0.033406261235475521 -0.11372499869763852 -0.12713750591874123 -0.092075018137693393 -0.13860001820325851 -0.0095125124454498167 -0.134350011408329 -0.12167500895261765 -0.14185001885890958 -0.13890626811981202 -0.12095313589274881 -0.11288751578330994 -0.032887514114379846 -0.11792500334978105 -0.08766874907910821 -0.15742812637984754 -0.19574063842743639 -0.13667501848936081 -0.11103124888241292 -0.19568750572204593 -0.12842500430345538 -0.12067501348257066 -0.094421891473233724 -0.13842501860857012 -0.13379687657207248 -0.13492499929666521 -0.12176251313090325 -0.13042500358819961 -0.12842500430345538 -0.21713750979304314 -0.2625125058591366 -0.14518126335740092
leaf_weight=356 173 151 100 162 110 131 151 147 100 160 118 103 173 112 114 114 104 8058 114 114 121 694 187 101 169 143 110 173 112 106 142 184 196 103 100 157 102 119 120 114 101 123 103 114 152 191 106 111 161 326 118 767 118 138 183 125 225 102 117 503
leaf_count=356 173 151 100 162 110 131 151 147 100 160 118 103 173 112 114 114 104 8058 114 114 121 694 187 101 169 143 110 173 112 106 142 184 196 103 100 157 102 119 120 114 101 123 103 114 152 191 106 111 161 326 118 767 118 138 183 125 225 102 117 503
internal_value=0.000163871 0.018063 -0.0216535 -0.0154464 -0.012854 -0.00475543 -0.00151332 -0.0182727 0.00667939 -0.00135783 -0.00493562 -0.00887622 -0.0199882 -0.0171981 -0.0115044 -0.0197162 -0.00398551 0.0249208 -0.00858209 -0.0217254 -0.0219105 -0.0242273 -0.0235032 -0.022332 -0.0212074 -0.0217619 -0.0232332 -0.0239846 -0.020927 -0.0232699 -0.0226543 -0.0245044 -0.0235507 -0.00656682 -0.0234326 -0.023495 -0.0246179 -0.0236425 -0.0238679 -0.0234594 -0.0219484 -0.0241561 -0.0244983 -0.0246172 -0.0246741 -0.0244855 -0.0241844 -0.0229263 -0.0247661 -0.0246552 -0.0240826 -0.0248168 -0.0247177 -0.0242188 -0.0248145 -0.0248277 -0.0245714 -0.0248832 -0.0249383 -0.024928
internal_weight=18002 9889 8113 1680 1836 736 413 1100 262 626 466 307 1267 737 226 511 207 8209 335 397 793 6277 1737 506 646 525 283 1231 356 578 405 4540 483 217 319 299 4057 221 530 357 213 237 299 653 3836 1652 797 217 855 580 218 2184 1417 256 539 1161 350 428 811 694
internal_count=18002 9889 8113 1680 1836 736 413 1100 262 626 466 307 1267 737 226 511 207 8209 335 397 793 6277 1737 506 646 525 283 1231 356 578 405 4540 483 217 319 299 4057 221 530 357 213 237 299 653 3836 1652 797 217 855 580 218 2184 1417 256 539 1161 350 428 811 694
is_linear=0
shrinkage=0.05


Tree=3
num_leaves=60
num_cat=0
split_feature=9 5 9 9 8 7 5 0 5 8 7 5 5 0 3 4 8 10 8 2 8 5 3 4 0 8 3 5 9 5 8 3 10 4 5 8 2 0 8 5 7 4 4 10 5 8 4 4 2 4 7 8 8 8 10 4 8 4 2
split_gain=2798.14 901.284 73.714 40.3358 28.5524 20.3839 18.6669 14.6306 11.1156 10.0646 7.61391 6.21487 5.2972 4.61038 4.56829 3.5032 3.20949 1.79733 1.6677 1.0008 0.992859 0.932312 0.681853 0.678733 0.522028 0.514245 0.51096 0.258141 0.390099 0.250043 0.215709 0.181085 0.178294 0.163274 0.150973 0.135761 0.17863 0.0960474 0.0891682 0.069805 0.0536375 0.079936 0.0472533 0.047039 0.0877788 0.0252517 0.0375967 0.0538322 0.021116 0.0200995 0.00766189 0.0134577 0.0359518 0.0281271 0.00833333 0.00713467 0.00697433 0.00694241 0.00635037
threshold=9.0946630588034569 9.3217354035251052 5.9216033086211768 14.118550572800176 9.473476925930802 9.1447522124391654 9.3217354035251052 -1.0000000180025095e-35 9.3166829797593511 9.900517890831539 9.016545159098408 9.3167430061726915 9.3234760752953765 -1.0000000180025095e-35 0.93301270189221952 6.2750000000000012 9.3942245828887128 5.5411910034458716 9.0481405873201606 -0.24999999999999997 9.473476925930802 9.3191751683565318 0.6830127018922193 8.6750000000000025 -1.0000000180025095e-35 8.9094397566790562 -0.24999999999999997 9.3226129750244198 4.0934403019151535 9.3243085606899658 9.5733586346751469 0.6830127018922193 4.8249279600464261 11.175000000000002 9.3241607082749187 9.2599898965703087 0.25000000000000011 1.0000000180025095e-35 9.5733586346751469 9.3242426855970404 9.3245199254859106 13.175000000000002 12.025000000000002 5.5090133729801609 9.325444185871083 9.2599898965703087 9.5250000000000021 7.3750000000000009 0.68301270189221941 10.175000000000002 9.2063743630146657 9.2599898965703087 8.9094397566790562 9.0481405873201606 4.7579338365536481 4.1250000000000009 9.900517890831539 12.975000000000003 0.68301270189221941
decision_type=2 2 2 2 2 2 2 2 2 2 2 2 2 2 2 2 2 2 2 2 2 2 2 2 2 2 2 2 2 2 2 2 2 2 2 2 2 2 2 2 2 2 2 2 2 2 2 2 2 2 2 2 2 2 2 2 2 2 2
left_child=2 3 14 10 7 8 -6 12 -5 13 11 15 -4 -8 24 20 -13 23 -14 -15 37 -9 25 -16 27 -23 29 55 48 -27 32 38 49 -21 -32 36 -34 -2 58 50 45 42 43 44 -42 -41 47 -47 -29 -30 56 52 -52 -54 -53 -1 -26 -48 -12
right_child=1 -3 4 5 6 -7 9 21 -10 -11 31 16 18 19 17 -17 -18 -19 -20 33 -22 22 -24 -25 39 26 -28 28 30 -31 34 -33 35 -35 -36 -37 -38 -39 -40 40 41 -43 -44 -45 -46 46 57 -49 -50 -51 51 54 53 -55 -56 -57 -58 -59 -60
leaf_value=-0.24082242830432954 -0.10655437371358274 0.21005685864686968 -0.093367195682227622 -0.0035743922591209287 -0.16733064157962801 -0.030071266794204733 0.014713135826587688 -0.21676626314818859 0.1043981311619282 0.017497794142365432 -0.12095001504272224 -0.032200940334796944 -0.025507516556978249 -0.014618130367994309 -0.097128762701153781 -0.032846257972717278 -0.005715016293525688 -0.16577970449924473 0.0042037487089633839 -0.0057118894279002859 -0.07549875765740871 -0.051632508856058128 -0.033711413758248092 -0.058216257670521743 -0.19150375337302683 -0.02036375887393951 -0.034711414592713118 -0.18433875600695615 -0.097072425920143743 -0.028961419480294005 -0.068257508274912837 -0.10884297266080974 -0.1069618831653148 -0.009036886823177338 -0.072753914271667594 -0.087428762206435195 -0.11009126792252065 -0.12624406635463234 -0.092969387468695652 -0.14819125295579433 -0.11116595067232851 -0.1325412582844496 -0.12768499862551691 -0.19384125302135949 -0.10389124862253665 -0.1108537682980299 -0.098503752657771101 -0.10451624814569951 -0.19074751227498052 -0.10507874754965303 -0.15867564243972304 -0.094786883394420152 -0.1343223610945046 -0.16405063522756103 -0.13400360876098277 -0.2037200106650591 -0.16337126222997905 -0.11150376290977003 -0.12485399961061774
leaf_weight=100 120 8175 100 162 110 157 131 147 104 160 174 118 103 118 104 114 122 103 104 114 167 162 140 100 1157 100 134 235 100 110 101 120 110 103 161 199 151 110 146 442 184 126 216 191 135 152 237 113 124 101 246 102 100 130 578 249 129 101 100
leaf_count=100 120 8175 100 162 110 157 131 147 104 160 174 118 103 118 104 114 122 103 104 114 167 162 140 100 1157 100 134 235 100 110 101 120 110 103 161 199 151 110 146 442 184 126 216 191 135 152 237 113 124 101 246 102 100 130 578 249 129 101 100
internal_value=0.000233307 0.0180883 -0.0215303 -0.0148775 -0.0127179 -0.00147754 -0.00509511 -0.0178182 0.00695489 -0.00175719 -0.019268 -0.016012 -0.00855049 -0.0054721 -0.0241079 -0.0191292 -0.009375 -0.0181596 -0.00398551 -0.00858209 -0.0213476 -0.0214061 -0.0205882 -0.0154412 -0.0244137 -0.0214427 -0.0203488 -0.0236511 -0.0233229 -0.0188095 -0.022779 -0.0237963 -0.0232602 -0.00656682 -0.0215649 -0.0227174 -0.0234674 -0.0234783 -0.0242857 -0.0247004 -0.0244729 -0.0241784 -0.0243802 -0.0241176 -0.0237461 -0.0247129 -0.0245025 -0.0240566 -0.0247214 -0.0245025 -0.0248771 -0.0247837 -0.0245798 -0.0241304 -0.0249265 -0.0248567 -0.0249611 -0.0248521 -0.0248175
internal_weight=18002 9889 8113 1714 1836 423 736 1100 266 626 1291 751 307 466 6277 511 240 307 207 335 397 793 646 204 5970 506 344 1631 1282 210 923 540 661 217 262 460 261 230 420 4339 1897 852 726 510 319 1045 603 265 359 201 2442 1156 476 230 680 349 1286 338 274
internal_count=18002 9889 8113 1714 1836 423 736 1100 266 626 1291 751 307 466 6277 511 240 307 207 335 397 793 646 204 5970 506 344 1631 1282 210 923 540 661 217 262 460 261 230 420 4339 1897 852 726 510 319 1045 603 265 359 201 2442 1156 476 230 680 349 1286 338 274
is_linear=0
shrinkage=0.05


Tree=4
num_leaves=59
num_cat=0
split_feature=11 5 9 9 11 7 0 4 7 3 5 5 8 8 4 11 5 11 9 0 3 5 11 0 10 9 5 4 11 4 3 7 5 11 5 5 0 4 5 5 8 5 4 0 11 7 11 4 5 4 10 5 11 5 3 5 5 4
split_gain=2789.05 895.563 53.5065 42.9297 40.9839 15.9057 14.8392 10.5701 7.39611 6.80995 5.95323 5.13726 5.00416 3.78 3.31765 2.49689 2.47149 2.36756 1.78662 2.70936 1.76026 1.41812 1.03603 0.766539 0.743672 0.396823 0.566554 0.380782 0.355707 0.700866 0.321634 0.162074 0.182269 0.137392 0.116087 0.0947251 0.0915994 0.0591448 0.0872947 0.058325 0.0389076 0.0290488 0.0539725 0.050778 0.0728891 0.0671376 0.0527883 0.0279084 0.0288363 0.0245693 0.0187085 0.00783913 0.00707395 0.00695114 0.00664611 0.00579905 0.00388912 0.00514563
threshold=7.7587673633605343 9.3217354035251052 9.0946630588034569 14.118550572800176 6.8473716197861005 9.016545159098408 -1.0000000180025095e-35 5.7750000000000012 9.016545159098408 0.93301270189221952 9.3167430061726915 9.3235068478468719 9.473476925930802 9.900517890831539 6.2750000000000012 11.230199926841854 9.3239242141498568 4.9764203298643164 5.9216033086211768 -1.0000000180025095e-35 -0.24999999999999997 9.3191751683565318 11.517018632653427 -1.0000000180025095e-35 9.2692284213642147 4.0934403019151535 9.3226129750244198 11.575000000000003 5.090860771166712 12.375000000000002 0.6830127018922193 9.016545159098408 9.32422639099509 11.557762842549858 9.3239286488582191 9.3250721260058054 1.0000000180025095e-35 14.525000000000002 9.3247937371967584 9.3242426855970404 9.900517890831539 9.3234655388582155 9.7750000000000021 0.6078576107927941 4.6406246182755586 9.4906651436118512 5.090860771166712 5.7250000000000005 9.3242426855970404 8.6250000000000018 9.1067401341092253 9.3253518321638111 4.1529854962911825 9.32490330592303 -0.9330127018922193 9.3101916395855131 9.3258769076915495 12.175000000000002
decision_type=2 2 2 2 2 2 2 2 2 2 2 2 2 2 2 2 2 2 2 2 2 2 2 2 2 2 2 2 2 2 2 2 2 2 2 2 2 2 2 2 2 2 2 2 2 2 2 2 2 2 2 2 2 2 2 2 2 2
left_child=4 3 13 8 9 7 11 -5 10 18 14 -6 21 -3 22 -12 -14 -11 23 -20 -13 -8 36 25 27 50 -27 -23 35 31 33 -30 -33 55 -21 39 -2 40 -39 -28 41 52 43 44 -43 46 -46 -42 -49 51 -1 -45 -25 -52 -44 -10 -56 -58
right_child=1 2 -4 5 6 -7 12 -9 30 17 15 20 16 -15 -16 -17 -18 -19 19 34 -22 24 -24 37 -26 26 28 -29 29 -31 -32 32 -34 -35 -36 -37 -38 38 -40 -41 47 42 54 49 45 -47 -48 48 -50 -51 53 -53 -54 -55 56 -57 57 -59
leaf_value=-0.18540972173273565 -0.1012632180913165 -0.0035850472503900391 0.19955401571452624 -0.0033956726461648935 -0.047073838639929914 -0.02828018393993377 -0.20172169261768463 0.10480064771249897 -0.11460501411981878 -0.14371869642518462 -0.044065908332467089 -0.005231450254023118 -0.029738014391958691 0.016622904435247145 -0.038422687802314753 -0.0084480040466785155 -0.011262226352989659 -0.066460918320640924 -0.041682141194045563 -0.07787213316351177 0.015806073313653447 -0.03084531632738188 -0.071723819774538275 -0.2471785732145608 -0.021948666144795737 -0.18849275988504291 -0.10458670452639462 -0.027699013108909168 -0.075366052771862577 -0.064844632861167192 -0.10402270367991179 -0.068995507670557135 -0.076952935646027371 -0.088320918095260881 -0.049320162686724234 -0.097075127082150436 -0.12233904987812041 -0.12633873652622099 -0.12369264193281529 -0.096459502624273302 -0.17128894487731161 -0.16609419120207428 -0.13420170015946029 -0.11945778712082658 -0.1196985649998486 -0.10912430901926012 -0.098445137409046313 -0.086876444108411652 -0.08008997690968217 -0.12420208588272333 -0.19149713239982724 -0.12296106066659092 -0.18942326044349 -0.17150744968593121 -0.12101153905533253 -0.12016735132239759 -0.12521935126774011 -0.11592559936486185
leaf_weight=112 128 140 8175 146 102 175 103 102 108 150 110 105 100 160 126 146 163 176 103 115 101 176 167 128 122 257 199 139 107 103 121 100 141 146 124 145 122 176 124 128 104 153 109 384 113 138 137 150 154 106 238 101 1226 101 830 181 100 106
leaf_count=112 128 140 8175 146 102 175 103 102 108 150 110 105 100 160 126 146 163 176 103 115 101 176 167 128 122 257 199 139 107 103 121 100 141 146 124 145 122 176 124 128 104 153 109 384 113 138 137 150 154 106 238 101 1226 101 830 181 100 106
internal_value=0.000361071 0.0174705 0.0242389 -0.0147919 -0.0222771 -0.000886525 -0.0133888 0.00725806 -0.0191328 -0.0237647 -0.0160513 -0.00405844 -0.0169676 0.0035 -0.0190147 -0.00976562 -0.0113118 -0.0167178 -0.0241286 -0.020614 0.000485437 -0.0197222 -0.0211631 -0.02433 -0.0184783 -0.0234059 -0.0229237 -0.0197619 -0.0223456 -0.0213415 -0.0235612 -0.0224138 -0.0231328 -0.0241954 -0.0235356 -0.0233051 -0.0232 -0.0246773 -0.024 -0.0237768 -0.0247277 -0.0247797 -0.0246706 -0.0244258 -0.0240758 -0.0237113 -0.0242 -0.0242647 -0.0245066 -0.0247462 -0.0246674 -0.0248969 -0.0249631 -0.0248525 -0.0249127 -0.024827 -0.0249517 -0.0247573
internal_weight=18002 10253 8475 1778 7749 423 1111 248 1355 6638 799 308 803 300 543 256 263 326 6312 342 206 540 417 5970 437 1631 1180 315 923 451 556 348 241 435 239 472 250 4339 300 327 4039 3631 2277 1132 541 388 250 408 304 591 451 485 1354 339 1145 289 1036 206
internal_count=18002 10253 8475 1778 7749 423 1111 248 1355 6638 799 308 803 300 543 256 263 326 6312 342 206 540 417 5970 437 1631 1180 315 923 451 556 348 241 435 239 472 250 4339 300 327 4039 3631 2277 1132 541 388 250 408 304 591 451 485 1354 339 1145 289 1036 206
is_linear=0
shrinkage=0.05


Tree=5
num_leaves=57
num_cat=0
split_feature=9 5 9 9 5 0 7 4 7 6 7 3 3 10 4 2 4 7 5 0 5 5 0 5 7 5 9 5 5 3 5 3 5 4 5 3 2 3 7 3 7 5 4 3 5 4 2 4 4 5 3 5 5 6 6 3
split_gain=2790.8 852.086 85.2308 38.0102 23.4351 20.088 19.159 10.7678 10.3199 7.746 6.60995 5.57927 1.79285 1.54081 1.02291 0.829924 1.16088 0.90958 0.748058 0.708776 0.688306 0.665443 0.479804 0.45869 0.397874 0.394274 0.385928 0.339472 0.223022 0.17958 0.149068 0.113419 0.10164 0.0577561 0.0796338 0.0570303 0.0564526 0.0597867 0.0478765 0.0416396 0.0380941 0.0322873 0.0739757 0.0252934 0.0397349 0.0260623 0.024599 0.0578118 0.04905 0.0181494 0.0224779 0.00670573 0.0053271 0.0030867 0.0082291 0.0174023
threshold=9.0946630588034569 9.3217354035251052 5.9216033086211768 14.118550572800176 9.3191751683565318 -1.0000000180025095e-35 9.016545159098408 5.9750000000000005 9.016545159098408 8.864855284234034 8.7383080020964687 0.93301270189221952 0.25000000000000017 5.5090133729801609 5.8750000000000009 -0.24999999999999997 5.8250000000000011 9.2063743630146657 9.324192478261832 -1.0000000180025095e-35 9.323788702572168 9.3168322560966192 -1.0000000180025095e-35 9.324192478261832 9.1742463098550626 9.324957433145789 4.0934403019151535 9.3258201351624965 9.3191751683565318 0.25000000000000017 9.3241801799915915 -0.5 9.3243455709867948 14.525000000000002 9.3247937371967584 0.25000000000000017 1.0000000180025095e-35 1.0000000180025095e-35 9.2063743630146657 1.0000000180025095e-35 9.4906651436118512 9.3242426855970404 5.1250000000000009 -0.9330127018922193 9.3244727071678994 9.6750000000000025 -0.5 6.0250000000000012 4.8250000000000011 9.3254685977214109 0.25000000000000017 9.3259003933659859 9.3145224494194299 9.1583859239754357 9.5252557901496377 -0.5
decision_type=2 2 2 2 2 2 2 2 2 2 2 2 2 2 2 2 2 2 2 2 2 2 2 2 2 2 2 2 2 2 2 2 2 2 2 2 2 2 2 2 2 2 2 2 2 2 2 2 2 2 2 2 2 2 2 2
left_child=2 3 11 8 35 12 7 -5 9 10 39 19 23 -13 -11 20 -17 25 -19 26 -7 -12 -10 -6 -22 -18 40 28 52 31 -31 32 -30 41 -35 -4 -24 -38 -33 -2 -1 46 -43 -44 45 -45 47 48 -21 -46 51 -51 -28 -48 55 -55
right_child=1 -3 4 6 5 15 -8 -9 22 14 21 13 -14 -15 -16 16 17 18 -20 33 24 -23 36 -25 -26 -27 27 -29 29 30 -32 38 -34 34 -36 -37 37 -39 -40 -41 -42 42 43 44 49 -47 53 -49 -50 50 -52 -53 -54 54 -56 -57
leaf_value=-0.18054695920243119 -0.099305928255169623 0.18982631349828846 -0.1833617148227692 -0.0032258887754380797 -0.00054220819739996266 -0.023112103061786862 -0.026866174742937066 0.096781908839605635 -0.084163519627276848 -0.033756320395139962 -0.042670105511173589 -0.07762380730006474 0.012670213115081187 -0.14172728331733123 -0.0089504323343187597 -0.012437416071161134 -0.021373128148719635 -0.02017187404853802 -0.016972602593295295 -0.22648302699950432 -0.014595620665769561 -0.017494352175414552 -0.10600257819443198 -0.0095544936773777067 -0.029026858790515898 -0.026283118639211667 -0.21114937105334552 -0.075080754834326441 -0.070265475518353299 -0.085878606789801734 -0.084547304505210863 -0.082556121083412801 -0.090626840405374776 -0.11504069605166463 -0.117947531236805 -0.17274390504606441 -0.10797289988440646 -0.1109700349987596 -0.087795040010307454 -0.099875845158081511 -0.16733903129532191 -0.11694606460487844 -0.12180500132605809 -0.12548818585408292 -0.11065387743197758 -0.10855659248475361 -0.16770740780820051 -0.11587800305672365 -0.1772557690236615 -0.12419048908675645 -0.1147840821753293 -0.11219822332468257 -0.18558674667527153 -0.1352503317121454 -0.12184540187667728 -0.13975032622851807
leaf_weight=311 114 8174 201 153 130 116 165 107 145 135 140 186 146 104 136 100 191 154 190 135 100 123 148 174 151 104 100 172 191 142 112 102 137 174 130 104 125 117 121 110 157 124 159 101 700 124 1003 329 112 103 177 230 114 129 450 165
leaf_count=311 114 8174 201 153 130 116 165 107 145 135 140 186 146 104 136 100 191 154 190 135 100 123 148 174 151 104 100 172 191 142 112 102 137 174 130 104 125 117 121 110 157 124 159 101 700 124 1003 329 112 103 177 230 114 129 450 165
internal_value=0.000419737 0.0182723 -0.0212354 -0.0137369 -0.011835 -0.0093509 -0.000764706 0.00769231 -0.0180008 -0.014248 -0.0180185 -0.0240149 -0.000444444 -0.0172414 -0.00747232 -0.0129747 -0.0120095 -0.0127934 -0.0110465 -0.0243421 -0.0149183 -0.0126426 -0.0233178 -0.00263158 -0.0134462 -0.0148305 -0.0234629 -0.0229849 -0.0233317 -0.0229503 -0.0218504 -0.0234574 -0.0228659 -0.0246778 -0.0240132 -0.0245082 -0.0242308 -0.0237603 -0.0243274 -0.0243304 -0.0246795 -0.0247278 -0.0245634 -0.024655 -0.0247213 -0.0241111 -0.0248493 -0.024566 -0.0239879 -0.0248347 -0.0246078 -0.0248498 -0.0247664 -0.0249428 -0.0248656 -0.0246599
internal_weight=18047 9892 8155 1718 1861 1556 425 260 1293 758 487 6294 450 290 271 1106 739 639 344 6004 367 263 535 304 251 295 1659 1191 1019 805 254 551 328 4345 304 305 390 242 223 224 468 4041 1718 1594 1435 225 2323 576 247 1210 510 333 214 1747 744 294
internal_count=18047 9892 8155 1718 1861 1556 425 260 1293 758 487 6294 450 290 271 1106 739 639 344 6004 367 263 535 304 251 295 1659 1191 1019 805 254 551 328 4345 304 305 390 242 223 224 468 4041 1718 1594 1435 225 2323 576 247 1210 510 333 214 1747 744 294
is_linear=0
shrinkage=0.05


Tree=6
num_leaves=60
num_cat=0
split_feature=11 5 9 11 9 7 5 5 7 10 3 7 1 8 8 11 11 8 9 1 5 10 6 11 3 1 11 5 9 5 8 5 2 6 5 8 8 6 1 10 7 7 7 2 1 5 6 1 3 10 2 11 6 10 2 6 5 7 8
split_gain=2775.52 855.872 53.5062 52.1038 39.3886 18.1077 13.2536 10.7678 10.2191 8.63209 7.45956 6.6775 3.94213 5.12801 3.34358 2.2355 2.09505 1.86482 1.67412 1.00705 0.715906 0.676384 0.663158 0.511711 0.423792 0.321188 0.361088 0.404483 0.240297 0.187942 0.159278 0.248042 0.13002 0.17386 0.131252 0.10239 0.0728122 0.0657353 0.0465022 0.0413777 0.0492324 0.0791054 0.044264 0.0385958 0.0360857 0.0385664 0.0324461 0.026354 0.0577201 0.0246726 0.0333454 0.0445338 0.0383932 0.0191584 0.0172449 0.0289271 0.0245721 0.00827513 0.00668556
threshold=7.7587673633605343 9.3217354035251052 9.0946630588034569 6.8473716197861005 14.118550572800176 9.016545159098408 9.3191751683565318 9.3166829797593511 9.016545159098408 10.822207692771782 0.93301270189221952 8.7383080020964687 -0.22252093395631442 9.3942245828887128 9.3942245828887128 4.8407585130206465 11.517018632653427 9.900517890831539 5.9216033086211768 -0.22252093395631442 9.3239126079803967 9.2642878278097474 9.2812747999175098 11.557762842549858 1.0000000180025095e-35 -0.22252093395631442 4.8407585130206465 9.3231515215662153 4.0934403019151535 9.3259497409798708 9.900517890831539 9.3246695338426768 0.68301270189221941 9.0690940665605861 9.3239286488582191 9.5733586346751469 9.3942245828887128 9.2812747999175098 -0.22252093395631442 9.1214626824663103 9.2063743630146657 9.4364667067356276 9.3245199254859106 1.0000000180025095e-35 1.0000000180025095e-35 9.3232747063834172 9.0690940665605861 0.81174490092936691 -0.24999999999999997 4.7646067334081312 0.25000000000000011 4.6406246182755586 9.1583859239754357 11.288425431937975 -0.6830127018922193 9.2812747999175098 9.325782081702739 9.1742463098550626 9.473476925930802
decision_type=2 2 2 2 2 2 2 2 2 2 2 2 2 2 2 2 2 2 2 2 2 2 2 2 2 2 2 2 2 2 2 2 2 2 2 2 2 2 2 2 2 2 2 2 2 2 2 2 2 2 2 2 2 2 2 2 2 2 2
left_child=3 4 17 10 8 7 -5 -6 9 11 18 36 20 21 -11 -12 -13 -3 25 -20 -8 -14 -22 38 -15 26 49 37 -29 32 39 46 33 -30 -35 -34 -2 -28 -10 40 54 42 -42 -36 -43 -46 -32 58 -49 -1 -51 52 -52 -40 55 -27 57 -56 -47
right_child=1 2 -4 6 5 -7 12 -9 23 14 15 16 13 24 -16 -17 -18 -19 19 -21 22 -23 -24 -25 -26 30 27 28 29 -31 31 -33 35 34 43 -37 -38 -39 53 -41 41 44 -44 -45 45 47 -48 48 -50 50 51 -53 -54 -55 56 -57 -58 -59 -60
leaf_value=-0.12522494863987096 -0.10820763152969209 -0.0017842138753146664 0.18033499782337403 -0.1741067062174825 -0.003064594575084767 -0.025522866005790235 -0.014445536634331013 0.09194281339762532 -0.10210422681673373 -0.03309632652313637 -0.13060487521550262 -0.041546524717881186 -0.029442306097336824 -0.010401291139826642 -0.0047343400954417804 -0.0659789407953566 -0.013157964396744971 0.016170204935064002 -0.047489054941383071 -0.049085873328455848 -0.01213124643215302 -0.031067153283950735 -0.0043077732410993662 -0.073602030285390016 -0.006276150552421123 -0.16774851771977634 -0.16293288514132376 -0.16612030409488809 -0.071532885080862404 -0.068114418151543218 -0.1224393605470504 -0.067416827870921028 -0.085220057173322816 -0.070510141364561449 -0.074576458652580876 -0.068332808511592277 -0.092672328081518443 -0.1460106509539377 -0.10528372993660101 -0.19305301407435294 -0.10251091990087163 -0.098198425148315588 -0.10005373129076678 -0.07603247511345175 -0.11300709090067894 -0.10820158178699835 -0.078615630132915018 -0.097573455241958443 -0.091853840351467583 -0.16144592965405341 -0.16805588557284465 -0.13763617747341136 -0.13744331651134853 -0.11425961355918822 -0.11511579845334757 -0.090041129870700662 -0.099711231413254317 -0.11019544084704497 -0.083007095669050512
leaf_weight=138 106 140 8174 168 153 165 140 107 165 120 116 188 174 166 151 192 100 160 147 198 126 101 140 152 112 138 298 143 177 142 128 121 135 100 102 101 145 102 111 654 135 303 151 122 145 210 135 126 105 356 132 171 164 126 827 110 125 107 101
leaf_count=138 106 140 8174 168 153 165 140 107 165 120 116 188 174 166 151 192 100 160 147 198 126 101 140 152 112 138 298 143 177 142 128 121 135 100 102 101 145 102 111 654 135 303 151 122 145 210 135 126 105 356 132 171 164 126 827 110 125 107 101
internal_value=0.000527789 0.0176045 0.0242388 -0.0219874 -0.0138206 -0.000529412 -0.0120453 0.00769231 -0.0179619 -0.0143827 -0.0236706 -0.0180427 -0.00977581 -0.0125226 -0.00710332 -0.0160714 -0.0128472 0.0035 -0.0240392 -0.0206522 -0.00603448 -0.0173636 -0.00451128 -0.0231949 -0.00773381 -0.0242338 -0.023783 -0.0232771 -0.0227495 -0.0224403 -0.0245305 -0.0235677 -0.0227612 -0.0223054 -0.0229938 -0.0237288 -0.024004 -0.024625 -0.0241294 -0.0246447 -0.0245548 -0.0243339 -0.0236014 -0.0223214 -0.0245455 -0.024345 -0.0244297 -0.0245387 -0.0241342 -0.0245317 -0.0246355 -0.0243576 -0.0239865 -0.0245781 -0.0247705 -0.0243952 -0.0248584 -0.0249465 -0.0248392
internal_weight=18047 10263 8474 7784 1789 425 1127 260 1364 810 6657 539 959 553 271 308 288 300 6349 345 406 275 266 554 278 6004 2383 1422 1022 879 3621 384 737 501 324 236 251 400 402 3237 2583 1276 286 224 990 687 263 542 231 961 823 467 296 237 1307 248 1059 934 311
internal_count=18047 10263 8474 7784 1789 425 1127 260 1364 810 6657 539 959 553 271 308 288 300 6349 345 406 275 266 554 278 6004 2383 1422 1022 879 3621 384 737 501 324 236 251 400 402 3237 2583 1276 286 224 990 687 263 542 231 961 823 467 296 237 1307 248 1059 934 311
is_linear=0
shrinkage=0.05


Tree=7
num_leaves=61
num_cat=0
split_feature=11 5 11 9 9 7 5 4 7 3 6 7 11 8 1 11 8 9 11 8 1 2 11 7 9 1 5 11 4 4 8 7 6 5 5 1 7 3 8 5 4 4 4 5 6 1 2 5 3 4 5 4 4 3 6 4 7 4 5 5
split_gain=2747.52 844.596 55.1694 53.5062 39.2924 17.0861 14.3653 10.7678 10.5184 7.71575 6.54063 6.96401 4.50278 4.35815 4.55226 2.14957 1.86482 1.63083 1.61958 1.34061 0.916101 0.744446 0.728508 0.612538 0.548479 0.544074 0.590452 0.627803 0.517113 0.437176 0.37817 0.276294 0.262624 0.201082 0.151538 0.108648 0.131895 0.0724535 0.0698664 0.153994 0.058952 0.14717 0.12623 0.0524333 0.0480773 0.0465022 0.041367 0.0457056 0.0393377 0.0212176 0.0153365 0.0128827 0.060619 0.0125316 0.0217683 0.0118516 0.0210012 0.0085755 0.00715224 0.00675
threshold=7.7587673633605343 9.3217354035251052 6.8473716197861005 9.0946630588034569 14.118550572800176 9.016545159098408 9.3191751683565318 5.9750000000000005 9.016545159098408 0.93301270189221952 8.864855284234034 8.7383080020964687 11.230199926841854 9.473476925930802 -0.22252093395631442 4.8407585130206465 9.900517890831539 5.9216033086211768 11.517018632653427 9.2599898965703087 -0.22252093395631442 -0.24999999999999997 11.557762842549858 9.3245199254859106 4.0934403019151535 -0.22252093395631442 9.3191751683565318 5.090860771166712 10.625000000000002 11.925000000000002 9.900517890831539 9.3245199254859106 9.434560002614786 9.3249156040453887 9.323852446721089 1.0000000180025095e-35 9.2063743630146657 1.0000000180025095e-35 9.3942245828887128 9.324559348725785 12.075000000000003 9.4750000000000014 5.9250000000000016 9.325782081702739 9.1583859239754357 -0.22252093395631442 -0.5 9.324559348725785 -0.24999999999999997 4.7750000000000012 9.3261527089357141 9.4250000000000025 8.1250000000000018 -0.24999999999999997 9.2812747999175098 4.9250000000000016 9.1742463098550626 4.7750000000000012 9.3234481026989346 9.3236075504323264
decision_type=2 2 2 2 2 2 2 2 2 2 2 2 2 2 2 2 2 2 2 2 2 2 2 2 2 2 2 2 2 2 2 2 2 2 2 2 2 2 2 2 2 2 2 2 2 2 2 2 2 2 2 2 2 2 2 2 2 2 2 2
left_child=2 4 9 16 8 7 -4 -6 10 17 11 37 -12 14 23 -11 -3 24 -13 -16 -19 -15 45 -8 50 26 -26 40 -23 32 35 -32 34 -31 -29 57 43 -2 46 58 41 42 -28 53 -42 -10 -38 59 -34 -47 51 52 55 54 -37 56 -1 -27 -40 -48
right_child=1 3 6 -5 5 -7 13 -9 22 15 12 18 -14 21 19 -17 -18 20 -20 -21 -22 28 -24 -25 25 30 27 29 -30 33 31 -33 48 -35 -36 36 38 -39 39 -41 44 -43 -44 -45 -46 49 47 -49 -50 -51 -52 -53 -54 -55 -56 -57 -58 -59 -60 -61
leaf_value=-0.21683638840561281 -0.09314183412040325 -0.0016950031815489376 -0.16540137090660836 0.17131824793220529 -0.0029113648463305443 -0.024246722705500726 -0.0069257290627805059 0.087345672727744017 -0.096999015475897024 -0.12407463145472748 -0.043557475676388617 -0.038134468920513954 -0.0054271954733599694 -0.0089224438631625436 -0.032028200534469864 -0.062679993755588775 0.015361694688310791 -0.045114602194313937 -0.01250006617690771 -0.017148966294412937 -0.046631579662033067 -0.0054999531493765026 -0.069921928771120495 -0.017848081473283629 -0.19167086871233346 -0.18856624987930892 -0.090525533807496089 -0.06141397355503464 -0.00060424439937962766 -0.060637052915037452 -0.063885637597945674 -0.04954388262823331 -0.064916168086012638 -0.06297472253447807 -0.069192769009964211 -0.15347907044819334 -0.093542053787296103 -0.090472717626396748 -0.076927299465801333 -0.070300988225102889 -0.092343438158589169 -0.095272959900022769 -0.090205705568965774 -0.088348537045794553 -0.09222166634255452 -0.10125224213192725 -0.10198675566926414 -0.10228073386116249 -0.06777551763231425 -0.10533648363526119 -0.17361979651244341 -0.17036275924617358 -0.17430976071918303 -0.09685999422556546 -0.085612472133067871 -0.18058180490028466 -0.21573489710689803 -0.090067648243142978 -0.074978882241512099 -0.098632957650785044
leaf_weight=129 122 140 168 8174 153 165 134 107 165 116 121 179 172 121 198 192 160 147 100 176 198 106 152 119 317 100 104 118 105 116 162 112 109 101 163 191 103 116 101 120 103 156 198 107 126 132 116 134 108 105 143 707 107 347 164 529 105 602 105 101
leaf_count=129 122 140 168 8174 153 165 134 107 165 116 121 179 172 121 198 192 160 147 100 176 198 106 152 119 317 100 104 118 105 116 162 112 109 101 163 191 103 116 101 120 103 156 198 107 126 132 116 134 108 105 143 707 107 347 164 529 105 602 105 101
internal_value=0.000658004 0.0176483 -0.0217433 0.0242388 -0.013569 -0.000294118 -0.0115129 0.00769231 -0.0177053 -0.0234753 -0.0140741 -0.0174565 -0.0081058 -0.00915016 -0.0116029 -0.0157468 0.0035 -0.0238502 -0.0120968 -0.015107 -0.0205072 -0.00451807 -0.0230144 -0.00642292 -0.0240423 -0.0237395 -0.0230512 -0.0226106 -0.00272512 -0.0215734 -0.0242008 -0.0224453 -0.0223896 -0.0197005 -0.0233986 -0.0244107 -0.0241819 -0.0237395 -0.0237179 -0.0231595 -0.02369 -0.0233624 -0.0240066 -0.0246292 -0.024345 -0.0241294 -0.0241189 -0.0238604 -0.0210829 -0.0245781 -0.0247965 -0.0248415 -0.0247126 -0.0247863 -0.0245775 -0.0248689 -0.0245726 -0.0249288 -0.0223301 -0.0243088
internal_weight=18047 10263 7784 8474 1789 425 1127 260 1364 6657 810 517 293 959 627 308 300 6349 279 374 345 332 554 253 6004 4284 1719 1402 211 715 2565 274 498 217 281 2291 1589 238 780 326 687 458 302 809 229 402 454 351 217 237 1720 1577 870 702 355 763 234 702 206 217
internal_count=18047 10263 7784 8474 1789 425 1127 260 1364 6657 810 517 293 959 627 308 300 6349 279 374 345 332 554 253 6004 4284 1719 1402 211 715 2565 274 498 217 281 2291 1589 238 780 326 687 458 302 809 229 402 454 351 217 237 1720 1577 870 702 355 763 234 702 206 217
is_linear=0
shrinkage=0.05


Tree=8
num_leaves=63
num_cat=0
split_feature=9 5 11 9 5 5 0 7 3 8 10 7 8 9 0 8 11 8 0 11 9 5 8 8 8 10 5 0 8 8 3 10 8 8 7 5 5 5 5 0 7 3 2 2 0 5 10 5 2 5 5 11 11 7 11 7 3 5 7 2 10 5
split_gain=2722.75 822.892 104.049 37.5362 26.2772 16.8234 12.5479 11.227 8.94496 8.87743 7.06649 7.37893 5.18275 4.87831 4.71158 3.09902 2.97963 2.58334 2.50154 2.15178 1.39779 1.21962 1.19989 1.07811 0.867041 0.861706 0.789628 0.727042 0.570453 0.415408 0.358425 0.333643 0.246491 0.196037 0.191033 0.187522 0.170684 0.147204 0.135061 0.0971528 0.0830769 0.0753304 0.0678306 0.0610501 0.0411112 0.0731993 0.114176 0.108982 0.0275137 0.0254698 0.0305355 0.0232917 0.021771 0.0196274 0.0104731 0.0192892 0.0510348 0.00785863 0.0172387 0.00785548 0.00680894 0.0053271
threshold=9.0946630588034569 9.3217354035251052 6.8734500186690699 14.118550572800176 9.3191751683565318 9.3167430061726915 -1.0000000180025095e-35 9.016545159098408 0.93301270189221952 9.5733586346751469 10.822207692771782 8.7383080020964687 9.473476925930802 5.9216033086211768 -1.0000000180025095e-35 9.3942245828887128 7.5997337330509538 9.900517890831539 -1.0000000180025095e-35 5.1880314580856108 4.0934403019151535 9.3191751683565318 9.473476925930802 9.7056298421001497 9.3942245828887128 9.2611474705230226 9.3242903377161621 -1.0000000180025095e-35 9.0481405873201606 9.2599898965703087 -0.5 9.2620231683076941 9.900517890831539 9.5733586346751469 9.705883641112715 9.3239126079803967 9.3241801799915915 9.3237028236157276 9.3241251244485088 0.6078576107927941 8.8997148111845252 1.0000000180025095e-35 0.25000000000000011 0.68301270189221941 0.6078576107927941 9.3247937371967584 5.1932109514156641 9.3258102673271281 -0.93301270189221919 9.3234655388582155 9.3239314714406003 4.9764203298643164 4.8407585130206465 9.2063743630146657 4.8407585130206465 9.4364667067356276 1.0000000180025095e-35 9.3243085606899658 9.1742463098550626 -0.6830127018922193 9.1320118584850647 9.3145224494194299
decision_type=2 2 2 2 2 2 2 2 2 2 2 2 2 2 2 2 2 2 2 2 2 2 2 2 2 2 2 2 2 2 2 2 2 2 2 2 2 2 2 2 2 2 2 2 2 2 2 2 2 2 2 2 2 2 2 2 2 2 2 2 2 2
left_child=2 3 8 7 40 12 16 10 13 24 11 41 -5 18 -15 -12 -6 26 20 35 43 61 -13 29 25 -8 -11 -9 38 37 -31 -26 44 53 39 -10 -32 -23 -16 -34 -4 -2 -39 -1 45 49 47 -47 -46 60 52 -48 -51 -29 -50 59 -57 -52 -59 -56 -20 -22
right_child=1 -3 4 5 6 -7 9 27 19 17 15 22 -14 14 28 -17 -18 -19 32 -21 21 23 -24 -25 31 -27 -28 33 -30 30 36 -33 34 -35 -36 -37 -38 42 -40 -41 -42 -43 -44 -45 48 46 51 -49 54 50 57 -53 -54 -55 55 56 -58 58 -60 -61 -62 -63
leaf_value=-0.14843221745318932 -0.084273158559906386 0.16275233553559501 -0.1366777383704145 -0.029159397060643147 -0.0021296886041886733 0.06822842580781803 -0.023485959634541056 -0.070187203860051423 -0.12047100347145885 -0.0025644900652736172 -0.029263636413160123 -0.02868508084916184 0.0024749123467866954 -0.033599311155415278 -0.061600750352577061 -0.0042262633170016889 0.028697143447894292 0.0052965667998718493 -0.15195316003339013 -0.036773576192276884 -0.1828617148079954 -0.086594251525044519 -0.011875062868062326 -0.047980270432868857 -0.010769809135350795 -0.025940326565220273 -0.0060069892324101206 -0.092916980473057686 -0.041514747393381152 -0.057216345868102231 -0.065839210619669117 -0.012866233872634214 -0.072207654494857595 -0.071129362025165441 -0.067164259495464049 -0.07799873310743155 -0.067137372352188238 -0.088205379751837579 -0.042347318255070099 -0.068779772490891955 -0.15449667599783895 -0.085724800614781674 -0.0862716804406609 -0.15188237045186709 -0.11453747814814036 -0.086367398541475571 -0.15923036658371592 -0.083203998175944871 -0.14666079252484482 -0.12111735304842042 -0.093446972524408922 -0.081646214399891087 -0.080060152242530297 -0.10383781531185768 -0.097422339188021664 -0.077688820003980252 -0.08561651445315821 -0.10194190085614854 -0.09738474884901277 -0.093583046391831487 -0.19402543418703488 -0.15942333335819442
leaf_weight=300 114 8174 100 185 182 124 111 145 101 109 120 163 116 151 125 151 139 116 536 116 100 114 100 185 111 103 131 119 130 160 111 102 149 104 123 100 131 114 116 172 108 110 162 168 103 154 196 102 840 119 185 110 151 167 107 213 173 113 115 564 120 114
leaf_count=300 114 8174 100 185 182 124 111 145 101 109 120 163 116 151 125 151 139 116 536 116 100 114 100 185 111 103 131 119 130 160 111 102 149 104 123 100 131 114 116 172 108 110 162 168 103 154 196 102 840 119 185 110 151 167 107 213 173 113 115 564 120 114
internal_value=0.000754973 0.0183886 -0.0206346 -0.0130675 -0.00773628 -0.000176471 -0.00466486 -0.0173047 -0.0231076 -0.00807791 -0.0133905 -0.0169918 -0.00656146 -0.023506 -0.0188697 -0.00691882 0.00366044 -0.00224719 -0.0239091 -0.0149054 -0.0222574 -0.0213476 -0.0113118 -0.0205988 -0.0129391 -0.0151869 -0.00520833 -0.0228505 -0.0219003 -0.0214015 -0.0202736 -0.0106808 -0.0245397 -0.0239744 -0.0234234 -0.0180348 -0.0214876 -0.0225641 -0.0233402 -0.0240654 -0.0240385 -0.0236607 -0.0231884 -0.0245726 -0.0246668 -0.0245003 -0.0240214 -0.0232422 -0.024825 -0.0247013 -0.0244876 -0.0246732 -0.0240741 -0.0246503 -0.0248682 -0.0247635 -0.0244819 -0.0247579 -0.0245614 -0.0249255 -0.0249238 -0.0247664
internal_weight=18047 9892 8155 1718 1312 425 1104 1293 6843 783 758 487 301 6526 522 271 321 356 6004 317 1659 1191 263 977 427 214 240 535 371 792 402 213 4345 390 444 201 242 390 241 321 208 224 276 468 3901 1901 562 256 2000 1339 683 306 270 286 1897 1057 386 413 228 671 656 214
internal_count=18047 9892 8155 1718 1312 425 1104 1293 6843 783 758 487 301 6526 522 271 321 356 6004 317 1659 1191 263 977 427 214 240 535 371 792 402 213 4345 390 444 201 242 390 241 321 208 224 276 468 3901 1901 562 256 2000 1339 683 306 270 286 1897 1057 386 413 228 671 656 214
is_linear=0
shrinkage=0.05


Tree=9
num_leaves=64
num_cat=0
split_feature=9 5 11 9 5 7 0 5 7 8 3 6 7 0 9 11 8 8 10 9 5 8 8 3 0 7 0 11 5 5 8 11 5 7 6 8 0 0 10 3 5 11 5 5 5 11 0 5 7 10 7 3 5 10 7 7 5 8 8 10 5 7 3
split_gain=2703.26 824.151 102.001 35.674 26.716 15.6556 14.7615 11.8132 11.5423 10.9716 9.07047 6.78133 7.33942 4.20586 3.95961 3.38243 3.09902 2.16728 2.14665 1.62466 1.40596 1.33283 1.22957 1.12461 0.963142 0.847951 0.727042 0.639924 0.523028 0.44898 0.392133 0.363374 0.328499 0.297631 0.215547 0.196037 0.148842 0.271556 0.128137 0.117295 0.0789924 0.0512688 0.0711666 0.100485 0.0662776 0.17221 0.21757 0.0418719 0.0263522 0.0220158 0.0196274 0.0156913 0.0516089 0.0211769 0.0153083 0.00822859 0.0176646 0.0277223 0.0437788 0.0461022 0.0076408 0.00613036 0.00560483
threshold=9.0946630588034569 9.3217354035251052 6.8473716197861005 14.118550572800176 9.3191751683565318 9.016545159098408 -1.0000000180025095e-35 9.3166829797593511 9.016545159098408 9.473476925930802 0.93301270189221952 8.864855284234034 8.7383080020964687 -1.0000000180025095e-35 5.9216033086211768 7.5997337330509538 9.3942245828887128 9.900517890831539 5.5411910034458716 4.0934403019151535 9.3191751683565318 9.3942245828887128 9.7056298421001497 -0.24999999999999997 0.6078576107927941 9.3245199254859106 -1.0000000180025095e-35 5.6381062815907201 9.3243455709867948 9.3243455709867948 9.2599898965703087 4.8407585130206465 9.3259497409798708 9.705883641112715 9.1583859239754357 9.5733586346751469 0.6078576107927941 0.87837969732492682 4.9165956618851379 1.0000000180025095e-35 9.3145224494194299 4.9764203298643164 9.3234655388582155 9.3236339036701974 9.3248814816091024 5.1880314580856108 0.6078576107927941 9.3236638149297804 9.4906651436118512 5.5090133729801609 9.2063743630146657 -0.9330127018922193 9.3244837890880081 4.7084149608109973 9.4364667067356276 9.2063743630146657 9.3244727071678994 8.9094397566790562 9.2599898965703087 5.4071262480662057 9.325782081702739 8.8143815630184132 -0.68301270189221952
decision_type=2 2 2 2 2 2 2 2 2 2 2 2 2 2 2 2 2 2 2 2 2 2 2 2 2 2 2 2 2 2 2 2 2 2 2 2 2 2 2 2 2 2 2 2 2 2 2 2 2 2 2 2 2 2 2 2 2 2 2 2 2 2 2
left_child=2 3 10 8 40 7 15 -5 11 24 13 12 39 14 19 23 -13 28 -12 48 -21 -14 29 -6 25 -8 -10 41 -11 31 -26 -22 38 36 -33 50 47 -38 -31 -2 -4 51 54 -44 49 46 -46 -29 61 62 -28 52 -15 -53 -43 60 57 -57 59 -59 -55 -1 -45
right_child=1 -3 4 5 6 -7 9 -9 26 17 18 16 21 27 -16 -17 -18 -19 -20 20 22 -23 -24 -25 30 -27 35 33 -30 32 -32 34 -34 -35 -36 -37 37 -39 -40 -41 -42 42 43 44 45 -47 -48 -49 -50 -51 -52 53 -54 55 -56 56 -58 58 -60 -61 -62 -63 -64
leaf_value=-0.15196669809297025 -0.080059500631911085 0.15461471875881527 -0.15216078836446201 -0.0028895422213533807 -0.0096436007518844857 -0.021658138386448079 -0.014399062078762138 0.079566967800965838 -0.066677843667048861 -0.0034780965904905206 -0.057564394828057842 -0.027800454592502133 -0.030418492862541769 -0.1465446382360204 -0.039028495388035857 0.027262286275499561 -0.0040149501511515867 0.005031738459878277 -0.1184579421027856 -0.15869036098620043 -0.083491251196341099 -0.01252818460843015 -0.045581256911225415 0.007060750188024479 -0.033816925894571352 -0.020202851790027055 -0.08827113144940478 -0.12413500616843087 -0.0066173238730746764 -0.076786648360130272 -0.017455267369779072 -0.055529561439844603 -0.071797202747451161 -0.053310338677702213 -0.063160025116235821 -0.067572893923907182 -0.05807453949723751 -0.06038802976002642 -0.073127164138240372 -0.081438560584042599 -0.12627947119443236 -0.14621313688475032 -0.064399901548717692 -0.064121486321141813 -0.070419220243341574 -0.067676489956372252 -0.071469032184343376 -0.045617806926040852 -0.13455380804090936 -0.083660533540326487 -0.098645924546264807 -0.098832148791212812 -0.13390045351470642 -0.1411787439070302 -0.074312961508448086 -0.1262792447870566 -0.12554858104273636 -0.088718455872427382 -0.15010636842251826 -0.17219536080580258 -0.12151211977576676 -0.14427863407101379 -0.066123160009119136
leaf_weight=107 114 8174 127 153 115 165 116 107 145 152 199 120 131 139 104 139 151 116 109 214 145 132 185 109 118 107 119 116 181 108 109 107 109 167 132 104 126 135 191 110 109 408 109 123 133 189 117 136 157 107 167 118 101 833 181 222 388 112 133 105 115 204 273
leaf_count=107 114 8174 127 153 115 165 116 107 145 152 199 120 131 139 104 139 151 116 109 214 145 132 185 109 118 107 119 116 181 108 109 107 109 167 132 104 126 135 191 110 109 408 109 123 133 189 117 136 157 107 167 118 101 833 181 222 388 112 133 105 115 204 273
internal_value=0.000813155 0.0183835 -0.0204997 -0.0130966 -0.00871162 -0.000529412 -0.00582409 0.00711538 -0.0172274 -0.00926029 -0.0231523 -0.0132586 -0.0167864 -0.0235588 -0.0214833 0.00268595 -0.00691882 -0.00373051 -0.0147727 -0.0220766 -0.0210957 -0.0111217 -0.0202917 -0.00111607 -0.0147778 -0.0124439 -0.0228505 -0.0243567 -0.00578078 -0.021149 -0.0170705 -0.0199219 -0.0223039 -0.0229412 -0.0187238 -0.0239744 -0.023538 -0.0227011 -0.0231605 -0.0234375 -0.0241525 -0.0246032 -0.0243902 -0.0241437 -0.02431 -0.023861 -0.023 -0.0244048 -0.0245726 -0.0247018 -0.0246503 -0.0247573 -0.024375 -0.0248026 -0.0248302 -0.0248428 -0.0247396 -0.0245629 -0.0242857 -0.0238479 -0.0249473 -0.0248392 -0.0248737
internal_weight=18047 9892 8155 1718 1498 425 1262 260 1293 899 6657 758 487 6349 1763 363 271 449 308 1659 1191 263 977 224 450 223 535 4586 333 792 227 384 408 680 239 390 513 261 299 224 236 3906 1640 1051 942 439 250 252 468 503 286 2266 240 2026 589 1908 960 572 350 217 948 311 396
internal_count=18047 9892 8155 1718 1498 425 1262 260 1293 899 6657 758 487 6349 1763 363 271 449 308 1659 1191 263 977 224 450 223 535 4586 333 792 227 384 408 680 239 390 513 261 299 224 236 3906 1640 1051 942 439 250 252 468 503 286 2266 240 2026 589 1908 960 572 350 217 948 311 396
is_linear=0
shrinkage=0.05


Tree=10
num_leaves=64
num_cat=0
split_feature=10 5 11 11 5 8 5 3 0 0 4 11 0 5 11 5 11 4 0 11 0 11 8 11 4 4 8 10 5 4 2 4 6 3 10 10 0 2 5 8 5 2 5 4 2 11 5 5 10 5 8 10 4 10 4 10 5 0 4 4 4 1 6
split_gain=2668.78 827.504 92.8409 41.9914 26.0997 14.932 14.769 12.5992 8.37938 7.16722 6.57982 6.49832 5.7413 5.34079 4.0266 3.94309 2.97887 2.51492 2.34892 1.86786 1.83871 1.49455 1.18863 1.12341 1.01055 0.989588 0.982082 0.747747 0.926227 0.641412 0.515868 0.428997 0.400041 0.384072 0.331646 0.438132 0.290021 0.266009 0.213209 0.408165 0.17547 0.117257 0.112057 0.0798923 0.0710185 0.0701796 0.0740646 0.172769 0.0513786 0.0415104 0.0411292 0.0445853 0.0393738 0.0303604 0.0216676 0.0174716 0.0298449 0.0517691 0.0215949 0.0102645 0.0229335 0.0201003 0.00729258
threshold=9.8470095605179964 9.3217354035251052 6.8473716197861005 11.938909388457553 9.3191751683565318 9.473476925930802 9.3159526297384811 0.93301270189221952 -1.0000000180025095e-35 -1.0000000180025095e-35 5.8250000000000011 16.809989570857073 -1.0000000180025095e-35 9.3159526297384811 4.9764203298643164 9.3191751683565318 5.1880314580856108 6.0750000000000011 -1.0000000180025095e-35 11.047258580585028 1.0000000180025095e-35 5.6381062815907201 9.900517890831539 5.6381062815907201 9.0750000000000028 4.6250000000000009 9.3942245828887128 9.2692284213642147 9.324192478261832 11.325000000000003 0.25000000000000011 11.525000000000002 8.864855284234034 -0.24999999999999997 5.131414212882393 4.9165956618851379 0.6078576107927941 0.68301270189221941 9.3233417505116609 9.900517890831539 9.324559348725785 0.25000000000000011 9.3110149445958221 8.3250000000000028 0.68301270189221941 5.090860771166712 9.3234655388582155 9.3237028236157276 9.0975780453512254 9.3238308240889971 9.3942245828887128 5.5411910034458716 11.975000000000003 5.1932109514156641 5.1750000000000016 5.2762985631722268 9.324559348725785 0.6078576107927941 4.1250000000000009 9.5250000000000021 8.3750000000000018 -0.22252093395631442 9.0690940665605861
decision_type=2 2 2 2 2 2 2 2 2 2 2 2 2 2 2 2 2 2 2 2 2 2 2 2 2 2 2 2 2 2 2 2 2 2 2 2 2 2 2 2 2 2 2 2 2 2 2 2 2 2 2 2 2 2 2 2 2 2 2 2 2 2 2
left_child=2 3 7 13 41 8 11 9 -6 14 -8 -5 -7 17 34 -16 20 25 -15 -20 -9 29 24 45 -14 26 42 28 -10 30 -17 -23 -21 -30 35 -1 37 49 -38 -40 -31 -4 -2 48 -45 55 53 -48 -36 -25 -49 52 -52 -47 -27 56 58 -58 -11 60 61 -57 -60
right_child=1 -3 4 6 5 12 10 16 27 23 -12 -13 22 18 15 21 -18 -19 19 32 -22 31 -24 36 -26 54 -28 -29 33 40 -32 -33 -34 -35 43 -37 38 -39 39 -41 -42 -43 -44 44 -46 46 47 50 -50 -51 51 -53 -54 -55 -56 59 57 -59 62 -61 -62 -63 -64
leaf_value=-0.09214911400438025 -0.088004989583126886 0.14688398282087453 -0.13615019996846084 -0.038988344561598477 -0.0045959331941565649 0.014122227303834368 0.0028835166165822159 -0.087453865476178505 -0.024227399809023154 -0.20381289105592801 0.06538865691416014 -0.00054600617006905772 -0.0083719315966280135 -0.013639196671208609 -0.14475271951436858 -0.058287448634365219 -0.02685636778685363 -0.059676697792913826 -0.058897587292901003 -0.028346240778723077 -0.093894485154778592 -0.033932470896844751 0.0044285395393601767 -0.085102904761113957 -0.0033555283062785659 -0.081779152636031818 -0.060544921250132736 -0.018236329862619163 -0.016180629678368686 -0.045674946520384556 -0.061438228928069764 -0.039227481757425721 -0.03503330714233626 -0.02142733564634032 -0.11516337208318733 -0.081179711650803121 -0.13918293994328251 -0.04318541806344163 -0.051361871714169595 -0.035492646577647904 -0.062964156658521869 -0.1445527489462389 -0.08943862578702573 -0.11036262595914588 -0.11482345209617857 -0.12248976638680401 -0.061179906471281825 -0.075283559605537329 -0.15353193536065027 -0.051042909660330649 -0.057341061278979227 -0.13445981693315942 -0.058900427866005273 -0.10295913880699747 -0.077726655007061843 -0.16657720450599867 -0.087396652590722781 -0.083669325015015741 -0.092126852958354599 -0.14420428535938035 -0.13818575311085693 -0.15858675385810264 -0.085032654446631023
leaf_weight=194 106 8187 114 199 177 180 118 102 150 114 103 144 139 111 171 126 110 132 107 103 105 101 117 113 180 103 189 122 101 121 174 107 108 105 103 125 110 111 132 102 100 131 102 167 105 369 103 180 147 123 318 102 154 103 130 151 180 212 416 643 104 475 313
leaf_count=194 106 8187 114 199 177 180 118 102 150 114 103 144 139 111 171 126 110 132 107 103 105 101 117 113 180 103 189 122 101 121 174 107 108 105 103 125 110 111 132 102 100 131 102 167 105 369 103 180 147 123 318 102 154 103 130 151 180 212 416 643 104 475 313
internal_value=0.00090388 0.0183213 -0.0202085 -0.0128348 -0.00903694 -0.00615657 -0.00159574 -0.0227415 -0.0114122 -0.0232258 0.00848416 -0.00809038 -0.000568182 -0.018157 -0.0204911 -0.0181667 -0.0130126 -0.0206693 -0.0136946 -0.0158805 -0.0165459 -0.0165638 -0.00366972 -0.0242545 -0.00525078 -0.0219841 -0.020466 -0.0148536 -0.0160112 -0.0179942 -0.0195 -0.0129808 -0.0131517 -0.013835 -0.0229786 -0.0217085 -0.0223951 -0.023415 -0.0213663 -0.0205128 -0.0159502 -0.0239796 -0.0228365 -0.0237548 -0.0231618 -0.0245809 -0.0242852 -0.0240082 -0.0244 -0.0243644 -0.0242706 -0.0244774 -0.0246822 -0.0247881 -0.0245708 -0.0247316 -0.0245951 -0.0242347 -0.0247628 -0.0248543 -0.024726 -0.0248403 -0.0248628
internal_weight=18144 9942 8202 1755 1516 1271 564 6686 655 6369 221 343 616 1191 1741 900 317 762 429 318 207 729 436 4628 319 630 397 478 356 521 300 208 211 206 841 319 691 347 344 234 221 245 208 522 272 3937 1329 857 250 236 754 574 472 472 233 2608 1235 392 843 1373 730 626 729
internal_count=18144 9942 8202 1755 1516 1271 564 6686 655 6369 221 343 616 1191 1741 900 317 762 429 318 207 729 436 4628 319 630 397 478 356 521 300 208 211 206 841 319 691 347 344 234 221 245 208 522 272 3937 1329 857 250 236 754 574 472 472 233 2608 1235 392 843 1373 730 626 729
is_linear=0
shrinkage=0.05


Tree=11
num_leaves=64
num_cat=0
split_feature=9 5 11 11 5 7 5 8 3 7 5 11 6 11 1 11 11 7 8 4 4 9 5 1 8 10 1 5 11 6 5 5 5 5 4 3 11 10 4 5 7 10 5 5 4 4 5 11 4 5 5 7 5 5 7 7 4 8 10 6 6 10 8
split_gain=2648.57 806.453 93.3769 41.0277 26.7356 15.971 15.4885 13.7516 12.4273 9.49708 5.36976 4.88423 4.22695 4.17544 3.54243 3.02834 2.83922 2.73782 2.54464 2.42631 2.35713 1.91484 2.2128 1.49641 1.42441 1.41847 1.3447 0.955956 1.31996 0.96699 0.802213 0.551946 0.488113 0.46742 0.447508 0.439852 0.39412 0.353411 0.335517 0.29468 0.270453 0.263552 0.248672 0.256807 0.222903 0.208073 0.204956 0.184048 0.182207 0.108092 0.0901338 0.196077 0.187367 0.0823058 0.0709188 0.0510155 0.0490567 0.0478765 0.0464411 0.0286134 0.0605274 0.0316023 0.035455
threshold=9.0946630588034569 9.3217354035251052 6.8473716197861005 11.938909388457553 9.3186829348662119 9.016545159098408 9.3167430061726915 9.473476925930802 0.93301270189221952 9.016545159098408 9.3145224494194299 16.480018423360558 8.864855284234034 5.6381062815907201 -0.22252093395631442 11.047258580585028 5.1880314580856108 8.7232027893436115 9.900517890831539 7.9250000000000016 4.9750000000000005 4.0934403019151535 9.3191751683565318 -0.22252093395631442 9.3942245828887128 5.1932109514156641 0.81174490092936691 9.3191751683565318 5.090860771166712 9.5252557901496377 9.3239286488582191 9.3243928497672872 9.3245435204516536 9.3248612984701484 11.975000000000003 -0.24999999999999997 4.9764203298643164 5.131414212882393 4.5750000000000011 9.3131867739950653 9.4364667067356276 5.5090133729801609 9.3191751683565318 9.3233417505116609 7.8750000000000009 5.9250000000000016 9.3258769076915495 4.8407585130206465 5.5750000000000011 9.3238876030777291 9.3244201911130364 9.705883641112715 9.3239242141498568 9.3145224494194299 9.1742463098550626 9.4906651436118512 12.075000000000003 9.2599898965703087 5.5090133729801609 8.7716019290570237 8.9313299309036775 4.9165956618851379 8.7046899107707265
decision_type=2 2 2 2 2 2 2 2 2 2 2 2 2 2 2 2 2 2 2 2 2 2 2 2 2 2 2 2 2 2 2 2 2 2 2 2 2 2 2 2 2 2 2 2 2 2 2 2 2 2 2 2 2 2 2 2 2 2 2 2 2 2 2
left_child=2 3 8 9 53 6 20 14 13 10 12 -7 -2 23 40 -12 25 -17 19 -9 -5 -15 -23 27 33 -10 30 -1 37 34 -24 -31 -32 -16 49 -21 58 44 39 -11 -6 -34 -38 -44 -29 -39 55 -46 -45 -30 51 52 -50 -4 -52 -47 -56 -40 59 -25 -61 -62 -63
right_child=1 -3 4 5 7 11 -8 18 16 38 15 -13 -14 21 24 17 -18 -19 -20 35 -22 22 26 36 -26 -27 -28 28 29 31 32 -33 41 -35 -36 -37 42 45 57 -41 -42 -43 43 48 47 46 -48 -49 50 -51 54 -53 -54 -55 56 -57 -58 -59 -60 60 61 62 -64
leaf_value=-0.17740957072478364 -0.083751088191239026 0.1395397836798308 -0.13918161249240191 -0.01965392973556539 -0.007261524755899096 -0.040650595161374682 0.067119195458222605 -0.0086603557206227141 -0.066996818142193298 -0.072649990280703722 -0.034667238481890128 -0.0063724671187622046 -0.042156268910648699 -0.13500040936575552 -0.02455350490567967 -0.035752364290737602 -0.025513549397510937 -0.0048039278538555058 0.0061888346750529795 0.0019810745532754747 0.014960917991378908 -0.15550094738364439 -0.025173894986975132 -0.089796241360261819 -0.013093037764968708 -0.10726048184342934 -0.037873564755509917 -0.072217153666399719 -0.054070875652633202 -0.053841998827895803 -0.035253002539190816 -0.063393419590393282 -0.03431993371259761 -0.020229781419822235 -0.053967817187676584 -0.0015842118347744183 -0.17473208765954726 -0.1073356408602425 -0.096071731576861982 -0.083426727015522326 -0.014080371152174354 -0.03003361418216648 -0.047334325637802849 -0.054391565199698504 -0.077898676297855698 -0.11010438618007226 -0.10053162761008756 -0.060879118606015095 -0.058120911147717717 -0.060643538202294511 -0.063433824891517193 -0.065192901426314023 -0.051092126314809555 -0.11743955605609227 -0.061768574060543702 -0.12067473031111553 -0.063875284019833403 -0.070253557637265068 -0.14943035555797426 -0.090719404718933389 -0.088690133579379368 -0.09368922287645827 -0.079037479710524938
leaf_weight=387 170 8187 131 112 153 114 114 164 106 161 122 110 112 156 191 122 110 168 157 153 114 140 191 167 102 101 129 139 102 103 108 124 108 104 108 146 245 104 102 113 108 116 189 125 191 325 100 121 121 151 202 106 110 107 170 161 116 121 993 111 192 114 344
leaf_count=387 170 8187 131 112 153 114 114 164 106 161 122 110 112 156 191 122 110 168 157 153 114 140 191 167 102 101 129 139 102 103 108 124 108 104 108 146 245 104 102 113 108 116 189 125 191 325 100 121 121 151 202 106 110 107 170 161 116 121 993 111 192 114 344
internal_value=0.00105545 0.0184068 -0.0199768 -0.0123504 -0.00877309 -0.00124113 0.00558824 -0.00590767 -0.0225172 -0.0176113 -0.0138329 -0.0116071 -0.0191489 -0.0229981 -0.0109422 -0.0101942 -0.0128549 -0.00741379 -0.000564516 -0.00242981 -0.00199115 -0.0199367 -0.0189394 -0.0235335 -0.0139169 -0.0163043 -0.0177147 -0.0224953 -0.0219925 -0.020068 -0.016587 -0.017511 -0.0180723 -0.015678 -0.0216759 0.000250836 -0.0241982 -0.0229842 -0.0228873 -0.0217153 -0.00641762 -0.0167411 -0.0235549 -0.0232441 -0.0218958 -0.0236957 -0.0240614 -0.0211538 -0.0235789 -0.0228261 -0.0238485 -0.0232196 -0.0224026 -0.0241597 -0.0242828 -0.0244856 -0.0237762 -0.0243274 -0.0246616 -0.0244073 -0.0242773 -0.0244615 -0.0242358
internal_weight=18144 9942 8202 1755 1516 564 340 1278 6686 1191 694 224 282 6369 658 412 317 290 620 463 226 948 792 5421 397 207 652 2116 1729 588 523 227 332 295 361 299 3305 1141 497 274 261 224 1384 1139 451 690 586 312 950 253 825 337 231 238 488 486 286 223 1921 928 761 650 458
internal_count=18144 9942 8202 1755 1516 564 340 1278 6686 1191 694 224 282 6369 658 412 317 290 620 463 226 948 792 5421 397 207 652 2116 1729 588 523 227 332 295 361 299 3305 1141 497 274 261 224 1384 1139 451 690 586 312 950 253 825 337 231 238 488 486 286 223 1921 928 761 650 458
is_linear=0
shrinkage=0.05


Tree=12
num_leaves=64
num_cat=0
split_feature=10 5 11 11 5 8 3 7 7 5 5 6 11 11 1 7 11 8 4 5 1 1 5 11 10 8 8 10 2 5 7 2 11 4 1 2 5 5 5 4 11 1 8 7 2 7 4 10 5 1 1 3 10 5 8 5 2 5 5 6 5 4 7
split_gain=2622.95 802.767 93.8726 38.4804 27.5439 12.775 12.7405 12.2228 11.9915 10.6368 7.12394 4.9734 4.2372 4.17878 3.14058 3.12636 2.56997 2.47057 2.23475 1.89554 1.64954 1.23052 1.16765 1.40283 1.09953 1.09397 0.922012 1.7711 0.693054 0.608905 0.53486 0.500777 0.478436 0.471495 0.440616 0.589946 0.336896 0.328868 0.344285 0.317227 0.312255 0.296509 0.237712 0.233841 0.181267 0.230589 0.180124 0.14957 0.124856 0.107425 0.185868 0.249352 0.0960426 0.0823058 0.0790314 0.0515385 0.0497059 0.0440725 0.0417168 0.0348885 0.0424803 0.0252941 0.0235624
threshold=9.8470095605179964 9.3217354035251052 6.8473716197861005 14.162858697138402 9.3186829348662119 9.473476925930802 0.93301270189221952 9.016545159098408 9.016545159098408 9.3166829797593511 9.3145224494194299 8.864855284234034 5.6381062815907201 11.047258580585028 -0.22252093395631442 8.7232027893436115 5.1880314580856108 9.900517890831539 7.9250000000000016 9.3191751683565318 -0.22252093395631442 0.81174490092936691 9.3191751683565318 4.8407585130206465 5.1932109514156641 9.3942245828887128 9.7056298421001497 5.5411910034458716 -0.5 9.3240329719968003 9.3245199254859106 1.0000000180025095e-35 4.9764203298643164 11.325000000000003 -0.22252093395631442 0.25000000000000011 9.3110149445958221 9.3191751683565318 9.3233417505116609 9.5250000000000021 5.090860771166712 -0.56174490092936669 9.2599898965703087 9.2063743630146657 0.68301270189221941 9.4364667067356276 6.0250000000000012 5.4071262480662057 9.3244993613204663 1.0000000180025095e-35 0.81174490092936691 -0.5 5.5090133729801609 9.3145224494194299 9.0481405873201606 9.3248075385440679 0.68301270189221941 9.3233688350439738 9.323788702572168 9.0690940665605861 9.3245639085507914 7.825000000000002 8.7383080020964687
decision_type=2 2 2 2 2 2 2 2 2 2 2 2 2 2 2 2 2 2 2 2 2 2 2 2 2 2 2 2 2 2 2 2 2 2 2 2 2 2 2 2 2 2 2 2 2 2 2 2 2 2 2 2 2 2 2 2 2 2 2 2 2 2 2
left_child=2 3 6 8 53 14 12 9 10 -5 11 -2 20 -12 42 -15 24 18 -7 -14 22 26 62 41 -8 30 39 29 43 -28 -16 -20 52 44 35 -10 -36 -34 -39 -21 -35 47 -6 -25 45 -30 -40 48 -24 -48 51 -51 54 -4 57 -52 61 -22 -56 -59 -61 -49 -1
right_child=1 -3 4 7 5 17 16 -9 34 -11 13 -13 19 15 25 -17 -18 -19 31 21 32 -23 23 28 -26 -27 27 -29 33 -31 -32 -33 37 40 36 -37 -38 38 46 -41 -42 -43 -44 -45 -46 -47 49 56 -50 50 55 -53 -54 -55 58 -57 -58 59 -60 60 -62 -63 -64
leaf_value=-0.17060474200155629 -0.074268432676397822 0.13256279449583924 -0.1322225318677818 -0.0019013684668194308 -0.019308457619003863 -0.0082273379345915842 -0.063646977235083613 -0.01785432139254315 -0.058303632970589894 0.06876325475879784 -0.03293387655779563 -0.039932746310230853 -0.15443208328113517 -0.028873048426802252 -0.019407258018191566 -0.001218358853981716 -0.024237871927635404 0.00587939294130031 0.0018820208256117078 -0.029227071611778534 -0.15252958309452536 -0.045088792577028317 -0.07313357888690715 -0.052767989501089387 -0.10189745775125787 -0.012438385876720283 -0.030316920198393271 -0.11962199360270374 -0.057387011614118633 -0.034295236478437241 -0.022773736235678424 -0.0015050012430356753 -0.16599548327656991 -0.068635195938823751 -0.067936705772835101 -0.064924966846292786 -0.079709685530259575 -0.044967609355912687 -0.052029263242732049 -0.025533152404998118 -0.050906083648595148 -0.094580801374901616 -0.005474495515650624 -0.058490217106258346 -0.064276779750075494 -0.059272928399433322 -0.05517147870161257 -0.12902799082360575 -0.08023337151902564 -0.05521486559033182 -0.059882903775618383 -0.060145758753571157 -0.14195883778007556 -0.11156757825328767 -0.092583404670181654 -0.062049457170544775 -0.11984154409846903 -0.07305182001384973 -0.076603024682112511 -0.073049710090585945 -0.080805743202519861 -0.12659445438887929 -0.16658573817117905
leaf_weight=118 195 8187 131 157 125 164 106 173 113 105 122 123 160 136 161 196 110 157 113 101 237 154 177 101 101 102 110 123 126 171 134 186 245 120 143 106 186 189 180 129 198 107 136 100 185 102 239 100 113 115 134 182 993 107 106 100 128 181 105 124 175 172 269
leaf_count=118 195 8187 131 157 125 164 106 173 113 105 122 123 160 136 161 196 110 157 113 101 237 154 177 101 101 102 110 123 126 171 134 186 245 120 143 106 186 189 180 129 198 107 136 100 185 102 239 100 113 115 134 182 993 107 106 100 128 181 105 124 175 172 269
internal_value=0.00115465 0.0184218 -0.0197757 -0.012265 -0.00854222 -0.0056338 -0.0223228 0.000632184 -0.0165152 0.00744275 -0.0125 -0.018239 -0.0228097 -0.00848018 -0.0104863 -0.00557229 -0.0125394 -0.000483871 -0.00232181 -0.0197257 -0.023349 -0.0187183 -0.022259 -0.0217033 -0.0158213 -0.0132872 -0.0177445 -0.0191832 -0.0203863 -0.0169929 -0.0148305 0.000250836 -0.0240469 -0.0211012 -0.0221715 -0.0204338 -0.0233283 -0.0233382 -0.0229807 -0.0152174 -0.0196541 -0.0232434 -0.00622605 -0.0177861 -0.0222155 -0.0212719 -0.0233684 -0.0236232 -0.0227586 -0.0237013 -0.0233051 -0.0224747 -0.0245575 -0.0241597 -0.0241918 -0.024359 -0.02425 -0.0244421 -0.0233412 -0.0241667 -0.0244983 -0.0246324 -0.0247416
internal_weight=18144 9942 8202 1755 1516 1278 6686 435 1320 262 772 318 6369 454 658 332 317 620 463 948 5421 788 2116 1729 207 397 634 404 932 281 295 299 3305 731 548 219 329 1384 1139 230 318 797 261 201 413 228 950 690 290 770 531 297 1921 238 928 234 400 717 211 480 299 272 387
internal_count=18144 9942 8202 1755 1516 1278 6686 435 1320 262 772 318 6369 454 658 332 317 620 463 948 5421 788 2116 1729 207 397 634 404 932 281 295 299 3305 731 548 219 329 1384 1139 230 318 797 261 201 413 228 950 690 290 770 531 297 1921 238 928 234 400 717 211 480 299 272 387
is_linear=0
shrinkage=0.05


Tree=13
num_leaves=64
num_cat=0
split_feature=9 5 11 11 5 7 5 0 0 7 8 6 7 11 11 5 11 11 11 4 8 0 8 9 5 4 8 10 10 5 4 11 4 5 10 5 8 0 5 5 11 4 7 11 8 9 5 4 0 6 5 6 10 10 5 6 4 0 7 8 5 0 4
split_gain=2592.28 786.108 94.8023 37.1045 27.9678 15.0244 16.1008 12.5766 10.3718 10.2706 8.89733 5.49369 8.16317 5.24912 5.18951 4.97295 6.15987 3.27384 2.10072 1.96961 1.84725 1.50073 1.35944 1.1267 1.31538 1.27464 0.964034 0.883813 0.815334 0.788982 0.760603 0.720759 0.552635 0.51061 0.44373 0.440668 0.489188 0.420188 0.402773 0.883472 0.503535 0.353276 0.300419 0.248404 0.242762 0.189227 0.1837 0.169602 0.16571 0.12273 0.239119 0.124565 0.118848 0.110867 0.109144 0.125702 0.106753 0.0864934 0.0801432 0.0739997 0.0682653 0.0680718 0.0493272
threshold=9.0946630588034569 9.3217354035251052 6.8473716197861005 11.938909388457553 9.3186829348662119 9.016545159098408 9.3167430061726915 -1.0000000180025095e-35 -1.0000000180025095e-35 9.016545159098408 9.473476925930802 8.864855284234034 8.7383080020964687 7.5997337330509538 16.480018423360558 9.3191751683565318 4.9764203298643164 5.6381062815907201 5.6381062815907201 4.9750000000000005 9.3942245828887128 -1.0000000180025095e-35 9.2599898965703087 4.0934403019151535 9.3191751683565318 6.3750000000000009 9.900517890831539 9.2692284213642147 5.4071262480662057 9.3250721260058054 9.0750000000000028 5.090860771166712 11.375000000000002 9.3191751683565318 9.2362329378095609 9.3238113902359654 9.473476925930802 0.6078576107927941 9.325689153254709 9.3244409128501715 5.1333255217181772 7.8750000000000009 9.4364667067356276 4.8207178782719229 8.9094397566790562 4.0934403019151535 9.3242426855970404 5.8250000000000011 1.0000000180025095e-35 9.5252557901496377 9.3233874251375202 9.8000992955088666 5.5090133729801609 9.1602811172927314 9.3253674829144781 9.5252557901496377 12.675000000000002 0.6078576107927941 9.016545159098408 9.0481405873201606 9.3110149445958221 0.6078576107927941 8.6750000000000025
decision_type=2 2 2 2 2 2 2 2 2 2 2 2 2 2 2 2 2 2 2 2 2 2 2 2 2 2 2 2 2 2 2 2 2 2 2 2 2 2 2 2 2 2 2 2 2 2 2 2 2 2 2 2 2 2 2 2 2 2 2 2 2 2 2
left_child=2 3 8 9 58 6 19 13 15 11 27 12 48 46 -7 -1 28 31 38 -5 -13 -11 -14 -19 -25 -26 30 29 41 34 -12 45 -20 -33 -9 36 -35 52 39 40 -18 -17 -38 53 -43 -10 -6 -37 -2 56 -51 -52 -27 -30 61 -56 57 59 -4 -47 -23 -49 -53
right_child=1 -3 4 5 7 14 -8 10 17 21 26 20 22 -15 -16 16 18 23 32 -21 -22 60 -24 24 25 37 -28 -29 43 -31 -32 33 -34 35 -36 47 42 -39 -40 -41 -42 44 -44 -45 -46 49 -48 54 -50 50 51 62 -54 -55 55 -57 -58 -59 -60 -61 -62 -63 -64
leaf_value=-0.14596546328431637 -0.066867555583233013 0.12593465477104723 -0.110406007162586 -0.018349125347967423 -0.0037293355208712687 -0.036334934751682792 0.060481337818730468 -0.019612727065630199 -0.14316848524675163 -0.055752324651109443 -0.0074624844523134342 -0.026492808957842496 -0.030801853425473948 0.025347521250423367 -0.0051611276931969215 -0.063679345303446544 -0.03784737849464162 -0.127745571385604 -0.029011843644454017 0.014290865274829968 -0.0043822146568129666 -0.071860186773155019 -0.0077354220635648344 -0.14950461022559317 -0.022003361872305494 -0.032092064200119008 0.0036037011815745149 -0.015371140687989993 -0.094553877890995064 -0.014773999359419277 -0.003138225956902563 -0.15857257652224135 -0.029178926998833045 -0.059056896793067561 -0.020258019953140496 -0.05157824116949588 -0.035463335354229568 -0.028988430711799351 -0.04644667505173472 -0.056089100372677114 -0.044064947618768002 -0.069578042504562329 -0.040479108043905671 -0.091567017189420355 -0.055394069470247879 -0.085453325686298931 -0.0048118829920383854 -0.064854640931867547 -0.078638487275758492 -0.064407282556475473 -0.067025426124885629 -0.06512719037600101 -0.030504100208634546 -0.12542112506165917 -0.052366412582643476 -0.055662782761199098 -0.069568769199568517 -0.082394024042159966 -0.1337196269073917 -0.075980366000479374 -0.076579661928342452 -0.054905353055838282 -0.064807302700739644
leaf_weight=333 106 8187 135 112 109 114 114 103 1081 145 142 124 110 139 110 101 118 123 101 114 123 151 130 103 103 108 117 122 158 105 180 239 118 134 149 109 121 197 103 149 185 112 127 140 116 286 112 220 101 105 122 110 109 109 117 110 151 502 103 196 201 203 167
leaf_count=333 106 8187 135 112 109 114 114 103 1081 145 142 124 110 139 110 101 118 123 101 114 123 151 130 103 103 108 117 122 158 105 180 239 118 134 149 109 121 197 103 149 185 112 127 140 116 286 112 220 101 105 122 110 109 109 117 110 151 502 103 196 201 203 167
internal_value=0.00130622 0.0184721 -0.0195013 -0.0118946 -0.0082124 -0.00132979 0.00529412 -0.00528169 -0.022061 -0.0168976 -0.0083878 -0.0129683 -0.0162752 0.00263889 -0.0113839 -0.0188687 -0.017649 -0.0232759 -0.0145349 -0.00243363 -0.00698381 -0.0223843 -0.01 -0.0202221 -0.0193548 -0.0183269 -0.00324601 -0.0131002 -0.0209239 -0.0143557 -0.00465839 -0.0238293 -0.0103881 -0.0228986 -0.015873 -0.0224584 -0.0210733 -0.0195652 -0.0161712 -0.0168142 -0.015264 -0.0190729 -0.0197581 -0.0224201 -0.0179825 -0.0243015 -0.00214932 -0.0231555 -0.0235507 -0.0239628 -0.0233135 -0.0238722 -0.0210829 -0.0233146 -0.0234615 -0.0225771 -0.0242511 -0.0244411 -0.0239496 -0.0239627 -0.0241477 -0.0239362 -0.0244585
internal_weight=18144 9942 8202 1755 1516 564 340 1278 6686 1191 918 694 447 360 224 1843 1510 4843 774 226 247 497 240 743 620 517 439 479 736 357 322 4100 219 1380 252 1141 382 414 555 452 303 329 248 407 228 2720 221 759 207 1639 504 399 217 267 650 227 1135 984 238 482 352 423 277
internal_count=18144 9942 8202 1755 1516 564 340 1278 6686 1191 918 694 447 360 224 1843 1510 4843 774 226 247 497 240 743 620 517 439 479 736 357 322 4100 219 1380 252 1141 382 414 555 452 303 329 248 407 228 2720 221 759 207 1639 504 399 217 267 650 227 1135 984 238 482 352 423 277
is_linear=0
shrinkage=0.05


Tree=14
num_leaves=64
num_cat=0
split_feature=10 4 11 4 10 7 3 7 6 8 11 0 7 11 4 0 6 7 4 6 7 10 6 0 4 11 10 4 4 7 10 0 6 4 4 11 10 7 4 8 10 10 7 2 3 11 0 7 4 8 6 11 4 0 2 11 10 10 3 4 6 3 3
split_gain=2561.28 257.306 90.9787 35.1453 21.417 49.1703 13.7222 12.7499 47.1241 12.6245 11.4926 10.0756 9.31989 9.25736 7.6521 7.57258 7.41445 23.9858 7.14818 6.45075 5.85589 18.4473 4.90597 4.83621 4.46501 3.58244 3.08151 2.99897 2.72455 2.39044 2.4023 2.00716 1.98049 1.78976 1.77242 1.68241 1.59988 1.45808 1.27825 1.27025 1.04575 1.03172 10.7352 1.00896 1.31874 0.94133 0.880668 0.727406 0.723459 0.619602 0.597379 0.79259 0.660674 0.525482 0.490649 0.425134 0.373669 0.36573 0.337695 0.275267 0.214665 0.190557 0.153667
threshold=9.8470095605179964 5.2250000000000005 6.823508529069926 8.0250000000000021 11.777409958626853 9.705883641112715 0.93301270189221952 9.2063743630146657 9.2812747999175098 9.473476925930802 11.938909388457553 -1.0000000180025095e-35 9.3245199254859106 11.938909388457553 7.075000000000002 -1.0000000180025095e-35 8.864855284234034 8.8997148111845252 3.9750000000000005 9.6209964920993407 9.016545159098408 10.970709991126707 9.2812747999175098 -1.0000000180025095e-35 4.0250000000000012 4.8407585130206465 5.5090133729801609 3.6250000000000004 6.575000000000002 9.2063743630146657 10.970709991126707 -1.0000000180025095e-35 9.0858994153333601 5.325000000000002 6.0250000000000012 5.1333255217181772 10.970709991126707 9.4364667067356276 7.0250000000000012 9.900517890831539 9.2539281106597588 10.916961605044801 9.016545159098408 1.0000000180025095e-35 1.0000000180025095e-35 11.557762842549858 0.6078576107927941 9.1742463098550626 7.7750000000000012 9.900517890831539 9.5252557901496377 5.1880314580856108 8.6750000000000025 0.6078576107927941 0.25000000000000011 4.1858385079323117 10.668650684810805 4.9719641259989062 -0.24999999999999997 7.6750000000000016 9.6209964920993407 1.0000000180025095e-35 -0.5
decision_type=2 2 2 2 2 2 2 2 2 2 2 2 2 2 2 2 2 2 2 2 2 2 2 2 2 2 2 2 2 2 2 2 2 2 2 2 2 2 2 2 2 2 2 2 2 2 2 2 2 2 2 2 2 2 2 2 2 2 2 2 2 2 2
left_child=2 4 6 7 5 13 11 8 10 15 16 25 19 24 32 47 17 -3 -14 -6 21 -18 37 -16 31 55 -8 -15 45 30 56 -2 -11 -27 -12 -13 -33 -9 40 50 -17 42 -5 -25 -45 -24 58 -4 -30 60 52 -52 -35 -51 -48 -1 -26 -54 -40 -57 -37 -61 -62
right_child=1 3 9 41 12 -7 26 22 -10 14 34 35 18 27 23 38 20 -19 -20 -21 -22 -23 28 43 29 33 -28 -29 48 -31 -32 36 -34 39 -36 49 -38 -39 46 -41 -42 -43 -44 44 -46 -47 54 -49 -50 53 51 -53 57 -55 -56 59 -58 -59 -60 61 62 -63 -64
leaf_value=-0.12333906027410146 -0.02799700581864184 -0.052466488311951887 -0.017474818040715514 0.35888793347658671 0.049611832459687921 0.11963792203249489 -0.03984505937483325 0.11563795207323589 0.12463794110598121 -0.046335027240557804 0.049514629588223169 -0.092499213778214184 -0.031890089928889108 -0.012872575555624334 0.017832092651470389 -0.043033923834197997 -0.0071827059805186005 0.060637932999749559 0.084387932999749546 0.13438793299974955 -0.039414681965808419 0.094637922032494881 0.069137922509332039 -0.0006743114727959965 -0.041384339760977155 -0.094303734450914833 -0.092074890969145257 0.047049351056337146 0.11938792346300638 0.045762937052865382 -0.01414630186169985 -0.03722282216349309 -0.0084979949171107624 -0.067035828011826462 0.11918795142950574 -0.064510787409732817 -0.0655931826758505 0.11285041348518883 -0.0091434243026569557 -0.027997267573541176 -0.045610479750458226 0.12438794253649271 0.11013793347658672 -0.0016202269521651492 -0.010845427110535689 0.14113795159639872 -0.01906080259179195 -0.0087312719100626438 0.10913793204607521 -0.042350071922999916 -0.055951845546624406 -0.046974390635811908 -0.038601578544869411 -0.0341432995572057 -0.02427315362645004 -0.095663031272215412 -0.042580782261870634 -0.060534700004462594 -0.019894139152910453 -0.070924004527948808 -0.053396047619082371 -0.074142652192581524 -0.050941116134100774
leaf_weight=194 127 117 131 164 123 144 196 171 610 124 104 2925 101 118 144 102 102 105 123 121 105 120 141 124 102 193 117 178 175 104 100 140 111 178 175 911 141 571 113 100 153 4010 1314 107 115 132 111 122 103 172 169 106 155 159 138 193 101 112 104 165 133 129 196
leaf_count=194 127 117 131 164 123 144 196 171 610 124 104 2925 101 118 144 102 102 105 123 121 105 120 141 124 102 193 117 178 175 104 100 140 111 178 175 911 141 571 113 100 153 4010 1314 107 115 132 111 122 103 172 169 106 155 159 138 193 101 112 104 165 133 129 196
internal_value=0.0014192 0.0184822 -0.0192636 0.0221651 0.000914103 -0.00249004 -0.0219553 0.0175302 0.0142907 -0.00896115 0.00652174 -0.0224717 0.0100427 -0.00605311 -0.00396552 -0.0126797 0.0023224 -0.00472973 0.00267857 0.0168033 0.00711009 0.0117117 0.021133 -0.000408163 -0.00880368 -0.0191854 -0.0117412 0.00152027 0.017559 -0.00509828 -0.00734323 -0.0125 -0.011383 -0.0173001 0.0147849 -0.02371 -0.0148577 0.0237871 -0.0152913 -0.0162805 -0.0181373 0.0244716 0.0233424 -0.00361272 -0.00563063 0.014011 -0.0137339 -0.00523715 0.0210432 -0.0223902 -0.0170139 -0.0151818 -0.0181461 -0.0204683 -0.0157631 -0.0219897 -0.010468 -0.016573 -0.0114055 -0.0212012 -0.0229032 -0.0202381 -0.0218085
internal_weight=18144 9942 8202 8219 1723 1255 6503 2731 1438 1699 828 6190 468 1111 725 974 549 222 224 244 327 222 1293 490 815 1694 313 296 551 407 303 408 235 1013 279 4496 281 742 721 820 255 5488 1478 346 222 273 466 253 278 1571 720 275 445 331 249 681 203 267 217 487 1240 294 329
internal_count=18144 9942 8202 8219 1723 1255 6503 2731 1438 1699 828 6190 468 1111 725 974 549 222 224 244 327 222 1293 490 815 1694 313 296 551 407 303 408 235 1013 279 4496 281 742 721 820 255 5488 1478 346 222 273 466 253 278 1571 720 275 445 331 249 681 203 267 217 487 1240 294 329
is_linear=0
shrinkage=0.05


Tree=15
num_leaves=64
num_cat=0
split_feature=9 5 9 9 5 3 7 0 7 5 0 6 7 5 9 10 0 5 9 4 10 3 7 10 10 5 4 5 2 7 6 4 5 4 5 7 4 4 4 7 6 3 5 3 5 2 5 4 7 6 3 4 2 6 7 7 6 10 3 10 6 10 3
split_gain=2518.72 774.035 95.3919 30.2973 29.1848 14.4687 13.9911 12.7034 11.6484 10.2942 8.22892 6.65908 8.39487 3.65246 4.09616 3.00693 1.98992 1.79392 1.41321 1.01887 1.44342 1.00765 0.962478 0.948885 0.859137 0.832425 0.975972 0.715478 0.664318 0.664696 0.607102 0.55564 0.432625 0.430679 0.427362 0.478593 0.306112 0.28129 0.276405 0.538094 0.254032 0.252798 0.180988 0.175045 0.167544 0.166915 0.166407 0.128513 0.153492 0.1125 0.0797481 0.112328 0.0782605 0.166145 0.0573667 0.0459597 0.0400431 0.0336672 0.0297413 0.0273583 0.042636 0.0253187 0.0283217
threshold=9.0946630588034569 9.3217354035251052 5.9216033086211768 14.118550572800176 9.3186829348662119 0.93301270189221952 9.016545159098408 -1.0000000180025095e-35 9.016545159098408 9.3159526297384811 -1.0000000180025095e-35 8.864855284234034 8.7383080020964687 9.3191751683565318 4.0934403019151535 5.5090133729801609 -1.0000000180025095e-35 9.3175694812154948 4.0934403019151535 5.8250000000000011 9.2692284213642147 1.0000000180025095e-35 9.4364667067356276 9.2620231683076941 4.8249279600464261 9.3191751683565318 6.1250000000000009 9.3242903377161621 0.68301270189221941 9.705883641112715 8.6971333137178153 11.975000000000003 9.3234887479899644 9.9750000000000014 9.3239286488582191 9.1447522124391654 6.0250000000000012 11.675000000000002 12.025000000000002 9.3245199254859106 8.6971333137178153 -0.68301270189221952 9.3245279239381507 1.0000000180025095e-35 9.3242504747451171 -0.24999999999999997 9.3245698547093792 11.875000000000002 9.9914382291840145 9.0858994153333601 -0.5 11.375000000000002 -0.5 9.434560002614786 9.4906651436118512 9.2063743630146657 9.0690940665605861 5.4071262480662057 1.0000000180025095e-35 4.7579338365536481 8.7716019290570237 10.482066368067905 1.0000000180025095e-35
decision_type=2 2 2 2 2 2 2 2 2 2 2 2 2 2 2 2 2 2 2 2 2 2 2 2 2 2 2 2 2 2 2 2 2 2 2 2 2 2 2 2 2 2 2 2 2 2 2 2 2 2 2 2 2 2 2 2 2 2 2 2 2 2 2
left_child=2 3 5 6 43 10 11 21 9 -5 13 12 40 56 50 -7 -8 -13 -12 -9 23 27 -22 28 31 59 32 -6 29 33 -14 44 -27 -21 35 37 -26 -28 39 -38 -2 -37 -34 -4 -16 -18 -40 48 57 -43 -15 -52 -49 54 -54 -47 -1 -36 -55 60 -20 62 -3
right_child=1 61 4 8 7 15 16 19 -10 -11 18 17 30 14 24 -17 45 -19 25 20 22 -23 -24 -25 36 26 34 -29 -30 -31 -32 -33 42 -35 47 41 38 -39 46 -41 -42 49 -44 -45 -46 55 -48 52 -50 -51 51 -53 53 58 -56 -57 -58 -59 -60 -61 -62 -63 -64
leaf_value=-0.1319078586446939 -0.063419262403963922 0.090974804505336862 -0.11815359257518017 -0.01387948859973105 0.0021586107370827226 -0.038915385886437684 -0.050840797246167885 -0.008124075208186787 -0.018140247107493981 0.05665410961744799 -0.13202730120318498 -0.022804406099271014 -0.0087306221121828068 -0.10187942604078533 -0.044291660523461923 -0.090620250181006681 -0.064987518300704747 -0.00075001338164812923 -0.14617644084670767 -0.0076339169493044208 -0.0056400159302532286 0.0098973331543626766 -0.013360685467448464 -0.017576618205443408 -0.046124223145567259 -0.033173782081531746 -0.039740957175238491 -0.0092199761805499495 -0.015839614267112046 -0.0097199810879454954 -0.023985910835822778 -0.042988863135927161 -0.046610803244301294 -0.016234758548229155 -0.055791416442960706 -0.049643362084282973 -0.039205851391624073 -0.049223750706714947 -0.042989904409688376 -0.051457650698666903 -0.057771298856509959 -0.045988022368516783 -0.053896746844387479 -0.11664489994150024 -0.052702102492837223 -0.060577643884931101 -0.059448645409125978 -0.053767130680508049 -0.056233074078014679 -0.047380902363478854 -0.10222681890588557 -0.099066686616139779 -0.054342791651078186 -0.054712849826233124 -0.055506482100490473 -0.075817053634800874 -0.12573504659880608 -0.048166722561624242 -0.051548971905463259 -0.16390760468046511 -0.13781296478239521 0.11463102726601422 0.094631046339500549
leaf_weight=172 124 143 147 130 114 194 154 166 166 143 1272 177 112 141 102 111 137 111 101 106 116 197 110 169 104 139 148 129 163 115 137 101 169 154 405 155 199 123 110 132 100 144 159 143 112 100 100 175 143 180 127 113 142 131 119 154 130 164 100 339 104 7946 117
leaf_count=172 124 143 147 130 114 194 154 166 166 143 1272 177 112 141 102 111 137 111 101 106 116 197 110 169 104 139 148 129 163 115 137 101 169 154 405 155 199 123 110 132 100 144 159 143 112 100 100 175 143 180 127 113 142 131 119 154 130 164 100 339 104 7946 117
internal_value=0.00157663 0.018478 -0.0189614 -0.0117622 -0.00889831 -0.0218553 -0.0155819 -0.0061566 -0.000398633 0.00595238 -0.0223906 -0.0112024 -0.014852 -0.0193701 -0.0182513 -0.0112295 -0.0216972 -0.00520833 -0.0235154 -0.00903094 -0.0096731 0.00102273 -0.00619469 -0.010785 -0.0165104 -0.0229459 -0.0225732 -0.00113169 -0.00975836 -0.0086 -0.00853414 -0.0186508 -0.0205032 -0.01 -0.0230272 -0.0220667 -0.0154651 -0.0203875 -0.0159427 -0.0168429 -0.021875 -0.0230167 -0.0214939 -0.0234483 -0.0200935 -0.0235934 -0.0145238 -0.0235497 -0.0240169 -0.0222222 -0.0226378 -0.0220833 -0.023051 -0.023374 -0.0225096 -0.0228346 -0.0243377 -0.0243849 -0.0243506 -0.0247243 -0.0242683 0.0249086 0.0244231
internal_weight=18140 9951 8189 1745 1829 6360 1306 1539 439 273 6055 761 473 1643 1341 305 545 288 4412 1099 933 440 226 707 960 3140 2596 243 538 375 249 315 467 260 2129 750 645 271 541 331 224 479 328 290 214 391 210 1379 712 324 381 240 667 492 261 254 302 569 231 544 205 8206 260
internal_count=18140 9951 8189 1745 1829 6360 1306 1539 439 273 6055 761 473 1643 1341 305 545 288 4412 1099 933 440 226 707 960 3140 2596 243 538 375 249 315 467 260 2129 750 645 271 541 331 224 479 328 290 214 391 210 1379 712 324 381 240 667 492 261 254 302 569 231 544 205 8206 260
is_linear=0
shrinkage=0.05


Tree=16
num_leaves=64
num_cat=0
split_feature=9 5 11 9 5 0 5 5 0 8 8 5 9 11 11 11 5 10 10 4 8 0 8 5 11 10 8 8 11 0 5 0 10 5 4 5 6 10 5 9 5 1 8 10 11 5 11 8 6 2 2 5 10 2 4 2 2 4 2 0 6 6 0
split_gain=2474.02 763.29 98.3535 29.8369 27.5017 12.3053 11.3077 9.80421 9.26867 8.16287 6.20701 5.55139 6.39535 5.49086 4.99458 3.46758 2.91119 2.80154 5.27053 2.3631 2.32561 2.27131 1.70799 1.48733 1.44932 1.05228 0.947379 0.945854 0.922496 0.846663 0.818669 0.747437 0.728333 0.681484 0.59901 0.563956 1.09379 0.550505 0.530758 0.458443 0.453799 0.439695 0.298526 0.295461 0.28713 0.304873 0.274581 0.242054 0.17996 0.167723 0.488819 0.150508 0.140253 0.133903 0.127226 0.145306 0.125241 0.169989 0.117817 0.0948494 0.138971 0.105948 0.0816204
threshold=9.0946630588034569 9.3217354035251052 6.8473716197861005 14.118550572800176 9.3186829348662119 -1.0000000180025095e-35 9.3159526297384811 9.3159526297384811 -1.0000000180025095e-35 9.3942245828887128 9.473476925930802 9.3191751683565318 4.0934403019151535 5.6381062815907201 4.9764203298643164 11.047258580585028 9.3191751683565318 10.970709991126707 10.668650684810805 6.2250000000000005 9.900517890831539 -1.0000000180025095e-35 9.900517890831539 9.317691592664028 7.5997337330509538 10.668650684810805 9.3942245828887128 9.2599898965703087 5.6381062815907201 -0.60785761079279388 9.3249769939507239 -0.60785761079279388 4.9165956618851379 9.3233801838909862 5.0250000000000012 9.3249769939507239 9.0858994153333601 9.2575329397718082 9.3241607082749187 4.0934403019151535 9.324192478261832 1.0000000180025095e-35 9.5733586346751469 9.0909489631435605 5.2737722407001817 9.3254685977214109 10.771797858558127 9.5733586346751469 9.6209964920993407 1.0000000180025095e-35 -0.5 9.3243541491711195 5.0351644304980558 -0.24999999999999997 12.025000000000002 0.25000000000000011 -0.24999999999999997 11.975000000000003 0.25000000000000011 0.6078576107927941 9.0690940665605861 9.6209964920993407 -0.60785761079279388
decision_type=2 2 2 2 2 2 2 2 2 2 2 2 2 2 2 2 2 2 2 2 2 2 2 2 2 2 2 2 2 2 2 2 2 2 2 2 2 2 2 2 2 2 2 2 2 2 2 2 2 2 2 2 2 2 2 2 2 2 2 2 2 2 2
left_child=2 3 5 7 58 11 10 17 24 30 -5 52 42 26 39 -9 -16 18 -2 28 35 -19 27 25 40 -17 31 -21 47 -28 37 -14 -33 41 -20 36 -11 -10 -24 -7 -6 -29 62 44 45 56 54 -18 -34 50 -41 -31 -1 -23 55 -3 -35 -58 -4 60 -51 -61 -13
right_child=1 46 4 6 8 14 -8 15 9 20 -12 12 13 -15 16 23 19 21 34 22 -22 53 38 -25 -26 -27 29 33 -30 51 -32 32 48 43 -36 -37 -38 -39 -40 49 -42 -43 -44 -45 -46 -47 -48 -49 -50 59 -52 -53 -54 -55 -56 -57 57 -59 -60 61 -62 -63 -64
leaf_value=-0.10495354370013668 -0.06070671223558044 0.057436974972881055 -0.10093060239890517 -0.025534649302964143 0.004111538999601194 -0.12566160908160576 0.038198931749023404 -0.040515867794165543 -0.021996173767316884 -0.0089363793017808169 0.0069416315692959699 -0.10421245257468391 -0.052476662106985365 -0.015431717434518566 -0.13997488400688293 -0.0076582596379421554 -0.041386256788508602 -0.049190983307103898 -0.054589961631550124 -0.024489661325143231 0.0042693391936397878 -0.061231572567117802 -0.023018805498960761 -0.0035375327258845958 0.02265849021332187 -0.036892545521529721 -0.036976287926761602 -0.04064295361884436 -0.028354690659468051 -0.032996750940216701 -0.014262478819576563 -0.057747172570414042 -0.053231060385359408 -0.049681974692967937 -0.021584736237372584 -0.0087638710900477933 -0.001432098672364557 -0.017616322419846186 -0.030339076995621595 -0.067220304905368886 -0.0036123822146863385 -0.03738362107322999 -0.076324188528465925 -0.12009181936571814 -0.038620174994441349 -0.045374780354811795 0.11294949361721392 -0.035317572443311129 -0.048024899451853287 -0.067886123456749742 -0.065659863194699811 -0.040815477501771308 -0.14527933125407932 -0.062744530514289701 0.057436974972881055 0.057674473613895133 -0.046075214748372152 -0.047502974213318311 -0.10956265494442521 -0.071242544766101368 -0.065581812843098455 -0.056975109300887741 -0.10270956690713846
leaf_weight=189 180 181 111 164 105 1088 175 141 104 118 100 114 194 174 415 111 177 137 101 168 115 109 104 106 137 112 148 109 111 132 105 131 101 187 101 144 177 127 137 309 119 103 111 122 182 176 7615 110 111 168 191 116 150 208 219 191 206 145 115 295 246 110 182
leaf_count=189 180 181 111 164 105 1088 175 141 104 118 100 114 194 174 415 111 177 137 101 168 115 109 104 106 137 112 148 109 111 132 105 131 101 187 101 144 177 127 137 309 119 103 111 122 182 176 7615 110 111 168 191 116 150 208 219 191 206 145 115 295 246 110 182
internal_value=0.0017172 0.018468 -0.0186378 -0.0115616 -0.00695667 -0.0212083 -0.000284738 -0.0153522 -0.00405675 -0.00679775 -0.00681818 -0.0177415 -0.0164465 -0.0144761 -0.0225304 -0.00957447 -0.0209421 -0.0186005 -0.015445 -0.0201645 -0.00306859 -0.0212555 -0.0210037 -0.00676292 0.00270083 -0.00908072 -0.0159968 -0.0216738 -0.0167085 -0.0141414 -0.0129464 -0.017365 -0.0159621 -0.0221545 -0.00990099 -0.00472665 -0.00347458 -0.0146104 -0.0171162 -0.0241483 0.000223214 -0.0195755 -0.0218059 -0.0226916 -0.0223772 -0.0228291 0.0248538 -0.0182056 -0.0141509 -0.0235216 -0.0228 -0.0159274 -0.0235251 -0.0235804 0.0238156 0.0232527 -0.0234201 -0.0228632 -0.0230088 -0.0239621 -0.02343 -0.0245062 -0.0226351
internal_weight=18140 9951 8189 1745 1477 6712 439 1306 1251 890 264 1853 1514 1107 4859 470 2452 836 382 2037 554 454 1639 329 361 223 933 1398 398 396 336 537 343 1230 202 439 295 231 241 2407 224 212 407 1018 896 714 8206 287 212 1319 500 248 339 317 591 372 538 351 226 819 414 405 296
internal_count=18140 9951 8189 1745 1477 6712 439 1306 1251 890 264 1853 1514 1107 4859 470 2452 836 382 2037 554 454 1639 329 361 223 933 1398 398 396 336 537 343 1230 202 439 295 231 241 2407 224 212 407 1018 896 714 8206 287 212 1319 500 248 339 317 591 372 538 351 226 819 414 405 296
is_linear=0
shrinkage=0.05


Tree=17
num_leaves=64
num_cat=0
split_feature=9 5 9 5 9 3 7 8 7 5 0 0 6 7 9 5 9 8 0 8 5 8 0 8 5 5 5 6 7 8 8 5 5 0 5 6 8 5 5 10 6 8 8 8 7 0 5 5 9 5 3 2 0 3 2 5 7 3 5 5 0 10 5
split_gain=2420.82 752.723 94.2955 30.9312 29.0836 15.3182 14.2401 12.681 11.2343 10.2942 9.66134 8.74872 7.19036 8.62088 3.90879 4.38317 2.78185 2.78035 2.63489 2.62175 2.32774 2.30607 2.23021 1.89544 1.85494 1.713 1.55063 1.43859 1.16515 1.08545 0.621925 0.671628 0.726328 0.620499 0.561524 1.30169 0.537132 0.914502 0.658718 0.621468 0.487601 0.460803 0.434263 0.360577 0.307174 0.293226 0.284767 0.260163 0.246426 0.253164 0.240546 0.233129 0.229582 0.228409 0.227219 0.197084 0.171672 0.112872 0.103579 0.117803 0.124994 0.283266 0.198912
threshold=9.0946630588034569 9.3217354035251052 5.9216033086211768 9.3186829348662119 14.118550572800176 0.93301270189221952 9.016545159098408 9.3942245828887128 9.016545159098408 9.3159526297384811 -1.0000000180025095e-35 -1.0000000180025095e-35 8.864855284234034 8.7383080020964687 4.0934403019151535 9.3191751683565318 4.0934403019151535 9.3942245828887128 -1.0000000180025095e-35 9.5733586346751469 9.3233688350439738 9.3942245828887128 -1.0000000180025095e-35 9.900517890831539 9.3240641818595531 9.3217354035251052 9.3238308240889971 9.2812747999175098 9.4906651436118512 9.2599898965703087 9.2599898965703087 9.3191751683565318 9.3234481026989346 -0.60785761079279388 9.3249769939507239 9.0858994153333601 8.9094397566790562 9.3249769939507239 9.3243085606899658 9.2575329397718082 9.1583859239754357 9.3942245828887128 8.9094397566790562 9.7056298421001497 9.3245199254859106 0.6078576107927941 9.3242642689118309 9.3248075385440679 14.118550572800176 9.3232289636313066 -0.24999999999999997 -0.24999999999999997 0.87837969732492682 1.0000000180025095e-35 0.25000000000000011 9.3244060919857663 9.3245199254859106 1.0000000180025095e-35 9.3257972155268209 9.317691592664028 0.6078576107927941 4.7721646150620254 9.323579211102631
decision_type=2 2 2 2 2 2 2 2 2 2 2 2 2 2 2 2 2 2 2 2 2 2 2 2 2 2 2 2 2 2 2 2 2 2 2 2 2 2 2 2 2 2 2 2 2 2 2 2 2 2 2 2 2 2 2 2 2 2 2 2 2 2 2
left_child=2 4 5 53 6 10 12 11 9 -6 14 24 13 54 41 -16 -12 -14 27 30 -7 40 -8 34 -5 -21 28 -9 -27 -15 58 -32 -33 -23 35 -20 38 39 -13 -38 55 -1 48 -35 -42 -28 57 -47 49 -3 -43 -24 -48 -4 -2 -17 -22 -34 59 -18 61 -61 -62
right_child=1 42 3 7 8 20 22 18 -10 -11 16 36 17 29 15 21 19 -19 23 25 56 33 51 -25 -26 26 45 -29 -30 -31 31 32 46 43 -36 -37 37 -39 -40 -41 44 50 -44 -45 -46 47 52 -49 -50 -51 -52 -53 -54 -55 -56 -57 -58 -59 -60 60 62 -63 -64
