tree
version=v4
num_class=1
num_tree_per_iteration=1
label_index=0
max_feature_idx=16
objective=quantile
feature_names=dow_sin dow_cos month_sin month_cos package_weight_lbs package_volume dimensional_weight billable_weight weight_to_volume_ratio route_30d_median_time route_te_time origin_zone_te_time dest_zone_te_time carrier_te_time service_level_te_time origin_service_te_time carrier_service_te_time
feature_infos=[-0.97492791218182362:0.97492791218182362] [-0.90096886790241903:1] [-1:1] [-1:1] [0.10000000000000001:70] [24:13348.187999999998] [0.14457831325301204:80.410771084337341] [0.14457831325301204:80.410771084337341] [0.00033845299903202447:0.28818181818181815] [1:13.800000000000001] [2.158519854475637:5.9806410752204897] [3.6468234375786341:4.4633173996345716] [3.7930056865218043:4.277651445697777] [3.3785070508889921:4.4501914125485129] [1.8965046794527574:5.6914494143635883] [1.8079596181503312:6.2666795005719713] [1.4985285303817615:6.2203074088739871]
tree_sizes=5458 5846 5839 5846 5860 5830 5870 5878 5860 5872 5872 5883 5876 5869 5852 5868 5896 5850 5892 5863 5898 5901 5879 5872 5877 5900 5860 5889 5889 5883 5903 5915 5928 5905 5911 5904 5902 5896 5930 5924 5891 5913 5906 5943 5928 5890 5900 5931 5956 5951 5930 5969 5929 5927 5984 5943 5916 5941 5946 5913 5948 5928 5957 5946 5964 5930 5955 5984 5953 5969 5967 5947 5939 5973 5936 5979 5970 5958 5950 5955 5985 5989 5970 5962 5957 5981 5977 5941 5961 5970 5927 5967 5961 5967 5948 5951 5923 5979 5955 5971 5995 5953 5978 5961 5979 5958 5940 5974 5972 5965 5953 5952 5993 5998 5974 6020 6001 5986 6016 5978 5954 5999 5973 5958 5963 5941 5994 5947 5995 5966 6018 5975 5968 5987 6019 5974 5982 6018 5938 5981 5963 5977 5972 5972 5988 6014 5971 5978 5968 5907 5954 5971 5998 5980 5983 5947 5941 5990 6007 5964 5978 5993 5952 5987 5959 5989 6003 5972 6003 5959 5958 5954 5998 5977 5975 5928 5985 5971 5978 5980 5965 5977 5986 5953 5913 5959 5964 5968 5988 5947 5966 5955 5957 6011 6015 5971 6027 5935 5992 5947 5987 5970 6008 5991 5987 5965 5969 5965 6001 5990 5968 5947 5946 5982 5975 5935 5977 5955 5948 5956 5986 5951 5964 5996 5975 5968 6021 5949 5993 5951 5994 6000 5959 6009 6010 6004 6011 5969 6020 5972 5954 6014 5991 5991 5988 5972 5991 5988 5966 5998 5966 6009 5948 5989 5987 5984 5992 5977 5961 6001 6000 5977 5959 6044 6020 5967 5985 5967 5984 6008 5976 5971 5971 6021 5996 5977 5976 5980 5982 5988 5971 5974 5960 5965 5979 5984 5979 5990 5999 6002 5996 6017 5981 5976 5991 5986 5960 6008 6002 5994 5981 5996 5998 6030 5980 5978 5908 5942 6014 6008 5964 5965 5985 5940 6001 6007 6001 5998 5989 5991 6026 6012 5975 6043 5953 5978 5995 5956 5955 5981 6004 5995 5999 5999 6025 5891 5964 5997 6013 6016 6007 6025 5971 6037 6012 6003 5971 5997 5994 5995 5969 6003 6013 6019 5990 6022 6005 6000 6014 5984 5968 5980 5961 6008 6006 5984 6010 6006 5962 5994 6006 5952 6037 5988 6007 5995 5988 5980

Tree=0
num_leaves=64
num_cat=0
split_feature=9 15 10 16 12 15 10 12 16 10 10 10 14 12 16 11 12 13 0 15 10 15 11 13 12 3 10 4 3 16 16 0 2 15 16 8 0 10 10 10 16 8 11 15 0 9 4 1 13 3 3 16 8 9 9 8 4 12 1 8 3 13 10
split_gain=268.933 318.242 53.1752 64.1096 46.4046 27.7358 19.6392 16.4131 13.2341 12.1856 11.2449 27.3418 11.6543 9.75 9.2318 6.29634 5.16069 3.81717 3.78908 2.96943 2.21027 2.06259 2.76276 1.28999 1.1284 0.592782 1.49246 0.56761 0.439268 0.406001 0.378246 1.01109 0.37821 0.208892 0.168937 0.149349 0.109496 0.178949 0.0896782 0.0799828 0.255657 0.0658015 0.0578834 0.0577081 0.05658 0.129041 0.0369567 0.0305058 0.0627683 0.0560316 0.0954962 0.072662 0.0299991 0.0260497 0.0241988 0.051671 0.139381 0.0215399 0.0476808 0.0188284 0.017281 0.0110439 0.0211532
threshold=5.5750000000000011 4.411432630651861 4.5197308705340609 4.5703574673038299 3.9442079227622671 5.2867899117470012 5.0622983159472215 3.8256272627625463 4.5703574673038299 5.3739478178234998 3.9397768819806891 4.2562678597223522 5.1930784869945414 3.8651453730659675 5.4036927424984418 3.9126156572034163 4.1203945076350204 3.8262604912663609 -1.0000000180025095e-35 4.296270816149284 4.7700249813415185 4.411432630651861 3.9126156572034163 4.0084751565725592 3.8651453730659675 0.93301270189221952 3.5572571801167041 1.635 0.6830127018922193 4.7353955341141996 5.8506080674999463 -1.0000000180025095e-35 0.25000000000000011 3.6253209565931801 4.9594291416500065 0.013099736528837268 -1.0000000180025095e-35 4.6624965739931055 5.0622983159472215 3.6929484659571936 4.9594291416500065 0.011512173944070605 3.9126156572034163 4.296270816149284 -1.0000000180025095e-35 4.6250000000000009 8.4450000000000021 -0.56174490092936669 3.8262604912663609 0.25000000000000017 0.6830127018922193 4.7353955341141996 0.021874421488005929 3.3250000000000006 2.1250000000000004 0.009681217305459228 0.80500000000000016 4.1203945076350204 -0.22252093395631442 0.028344898792550987 0.25000000000000017 4.0084751565725592 3.0267292673525783
decision_type=2 2 2 2 2 2 2 2 2 2 2 2 2 2 2 2 2 2 2 2 2 2 2 2 2 2 2 2 2 2 2 2 2 2 2 2 2 2 2 2 2 2 2 2 2 2 2 2 2 2 2 2 2 2 2 2 2 2 2 2 2 2 2
left_child=2 8 10 19 5 17 14 9 28 -7 25 -12 21 -8 20 16 -6 -3 -14 33 -5 29 27 -9 -20 30 34 -23 36 43 39 -32 -30 44 -27 -31 37 -2 -17 42 -41 -24 57 53 45 -4 47 48 -44 51 -51 -50 -33 -13 55 56 -49 61 -59 -38 -46 -1 -63
right_child=1 4 3 6 15 7 13 23 -10 -11 11 12 18 -15 -16 38 -18 -19 24 -21 -22 22 41 -25 -26 26 -28 -29 32 35 31 52 -34 -35 -36 -37 59 -39 -40 40 -42 -43 46 -45 60 -47 -48 54 49 50 -52 -53 -54 -55 -56 -57 -58 58 -60 -61 -62 62 -64
leaf_value=6.8549999952316281 6.9749999999999996 7.0049999952316284 6.9299999713897931 7.0479999847412271 7.0789999887942257 7.0529999799727872 7.0599999904632567 7.1150000095367432 7.0550000190734865 7.084999990463257 7.1550000190734862 6.8694999920129902 7.0619999854564188 7.1104999805688411 7.0769999854563821 7.2249999999999996 7.1400000095367435 7.0604999734162561 7 7.0200000047683719 7.0069999759197401 7.0084999784231314 6.9549999952316286 7.1400000095367435 7.0374999874829767 6.9099999904632572 7.0249999737739817 7.0394999955892104 6.9999999809265319 6.9764999846220146 6.9900000095367432 6.9299999952316282 6.9294999765157881 6.9700000047683712 6.9749999999999996 6.9849999904632565 6.9189999327660301 6.9450000047683718 7.1499999856948309 6.8799999952316284 6.959999990463257 6.9689999864101591 6.8509999420643393 6.9549999952316286 6.875 6.9009999730587257 6.8700000047683716 6.8049999952316282 6.8350000023841861 6.9189999911785263 6.8799999952316284 6.9009999754429092 6.9200000047683714 6.8700000047683716 6.8650000095367432 6.8049999952316282 6.8200000047683718 6.915000009536743 6.8950000047683719 6.9169999914169464 6.8869999794959309 6.8450000047683712 6.9009999051094955
leaf_weight=2585 127 102 101 145 112 153 156 114 120 193 131 112 107 100 187 255 152 160 141 185 147 114 139 102 106 328 111 102 161 118 182 332 162 103 100 119 613 174 121 552 156 163 479 176 331 110 189 126 273 123 115 199 102 1087 1752 357 100 190 248 137 157 1581 789
leaf_count=2585 127 102 101 145 112 153 156 114 120 193 131 112 107 100 187 255 152 160 141 185 147 114 139 102 106 328 111 102 161 118 182 332 162 103 100 119 613 174 121 552 156 163 479 176 331 110 189 126 273 123 115 199 102 1087 1752 357 100 190 248 137 157 1581 789
internal_value=6.99984 7.01364 6.99718 7.00545 7.03021 7.02237 7.01663 7.02863 6.99741 7.02188 6.99613 6.99907 6.9979 7.02781 7.01066 7.04031 7.03439 7.00893 7.0063 6.99713 7.0051 6.9965 6.99925 7.03944 7.00289 6.99542 6.99704 7.00356 6.99602 6.99562 6.99534 6.99654 6.99763 6.99581 6.9957 6.99753 6.99552 6.99633 7.04447 6.99526 6.99578 6.99616 6.99523 6.99529 6.9955 6.99618 6.99538 6.99534 6.99555 6.99585 6.99647 6.99553 6.99523 6.99517 6.99524 6.99551 6.99611 6.99512 6.99546 6.9952 6.9952 6.99509 6.99517
internal_weight=18264 2958 15306 1722 1464 824 735 562 1494 346 13584 2615 2484 256 479 640 264 262 354 987 292 2130 518 216 247 10969 539 216 1374 1612 10430 616 323 802 428 237 1051 301 376 9814 708 302 9106 1375 699 211 3713 3524 1189 710 238 472 434 1199 2335 583 226 5393 438 750 488 4955 2370
internal_count=18264 2958 15306 1722 1464 824 735 562 1494 346 13584 2615 2484 256 479 640 264 262 354 987 292 2130 518 216 247 10969 539 216 1374 1612 10430 616 323 802 428 237 1051 301 376 9814 708 302 9106 1375 699 211 3713 3524 1189 710 238 472 434 1199 2335 583 226 5393 438 750 488 4955 2370
is_linear=0
shrinkage=1


Tree=1
num_leaves=64
num_cat=0
split_feature=9 14 9 10 16 16 10 10 10 14 16 12 16 16 9 0 11 12 14 10 14 12 11 12 10 12 16 8 3 10 10 0 16 0 3 16 3 2 16 16 10 7 6 6 11 8 6 9 9 11 9 8 6 6 8 10 7 7 7 4 6 7 2
split_gain=264.784 288.438 67.0732 52.0988 62.4459 31.6743 18.3205 11.6982 27.1075 11.3767 9.2318 8.34234 7.38342 5.41367 4.5523 3.78908 3.76451 6.65359 2.35476 2.21027 2.12531 2.04519 3.36817 1.5291 1.41071 1.1284 0.840454 0.777316 0.718111 1.45091 0.508655 0.407973 0.369248 1.01109 0.201726 0.153584 0.136826 0.248062 0.0920898 0.0883586 0.267177 0.104068 0.0537827 0.0486648 0.0418979 0.068252 0.0303874 0.0281322 0.0270296 0.0258717 0.038288 0.0540948 0.022605 0.0413849 0.0314691 0.0215174 0.0214644 0.120474 0.020531 0.0588059 0.0205115 0.0520253 0.019275
threshold=5.5750000000000011 3.9726680036239661 6.8250000000000011 4.5197308705340609 4.5703574673038299 4.8848420984259011 5.0622983159472215 3.9397768819806891 4.2562678597223522 5.1930784869945414 5.4036927424984418 3.8651453730659675 5.7879804576067908 4.5703574673038299 6.075000000000002 -1.0000000180025095e-35 3.741500526240126 3.8256272627625463 3.9726680036239661 4.7700249813415185 3.9726680036239661 3.9442079227622671 3.6913226972990794 3.8256272627625463 4.327376488401657 3.8651453730659675 5.0716198419029359 0.013717536454387141 0.93301270189221952 3.4511341765773769 4.2327469874004384 -1.0000000180025095e-35 5.8506080674999463 -1.0000000180025095e-35 0.6830127018922193 3.134647051606843 0.6830127018922193 0.25000000000000011 4.8848420984259011 4.9594291416500065 3.6929484659571936 8.3150000000000031 0.59910240963855432 0.53904518072289165 4.2115168565619543 0.015500378628091824 0.52638554216867484 6.5750000000000011 3.3250000000000006 3.9126156572034163 1.8250000000000004 0.010619112322659474 0.82846084337349402 0.91116265060240975 0.024398152574531477 3.5019677741664714 1.1100451807228919 0.89007228915662651 3.5850000000000004 5.0250000000000012 1.3419216867469881 2.6950000000000007 1.0000000180025095e-35
decision_type=2 2 2 2 2 2 2 2 2 2 2 2 2 2 2 2 2 2 2 2 2 2 2 2 2 2 2 2 2 2 2 2 2 2 2 2 2 2 2 2 2 2 2 2 2 2 2 2 2 2 2 2 2 2 2 2 2 2 2 2 2 2 2
left_child=3 30 5 7 18 16 10 28 -9 20 19 -8 14 -4 -7 -11 -3 -18 35 -6 48 31 -23 -20 -15 -17 -26 -16 32 38 -2 -22 39 -34 62 42 43 -38 -30 49 41 44 -5 47 60 -46 -35 -32 -10 55 51 -51 -52 -54 -55 -1 57 -57 -58 -60 -41 -62 -33
right_child=1 2 13 4 6 12 11 8 9 15 -12 -13 -14 24 27 25 17 -19 23 -21 21 22 -24 -25 26 -27 -28 -29 29 -31 36 34 33 46 -36 -37 37 -39 -40 40 -42 -43 -44 -45 45 -47 -48 -49 -50 50 52 -53 53 54 -56 56 58 -59 59 -61 61 -63 -64
leaf_value=-0.16225000500679015 -0.022840010161405681 0.0026099914598224057 0.1087499809265137 -0.12874999046325683 0.045599985504165955 0.10799997824434458 0.056999990940094003 0.14725001811981203 -0.12847499006390636 0.058899986183597534 0.073149986183562984 0.10497498154039873 0.14859999835499782 0.21417497978806727 0.09024996197221187 0 0.019950000333803074 0.084449984121286986 -0.010999990701675434 0.0066499771237531037 -0.01472001369356884 -0.026995015684345376 0.039265004457231967 0.023999999761581403 0.092999999523162832 0.035624988108828019 0.13749998164177213 0.1041249624788986 -0.088500040292707374 0.010749981999329618 -0.11085000910759049 -0.052749994993209849 -0.0094999909400939955 -0.075999996662138747 -0.025890020759082449 -0.064180008354160004 -0.049000086784349153 -0.095475015038238242 -0.04375000476837157 -0.082750009298324573 -0.038000009059906019 -0.095395003584627908 -0.11935000514983492 -0.10094999186992992 -0.098249998927113336 -0.088250005245208749 -0.066500004529953 -0.058110012774500397 -0.13350000977516174 -0.18900002789498049 -0.14754999233484539 -0.21025000736710428 -0.13825000524520875 -0.14325000047683717 -0.13087501791126713 -0.11607502647038599 -0.12004999525547477 -0.097000008285029929 -0.10505000705723928 -0.11837500557303429 -0.077300001394735737 -0.096370003924359557 -0.058502495415208439
leaf_weight=3300 197 109 190 195 145 196 156 131 108 107 187 100 119 200 110 141 159 154 108 147 175 177 163 144 157 106 160 100 287 147 135 130 182 101 109 169 129 129 105 1208 156 102 371 612 181 107 333 102 1050 119 1548 171 179 1008 156 282 624 139 101 196 100 137 218
leaf_count=3300 197 109 190 195 145 196 156 131 108 107 187 100 119 200 110 141 159 154 108 147 175 177 163 144 157 106 160 100 287 147 135 130 182 101 109 169 129 129 105 1208 156 102 371 612 181 107 333 102 1050 119 1548 171 179 1008 156 282 624 139 101 196 100 137 218
internal_value=-0.000151666 0.0135429 0.0274063 -0.00279825 0.00539489 0.0187064 0.0164286 -0.00383687 -0.000831741 -0.00200081 0.0106576 0.0272266 0.0269048 0.0390594 0.0236946 0.00629943 0.00850711 0.0112939 -0.00282168 0.00510274 -0.00338028 -0.00165638 0.00147059 0.00134921 0.0417118 0.00289474 0.0396372 0.0288095 -0.00455329 -0.00277366 -0.00404141 -0.00333861 -0.00464526 -0.00345779 -0.00412473 -0.0042517 -0.004458 -0.00344961 -0.00436225 -0.00471979 -0.0044224 -0.00459128 -0.00464664 -0.00476443 -0.00468263 -0.00413195 -0.00476959 -0.00415612 -0.00482729 -0.00479548 -0.00468563 -0.00413793 -0.00474058 -0.00459047 -0.00469931 -0.00487075 -0.00470194 -0.00440618 -0.00483713 -0.00449495 -0.00479239 -0.00436709 -0.00471264
internal_weight=18264 2958 1654 15306 1722 947 735 13584 2615 2484 479 256 525 707 406 354 422 313 987 292 2130 972 340 252 517 247 317 210 10969 539 1304 632 10430 616 457 735 1107 258 392 9814 1991 1835 566 849 1733 288 434 237 1158 7823 3181 290 2891 1343 1164 4642 1342 421 921 297 1445 237 348
internal_count=18264 2958 1654 15306 1722 947 735 13584 2615 2484 479 256 525 707 406 354 422 313 987 292 2130 972 340 252 517 247 317 210 10969 539 1304 632 10430 616 457 735 1107 258 392 9814 1991 1835 566 849 1733 288 434 237 1158 7823 3181 290 2891 1343 1164 4642 1342 421 921 297 1445 237 348
is_linear=0
shrinkage=0.05


Tree=2
num_leaves=64
num_cat=0
split_feature=9 15 9 9 15 12 16 15 9 12 12 15 16 9 12 16 16 0 9 0 13 16 9 13 15 9 4 12 15 0 2 12 0 9 15 2 9 15 12 8 2 15 7 5 5 16 5 4 16 15 12 0 5 9 9 5 2 15 8 8 16 2 9
split_gain=248.45 267.2 44.6318 39.5835 67.4845 44.4503 25.3382 13.3136 10.9886 8.96982 7.09 6.1164 4.05515 6.29943 3.44465 2.7692 2.76842 2.73169 2.68798 1.90414 1.78386 1.69831 1.65716 1.73435 1.44533 0.987393 0.953023 0.796753 0.578684 0.549514 0.471818 0.396344 0.348607 0.610952 0.273315 0.267616 0.25209 0.445103 0.662681 0.451145 0.198649 0.194275 0.20766 0.159164 0.156092 0.15558 0.155256 0.169904 0.137626 0.115242 0.182737 0.104517 0.0862906 0.216081 0.0818405 0.0662935 0.0494463 0.0452541 0.0412527 0.110896 0.0331145 0.0847689 0.0295859
threshold=5.8750000000000009 4.296270816149284 7.2250000000000005 4.1250000000000009 4.411432630651861 3.9442079227622671 4.7353955341141996 5.590141715530633 4.9750000000000005 3.8256272627625463 3.8256272627625463 4.8521553939698654 4.9594291416500065 3.2750000000000004 3.7952255034284677 4.5703574673038299 5.4524240384488651 1.0000000180025095e-35 4.6250000000000009 -1.0000000180025095e-35 4.212030385569185 5.6037649786647767 8.0750000000000028 4.0084751565725592 5.7341853086911838 3.4750000000000005 1.655 3.9442079227622671 4.8521553939698654 -1.0000000180025095e-35 1.0000000180025095e-35 3.9442079227622671 -1.0000000180025095e-35 2.8250000000000006 5.3271158500481812 1.0000000180025095e-35 3.2750000000000004 3.6253209565931801 4.0110911262885525 0.01243761004378849 0.68301270189221941 3.6253209565931801 1.5000542168674702 85.418000000000021 135.08100000000005 4.8848420984259011 203.84050000000005 2.2150000000000003 4.5703574673038299 2.7151408163838711 4.1203945076350204 -1.0000000180025095e-35 120.95500000000003 4.4750000000000005 2.3250000000000006 55.236000000000011 1.0000000180025095e-35 5.3159288768896245 0.035045757377192496 0.039667988480617589 3.2149404546085516 0.25000000000000011 3.9250000000000007
decision_type=2 2 2 2 2 2 2 2 2 2 2 2 2 2 2 2 2 2 2 2 2 2 2 2 2 2 2 2 2 2 2 2 2 2 2 2 2 2 2 2 2 2 2 2 2 2 2 2 2 2 2 2 2 2 2 2 2 2 2 2 2 2 2
left_child=3 29 6 12 15 7 17 9 16 20 -8 -12 36 32 -9 41 -7 -3 -11 -17 30 25 23 -4 44 -15 -13 28 -27 31 -6 -2 33 54 -30 -21 58 60 43 -40 -32 52 -43 48 -23 -24 55 -48 -39 -31 56 -45 53 -5 -14 -34 -51 -49 -1 -60 -38 -62 -53
right_child=1 2 22 4 5 8 10 14 -10 18 11 26 13 21 -16 19 -18 -19 -20 35 -22 24 45 -25 -26 27 -28 -29 34 49 40 -33 46 -35 -36 -37 37 38 39 -41 -42 42 -44 51 -46 -47 47 57 -50 50 -52 62 -54 -55 -56 -57 -58 -59 59 -61 61 -63 -64
leaf_value=-0.14913749760389328 -0.048059302301736544 0.072098479420425091 0.11735826354739021 -0.10197161319600286 -0.00073135096976393731 0.09479237722723198 0.063320000559087264 0.01699399698033582 0.14514623421933187 0.025784973026544779 0.07676874366849909 0.16601560575070262 -0.0929314957032219 -0.038446252705768701 0.084165254595821748 0.037835589574863535 0.073343699722043978 0.017457499168496367 0.061049744106808523 -0.0014833785725529157 0.01514349914841169 0.0082124907863640722 0.13279248070836203 0.13344136389768138 0.046992504159761375 -0.036185003904332658 0.12869373996697528 0.042803227039059914 0.021524990171229896 -0.12304449123120489 -0.041409505476199295 -0.0090906169823591482 -0.067086265352048244 -0.0061000423729520095 -0.014446502801023626 -0.024500059445649962 -0.15758676490589729 -0.030450031697772852 -0.051880099840668596 0.0077999902367591467 -0.010809995599997742 -0.035210076428553672 -0.030252196684235889 -0.034688988699734982 0.00039548891004096602 0.22804123244520486 -0.079008761425859095 -0.11362150386165651 -0.052782764546706995 -0.062550005560636321 -0.020788595086870258 -0.070487440733659243 -0.10884801640145776 -0.11097451673673031 -0.043040015563969726 -0.095612502157569362 -0.080556008610018132 -0.10150526959166656 -0.14247750428443606 -0.1417245040526923 -0.095795019735720785 -0.11608175224958056 -0.054765997861772275
leaf_weight=5204 135 115 133 172 174 130 178 103 185 103 121 106 211 126 189 112 105 166 148 118 183 111 133 128 122 131 108 125 106 306 183 194 100 181 102 140 1405 101 107 140 170 134 145 192 110 151 114 104 110 141 119 406 958 620 177 1001 224 114 183 499 159 186 107
leaf_count=5204 135 115 133 172 174 130 178 103 185 103 121 106 211 126 189 112 105 166 148 118 183 111 133 128 122 131 108 125 106 306 183 194 100 181 102 140 1405 101 107 140 170 134 145 192 110 151 114 104 110 141 119 406 958 620 177 1001 224 114 183 499 159 186 107
internal_value=-0.000280334 0.0145077 0.029578 -0.00258003 0.00166748 0.00937537 0.0220151 0.00465682 0.0234524 0.00181582 0.0286257 0.0329104 -0.00405403 -0.00244463 0.0140068 -0.0037078 0.0162766 0.00994662 0.00994024 0.000270269 -0.00105634 0.000948552 0.0405963 0.0377203 0.00374635 -0.000677967 0.0379907 0.00038793 -0.000870208 -0.00352547 -0.00253321 -0.00180851 -0.00402598 -0.00297891 0.00076923 -0.00209302 -0.00459086 -0.00421044 -0.00345228 -0.00115385 -0.00358357 -0.00443322 -0.00320789 -0.00407205 0.00133484 0.0432394 -0.00444173 -0.00349398 -0.0028673 -0.00424051 -0.00376033 -0.00443263 -0.00462857 -0.00424243 -0.00409794 -0.00472752 -0.00431507 -0.00431193 -0.00477914 -0.00441349 -0.00471429 -0.00427536 -0.00480507
internal_weight=18264 2458 1339 15806 4072 1673 794 1253 420 961 513 335 11734 2935 292 2399 235 281 251 370 710 933 545 261 343 590 214 464 339 1119 527 329 2002 569 208 258 8799 2913 1163 247 353 2029 279 916 221 284 1433 332 211 790 484 705 1750 792 388 1101 365 218 5886 682 1750 345 513
internal_count=18264 2458 1339 15806 4072 1673 794 1253 420 961 513 335 11734 2935 292 2399 235 281 251 370 710 933 545 261 343 590 214 464 339 1119 527 329 2002 569 208 258 8799 2913 1163 247 353 2029 279 916 221 284 1433 332 211 790 484 705 1750 792 388 1101 365 218 5886 682 1750 345 513
is_linear=0
shrinkage=0.05


Tree=3
num_leaves=64
num_cat=0
split_feature=9 15 9 9 15 14 15 13 9 13 9 15 9 9 0 15 0 13 15 0 13 0 0 14 9 5 8 9 0 9 9 5 5 3 9 15 8 9 4 3 2 1 1 11 3 8 15 9 9 13 4 2 8 15 15 3 5 9 3 9 1 5 9
split_gain=228.934 245.94 42.9582 36.3217 61.2368 13.3333 11.5172 8.2015 6.09847 7.86016 4.18676 3.88441 5.51651 2.86505 2.67637 2.31603 2.49155 2.09358 1.99758 1.4218 1.41546 1.32203 1.09792 0.745409 0.828768 0.625079 0.583208 1.15177 0.549514 0.548242 0.493116 0.481224 0.8035 0.439705 0.437578 0.762598 0.326309 0.299714 0.327795 0.226285 0.201544 0.201436 0.191535 0.188339 0.242021 0.181184 0.115242 0.167085 0.117123 0.108836 0.109163 0.0916017 0.090665 0.0883683 0.0729114 0.108116 0.0610224 0.176928 0.0808602 0.0565457 0.154824 0.0564271 0.0561105
threshold=5.8750000000000009 4.296270816149284 6.8250000000000011 4.1750000000000016 4.411432630651861 5.1930784869945414 5.590141715530633 4.0084751565725592 8.1250000000000018 3.8262604912663609 5.3250000000000011 5.0743194668107376 3.1750000000000007 5.0750000000000011 1.0000000180025095e-35 3.6253209565931801 -1.0000000180025095e-35 4.0084751565725592 5.2867899117470012 1.0000000180025095e-35 4.0084751565725592 -1.0000000180025095e-35 -1.0000000180025095e-35 5.1930784869945414 3.8750000000000004 171.68800000000002 0.018782375708904685 4.7250000000000005 -1.0000000180025095e-35 3.6250000000000004 6.2750000000000012 95.739000000000019 161.29200000000006 0.25000000000000017 3.2750000000000004 3.6253209565931801 0.01183518871904984 2.9250000000000007 2.1350000000000002 1.0000000180025095e-35 1.0000000180025095e-35 1.0000000180025095e-35 1.0000000180025095e-35 3.9126156572034163 -0.24999999999999997 0.013003158317681908 2.7151408163838711 6.3250000000000011 7.7750000000000012 4.0084751565725592 0.68500000000000016 -0.6830127018922193 0.011194951058535461 4.296270816149284 4.8521553939698654 0.25000000000000017 120.95500000000003 4.4750000000000005 0.6830127018922193 2.6750000000000007 -0.22252093395631442 97.607000000000014 1.7250000000000003
decision_type=2 2 2 2 2 2 2 2 2 2 2 2 2 2 2 2 2 2 2 2 2 2 2 2 2 2 2 2 2 2 2 2 2 2 2 2 2 2 2 2 2 2 2 2 2 2 2 2 2 2 2 2 2 2 2 2 2 2 2 2 2 2 2
left_child=3 28 5 11 15 7 10 30 9 -4 17 34 37 -8 -12 56 -17 31 -11 -7 23 -19 -22 -14 41 29 27 -23 33 -24 -3 -6 -33 52 54 -36 49 59 -39 -10 51 -25 43 44 -38 -9 -30 -48 -49 -37 -51 -18 -2 -42 -1 -56 57 -5 -59 62 -61 -44 -13
right_child=1 2 8 4 6 19 13 45 39 18 14 12 20 -15 -16 16 40 21 -20 -21 22 26 25 24 -26 -27 -28 -29 46 -31 -32 32 -34 -35 35 36 42 38 -40 -41 53 -43 61 -45 -46 -47 47 48 -50 50 -52 -53 -54 -55 55 -57 -58 58 -60 60 -62 -63 -64
leaf_value=-0.13668062749207019 -0.022153468642811758 0.017631411051167823 0.096332090202218543 -0.096226445673604222 0.0069347393282822301 0.12240087535711537 0.080188665185756236 0.077249056103721639 0.1701627401461227 0.100652942598299 0.085204727678417483 -0.131331902965516 -0.056320292726208081 0.13263020550285484 0.055928364062002113 0.022150219261491189 -0.022657384369749511 0.055559030056732517 0.13630317087712249 0.10660295615861717 0.042020214657050581 0.0060291997986159779 0.0011932925684915985 -0.0043507298552765425 0.031928323004299708 -0.012330417195724135 0.060991989336842037 0.04339281844406586 -0.11689226666964464 0.023073743826576305 0.032153218604110474 0.032354329175946356 0.018336300105775055 0.0015965323108616315 -0.13603216167117016 -0.068474067368894373 -0.038537419708104481 -0.067906873929503106 -0.016751155733331243 0.17563917460641318 -0.041439516551426615 -0.043902939738198289 -0.055612076615646912 -0.0097607095185240078 -0.017421102883350317 0.078110501756534667 -0.038493703285144648 -0.075074147455606449 -0.0377880713711337 -0.034205681033086181 -0.037231124436213119 -0.007548894697518624 -0.046983918067488445 -0.021331298119625725 -0.12328915259019307 -0.095314528963660716 -0.10291265597045772 -0.10602879289098344 -0.10506754692350502 -0.040149309556741501 -0.088911120919427766 -0.031754997403597662 -0.09796689610163184
leaf_weight=5715 102 100 162 160 144 100 177 104 144 121 150 151 157 159 158 180 100 141 152 106 130 122 128 125 109 113 112 101 306 101 123 175 199 114 1782 290 134 166 129 127 118 108 120 107 163 100 124 226 134 123 169 110 113 133 270 113 938 470 150 145 195 179 887
leaf_count=5715 102 100 162 160 144 100 177 104 144 121 150 151 157 159 158 180 100 141 152 106 130 122 128 125 109 113 112 101 306 101 123 175 199 114 1782 290 134 166 129 127 118 108 120 107 163 100 124 226 134 123 169 110 113 133 270 113 938 470 150 145 195 179 887
internal_value=-0.000419953 0.0137754 0.0282338 -0.00262748 0.00149237 0.0187757 0.00891941 0.0137354 0.0367139 0.033046 0.00678955 -0.00402193 -0.00233359 0.0171726 0.0118831 -0.00366469 -0.00109985 0.00521127 0.0382234 0.0292233 0.000664262 0.00760504 0.00262712 -0.00119239 0.000116958 0.00114035 0.00589552 0.00441704 -0.00352547 0.00264192 0.00710762 0.00301158 0.00395722 -0.00180851 -0.004509 -0.00402185 -0.00309339 -0.00407352 -0.00262712 0.0426015 -0.00304772 -0.00156652 -0.00236842 -0.00165842 -0.0023064 0.0209804 -0.00424051 -0.00376033 -0.00430556 -0.00396907 -0.00328767 -0.00190476 -0.00313954 -0.00400399 -0.00475402 -0.00408616 -0.00462165 -0.00429487 -0.00467742 -0.00438317 -0.00382353 -0.00332776 -0.00456648
internal_weight=18264 2458 1339 15806 3997 633 1638 427 706 435 1302 11809 2644 336 308 2359 641 994 273 206 971 476 472 499 342 342 335 223 1119 229 223 518 374 329 9165 3067 1285 1673 295 271 461 233 703 404 297 204 790 484 360 582 292 210 215 251 6098 383 1718 780 620 1378 340 299 1038
internal_count=18264 2458 1339 15806 3997 633 1638 427 706 435 1302 11809 2644 336 308 2359 641 994 273 206 971 476 472 499 342 342 335 223 1119 229 223 518 374 329 9165 3067 1285 1673 295 271 461 233 703 404 297 204 790 484 360 582 292 210 215 251 6098 383 1718 780 620 1378 340 299 1038
is_linear=0
shrinkage=0.05


Tree=4
num_leaves=64
num_cat=0
split_feature=9 15 10 15 12 10 16 10 10 10 16 9 9 16 13 10 15 16 16 15 9 15 15 0 16 10 15 10 0 10 0 0 0 16 7 2 2 2 2 0 5 9 9 2 1 13 16 15 2 15 2 9 0 5 1 10 5 14 0 9 12 12 1
split_gain=206.405 224.466 55.4335 81.7709 64.8994 36.1665 28.5535 22.2106 23.7398 18.0509 14.6384 8.10942 6.68978 4.58434 4.2625 3.93052 2.70417 2.58837 2.21502 2.07749 1.60197 1.56112 0.702 0.686565 0.620089 1.11197 0.599991 0.551656 0.50192 0.383447 0.280066 0.209894 0.168939 0.238939 0.236355 0.140719 0.464503 0.110346 0.196776 0.0968935 0.190576 0.200701 0.07093 0.103468 0.0688291 0.0472484 0.0450935 0.109439 0.038608 0.0619754 0.163484 0.059771 0.11065 0.0394528 0.0793737 0.0332336 0.0281666 0.0847996 0.0240285 0.02388 0.021365 0.0408835 0.0200229
threshold=6.075000000000002 4.296270816149284 3.9397768819806891 4.411432630651861 3.8256272627625463 4.327376488401657 4.8848420984259011 4.327376488401657 5.0622983159472215 4.9637392298830916 5.2595992225405661 6.7250000000000005 7.1250000000000009 4.5703574673038299 4.0084751565725592 4.6321465052700139 5.590141715530633 4.7353955341141996 5.4524240384488651 5.3052430913601798 7.3250000000000011 5.3052430913601798 5.2867899117470012 -1.0000000180025095e-35 4.9594291416500065 3.6438621864433638 3.6253209565931801 4.5682680774368318 -0.8783796973249266 4.6321465052700139 1.0000000180025095e-35 1.0000000180025095e-35 -1.0000000180025095e-35 5.6037649786647767 1.7808915662650608 0.25000000000000011 -0.24999999999999997 1.0000000180025095e-35 -0.5 -1.0000000180025095e-35 147.27600000000004 4.5250000000000012 3.2750000000000004 0.25000000000000011 -0.22252093395631442 4.0084751565725592 2.9791217527532803 2.7151408163838711 0.25000000000000011 4.8521553939698654 -0.24999999999999997 3.7750000000000008 -1.0000000180025095e-35 220.98400000000004 0.81174490092936691 2.901979170496825 203.84050000000005 5.1930784869945414 1.0000000180025095e-35 4.1250000000000009 3.8651453730659675 4.0110911262885525 -0.56174490092936669
decision_type=2 2 2 2 2 2 2 2 2 2 2 2 2 2 2 2 2 2 2 2 2 2 2 2 2 2 2 2 2 2 2 2 2 2 2 2 2 2 2 2 2 2 2 2 2 2 2 2 2 2 2 2 2 2 2 2 2 2 2 2 2 2 2
left_child=2 23 24 13 9 22 11 -6 14 16 17 -7 18 26 19 31 35 -11 -8 -9 -13 -16 -3 27 48 28 39 -2 -26 -28 -27 -15 33 55 -35 36 -5 38 -25 40 41 -4 56 -44 -37 -43 -41 -48 49 51 -51 53 -53 -1 60 -30 -34 -58 -49 -54 -55 -62 -50
right_child=1 5 3 4 7 6 12 8 -10 10 -12 20 -14 15 21 -17 -18 -19 -20 -21 -22 -23 -24 37 25 30 29 -29 32 -31 -32 -33 42 34 -36 44 -38 -39 -40 46 -42 45 43 -45 -46 -47 47 58 62 50 -52 52 59 54 -56 -57 57 -59 -60 -61 61 -63 -64
leaf_value=-0.13034659564062953 0.0015167056953185654 0.12273491813351595 -0.071329738363598683 -0.033756511050655906 0.14984639467186295 0.01651012730323376 0.060716909401686794 0.0088867553898989999 0.088746288979389784 -0.0012130901199867627 0.056884817944411692 0.04281684888249996 0.1169969752454527 -0.0054023117256057455 0.058828127432447169 0.028944638439018896 0.011915594259570297 0.032469457408925255 0.096469029880828047 0.038651143776199763 0.076377962344988171 0.082185570373196196 0.19593564452346104 -0.075952574977937129 -0.027148460183491475 0.005456288547549485 -0.038909326156897198 -0.033691870301111405 -0.088138090361692109 -0.0043066385217509226 -0.045675098935896226 -0.02150690059708573 -0.093973332058045311 -0.010728677236828204 -0.033063351271720436 -0.031746131115517058 -0.0024105779586876767 -0.078839878105811542 -0.035924816730750424 -0.12872189151592658 -0.071054025119019384 -0.10298197495938244 -0.045687154300865743 -0.062611790375089557 -0.048360667052804208 -0.062440848248692449 -0.10009872904182796 -0.078101564666995249 -0.11984659373328088 -0.10760752093161319 -0.078159232286909089 -0.074726407713744114 -0.12642734497802874 -0.12911405852254848 -0.11231859326151064 -0.039621468231164095 -0.11670773283447394 -0.099542220757124225 -0.094467343642871904 -0.10080601084231476 -0.13039627782674559 -0.15144034053997849 -0.13254799805371706
leaf_weight=2422 115 125 166 204 151 166 174 116 134 139 165 104 177 141 129 167 190 126 115 158 111 131 195 142 131 115 183 161 150 171 144 179 1046 120 107 135 103 430 130 995 287 114 193 220 187 101 135 121 1488 349 157 158 226 269 113 204 118 197 322 112 112 116 2702
leaf_count=2422 115 125 166 204 151 166 174 116 134 139 165 104 177 141 129 167 190 126 115 158 111 131 195 142 131 115 183 161 150 171 144 179 1046 120 107 135 103 430 130 995 287 114 193 220 187 101 135 121 1488 349 157 158 226 269 113 204 118 197 322 112 112 116 2702
internal_value=-0.00057326 0.0139977 -0.00251225 0.00176699 0.00945841 0.0288046 0.0233943 0.0203968 0.016482 0.00228583 0.0105814 0.0132415 0.0316953 -0.0033939 0.0117603 0.00105749 -0.0020696 0.00330189 0.0270069 0.00740876 0.0196512 0.0163462 0.043125 -0.00367076 -0.00452138 -0.00387068 -0.00422929 -0.00155797 -0.0041955 -0.00231639 -0.000752897 -0.0021875 -0.00436306 -0.00362306 -0.00235683 -0.00364865 -0.00288274 -0.00450143 -0.00371324 -0.00453146 -0.00402695 -0.00329396 -0.00460541 -0.00403148 -0.00437888 -0.00430233 -0.00474571 -0.00439446 -0.00473857 -0.00462816 -0.00411067 -0.00470238 -0.00419355 -0.00478562 -0.00442623 -0.00443503 -0.00477958 -0.00436508 -0.00477427 -0.00470414 -0.00469819 -0.00434211 -0.00484487
internal_weight=18264 2145 16119 5150 2068 1167 847 819 668 1249 430 381 466 3082 534 487 819 265 289 274 215 260 320 978 10969 2745 2595 276 2486 354 259 320 2355 581 227 629 307 702 272 2241 668 381 1774 413 322 215 1573 578 8224 4034 506 3528 496 3032 610 354 1361 315 443 338 497 228 4190
internal_count=18264 2145 16119 5150 2068 1167 847 819 668 1249 430 381 466 3082 534 487 819 265 289 274 215 260 320 978 10969 2745 2595 276 2486 354 259 320 2355 581 227 629 307 702 272 2241 668 381 1774 413 322 215 1573 578 8224 4034 506 3528 496 3032 610 354 1361 315 443 338 497 228 4190
is_linear=0
shrinkage=0.05


Tree=5
num_leaves=64
num_cat=0
split_feature=9 15 9 15 9 16 15 9 16 0 9 16 9 16 16 9 9 13 13 3 9 16 9 2 0 3 5 9 0 3 2 0 9 9 15 9 3 9 13 15 8 15 3 1 1 0 8 5 5 4 0 13 5 13 4 9 5 9 4 2 5 5 9
split_gain=194.121 211.255 33.6814 52.3083 26.7855 18.3486 10.8262 4.68125 4.54256 3.82842 4.44609 3.57192 4.71578 3.45161 2.8598 2.25264 2.12096 2.01352 1.86709 1.19087 1.18121 1.17037 1.0837 1.275 1.0682 0.825143 0.76077 0.950269 0.62558 0.552341 0.959441 0.55214 0.784164 0.540866 0.454817 0.674156 0.52374 0.441331 0.397284 0.346995 0.276612 0.21544 0.178254 0.277329 0.597045 0.17751 0.18489 0.148443 0.158972 0.159808 0.13499 0.131403 0.123265 0.116915 0.104579 0.108122 0.0961896 0.0961834 0.0806376 0.0526817 0.0526556 0.0427731 0.0581108
threshold=6.075000000000002 4.296270816149284 4.1250000000000009 4.411432630651861 7.3250000000000011 4.8848420984259011 5.590141715530633 5.0750000000000011 4.8848420984259011 -1.0000000180025095e-35 5.1250000000000009 5.0716198419029359 3.2750000000000004 5.4524240384488651 4.5703574673038299 8.0250000000000021 6.5750000000000011 3.8262604912663609 4.0084751565725592 0.93301270189221952 8.0250000000000021 4.8848420984259011 4.5750000000000011 1.0000000180025095e-35 -1.0000000180025095e-35 0.6830127018922193 174.15550000000005 5.3750000000000009 -1.0000000180025095e-35 0.6830127018922193 0.25000000000000011 -1.0000000180025095e-35 2.8250000000000006 3.6750000000000007 3.2574715918257211 3.4250000000000007 0.93301270189221952 4.7750000000000012 4.1389441844594721 4.296270816149284 0.017488817953233159 4.8521553939698654 -0.5 1.0000000180025095e-35 -0.56174490092936669 -1.0000000180025095e-35 0.010213019761334388 62.413000000000018 185.01200000000003 1.7950000000000002 -1.0000000180025095e-35 4.212030385569185 130.37900000000002 4.1389441844594721 2.3150000000000004 3.1250000000000004 120.95500000000003 2.1750000000000007 1.3550000000000002 0.25000000000000011 306.07650000000007 194.70600000000005 2.7750000000000004
decision_type=2 2 2 2 2 2 2 2 2 2 2 2 2 2 2 2 2 2 2 2 2 2 2 2 2 2 2 2 2 2 2 2 2 2 2 2 2 2 2 2 2 2 2 2 2 2 2 2 2 2 2 2 2 2 2 2 2 2 2 2 2 2 2
left_child=2 29 11 14 5 17 9 -8 15 10 21 34 31 16 19 -6 -7 -3 26 39 -10 -5 -20 -24 52 33 27 40 -16 45 -31 32 57 -26 -1 36 54 -30 -35 50 -11 42 -37 44 -44 46 -2 -33 -49 -50 53 -25 -14 59 -36 61 -43 -13 -45 -4 -51 -56 -63
right_child=1 4 3 6 8 13 7 -9 20 18 -12 12 24 -15 28 -17 -18 -19 22 -21 -22 -23 23 51 25 -27 -28 -29 37 30 -32 47 -34 38 35 41 -38 -39 -40 -41 -42 56 43 58 -46 -47 -48 48 49 60 -52 -53 -54 -55 55 -57 -58 -59 -60 -61 -62 62 -64
leaf_value=-0.14570795407663925 -0.019487480699854738 0.044415167513954718 -0.071980434511560415 0.022027387574894478 0.071195392231914387 0.06652688401626014 0.074894483746496973 0.11804511930359352 0.12633791517682616 0.025033079717324481 0.073016008085910453 -0.082275409197021573 0.039521645601164647 0.11166557779325681 0.021233369319146371 0.11000166187434546 0.072493071003947682 0.064406057540827483 0.019185063507099597 0.0020801488986634019 0.16333427969160041 0.048459073089855212 0.068140739887960239 0.02105185721557639 -0.033055813347398433 0.025741656618759053 -0.008878240621578954 0.033695231356978647 -0.031889269598782286 0.0044408336940668924 -0.060438518918611878 -0.050621507865972873 0.0029700042425891342 -0.014848487724853318 -0.10331827187931178 -0.042361848669494162 -0.015290899619307078 0.0036703968240687102 0.016223221834041648 -0.019345129333612116 -0.0013981840868441376 -0.011044490186232287 -0.044222894839393477 -0.046788511662441475 0.0035779736809694964 -0.07407484306711648 -0.039456458339417778 -0.078319692490098319 -0.074353718900481466 -0.09888678988498896 -0.099271512341091883 0.039131718794391028 0.027391565185162999 -0.045622295905089358 -0.10814345245251444 -0.059299195282105838 -0.033550063160434025 -0.032661516466976855 -0.066001045648925769 -0.078581618640343964 -0.064741755278838631 -0.12328523916893025 -0.096895484170274382
leaf_weight=4850 102 164 167 124 100 103 190 194 110 161 148 141 102 161 109 128 111 115 139 125 156 140 136 100 192 125 167 106 136 109 121 103 137 107 2060 353 141 146 113 130 122 102 191 108 132 532 108 690 100 141 1389 104 108 195 517 181 163 193 129 204 100 337 138
leaf_count=4850 102 164 167 124 100 103 190 194 110 161 148 141 102 161 109 128 111 115 139 125 156 140 136 100 192 125 167 106 136 109 121 103 137 107 2060 353 141 146 113 130 122 102 191 108 132 532 108 690 100 141 1389 104 108 195 517 181 163 193 129 204 100 337 138
internal_value=-0.000736372 0.0134906 -0.00259978 0.00111462 0.0280139 0.0213761 0.00758875 0.0150521 0.0368016 0.00560815 0.00968446 -0.00400034 -0.00225765 0.0286 -0.00344291 0.0316228 0.0244393 0.0116667 0.00398551 -0.00414027 0.0412406 0.00579545 0.00627349 0.00779412 0.0010241 -0.000158288 0.00201439 0.00322622 0.00049872 -0.00366255 -0.00152174 -0.00378505 -0.00234607 -0.00123787 -0.00443629 -0.00407733 -0.00443687 -0.000744682 0.000454544 -0.00442446 0.00171378 -0.00304754 -0.00341183 -0.00285714 -0.00190403 -0.00432615 -0.00309524 -0.00438272 -0.00456353 -0.00368035 -0.00459079 0.00529412 0.00404762 -0.00393993 -0.00456697 -0.00419011 -0.00179245 -0.0036527 -0.00415612 -0.00446092 -0.00437759 -0.00439516 -0.00405263
internal_weight=18306 2120 16186 4432 1148 654 1831 384 494 1447 412 11754 2352 375 2601 228 214 279 1035 2210 266 264 479 340 747 537 556 389 391 972 230 1605 471 412 9402 4552 3374 282 220 2085 283 1178 913 560 323 742 210 1134 1031 341 1955 204 210 566 3233 1173 265 334 237 371 241 992 475
internal_count=18306 2120 16186 4432 1148 654 1831 384 494 1447 412 11754 2352 375 2601 228 214 279 1035 2210 266 264 479 340 747 537 556 389 391 972 230 1605 471 412 9402 4552 3374 282 220 2085 283 1178 913 560 323 742 210 1134 1031 341 1955 204 210 566 3233 1173 265 334 237 371 241 992 475
is_linear=0
shrinkage=0.05


Tree=6
num_leaves=64
num_cat=0
split_feature=9 15 10 15 12 11 10 16 10 16 12 9 9 15 10 10 12 16 10 0 9 16 15 10 0 16 10 0 2 2 7 0 10 2 16 0 4 13 16 0 15 16 10 2 13 2 10 7 7 9 6 4 11 4 4 14 0 4 9 0 0 0 2
split_gain=176.79 191.311 44.3645 61.58 70.0214 39.5998 38.5511 21.9479 14.0084 13.0883 7.7127 7.38149 6.30873 4.55453 3.41668 3.34184 5.3268 3.07509 2.73251 2.43181 1.98568 1.69108 1.55575 1.01452 0.836585 0.716821 1.46613 0.70891 0.43823 0.887881 0.327188 0.305173 0.360021 0.279134 0.253249 0.401427 0.251793 0.172441 0.156702 0.137625 0.135464 0.10796 0.0924572 0.22738 0.156762 0.091439 0.251079 0.0893368 0.0851014 0.0601891 0.0531506 0.0506591 0.0454187 0.10274 0.281128 0.0451735 0.0424624 0.104123 0.040857 0.0517651 0.0804329 0.0386061 0.0296325
threshold=6.075000000000002 4.296270816149284 3.9397768819806891 4.411432630651861 3.9442079227622671 3.741500526240126 4.327376488401657 4.8848420984259011 4.7076629513501542 5.7879804576067908 3.8256272627625463 6.8250000000000011 6.8250000000000011 3.6253209565931801 4.4662730372879151 4.6321465052700139 4.1203945076350204 5.4036927424984418 4.4028799347691576 -1.0000000180025095e-35 7.575000000000002 5.7879804576067908 5.2867899117470012 5.3438945015278954 -1.0000000180025095e-35 5.2595992225405661 3.6438621864433638 -1.0000000180025095e-35 1.0000000180025095e-35 -0.5 1.7104578313253012 -1.0000000180025095e-35 3.0803560958438099 1.0000000180025095e-35 3.2149404546085516 1.0000000180025095e-35 1.5750000000000004 4.0084751565725592 3.3612326121812268 -1.0000000180025095e-35 4.6542091474881007 5.4524240384488651 2.9611327754859134 1.0000000180025095e-35 4.0084751565725592 1.0000000180025095e-35 3.5019677741664714 2.4114789156626513 1.5901807228915665 4.5250000000000012 1.2099246987951808 1.7950000000000002 4.0495864511700672 2.0750000000000006 2.4850000000000008 3.0160489482270973 -1.0000000180025095e-35 1.1050000000000002 3.6750000000000007 -1.0000000180025095e-35 -0.60785761079279388 1.0000000180025095e-35 1.0000000180025095e-35
decision_type=2 2 2 2 2 2 2 2 2 2 2 2 2 2 2 2 2 2 2 2 2 2 2 2 2 2 2 2 2 2 2 2 2 2 2 2 2 2 2 2 2 2 2 2 2 2 2 2 2 2 2 2 2 2 2 2 2 2 2 2 2 2 2
left_child=2 28 25 13 8 14 22 12 21 10 19 17 -8 34 -6 27 -17 -9 -7 -10 -13 24 -3 36 -5 40 31 -15 29 -2 -28 32 41 -26 56 38 -21 -29 -36 -30 49 -27 62 44 47 46 50 -44 -43 52 -33 -45 58 -54 -55 -56 57 -4 -1 60 -60 -53 -42
right_child=1 6 3 4 5 18 7 11 9 -11 -12 20 -14 15 -16 16 -18 -19 -20 23 -22 -23 -24 -25 33 26 30 37 39 -31 -32 45 -34 -35 35 -37 -38 -39 -40 -41 42 48 43 51 -46 -47 -48 -49 -50 -51 -52 61 53 54 55 -57 -58 -59 59 -61 -62 -63 -64
leaf_value=-0.11798721807250123 -0.056206280679154556 0.11216931250764689 -0.075479986988418693 -0.00020876550640009869 0.010651258003117855 0.14954681526026553 0.015701274254490277 0.049561290936241204 0.034516301245887109 0.097826491507891411 0.065721035118736462 0.085087015055459556 0.055450293559317354 0.0015371398853406145 0.047197886007062262 -0.04715988220388901 0.032018490297409094 0.086072285271001456 0.087247086067757662 -0.01918703123368443 0.10096191623204923 0.0079012188608343897 0.16659779445107994 0.012672611100810022 -0.021412666862999037 -0.069906553659925139 0.015946271980768253 -0.041369419053614527 -0.029605524699396812 0.00080887453699405437 -0.031191718367309301 -0.081759613025285005 -0.011877116709178959 -0.040088960062384632 -0.01363299623805124 -0.085266032701241168 -0.0056566506852393167 -0.018296348545711102 -0.039423479858815259 -0.070998068147621579 -0.13060986273770725 -0.049888110385211674 -0.084344296793335702 -0.08151161970689981 -0.035717695590185734 -0.075871684694004377 -0.014296535334099617 -0.083303221223983107 -0.031129550353381844 -0.090851670859476846 -0.076580972976522374 -0.061675483856924812 -0.15669611152439383 -0.11472589151087811 -0.16308386715895043 -0.1089374271960605 -0.10890210273295431 -0.093594573734823008 -0.074569288402624709 -0.104950471204806 -0.060337576841538544 -0.10273023013332008 -0.13332098498374562
leaf_weight=4688 197 114 187 180 106 126 175 120 155 111 178 132 195 129 118 150 189 113 135 106 107 116 192 144 169 130 100 178 167 164 101 307 147 323 113 250 101 183 112 444 317 122 165 293 131 754 110 100 132 100 101 126 876 103 377 104 1249 350 109 745 173 135 482
leaf_count=4688 197 114 187 180 106 126 175 120 155 111 178 132 195 129 118 150 189 113 135 106 107 116 192 144 169 130 100 178 167 164 101 307 147 323 113 250 101 183 112 444 317 122 165 293 131 754 110 100 132 100 101 126 876 103 377 104 1249 350 109 745 173 135 482
internal_value=-0.000864745 0.0127123 -0.00264303 0.00118457 0.00786267 0.0244845 0.0265331 0.0210095 0.00277006 0.00745283 0.00486842 0.0281568 0.0118919 -0.00328479 0.0090625 -0.000114597 0.00370206 0.021824 0.0377203 0.00171937 0.0343305 -0.00195432 0.041732 -0.000584047 -0.00291667 -0.00443326 -0.00357785 -0.0027551 -0.00361111 -0.00222992 0.000472636 -0.0040294 -0.0030226 -0.00398374 -0.00444715 -0.00342105 -0.00282609 -0.00389197 -0.00188889 -0.00442717 -0.00462323 -0.00382813 -0.00422813 -0.00389474 -0.0029798 -0.00444969 -0.00393823 -0.00367925 -0.00322835 -0.00471821 -0.00450981 -0.00454874 -0.00473519 -0.0044863 -0.0039726 -0.00448025 -0.00472005 -0.00434823 -0.00479878 -0.00451315 -0.00393617 -0.00404215 -0.00462453
internal_weight=18306 2120 16186 5158 2068 485 1148 842 1583 795 684 472 370 3090 224 829 339 233 261 506 239 788 306 351 672 11028 2004 490 972 361 201 1803 531 492 2261 475 207 361 225 611 9024 384 1749 950 396 1272 518 265 254 7275 408 554 7175 1460 584 481 1786 537 5715 1027 282 261 799
internal_count=18306 2120 16186 5158 2068 485 1148 842 1583 795 684 472 370 3090 224 829 339 233 261 506 239 788 306 351 672 11028 2004 490 972 361 201 1803 531 492 2261 475 207 361 225 611 9024 384 1749 950 396 1272 518 265 254 7275 408 554 7175 1460 584 481 1786 537 5715 1027 282 261 799
is_linear=0
shrinkage=0.05


Tree=7
num_leaves=64
num_cat=0
split_feature=9 15 10 15 12 10 11 16 10 12 11 14 12 9 15 15 10 12 0 11 10 15 11 16 10 0 0 0 2 2 0 16 0 13 0 11 16 8 0 2 2 9 9 2 11 8 2 2 16 9 15 0 4 11 4 11 16 16 8 15 7 7 2
split_gain=161.441 174.557 40.6478 55.8434 60.9222 39.6052 36.9078 20.3226 12.8449 7.32891 14.5285 5.84792 5.22278 4.93662 4.38288 3.69226 3.19091 5.1058 2.86242 2.46603 2.34639 2.22154 1.94362 0.804929 1.41813 0.70891 0.650048 0.500023 0.43823 0.887881 0.364673 0.242451 0.401427 0.172441 0.158895 0.402153 0.156702 0.140534 0.137625 0.114586 0.238478 0.39058 0.110812 0.106461 0.105564 0.0953446 0.0756982 0.235212 0.341775 0.150591 0.0817169 0.0586372 0.0847613 0.0560324 0.0468554 0.0677866 0.0442024 0.0439195 0.0381713 0.0286633 0.0356069 0.0297436 0.0236591
threshold=6.075000000000002 4.296270816149284 3.9397768819806891 4.411432630651861 3.9442079227622671 4.327376488401657 3.741500526240126 4.8848420984259011 5.1049806895607439 3.8256272627625463 3.9126156572034163 5.1930784869945414 3.8256272627625463 6.8250000000000011 3.6253209565931801 4.8521553939698654 4.6321465052700139 4.1203945076350204 1.0000000180025095e-35 4.0495864511700672 4.4662730372879151 5.7341853086911838 4.2115168565619543 4.9594291416500065 3.6438621864433638 -1.0000000180025095e-35 1.0000000180025095e-35 -0.8783796973249266 1.0000000180025095e-35 -0.5 -1.0000000180025095e-35 3.2149404546085516 1.0000000180025095e-35 4.0084751565725592 -1.0000000180025095e-35 4.2115168565619543 3.3612326121812268 0.012669010552386296 -1.0000000180025095e-35 1.0000000180025095e-35 -0.5 2.7750000000000004 4.5750000000000011 1.0000000180025095e-35 3.9126156572034163 0.01845438102630971 0.25000000000000011 -0.24999999999999997 4.372960980382314 3.0750000000000006 2.2678652182976307 -1.0000000180025095e-35 1.1050000000000002 4.0495864511700672 3.7850000000000006 3.7753385736383467 2.2004743911095384 5.6037649786647767 0.0087023338727005087 3.2574715918257211 2.6012048192771089 0.82012048192771092 1.0000000180025095e-35
decision_type=2 2 2 2 2 2 2 2 2 2 2 2 2 2 2 2 2 2 2 2 2 2 2 2 2 2 2 2 2 2 2 2 2 2 2 2 2 2 2 2 2 2 2 2 2 2 2 2 2 2 2 2 2 2 2 2 2 2 2 2 2 2 2
left_child=2 28 23 14 8 19 20 13 12 -9 -11 22 21 -7 31 -8 25 -18 -14 -3 -6 30 -10 42 27 -16 -26 -25 29 -2 37 51 36 -27 35 45 -33 -5 -30 40 58 -42 44 -32 -1 57 47 56 49 -49 -48 52 -4 -45 -41 -56 -46 -29 -36 -58 61 -61 -54
right_child=1 5 3 4 6 7 15 9 11 10 -12 -13 18 -15 16 -17 17 -19 -20 -21 -22 -23 -24 24 26 33 -28 34 38 -31 43 32 -34 -35 39 -37 -38 -39 -40 54 41 -43 -44 53 46 -47 50 48 -50 -51 -52 -53 62 -55 55 -57 59 -59 -60 60 -62 -63 -64
leaf_value=-0.10748815127552745 -0.05339596664519685 0.11293861921014131 -0.071705987638997756 0.00015987679152781525 0.010118695102961969 0.014916210541765769 0.085381939581756591 0.059474502690872247 0.0086139909314935769 0.045413931045109907 0.0981799043933064 0.09412073148323663 0.059382832346911413 0.052677778881351472 0.0014602828910735873 0.13938947570116667 -0.04480188809369455 0.030417565782538653 0.0090711647373611769 0.16308221479512747 0.044837991706709157 0.0088671101014009112 0.035768142628855977 -0.025976639187473779 0.0099957883405019168 -0.039300948100933805 -0.044963021896337579 -0.044912042767660254 -0.028125248464426968 0.00076843081014435065 -0.022539008253397646 -0.012951346426148667 -0.081002731066179084 -0.017381531118425563 -0.070031503958261923 -0.018029639618586842 -0.037452305865874502 -0.022251970324979522 -0.067448164740240513 -0.078626317419489666 -0.076435346668001725 -0.012721350393333129 -0.086309087316502997 -0.038365695327959422 -0.20409139157469683 -0.035868403478219978 -0.19105464708723399 -0.12612054622722024 -0.05703822215854662 -0.10250004855196947 -0.1138467342744327 -0.10345699759630661 -0.067686543061233728 -0.045809255632203449 -0.076197703134597949 -0.072215842593252616 -0.15112952302432212 -0.029311529443588946 -0.079411089157035153 -0.10022021628501537 -0.10723286085281068 -0.096544845663000922 -0.094169451965776113
leaf_weight=4826 197 120 187 100 106 175 120 150 100 134 188 109 123 195 129 141 150 189 155 186 118 188 188 123 130 178 144 213 167 164 190 113 250 183 154 104 112 105 444 841 138 132 100 152 113 155 135 256 149 101 1517 1249 114 173 115 117 476 128 290 100 181 290 236
leaf_count=4826 197 120 187 100 106 175 120 150 100 134 188 109 123 195 129 141 150 189 155 186 118 188 188 123 130 178 144 213 167 164 190 113 250 183 154 104 112 105 444 841 138 132 100 152 113 155 135 256 149 101 1517 1249 114 173 115 117 476 128 290 100 181 290 236
internal_value=-0.000993118 0.0119811 -0.00269245 0.000971306 0.00733075 0.0251829 0.0228351 0.0195843 0.00258054 0.0264619 0.0307143 0.0103652 -2.52963e-05 0.0108108 -0.00328479 0.035613 -0.000174911 0.00355457 0.00597122 0.0405882 0.00794643 -0.00186123 0.00663194 -0.00440606 -0.00367098 -0.0027551 -0.000255476 -0.00404383 -0.00361111 -0.00222992 -0.003125 -0.00442503 -0.00342105 -0.00389197 -0.00420402 -0.0035 -0.00188889 -0.00134146 -0.00442717 -0.0044404 -0.00394958 -0.00277778 -0.0046543 -0.00383495 -0.00467461 -0.00409274 -0.00445751 -0.00421969 -0.00332016 -0.00415967 -0.00469734 -0.00469205 -0.00425512 -0.00438462 -0.00476701 -0.00413793 -0.00461207 -0.00456012 -0.00466216 -0.00471347 -0.00447461 -0.00474359 -0.00471429
internal_weight=18306 2120 16186 5158 2068 1148 485 842 1583 472 322 397 1186 370 3090 261 829 339 278 306 224 908 288 11028 2784 490 274 2510 972 361 720 2261 475 361 2387 600 225 205 611 1787 714 270 8244 515 8144 496 3318 1666 506 357 1652 1786 537 325 1073 232 1160 341 444 1047 571 390 350
internal_count=18306 2120 16186 5158 2068 1148 485 842 1583 472 322 397 1186 370 3090 261 829 339 278 306 224 908 288 11028 2784 490 274 2510 972 361 720 2261 475 361 2387 600 225 205 611 1787 714 270 8244 515 8144 496 3318 1666 506 357 1652 1786 537 325 1073 232 1160 341 444 1047 571 390 350
is_linear=0
shrinkage=0.05


Tree=8
num_leaves=64
num_cat=0
split_feature=9 14 10 10 16 16 10 10 9 14 16 0 9 16 10 16 10 0 10 10 9 9 0 9 9 16 10 0 0 10 7 0 10 16 1 0 13 2 8 2 2 10 0 2 2 16 11 4 4 4 16 7 8 4 8 9 10 16 0 0 2 5 0
split_gain=152.241 161.561 41.3404 36.5269 45.2054 23.5797 18.7159 15.7063 9.32427 5.7079 5.33929 5.04556 4.63751 4.02247 3.01021 2.98842 2.62478 2.50901 2.3434 2.48588 2.29228 1.58746 1.27858 1.13321 0.801332 0.767133 1.41244 0.493628 0.459672 0.696431 0.327188 0.311858 0.328521 0.304931 0.290651 0.241766 0.220979 0.207223 0.275403 0.155576 0.294311 0.154449 0.153446 0.136933 0.303514 0.133284 0.124729 0.128693 0.168884 0.205271 0.130933 0.123935 0.109876 0.202961 0.103883 0.0965128 0.0842039 0.0965653 0.128121 0.215321 0.079873 0.14286 0.0618437
threshold=6.075000000000002 3.9726680036239661 4.2327469874004384 3.9397768819806891 4.5703574673038299 4.8848420984259011 5.0622983159472215 4.269672905935038 6.5750000000000011 3.9726680036239661 5.6037649786647767 -0.60785761079279388 6.8250000000000011 5.4036927424984418 4.327376488401657 5.6037649786647767 5.0622983159472215 1.0000000180025095e-35 4.5197308705340609 4.7700249813415185 5.0250000000000012 7.3750000000000009 -1.0000000180025095e-35 4.3250000000000011 5.0750000000000011 5.2595992225405661 3.6438621864433638 -1.0000000180025095e-35 -1.0000000180025095e-35 4.5682680774368318 1.7104578313253012 -1.0000000180025095e-35 3.0803560958438099 3.134647051606843 -0.22252093395631442 1.0000000180025095e-35 4.212030385569185 1.0000000180025095e-35 0.011512173944070605 1.0000000180025095e-35 -0.5 4.4028799347691576 1.0000000180025095e-35 1.0000000180025095e-35 -0.5 5.4524240384488651 3.9126156572034163 1.9350000000000003 2.6850000000000005 2.4050000000000007 4.9594291416500065 1.5901807228915665 0.00888519686969233 2.6250000000000004 0.017016650698968631 2.4250000000000007 3.4511341765773769 3.066553068078818 -1.0000000180025095e-35 -0.60785761079279388 1.0000000180025095e-35 118.68850000000002 -1.0000000180025095e-35
decision_type=2 2 2 2 2 2 2 2 2 2 2 2 2 2 2 2 2 2 2 2 2 2 2 2 2 2 2 2 2 2 2 2 2 2 2 2 2 2 2 2 2 2 2 2 2 2 2 2 2 2 2 2 2 2 2 2 2 2 2 2 2 2 2
left_child=3 28 42 25 9 12 7 -6 -7 33 11 -9 -4 20 -11 21 22 -14 27 -20 -8 -10 -16 -12 -25 46 31 -13 29 -2 -28 32 45 62 -21 36 -35 38 -29 40 -30 -39 -3 44 -33 -27 56 -48 49 55 -50 -47 -24 -54 -37 -49 -1 -58 59 -59 61 -60 -5
right_child=1 2 5 4 6 8 13 10 15 14 23 18 17 -15 16 -17 -18 -19 19 34 -22 -23 52 24 -26 26 30 37 39 -31 -32 43 -34 35 -36 54 -38 41 -40 -41 -42 -43 -44 -45 -46 51 47 48 50 -51 -52 -53 53 -55 -56 -57 57 58 60 -61 -62 -63 -64
leaf_value=-0.11588408063877327 0.0011399634584923213 0.17288654364499109 0.013959279093545671 -0.078064527081304333 0.12950639425851959 0.064757749975898837 0.059360581662111472 0.050991875102184905 0.049276310497895021 0.045270600911402739 0.052196131202309703 0.01551537455177808 0.083614042308762834 0.090002605881840197 0.011153933756856488 0.10710231648642468 0.024761639694229187 0.032790638401693099 0.027055433616923447 0.007177843939639968 0.036480615330803309 0.083986536785451468 -0.033641187683591395 0.017472458537365045 0.059334641901513441 -0.064992037226295568 0.014649168964704737 -0.021789919304630166 -0.063897670002117657 -0.037829668052861948 -0.027383987905727693 -0.066367673926982562 -0.0093089694880254589 -0.04715698155665185 -0.011965048013767493 -0.078911240257851151 -0.016575379184279274 -0.028592948491829563 0.012309485722336866 -0.065628793555304821 -0.034433840867622044 -0.011319519821095719 0.12547023618924524 -0.068237005056524691 -0.019895613728752152 -0.045928128393771639 -0.10562602296574407 -0.12624287472875623 -0.10659055620124835 -0.089469266539416517 -0.083723173537700021 -0.028074710969411359 -0.020356070669916179 -0.028643945696697544 -0.059937590768341334 -0.096184030396639045 -0.14734439920209261 -0.043827357212866645 -0.082413135781899974 -0.033684770909983223 -0.075690531950708975 -0.064926196993178906 -0.098660454571285028
leaf_weight=3619 105 105 186 516 144 175 124 129 121 109 102 113 106 116 161 112 131 123 188 101 133 123 127 136 106 130 100 103 140 159 101 322 147 146 124 200 131 156 108 434 118 179 113 754 196 122 2091 107 1031 129 108 132 123 126 102 206 665 109 145 177 475 162 1224
leaf_count=3619 105 105 186 516 144 175 124 129 121 109 102 113 106 116 161 112 131 123 188 101 133 123 127 136 106 130 100 103 140 159 101 322 147 146 124 200 131 156 108 434 118 179 113 754 196 122 2091 107 1031 129 108 132 123 126 102 206 665 109 145 177 475 162 1224
internal_value=-0.0011133 0.0114858 0.0239948 -0.0027635 0.000709576 0.0194715 0.0064452 0.00420663 0.0264501 -0.00311047 0.00273463 0.00116153 0.0105422 0.0165818 0.000598454 0.0310955 -0.000658684 0.0153057 3.73122e-05 0.00299031 0.0130934 0.0279918 -0.00220671 0.00822674 0.00636364 -0.00438792 -0.003503 -0.00181335 -0.00374477 -0.0019697 0.000472636 -0.0039462 -0.00292844 -0.00435317 -0.000555557 -0.00335924 -0.00229242 -0.0024359 -0.00120853 -0.00442197 -0.00344961 -0.00320896 0.0436239 -0.00437107 -0.00374517 -0.00369792 -0.00458444 -0.00436002 -0.00401961 -0.00319005 -0.00434153 -0.0030315 -0.00380319 -0.00319277 -0.00433775 -0.00388179 -0.00473842 -0.00445182 -0.0041573 -0.00325175 -0.00448849 -0.00385994 -0.00468391
internal_weight=18306 2120 1164 16186 5158 946 2062 1689 531 3096 1545 1201 415 373 777 356 668 229 1072 413 257 244 537 344 242 11028 2004 659 956 264 201 1803 531 2319 225 579 277 546 211 692 258 335 218 1272 518 384 9024 3672 1581 442 1139 254 376 249 302 313 5352 1733 1068 286 782 307 1740
internal_count=18306 2120 1164 16186 5158 946 2062 1689 531 3096 1545 1201 415 373 777 356 668 229 1072 413 257 244 537 344 242 11028 2004 659 956 264 201 1803 531 2319 225 579 277 546 211 692 258 335 218 1272 518 384 9024 3672 1581 442 1139 254 376 249 302 313 5352 1733 1068 286 782 307 1740
is_linear=0
shrinkage=0.05


Tree=9
num_leaves=64
num_cat=0
split_feature=9 14 10 16 10 10 10 16 12 12 11 16 14 16 14 10 12 3 0 9 12 11 16 0 16 2 3 3 2 2 10 0 10 0 16 14 16 0 8 16 8 0 0 0 16 0 4 11 5 16 16 16 5 5 3 0 10 13 16 7 4 4 13
split_gain=135.297 132.92 41.3409 54.3675 49.3269 27.751 24.2167 18.396 17.7531 8.0538 17.3585 4.34144 4.21046 4.18714 3.63945 3.47454 4.1601 3.34702 3.02359 2.9401 2.49808 5.60756 2.03494 1.6163 1.45161 1.20832 1.12263 0.973796 0.635645 0.653057 0.450335 0.421842 0.385131 0.794502 1.27538 0.372048 0.203396 0.66504 0.155445 0.142661 0.127992 0.101136 0.0942539 0.0861244 0.0655044 0.0653999 0.148763 0.0600656 0.0542461 0.0614017 0.152289 0.0440044 0.0778174 0.161259 0.0516762 0.037061 0.116912 0.246081 0.04979 0.0285387 0.0250086 0.189495 0.0254226
threshold=6.4250000000000016 3.9726680036239661 3.9397768819806891 4.372960980382314 4.2562678597223522 4.2327469874004384 5.0622983159472215 4.8848420984259011 3.8651453730659675 3.8256272627625463 3.741500526240126 5.2595992225405661 5.1930784869945414 5.7879804576067908 3.9726680036239661 4.4662730372879151 4.1203945076350204 0.93301270189221952 1.0000000180025095e-35 7.575000000000002 3.8651453730659675 3.6913226972990794 4.7353955341141996 -1.0000000180025095e-35 5.6037649786647767 0.25000000000000011 0.93301270189221952 0.6830127018922193 1.0000000180025095e-35 -0.5 2.9611327754859134 -1.0000000180025095e-35 3.6438621864433638 -1.0000000180025095e-35 4.372960980382314 5.1930784869945414 5.8799229609676784 -1.0000000180025095e-35 0.01243761004378849 3.134647051606843 0.026023318636738482 0.6078576107927941 -1.0000000180025095e-35 -1.0000000180025095e-35 5.0716198419029359 -1.0000000180025095e-35 0.91500000000000015 3.9126156572034163 79.31750000000001 2.2729554495106146 1.8415806320765686 4.8848420984259011 203.84050000000005 266.76600000000002 0.25000000000000017 -1.0000000180025095e-35 3.0803560958438099 4.212030385569185 4.5703574673038299 0.87003614457831346 2.1650000000000005 2.6250000000000004 3.4883912958549712
decision_type=2 2 2 2 2 2 2 2 2 2 2 2 2 2 2 2 2 2 2 2 2 2 2 2 2 2 2 2 2 2 2 2 2 2 2 2 2 2 2 2 2 2 2 2 2 2 2 2 2 2 2 2 2 2 2 2 2 2 2 2 2 2 2
left_child=2 28 17 14 -5 -3 9 18 12 24 15 -12 25 19 26 23 -17 32 -7 -9 38 -22 30 -11 27 -8 39 31 29 -2 -19 -6 36 34 -34 41 47 -38 -16 45 42 -25 -41 -30 -35 46 -4 55 -49 50 -50 60 54 -54 -53 56 -1 58 -58 -44 -51 -62 -63
right_child=1 5 3 4 6 7 8 13 -10 10 11 -13 -14 -15 20 16 -18 22 -20 -21 21 -23 -24 35 -26 -27 -28 -29 43 -31 -32 -33 33 44 -36 -37 37 -39 -40 40 -42 -43 59 -45 -46 -47 -48 48 49 51 -52 52 53 -55 -56 -57 57 -59 -60 -61 61 62 -64
leaf_value=-0.084141994892178829 -0.043621114759744561 0.12998447239911703 -0.07564594943338776 0.18104182949137332 -0.017286048207800154 0.07148695032997758 0.020086198098811583 0.055931192125669243 0.072057205084997009 0.019300245432700969 0.0457320498823552 0.076133739828086175 0.071206285901765476 0.10146462105005652 -0.044238714213422875 -0.0018122145515507273 0.035003778403960246 -0.078402717911296146 0.022845520998747978 0.076193946931189374 -0.02288890429703485 0.042805026606612326 0.024481254463193224 -0.029300341794915807 0.0067301364231029245 0.0092377907411203813 0.0058603817095156142 0.0067776258957752402 -0.024380084712693935 0.0010846571350563283 -0.019763201205646716 -0.037806202171628375 -0.093340352825319731 -0.0872011357648734 0.0086525237899524581 -0.0035144656099720417 -0.0053393359053877055 -0.04549718394744641 -0.016732598445704912 -0.025672379215371872 -0.051598296670839441 -0.019434769045107506 -0.056793376622300454 -0.060918308281766601 -0.050728158451230333 -0.097577112329110441 -0.081869239664887877 -0.09898837599312961 -0.19879847281567314 -0.11092273652405818 -0.17994569912356351 -0.0790328475010523 -0.045223595224795431 -0.067591263980395166 -0.063411043949473958 -0.09781957454707936 -0.073747109877863204 -0.016119277726800003 -0.029362752148763983 -0.07062734663764253 -0.094402108425273801 -0.11318093348527868 -0.10888391504943401
leaf_weight=1031 152 203 151 101 142 138 121 180 163 137 176 129 123 101 138 166 177 184 176 109 153 105 183 131 149 115 122 120 132 120 186 348 151 534 145 129 101 267 147 136 117 126 100 324 144 1292 380 750 131 1100 150 398 126 147 172 3824 245 114 121 249 131 109 584
leaf_count=1031 152 203 151 101 142 138 121 180 163 137 176 129 123 101 138 166 177 184 176 109 153 105 183 131 149 115 122 120 132 120 186 348 151 534 145 129 101 267 147 136 117 126 100 324 144 1292 380 750 131 1100 150 398 126 147 172 3824 245 114 121 249 131 109 584
internal_value=-0.00123348 0.0124924 -0.00257963 0.000901115 0.00630043 0.0252646 0.00488988 0.0205682 0.0144444 0.0023057 0.00490606 0.0151639 0.0082312 0.0278205 -0.00355987 0.0012933 0.00520408 -0.00436072 0.0115605 0.0247578 0.000156537 0.00372093 -0.000569621 -0.00127151 -0.00170619 0.00432203 -0.00435218 -0.00278689 -0.00342033 -0.00150735 -0.0027027 -0.00377551 -0.00456086 -0.00361396 -0.0014527 -0.00292746 -0.00465793 -0.00350544 -0.00307018 -0.00458763 -0.00392027 -0.00402724 -0.00427835 -0.0045614 -0.00455752 -0.00480801 -0.00434087 -0.00470437 -0.0045524 -0.00445866 -0.00375445 -0.00453018 -0.00422895 -0.0035348 -0.0045614 -0.00481256 -0.00460291 -0.00395833 -0.00459017 -0.00471347 -0.00466216 -0.00445388 -0.00478355
internal_weight=18306 1635 16671 5643 2553 907 2452 704 522 1930 1171 305 359 390 3090 866 343 11028 314 289 543 258 553 523 759 236 2547 610 728 272 370 490 10475 974 296 386 9501 368 285 2425 602 257 485 456 678 1823 531 9133 3798 3048 281 2767 843 273 570 5335 1511 480 366 349 1924 824 693
internal_count=18306 1635 16671 5643 2553 907 2452 704 522 1930 1171 305 359 390 3090 866 343 11028 314 289 543 258 553 523 759 236 2547 610 728 272 370 490 10475 974 296 386 9501 368 285 2425 602 257 485 456 678 1823 531 9133 3798 3048 281 2767 843 273 570 5335 1511 480 366 349 1924 824 693
is_linear=0
shrinkage=0.05


Tree=10
num_leaves=64
num_cat=0
split_feature=9 15 10 10 15 12 11 15 10 12 12 15 11 15 12 9 15 10 3 15 0 10 10 3 10 14 15 0 3 12 10 15 15 0 15 3 0 14 10 10 15 3 3 15 10 8 12 9 9 15 0 12 10 11 7 15 11 1 5 7 4 9 3
split_gain=128.31 122.414 40.7989 33.9102 47.6016 53.2934 29.0936 13.4532 9.4769 8.53116 7.18766 12.0669 6.81876 6.43161 5.27717 5.06037 3.69276 3.69244 2.85454 2.34688 2.19135 2.12977 1.65603 1.49964 1.37479 1.32317 1.04957 0.885037 0.820907 0.760433 1.17446 0.579074 0.524434 0.484231 0.48116 0.343191 0.322112 0.805127 0.967462 0.299693 0.224121 0.204225 0.14413 0.211245 0.141718 0.137027 0.0773533 0.054121 0.0536113 0.0533925 0.0368114 0.0928504 0.0858023 0.033853 0.0324686 0.0561808 0.192937 0.0300323 0.0339612 0.0248634 0.259567 0.0238892 0.0475556
threshold=6.0250000000000012 4.296270816149284 4.2327469874004384 3.9397768819806891 4.411432630651861 3.9442079227622671 3.741500526240126 5.3271158500481812 4.7076629513501542 3.8256272627625463 3.8068654830326714 5.2867899117470012 4.2115168565619543 5.2867899117470012 3.9442079227622671 6.6750000000000016 3.6253209565931801 4.8697395854116712 0.93301270189221952 4.6542091474881007 -1.0000000180025095e-35 5.3438945015278954 4.4662730372879151 0.93301270189221952 4.6321465052700139 5.1930784869945414 5.7341853086911838 -1.0000000180025095e-35 0.6830127018922193 4.1203945076350204 4.6321465052700139 2.978170721863683 5.3052430913601798 -1.0000000180025095e-35 3.2574715918257211 1.0000000180025095e-35 -1.0000000180025095e-35 5.1930784869945414 3.5572571801167041 3.0803560958438099 4.3704374542590054 0.6830127018922193 -0.5 4.296270816149284 2.901979170496825 0.017488817953233159 4.0110911262885525 3.1250000000000004 4.2750000000000012 3.1034711523363003 -1.0000000180025095e-35 4.0110911262885525 4.6321465052700139 3.6913226972990794 1.5200692771084341 2.2678652182976307 3.9126156572034163 -0.22252093395631442 484.38600000000002 3.8250000000000006 3.4950000000000006 1.8250000000000004 -0.24999999999999997
decision_type=2 2 2 2 2 2 2 2 2 2 2 2 2 2 2 2 2 2 2 2 2 2 2 2 2 2 2 2 2 2 2 2 2 2 2 2 2 2 2 2 2 2 2 2 2 2 2 2 2 2 2 2 2 2 2 2 2 2 2 2 2 2 2
left_child=3 27 32 18 16 8 24 9 26 -4 21 -12 14 -8 -11 -9 23 -16 36 34 22 25 -18 50 -7 35 28 31 33 42 -31 -2 -3 -6 -20 -10 37 39 44 -1 46 49 -22 -44 -39 -42 47 -41 -35 -29 51 -5 -53 -38 61 56 -56 -57 59 60 -59 62 -55
right_child=1 2 7 4 5 6 13 15 10 12 11 -13 -14 -15 17 -17 20 -19 19 -21 29 -23 -24 -25 -26 -27 -28 41 -30 30 -32 -33 -34 48 -36 -37 53 38 -40 40 45 -43 43 -45 -46 -47 -48 -49 -50 -51 -52 52 -54 54 55 57 -58 58 -60 -61 -62 -63 -64
leaf_value=-0.089768789235096819 -0.05249576461066198 0.115593326536439 0.023424802028624875 -0.071133132890751669 -0.0034308303001597895 0.023257263453750541 0.077322943463860858 0.089229621815972604 -0.030471307860699431 0.010290273532951985 0.014268408508439447 0.063203293030726818 0.04458711740328853 0.13924503046580688 0.034150672664560573 0.084322590383217474 -0.0004210602051270653 0.053911345824632022 -0.074874516975407077 0.020567059475684678 -0.031506192949315559 0.014361671654164413 0.048093382577676071 0.0098833839531474055 0.037232185972689284 0.017815174429228035 0.0068718147648847983 -0.07420236989557831 0.0020128551161861684 -0.034859585747639622 0.010503395533068567 0.0017980920834100415 0.15606222501903316 -0.03387034014470635 -0.010287204462735939 -0.0019466017885312707 -0.08555607377187735 -0.056887035333046537 0.012632685195765167 -0.055821958209962913 -0.025062085585188562 -0.034997081324330798 -0.045067212662259298 -0.0066385738750931386 -0.020437460317455001 -0.035177067291590418 -0.058708943118671898 -0.071145466967763679 -0.035026174600222719 -0.03132059072546025 -0.085818571003564992 -0.043540890510580181 -0.045195095351352181 -0.14620256833322434 -0.19117943536022375 -0.095678562361002056 -0.18355742397525282 -0.086956018376012814 -0.07343908709507295 -0.09010315086446409 -0.081452172909774606 -0.086469768838843261 -0.13017519047901763
leaf_weight=1702 147 122 191 416 140 120 155 101 129 109 169 142 103 103 169 157 114 120 232 183 130 107 112 100 106 117 114 373 128 118 136 128 114 170 130 111 1811 185 109 106 188 175 103 110 179 106 104 372 225 126 1499 102 112 103 163 730 111 1256 119 685 102 2384 123
leaf_count=1702 147 122 191 416 140 120 155 101 129 109 169 142 103 103 169 157 114 120 232 183 130 107 112 100 106 117 114 373 128 118 136 128 114 170 130 111 1811 185 109 106 188 175 103 110 179 106 104 372 225 126 1499 102 112 103 163 730 111 1256 119 685 102 2384 123
internal_value=-0.00134902 0.0101756 0.0208853 -0.00286123 0.000522798 0.00644401 0.0209298 0.0162632 0.00192655 0.0126301 0.00583871 0.0117203 0.0160579 0.0324031 0.0130905 0.0260078 -0.00342726 0.0166263 -0.00440088 -0.000871561 -0.000565007 0.00189655 0.00362832 -0.00448407 0.00783186 4.20156e-05 -0.00197555 -0.00320864 -0.00273756 -0.00215243 -7.87413e-05 -0.000818183 0.0394915 -0.00359813 -0.00320442 -0.00208333 -0.00458169 -0.00414782 -0.00225159 -0.00449573 -0.00374429 -0.00418398 -0.00368805 -0.00288733 -0.00348901 -0.00261905 -0.00431272 -0.00458159 -0.00449367 -0.0046994 -0.00476515 -0.00444445 -0.00359813 -0.00475616 -0.00469702 -0.00458939 -0.00390511 -0.00465422 -0.00456059 -0.00460842 -0.00448454 -0.00482759 -0.00433628
internal_weight=18406 2135 1186 16271 5088 2036 484 950 1552 692 775 311 501 258 398 258 3052 289 11183 545 823 464 226 2229 226 357 777 949 663 597 254 275 236 535 362 240 10638 3051 473 2578 876 674 343 213 364 294 582 478 395 499 2129 630 214 7587 5776 3166 274 2892 2162 2043 1358 2610 226
internal_count=18406 2135 1186 16271 5088 2036 484 950 1552 692 775 311 501 258 398 258 3052 289 11183 545 823 464 226 2229 226 357 777 949 663 597 254 275 236 535 362 240 10638 3051 473 2578 876 674 343 213 364 294 582 478 395 499 2129 630 214 7587 5776 3166 274 2892 2162 2043 1358 2610 226
is_linear=0
shrinkage=0.05


Tree=11
num_leaves=64
num_cat=0
split_feature=9 15 10 10 15 12 11 12 15 10 15 13 12 15 13 15 0 15 13 13 15 0 10 10 13 10 0 9 15 10 2 15 10 0 9 5 10 2 9 0 2 2 4 13 15 10 0 15 5 9 10 2 2 2 2 2 5 5 15 4 5 13 9
split_gain=116.799 111.732 36.7427 31.2921 42.5332 47.2099 25.2306 12.6065 12.5203 8.40497 6.6865 6.35201 4.85829 11.7793 3.90475 3.88183 3.82942 2.4541 2.35255 2.34191 2.13872 2.06619 1.70271 1.65603 0.703591 0.771276 0.66737 0.663032 0.630935 0.9689 0.471784 0.421882 0.399599 0.357742 0.538639 0.387813 0.270687 0.27339 0.229981 0.131724 0.169958 0.188741 0.117195 0.110547 0.103545 0.0917778 0.159434 0.256504 0.333415 0.0747341 0.0701649 0.0700577 0.424632 0.0640923 0.342096 0.461538 0.0916239 0.0746989 0.0519847 0.0498238 0.0840358 0.0461319 0.0404061
threshold=6.0250000000000012 4.411432630651861 4.2327469874004384 3.9397768819806891 4.411432630651861 3.9442079227622671 3.741500526240126 3.8256272627625463 5.2867899117470012 4.5682680774368318 5.2867899117470012 3.8262604912663609 3.8256272627625463 4.8521553939698654 3.8262604912663609 3.6253209565931801 1.0000000180025095e-35 3.6253209565931801 4.0084751565725592 4.0084751565725592 5.7856372475789675 -1.0000000180025095e-35 5.3739478178234998 4.4662730372879151 3.8262604912663609 4.4662730372879151 -1.0000000180025095e-35 3.6750000000000007 4.6542091474881007 3.612060980861445 0.25000000000000011 2.978170721863683 5.3113112781551051 -1.0000000180025095e-35 3.1750000000000007 152.28600000000006 4.3644737892590593 0.68301270189221941 7.8750000000000009 -1.0000000180025095e-35 1.0000000180025095e-35 -0.5 3.8850000000000002 4.212030385569185 2.9961520067045524 2.9806964307869768 -1.0000000180025095e-35 4.296270816149284 132.01000000000002 4.4250000000000016 4.4662730372879151 1.0000000180025095e-35 -0.24999999999999997 0.25000000000000011 -0.24999999999999997 1.0000000180025095e-35 117.13500000000002 222.75900000000001 3.2574715918257211 0.97500000000000009 95.043000000000021 4.343240145363982 2.9250000000000007
decision_type=2 2 2 2 2 2 2 2 2 2 2 2 2 2 2 2 2 2 2 2 2 2 2 2 2 2 2 2 2 2 2 2 2 2 2 2 2 2 2 2 2 2 2 2 2 2 2 2 2 2 2 2 2 2 2 2 2 2 2 2 2 2 2
left_child=3 17 18 28 15 9 19 16 11 27 -8 -9 20 -14 -10 39 -4 26 -3 -7 22 23 32 -17 50 -26 31 -6 45 33 -31 -2 -11 34 42 -36 49 -38 -28 40 41 -5 43 -30 -42 -1 47 59 -49 -29 -23 52 61 54 57 -56 -57 -35 -41 -47 -61 -48 -62
right_child=1 2 7 4 5 6 10 8 14 12 -12 -13 13 -15 -16 21 -18 -19 -20 -21 -22 24 -24 -25 25 -27 38 36 29 30 -32 -33 -34 53 35 -37 37 -39 -40 58 44 -43 -44 -45 -46 46 51 48 -50 -51 -52 -53 -54 -55 55 56 -58 -59 -60 60 62 -63 -64
leaf_value=-0.11026724476143544 -0.049870976380128856 0.10141826331732727 0.065504430470296277 -0.059028363197693869 0.0026684890500870573 0.020126426042290084 0.073456796290667828 0.013115556442806398 0.07262057371111115 -0.014704832983954612 0.13228277894251653 0.051255779494963419 0.00076668653331793575 0.060247811601190998 0.076157658760613589 -0.00040000719487069865 0.011040544880104138 0.01759907906382277 0.15250749511616418 0.049682139452071415 0.038588721738911091 -0.03935652943078792 0.013098299349246965 0.045688713448792273 -0.022700342999140519 0.0065242604755658649 -0.071598679598139259 -0.020510919608713044 -0.05879461506583214 0.0023516283738063025 -0.034735655924598596 0.00093882782464440597 0.0025936776931038295 -0.069507978207908591 0.0012370587267103649 -0.017904148933609483 -0.0065528000174109079 -0.023001563857604625 -0.026648347493723409 -0.082786617566023651 -0.077711449573460253 -0.014837355919898616 -0.03426129255876989 -0.021652031651128178 -0.026610892289196709 -0.071621860656524705 -0.091024965309554992 -0.040494135690739133 -0.013038393155473836 -0.029722991916513494 -0.019447067947490237 -0.083699341818242665 -0.018963616142669386 -0.069201088033763292 -0.0043919512013017824 -0.05244203346098647 -0.073213669426691594 -0.060315151639622824 -0.038276494177947581 -0.062131336768948234 -0.068877115119439822 -0.078385315185243179 -0.075394167674789667
leaf_weight=4068 147 116 120 151 113 119 155 121 109 172 103 199 131 125 170 114 159 145 120 107 160 117 135 112 198 167 445 134 434 170 164 105 121 611 135 102 189 100 179 1450 295 107 124 122 112 232 826 140 130 172 115 1528 112 1134 117 100 134 168 114 124 115 123 270
leaf_count=4068 147 116 120 151 113 119 155 121 109 172 103 199 131 125 170 114 159 145 120 107 160 117 135 112 198 167 445 134 434 170 164 105 121 611 135 102 189 100 179 1450 295 107 124 122 112 232 826 140 130 172 115 1528 112 1134 117 100 134 168 114 124 115 123 270
internal_value=-0.00145225 0.00954332 0.0204937 -0.00289503 0.000355738 0.00595285 0.0195868 0.0157859 0.0198748 0.00170103 0.0302713 0.013125 0.00507109 0.0108203 0.0276165 -0.00337811 0.00700717 -0.00240451 0.0380085 0.00738938 0.00256803 -0.000443501 0.000724298 0.00362832 -0.00198493 -0.00061644 -0.00340183 -0.00231639 -0.00437405 -0.00381935 -0.00125749 -0.00123016 -0.00141638 -0.00408834 -0.00325518 -0.00120253 -0.00298319 -0.00188581 -0.00427885 -0.00446164 -0.00387218 -0.00286822 -0.00397059 -0.00428058 -0.0045086 -0.00462833 -0.00444445 -0.00391197 -0.00259259 -0.00401961 -0.00413793 -0.00465238 -0.00434025 -0.0044258 -0.00415929 -0.00286325 -0.0041453 -0.00474326 -0.00471228 -0.00439271 -0.00411591 -0.00468388 -0.00448052
internal_weight=18406 2135 1114 16271 5088 2036 484 878 599 1552 258 320 844 256 279 3052 279 1021 236 226 588 823 428 226 597 365 876 708 11183 3515 334 252 293 3181 917 237 595 289 624 2229 665 258 680 556 407 7668 3600 1011 270 306 232 2589 1061 2264 1130 351 234 779 1564 741 509 949 385
internal_count=18406 2135 1114 16271 5088 2036 484 878 599 1552 258 320 844 256 279 3052 279 1021 236 226 588 823 428 226 597 365 876 708 11183 3515 334 252 293 3181 917 237 595 289 624 2229 665 258 680 556 407 7668 3600 1011 270 306 232 2589 1061 2264 1130 351 234 779 1564 741 509 949 385
is_linear=0
shrinkage=0.05


Tree=12
num_leaves=64
num_cat=0
split_feature=10 15 12 11 15 12 10 10 3 12 13 16 10 13 16 3 15 0 15 16 15 10 0 10 10 15 12 11 3 15 16 0 0 10 10 11 12 5 16 0 10 16 4 10 8 10 16 10 8 8 3 4 5 2 4 8 4 11 15 13 4 5 15
split_gain=88.9528 129.002 100.315 60.9933 20.1611 13.4572 10.9483 10.4145 6.46936 6.36575 5.49733 5.20981 4.12888 4.00315 3.95695 3.39175 3.0233 2.95146 2.42223 2.37492 2.28823 3.47327 1.97207 1.43247 1.39254 1.20454 1.06053 0.996181 0.876113 0.699573 0.540594 0.993052 0.307849 0.257065 0.240593 0.229602 0.467866 0.217865 0.140365 0.336388 0.403503 0.13371 0.111033 0.0842416 0.0825233 0.113812 0.160784 0.0779431 0.0755851 0.0576259 0.0524928 0.0904927 0.0494613 0.0449859 0.031377 0.0444789 0.0612274 0.0345359 0.120024 0.0426662 0.0586527 0.0282477 0.0277149
threshold=3.9397768819806891 4.411432630651861 3.8256272627625463 3.9126156572034163 5.2867899117470012 3.9442079227622671 4.327376488401657 5.4643821985419807 0.93301270189221952 4.0110911262885525 3.8262604912663609 4.5703574673038299 4.4662730372879151 4.0084751565725592 5.6037649786647767 0.93301270189221952 5.7856372475789675 -1.0000000180025095e-35 4.296270816149284 4.9594291416500065 3.206274051460213 3.2697842422575829 -1.0000000180025095e-35 4.9637392298830916 4.9637392298830916 2.978170721863683 3.9442079227622671 3.6913226972990794 0.6830127018922193 4.296270816149284 5.8506080674999463 -1.0000000180025095e-35 -1.0000000180025095e-35 5.3438945015278954 2.8872191414612156 3.7753385736383467 3.9442079227622671 155.08900000000003 4.5703574673038299 -1.0000000180025095e-35 3.2697842422575829 5.2595992225405661 2.8350000000000004 3.7799701187597159 0.0096094241683517025 2.862570111528409 4.9594291416500065 4.2327469874004384 0.014580885221722214 0.0069010312188466745 -0.5 1.3950000000000002 122.37700000000002 1.0000000180025095e-35 0.97500000000000009 0.0051875193355892862 1.0650000000000002 4.0495864511700672 2.3403806126467157 3.4883912958549712 2.3150000000000004 51.606000000000002 4.4528826213972765
decision_type=2 2 2 2 2 2 2 2 2 2 2 2 2 2 2 2 2 2 2 2 2 2 2 2 2 2 2 2 2 2 2 2 2 2 2 2 2 2 2 2 2 2 2 2 2 2 2 2 2 2 2 2 2 2 2 2 2 2 2 2 2 2 2
left_child=15 8 7 6 5 -5 -4 16 11 10 -6 29 37 -7 17 30 22 -8 -14 -9 52 34 24 -18 -3 -10 -19 -16 33 32 38 -32 35 50 -22 53 42 -13 54 40 44 62 49 -41 -40 -46 -47 -34 -33 -37 -24 -52 -17 -2 -1 -56 -57 -58 -59 60 -60 -49 -42
right_child=1 2 3 4 9 13 14 19 25 -11 -12 12 18 -15 27 20 23 26 -20 -21 21 -23 28 -25 -26 -27 -28 -29 -30 -31 31 48 47 -35 -36 36 -38 -39 39 43 41 -43 -44 -45 45 46 -48 61 -50 -51 51 -53 -54 -55 55 56 57 58 59 -61 -62 -63 -64
leaf_value=-0.10936767610785503 -0.061333808964503592 -0.002580821906591515 0.071714536858457759 0.025614675896381424 0.061822812733846468 0.044917917392106113 0.057022691927296788 0.019165926575485222 0.020739220961426916 0.1475130752325978 0.082061548268796247 -0.0091613485359656899 0.006890679930192975 0.088228646763603938 0.032039185233112374 -0.056173004838884134 0.0030876719375925242 -0.01588260069158802 0.034198811890044083 0.056230160617619797 -0.035307381854032358 0.036244494878765209 -0.03342212315523569 0.024549527653887328 0.0288728182762132 0.064018732946692941 0.010436295095857612 0.055480123427603417 0.00039057526623672515 -0.00639156072437746 -0.0035478574850243009 -0.040436031471311883 -0.023113254317177298 -0.011392031835024286 -0.0039218387725390765 -0.041536783575910112 -0.0049926795579243862 -0.026295893588109701 -0.053514297059347772 -0.066335097941699547 -0.032726768013201617 -0.0040243834478501722 -0.033019176142745965 -0.045548444281001015 -0.077140575489898819 -0.049740532617204819 -0.029762142964525035 -0.068253792981741043 -0.03652216132197178 -0.060511892130766923 -0.036181357940826268 -0.035613451386103383 -0.074242927630286407 -0.059028118951280156 -0.10465692537243527 -0.09537022014553026 -0.10528330905684669 -0.16155372649380412 -0.1190254402370869 -0.1026075581930628 -0.1011908544363803 -0.072324386419057737 -0.01970525937381222
leaf_weight=1919 132 190 161 133 120 109 112 109 103 189 181 170 139 104 121 101 116 131 106 107 107 106 250 115 100 100 169 114 167 192 179 239 152 110 105 100 149 100 272 2499 104 122 101 129 208 113 133 107 186 178 113 129 126 256 121 165 2922 134 101 852 123 1988 117
leaf_count=1919 132 190 161 133 120 109 112 109 103 189 181 170 139 104 121 101 116 131 106 107 107 106 250 115 100 100 169 114 167 192 179 239 152 110 105 100 149 100 272 2499 104 122 101 129 208 113 133 107 186 178 113 129 126 256 121 165 2922 134 101 852 123 1988 117
internal_value=-0.00155819 0.00276685 0.0103651 0.0189051 0.0283732 0.0191329 0.00910891 0.0010425 -0.0031095 0.034898 0.0303821 -0.00356589 0.0011165 0.0269249 0.00620556 -0.0043517 -0.000658916 0.00325243 0.00581633 0.0112037 -0.000504588 0.0022327 -0.00178943 0.00452381 0.00172414 0.00559113 0.000666665 0.011383 -0.00311444 -0.00428465 -0.00454879 -0.00309603 -0.00446254 -0.00400332 -0.00146227 -0.00368996 -0.00301136 -0.00314815 -0.00463624 -0.0043914 -0.00364359 -0.00223032 -0.00394459 -0.00469559 -0.0043113 -0.00389868 -0.00317073 -0.00477748 -0.00441177 -0.00446043 -0.00449187 -0.00396694 -0.00433921 -0.0046134 -0.00477908 -0.00470575 -0.00473237 -0.00477009 -0.00454546 -0.00472119 -0.00410714 -0.0048568 -0.0029638
internal_weight=18406 7223 3150 1644 836 346 808 1506 4073 490 301 3870 515 213 647 11183 1290 412 245 216 545 318 1059 231 290 203 300 235 769 3355 10638 604 3163 602 212 916 528 270 10034 3697 1069 343 379 2628 726 454 246 2247 425 278 492 242 227 388 6337 4418 4297 4132 1210 1076 224 2095 221
internal_count=18406 7223 3150 1644 836 346 808 1506 4073 490 301 3870 515 213 647 11183 1290 412 245 216 545 318 1059 231 290 203 300 235 769 3355 10638 604 3163 602 212 916 528 270 10034 3697 1069 343 379 2628 726 454 246 2247 425 278 492 242 227 388 6337 4418 4297 4132 1210 1076 224 2095 221
is_linear=0
shrinkage=0.05


Tree=13
num_leaves=64
num_cat=0
split_feature=9 16 10 10 15 12 16 10 12 10 12 15 10 10 16 16 16 10 13 10 16 16 10 16 10 9 15 12 4 10 10 5 1 5 10 5 2 9 9 2 1 16 15 10 15 2 2 13 16 10 5 7 13 5 4 10 7 7 10 16 5 9 5
split_gain=95.2434 99.1144 28.0155 27.2579 34.7872 36.99 13.1728 10.7644 8.65968 7.2746 7.36427 6.32375 6.04677 5.62347 4.15329 2.38028 2.37475 1.96783 0.99968 0.963966 0.936843 0.932927 1.35518 0.853532 0.784679 0.763858 0.699371 0.552069 0.458696 0.384449 0.37507 0.336411 0.312422 0.295282 0.287976 0.272071 0.239147 0.228629 0.216325 0.270324 0.183498 0.165003 0.197527 0.159822 0.142607 0.127801 0.311262 0.213399 0.112543 0.102261 0.134468 0.266526 0.0968441 0.133627 0.0751976 0.0691958 0.0636512 0.06205 0.0862303 0.108599 0.107621 0.122078 0.0811886
threshold=6.0250000000000012 4.372960980382314 4.2327469874004384 3.9397768819806891 4.411432630651861 3.9442079227622671 5.7879804576067908 4.327376488401657 3.8256272627625463 4.7076629513501542 3.8256272627625463 4.4528826213972765 4.7494092224085849 4.8697395854116712 4.5703574673038299 5.2595992225405661 4.8848420984259011 4.4662730372879151 4.0084751565725592 5.3113112781551051 4.9594291416500065 5.2595992225405661 3.592316445781552 5.7879804576067908 4.3644737892590593 4.4750000000000005 3.2574715918257211 3.7952255034284677 2.1350000000000002 4.2327469874004384 4.6321465052700139 117.13500000000002 1.0000000180025095e-35 131.20800000000003 3.0502896479506103 115.21800000000003 0.25000000000000011 4.0250000000000012 6.9750000000000005 1.0000000180025095e-35 -0.22252093395631442 2.6241179183512577 2.6390889349862543 4.3750855573003351 4.6542091474881007 0.25000000000000011 -0.24999999999999997 4.0084751565725592 2.9190883576886644 2.6211456426964594 116.55500000000002 1.5622590361445787 4.212030385569185 154.20000000000002 3.6650000000000005 3.5412852433789292 1.4404578313253014 0.89007228915662651 2.9702465070397399 3.066553068078818 127.06100000000001 4.1250000000000009 162.28500000000003
decision_type=2 2 2 2 2 2 2 2 2 2 2 2 2 2 2 2 2 2 2 2 2 2 2 2 2 2 2 2 2 2 2 2 2 2 2 2 2 2 2 2 2 2 2 2 2 2 2 2 2 2 2 2 2 2 2 2 2 2 2 2 2 2 2
left_child=3 11 -3 21 14 9 8 -7 -4 24 15 29 20 18 26 19 -14 28 -9 -11 -10 44 34 -24 37 -26 41 -17 -16 -2 43 -27 -32 -21 49 -36 -19 -6 -31 -40 -37 -5 -43 -28 57 46 55 -48 -41 -23 51 -51 -44 56 -47 -46 -54 -1 -59 -60 -61 62 -62
right_child=1 2 6 4 5 7 -8 13 12 10 -12 -13 16 -15 17 27 -18 36 -20 33 -22 22 23 -25 25 31 30 -29 -30 38 32 -33 -34 -35 35 40 -38 -39 39 48 -42 42 52 -45 45 54 47 -49 -50 50 -52 -53 53 -55 -56 -57 -58 58 59 60 61 -63 -64
leaf_value=-0.085232840913607472 -0.0076193587954256963 0.12422308902350354 0.028527834004170111 -0.1014725236854721 -0.02202707019303192 0.097548539197235634 0.082796321777432902 0.032410340119334455 0.022565049194274527 -0.01550249847932731 0.050388212293901252 0.022253524250877496 0.035890864803680651 0.044029916094046329 -0.020967351112458069 0.0083887672104054466 0.058843809520865355 0.038855666465837303 0.057262904354978966 -0.00084732853044958167 0.066885685930163363 -0.089950966539060331 -0.028727573999770446 0.0081088379786854684 0.009504278733229881 -0.00094443894179524653 -0.024446693526182221 0.029225913387076988 0.00014354680242121277 -0.054783044339947289 0.0030546161665284386 -0.028333676468691362 -0.025179689923583701 0.011490090542418771 -0.0079863608412732538 -0.016454047879445276 0.0073565815399765427 -0.023449311892018716 -0.027403955890317262 -0.074215706325067562 -0.026294411473436686 -0.054965152186522065 -0.057807058196683463 -0.04597974481155935 -0.089853781234773653 -0.06849602876082031 -0.057430236186196651 -0.02557775754800817 -0.011333960370905784 -0.052666879658540722 -0.059122341607070618 -0.022539244323152546 -0.04399564985565662 -0.043337142831463386 -0.071072597532629136 -0.037266556438585556 -0.044991072279644578 -0.10384611484336888 -0.12438742055449932 -0.054823724520940711 -0.050794037915331908 -0.05021439674354157 -0.055664131946258626
leaf_weight=1497 171 195 198 1012 112 148 127 126 117 167 187 169 101 104 164 105 155 106 106 100 103 558 198 129 182 109 143 114 104 443 133 126 102 102 176 112 101 248 126 117 149 154 570 125 458 734 184 100 113 187 401 100 117 121 189 164 100 2950 1356 623 212 105 601
leaf_count=1497 171 195 198 1012 112 148 127 126 117 167 187 169 101 104 164 105 155 106 106 100 103 558 198 129 182 109 143 114 104 443 133 126 102 102 176 112 101 248 126 117 149 154 570 125 458 734 184 100 113 187 401 100 117 121 189 164 100 2950 1356 623 212 105 601
internal_value=-0.00165055 0.00827869 0.0197992 -0.00295342 8.05806e-05 0.00514243 0.0156617 0.0172107 0.0128783 0.00137886 0.00480645 -0.00179544 0.0165336 0.0122619 -0.0032962 0.00205782 0.0217578 0.000999999 0.00793103 -0.000392955 0.0104545 -0.00433381 -0.00335821 -0.000412845 -0.0020399 -0.00056355 -0.00408809 0.00618721 -0.00182836 -0.00335052 -0.00241551 -0.00244681 -0.000957448 0.00193069 -0.00393048 -0.00282609 0.00466183 -0.00375 -0.00381101 -0.00289326 -0.00385058 -0.00449373 -0.00405838 -0.00369403 -0.00454759 -0.00415254 -0.00373069 -0.00235916 -0.00391304 -0.00431782 -0.00390988 -0.00308362 -0.00433921 -0.00366864 -0.00456663 -0.00435691 -0.00292627 -0.00464597 -0.00457243 -0.00437867 -0.0040915 -0.00374728 -0.00395449
internal_weight=18406 2135 996 16271 5088 2036 801 484 674 1552 775 1139 476 336 3052 588 256 475 232 369 220 11183 2010 327 777 417 2577 219 268 970 503 235 235 202 1683 437 207 360 799 356 261 2074 1062 268 9173 1829 906 284 230 1246 688 287 908 338 923 622 217 7344 5847 2897 1541 918 813
internal_count=18406 2135 996 16271 5088 2036 801 484 674 1552 775 1139 476 336 3052 588 256 475 232 369 220 11183 2010 327 777 417 2577 219 268 970 503 235 235 202 1683 437 207 360 799 356 261 2074 1062 268 9173 1829 906 284 230 1246 688 287 908 338 923 622 217 7344 5847 2897 1541 918 813
is_linear=0
shrinkage=0.05


Tree=14
num_leaves=64
num_cat=0
split_feature=9 16 10 10 15 12 11 15 16 10 12 11 10 16 9 3 12 15 15 10 10 3 16 4 16 3 12 13 16 10 10 9 16 16 10 11 12 9 9 1 10 1 9 10 4 1 4 15 12 5 3 9 5 7 5 15 16 1 4 10 3 7 7
split_gain=87.7466 90.8913 26.2185 25.7562 31.9889 20.0617 41.6998 10.3265 9.83372 6.81069 6.66559 6.47331 3.98999 3.6706 3.52036 3.28227 3.05015 2.37087 2.28823 3.04403 1.82676 1.77979 1.30516 1.25164 1.16128 1.1443 1.12273 0.877383 0.613146 0.580181 0.424962 0.424254 0.265272 0.235512 0.37819 0.223327 0.431263 0.178479 0.175664 0.19151 0.17116 0.15379 0.219698 0.128113 0.088361 0.144788 0.0823528 0.0798681 0.07017 0.0668067 0.0557439 0.0530548 0.0606061 0.0520845 0.0494613 0.0463063 0.0391931 0.0744406 0.0882978 0.0995755 0.05242 0.0496018 0.0411033
threshold=6.0250000000000012 4.5703574673038299 4.2327469874004384 3.9397768819806891 4.296270816149284 3.9442079227622671 3.7753385736383467 4.296270816149284 5.7879804576067908 4.5682680774368318 3.8256272627625463 3.9126156572034163 4.6321465052700139 4.7353955341141996 7.7250000000000005 0.93301270189221952 3.8256272627625463 4.4528826213972765 3.206274051460213 3.2697842422575829 5.3438945015278954 0.93301270189221952 4.9594291416500065 1.3150000000000002 4.372960980382314 0.6830127018922193 3.8068654830326714 4.0084751565725592 6.056285437160426 5.1049806895607439 4.2327469874004384 3.8250000000000006 2.9791217527532803 4.9594291416500065 3.6929484659571936 3.7753385736383467 3.8256272627625463 2.8250000000000006 6.9750000000000005 -0.22252093395631442 2.3659850269835343 -0.22252093395631442 2.5250000000000004 3.2697842422575829 1.3950000000000002 -0.22252093395631442 1.5950000000000004 2.7414341242687943 3.8256272627625463 196.19450000000003 -0.68301270189221952 2.7750000000000004 125.39800000000001 0.82012048192771092 122.37700000000002 2.6775405606860403 4.5703574673038299 -0.22252093395631442 3.0350000000000006 3.0803560958438099 -0.5 0.89007228915662651 1.1100451807228919
decision_type=2 2 2 2 2 2 2 2 2 2 2 2 2 2 2 2 2 2 2 2 2 2 2 2 2 2 2 2 2 2 2 2 2 2 2 2 2 2 2 2 2 2 2 2 2 2 2 2 2 2 2 2 2 2 2 2 2 2 2 2 2 2 2
left_child=3 7 -3 15 21 9 12 30 10 25 -4 -12 17 26 29 28 20 27 54 37 23 24 -13 -15 32 31 -11 -7 33 -9 -2 -6 -5 56 40 55 50 -20 49 -40 -35 43 -43 51 53 -46 -26 -41 -45 -32 -37 -42 -53 -33 -17 -34 61 58 59 60 -58 -1 -63
right_child=1 2 8 4 5 6 -8 14 -10 13 11 22 -14 16 -16 18 -18 -19 19 -21 -22 -23 -24 -25 46 -27 -28 -29 -30 -31 38 44 35 34 -36 36 -38 -39 39 47 41 42 -44 48 45 -47 -48 -49 -50 -51 -52 52 -54 -55 -56 -57 57 -59 -60 -61 -62 62 -64
leaf_value=-0.099766019069828848 -0.0072383908556544257 0.12775002699058 0.028725248824556144 -0.082974527935994247 -0.0041017351338607745 -0.030352682691193202 0.089931028570187033 0.027761938432850276 0.078656505688561251 -0.010629298461601057 0.033485525379093127 0.038846137580467621 0.035813125259280668 -0.016645971721643307 0.051603588190560601 -0.049102712551259538 0.050521819755767063 0.037991186493344806 -0.036211670170934782 0.035390712213198873 0.025879475041873524 0.024185897876379873 0.064104991860075039 0.019384657702720354 0.0015553793127210229 0.0067391512590240024 0.012275175197810319 0.0053704139907621885 -0.014459661648134364 0.011144863812560047 -0.06195402317490848 -0.023164392208409323 -0.064771630419437273 -0.10363120011726371 -0.030121086580910214 -0.062316266270450352 -0.0064853729460673387 0.0014785644083531717 -0.011918913340998025 -0.070280743044574864 -0.052454583600151976 -0.05227891707199326 -0.048217929211096133 -0.020299828990484544 -0.011505855604579607 -0.028457957899168437 -0.015036884141001858 -0.035289378824061968 -0.011479898847468507 -0.05378186335469877 -0.064728670094898272 -0.031637623779481358 -0.045700110062531073 -0.027153675978323213 -0.065594661470538149 -0.049339787670891026 -0.053290827229483556 -0.056530781155377699 -0.057400429679867061 -0.022896634387278913 -0.068875645358583593 -0.094714660407612422 -0.096276689412843508
leaf_weight=1294 171 174 166 1342 137 122 195 101 127 154 195 103 174 108 109 101 166 183 107 106 159 109 116 124 101 170 133 136 199 107 318 103 118 607 176 100 123 105 134 109 209 187 828 101 128 168 102 103 140 102 209 100 120 152 126 372 129 948 181 179 197 617 4426
leaf_count=1294 171 174 166 1342 137 122 195 101 127 154 195 103 174 108 109 101 166 183 107 106 159 109 116 124 101 170 133 136 199 107 318 103 118 607 176 100 123 105 134 109 209 187 828 101 128 168 102 103 140 102 209 100 120 152 126 372 129 948 181 179 197 617 4426
internal_value=-0.00169673 0.00783372 0.0201419 -0.00294727 1.96422e-06 0.00401672 0.0104938 -0.000813398 0.0158628 0.000934194 0.0131034 0.0164976 0.00410569 0.00412322 0.00698738 -0.0042891 0.00649012 0.00157596 -0.000504588 0.0022327 0.00407928 -0.00391304 0.0223973 0.00125 -0.0041893 -0.0022028 -0.000470384 -0.00151163 -0.00448299 0.00317308 -0.00345251 -0.00311047 -0.00451414 -0.0045354 -0.00410859 -0.00386117 -0.00303241 -0.00122642 -0.00395561 -0.00312139 -0.00428011 -0.00402077 -0.00440887 -0.00343284 -0.00372958 -0.00314189 -0.000566504 -0.0040566 -0.00251037 -0.00464286 -0.00402913 -0.00395105 -0.00340909 -0.00441177 -0.00433921 -0.00459184 -0.00466755 -0.00444921 -0.00405248 -0.00371287 -0.00423313 -0.00472385 -0.00465299
internal_weight=18406 2135 881 16271 5088 2512 810 1254 707 1702 580 414 615 844 317 11183 557 441 545 318 391 2576 219 232 2467 858 287 258 10638 208 937 688 2264 10439 2468 922 432 212 766 346 2292 1685 1015 670 551 296 203 212 241 420 309 429 220 255 227 490 7971 1634 686 505 326 6337 5043
internal_count=18406 2135 881 16271 5088 2512 810 1254 707 1702 580 414 615 844 317 11183 557 441 545 318 391 2576 219 232 2467 858 287 258 10638 208 937 688 2264 10439 2468 922 432 212 766 346 2292 1685 1015 670 551 296 203 212 241 420 309 429 220 255 227 490 7971 1634 686 505 326 6337 5043
is_linear=0
shrinkage=0.05


Tree=15
num_leaves=64
num_cat=0
split_feature=9 16 10 10 16 10 16 12 9 10 16 9 3 10 16 3 3 10 16 10 9 12 10 8 13 9 2 3 10 16 5 10 16 8 10 16 4 3 3 12 7 8 10 9 10 9 13 9 2 3 13 14 10 10 12 5 7 7 10 4 9 16 3
split_gain=73.3832 85.8367 29.4122 20.6386 25.8255 14.8695 13.6245 10.5688 7.70069 7.67846 4.88526 4.19782 3.08958 3.00306 2.64978 1.82315 1.75469 1.59998 1.60017 1.56956 1.50993 1.37919 1.80438 1.36713 1.03915 0.913372 0.845712 0.875401 0.607065 0.587692 0.55058 0.53263 0.492742 0.471953 0.425137 0.580723 0.384525 0.34607 0.320449 0.226527 0.22042 0.195002 0.178633 0.175382 0.150253 0.19016 0.14466 0.195597 0.128844 0.15396 0.128468 0.0909651 0.0889766 0.0671731 0.0794496 0.056977 0.0563071 0.091661 0.182381 0.114515 0.0540837 0.0531067 0.069842
threshold=5.7250000000000005 4.372960980382314 4.269672905935038 3.9397768819806891 4.5703574673038299 5.0622983159472215 5.7879804576067908 3.8651453730659675 7.2250000000000005 4.269672905935038 3.5774566337241231 7.3750000000000009 0.93301270189221952 4.0579740109574631 5.4036927424984418 0.93301270189221952 0.6830127018922193 2.862570111528409 3.134647051606843 4.2562678597223522 4.0250000000000012 3.8256272627625463 4.6698363904474363 0.013340059043699826 4.1389441844594721 6.2750000000000012 -0.24999999999999997 1.0000000180025095e-35 4.3750855573003351 3.134647051606843 140.07650000000001 5.0622983159472215 4.8848420984259011 0.013829348672004563 3.5572571801167041 5.7879804576067908 0.65500000000000014 0.25000000000000017 -0.68301270189221952 4.1203945076350204 4.2350000000000012 0.012231304896545126 4.4837972665849026 4.4250000000000016 4.7700249813415185 4.6750000000000016 4.343240145363982 3.1250000000000004 1.0000000180025095e-35 0.25000000000000017 4.1389441844594721 5.1930784869945414 3.6929484659571936 5.0622983159472215 3.8651453730659675 57.126000000000005 0.89007228915662651 1.0900602409638556 3.0267292673525783 0.96500000000000008 2.1250000000000004 2.9190883576886644 0.25000000000000017
decision_type=2 2 2 2 2 2 2 2 2 2 2 2 2 2 2 2 2 2 2 2 2 2 2 2 2 2 2 2 2 2 2 2 2 2 2 2 2 2 2 2 2 2 2 2 2 2 2 2 2 2 2 2 2 2 2 2 2 2 2 2 2 2 2
left_child=3 10 13 12 15 9 8 -7 16 -6 36 41 32 -3 21 19 23 -14 -19 -5 -16 37 28 24 -4 -25 -22 -28 -23 53 -20 39 56 -10 46 40 -2 50 -30 42 52 -12 -31 -40 45 -44 -34 51 49 -38 -11 60 -36 55 -55 -21 -1 58 -58 -60 -48 -57 -63
right_child=1 2 6 4 5 7 -8 -9 33 14 11 -13 17 -15 20 -17 -18 18 30 29 26 22 -24 25 -26 -27 27 -29 38 31 -32 -33 34 -35 35 -37 48 -39 43 -41 -42 -43 44 -45 -46 -47 47 -49 -50 -51 -52 -53 -54 54 -56 61 57 -59 59 -61 -62 62 -64
leaf_value=-0.083909594509169599 -0.029944069427311509 0.13041785540050396 -0.0015998316724597395 0.016172872046211918 0.078740918262549989 0.023699308020289151 0.070347244288912814 0.056585079206276645 0.061281857812144784 -0.02875463894955925 -0.0061804717268346843 0.037358405318605521 -0.05752084552124645 0.068897630842300259 0.037581148283653089 0.021937715261060683 0.054944412484393038 -0.057005885420916148 0.020752007548975649 -0.083764739334154306 -0.0033019614281207944 0.016943189510099363 0.034153572486504392 0.01689638391332442 0.019470757835518025 0.027005713916529023 0.0022293935135922916 0.051961554592722441 -0.0099637593054701778 -0.045010976695392738 0.010047285465702209 -0.0044824326996551192 -0.054000357737515874 0.052328977812357791 -0.031286179779889831 -0.0027844780092643345 -0.051007197888382275 -0.0062565297597551835 0.011012917373703669 -0.01144664793524856 -0.022508113959610901 0.0011912043174420344 -0.053152684920416297 -0.012838811199979427 -0.047120037961928422 -0.02837368560064198 -0.10349362019100215 -0.022757884975064341 -0.049910047222685612 -0.033101418224904804 -0.021041047834716803 -0.028469817067550258 -0.039081175383624607 -0.069875009509453384 -0.036906139442430048 -0.093816766689712283 -0.10388048949508361 -0.082638729389845414 -0.062045706540192952 -0.038951411941877262 -0.062588317044379449 -0.06343869207394269 -0.06854324178780484
leaf_weight=1500 193 111 139 100 126 192 159 125 109 115 103 109 187 133 121 116 114 136 135 104 120 128 108 116 100 107 119 117 119 378 109 161 1906 113 338 173 204 138 101 174 101 110 111 124 143 104 106 102 559 155 131 115 160 130 114 805 385 5203 142 109 186 219 114
leaf_count=1500 193 111 139 100 126 192 159 125 109 115 103 109 187 133 121 116 114 136 135 104 120 128 108 116 100 107 119 117 119 378 109 161 1906 113 338 173 204 138 101 174 101 110 111 124 143 104 106 102 559 155 131 115 160 130 114 805 385 5203 142 109 186 219 114
internal_value=-0.00180973 0.00591496 0.0157744 -0.00310159 -0.000308139 0.00420913 0.0118234 0.0140852 0.0091604 0.00221123 -0.00234822 0.00307453 -0.00427432 0.0312705 0.00117627 -0.00337721 0.00611111 -0.000679014 0.00118421 -0.00364509 0.00422432 -0.000331951 0.0012069 0.00474026 0.00211297 0.00755605 0.00258427 0.00432203 -0.00012712 -0.00388541 0.00360656 -0.00299253 -0.00446799 0.0170721 -0.00394886 -0.00292746 -0.00391989 -0.00265625 -0.00122093 -0.00346154 -0.00366444 -0.00100939 -0.00384511 -0.000111112 -0.00304469 -0.0022093 -0.00427536 -0.00352652 -0.00434641 -0.00360724 -0.00378049 -0.0040172 -0.00409639 -0.00452894 -0.00377049 -0.00467794 -0.00469342 -0.00462322 -0.0040566 -0.00300797 -0.0044863 -0.00478032 -0.00424925
internal_weight=18384 2634 1201 15750 4657 1884 957 317 798 1567 1433 322 11093 244 1441 2773 576 567 380 2657 477 964 580 462 239 223 356 236 472 2557 244 1071 10526 222 3187 772 1111 384 344 910 599 213 736 225 358 215 2415 509 918 359 246 407 498 1486 244 1242 7339 5839 636 251 292 1138 333
internal_count=18384 2634 1201 15750 4657 1884 957 317 798 1567 1433 322 11093 244 1441 2773 576 567 380 2657 477 964 580 462 239 223 356 236 472 2557 244 1071 10526 222 3187 772 1111 384 344 910 599 213 736 225 358 215 2415 509 918 359 246 407 498 1486 244 1242 7339 5839 636 251 292 1138 333
is_linear=0
shrinkage=0.05


Tree=16
num_leaves=64
num_cat=0
split_feature=9 15 10 12 10 11 12 14 13 15 11 10 12 3 3 15 10 10 15 10 9 15 13 13 0 0 11 15 10 0 10 14 0 10 15 13 13 0 8 15 10 13 0 9 15 15 12 4 15 0 9 7 14 9 13 10 8 10 15 12 10 10 6
split_gain=64.5879 78.7878 43.2828 17.1142 13.7785 11.6642 9.59684 9.22704 5.76663 5.71167 5.32843 4.86058 4.80739 4.53108 3.73847 2.82291 4.18118 2.82043 4.46114 3.953 2.209 2.20676 2.15029 1.90219 1.81618 1.72926 1.70737 1.17136 1.02634 0.957873 0.953425 0.755782 0.691745 0.588683 0.560893 0.480535 0.475739 0.454301 0.395864 0.355153 0.355363 0.312256 0.267001 0.22001 0.157152 0.143279 0.161843 0.136079 0.133109 0.0977286 0.113656 0.0952848 0.088667 0.0860749 0.0991049 0.111289 0.079628 0.0606602 0.0582467 0.0753819 0.142083 0.0538619 0.0525313
threshold=4.9750000000000005 4.411432630651861 4.2327469874004384 3.8256272627625463 4.6698363904474363 4.2115168565619543 3.9442079227622671 3.9726680036239661 4.0084751565725592 5.590141715530633 3.9126156572034163 4.327376488401657 3.8651453730659675 0.93301270189221952 0.93301270189221952 4.3704374542590054 3.0502896479506103 3.9397768819806891 4.296270816149284 4.3517260732002168 5.9250000000000016 4.296270816149284 4.0084751565725592 4.1389441844594721 -1.0000000180025095e-35 -1.0000000180025095e-35 3.9126156572034163 5.3271158500481812 4.4662730372879151 -1.0000000180025095e-35 3.612060980861445 3.0160489482270973 -1.0000000180025095e-35 5.3113112781551051 2.8655288986791754 4.0084751565725592 4.212030385569185 1.0000000180025095e-35 0.016567434012942878 3.3154735582792503 2.9806964307869768 4.0084751565725592 -1.0000000180025095e-35 3.7250000000000005 4.3704374542590054 3.1034711523363003 3.9442079227622671 1.4350000000000003 4.411432630651861 -1.0000000180025095e-35 4.4250000000000016 1.5901807228915665 3.9726680036239661 2.7750000000000004 3.8262604912663609 3.0030416107316502 0.010213019761334388 2.8830051322876806 4.8521553939698654 3.8068654830326714 3.5572571801167041 2.9702465070397399 0.84383433734939761
decision_type=2 2 2 2 2 2 2 2 2 2 2 2 2 2 2 2 2 2 2 2 2 2 2 2 2 2 2 2 2 2 2 2 2 2 2 2 2 2 2 2 2 2 2 2 2 2 2 2 2 2 2 2 2 2 2 2 2 2 2 2 2 2 2
left_child=4 14 8 9 13 6 26 42 -3 25 11 -8 23 17 21 37 -17 29 49 -20 -11 32 -13 -9 28 -4 -5 44 -21 30 36 -32 34 -27 56 -35 43 -15 -36 61 51 -33 -6 52 -26 -34 -47 -48 -45 50 -19 -41 -1 57 -55 -56 -2 -54 -31 60 -60 -38 -44
right_child=1 2 3 5 7 -7 10 12 -10 20 -12 22 -14 15 -16 16 -18 18 19 24 -22 -23 -24 -25 27 33 -28 -29 -30 58 31 41 45 35 38 -37 39 -39 -40 40 -42 -43 62 48 -46 46 47 -49 -50 -51 -52 -53 53 54 55 -57 -58 -59 59 -61 -62 -63 -64
