tree
version=v4
num_class=1
num_tree_per_iteration=1
label_index=0
max_feature_idx=16
objective=regression_l1
feature_names=dow_sin dow_cos month_sin month_cos package_weight_lbs package_volume dimensional_weight billable_weight weight_to_volume_ratio route_30d_median_time route_te_time origin_zone_te_time dest_zone_te_time carrier_te_time service_level_te_time origin_service_te_time carrier_service_te_time
feature_infos=[-0.97492791218182362:0.97492791218182362] [-0.90096886790241903:1] [-1:1] [-1:1] [0.10000000000000001:70] [24:29045.952000000001] [0.14457831325301204:174.97561445783134] [0.15903614457831325:174.97561445783134] [0.00033519927596956393:0.26618497109826589] [1:26.955147258571373] [2.5577633384603624:4.1799511763013708] [3.3459207976616754:4.1065272532427697] [3.2604827663093787:4.1718027896489547] [2.9809940923145062:3.9872753608383604] [1.5456731835772144:4.4999000670935567] [1.5367398900488298:5.5431396370224419] [1.3535750348658715:5.0539933022679087]
tree_sizes=5451 5764 5785 5802 5776 5762 5795 5812 5783 5815 5817 5789 5803 5769 5770 5745 5804 5814 5801 5767 5832 5811 5787 5806 5814 5766 5840 5814 5824 5841 5824 5846 5822 5839 5820 5828 5841 5843 5845 5880 5844 5853 5825 5862 5855 5806 5838 5840 5841 5860 5873 5837 5867 5874 5884 5851 5859 5829 5848 5864 5856 5858 5882 5848 5890 5857 5872 5896 5865 5890 5878 5866 5868 5896 5853 5891 5914 5884 5913 5877 5864 5840 5843 5898 5870 5865 5895 5902 5876 5845 5876 5882 5895 5867 5874 5865 5913 5911 5915 5894 5886 5868 5905 5909 5895 5916 5889 5879 5878 5938 5922 5881 5893 5889 5910 5874 5894 5890 5891 5901 5926

Tree=0
num_leaves=64
num_cat=0
split_feature=16 10 16 16 16 10 0 0 16 3 16 10 16 10 0 10 15 13 10 13 10 13 16 0 16 15 0 9 16 15 10 16 13 2 4 15 16 9 4 3 2 0 8 2 16 13 4 8 0 9 8 8 2 9 3 2 13 9 2 12 16 13 16
split_gain=7355.17 1576.03 395.93 249.293 170.104 144.484 134.572 81.5542 81.6848 76.0218 75.5591 61.4666 58.6597 55.8612 50.3854 40.1683 45.5629 37.9474 37.2421 34.9452 32.1945 22.3808 21.6184 14.7836 13.4937 13.3391 12.969 11.8647 9.80036 8.851 13.3929 8.35545 8.11925 8.10016 7.77508 7.05849 7.02056 8.39387 5.69029 5.55228 5.45733 5.3041 5.14742 4.66638 4.23414 3.97432 3.63885 3.59126 5.75282 5.4435 4.08003 3.39571 3.37294 3.27081 2.95392 2.84857 2.80783 2.35928 2.19608 1.97538 1.86284 1.79727 1.77396
threshold=3.4219763342954139 3.0472893615234664 2.938429602728982 4.5196676790139891 4.0534356516282779 3.0472893615234664 -1.0000000180025095e-35 -1.0000000180025095e-35 3.1704036799313875 0.93301270189221952 2.1065510255158917 3.9274477523488946 2.1537064117629159 3.9274477523488946 -1.0000000180025095e-35 3.5580428228444179 3.4471750770448528 3.8647572082040802 3.9274477523488946 3.2840114392680269 3.5580428228444179 3.4239587291450735 4.2201619967458939 -1.0000000180025095e-35 2.4862015744623904 3.0816702931811242 -1.0000000180025095e-35 3.0750000000000006 3.6689697096642719 2.851080199956165 3.4414062354559172 1.5278845173254523 3.6984889446499198 1.0000000180025095e-35 0.88500000000000012 4.3558780876292227 3.1704036799313875 3.6250000000000004 1.2550000000000001 0.25000000000000017 1.0000000180025095e-35 1.0000000180025095e-35 0.011196915219720166 1.0000000180025095e-35 2.2990666967574773 3.5859019695679897 1.4650000000000001 0.018056441929816969 -1.0000000180025095e-35 3.4750000000000005 0.025557157432963103 0.014557358814904697 1.0000000180025095e-35 3.3750000000000004 1.0000000180025095e-35 0.25000000000000011 3.2840114392680269 3.2250000000000005 -0.24999999999999997 3.4140944227590508 4.0534356516282779 3.14149496774098 2.6021321348318978
decision_type=2 2 2 2 2 2 2 2 2 2 2 2 2 2 2 2 2 2 2 2 2 2 2 2 2 2 2 2 2 2 2 2 2 2 2 2 2 2 2 2 2 2 2 2 2 2 2 2 2 2 2 2 2 2 2 2 2 2 2 2 2 2 2
left_child=2 3 6 14 15 23 10 36 18 11 31 29 -13 24 38 26 41 32 25 20 47 -14 60 -4 39 54 59 -26 -28 62 -31 -1 34 -10 -5 53 37 -7 -2 55 -29 -17 -37 -27 -11 -35 -34 48 -6 50 -49 -33 -24 -30 -9 -12 -45 -50 -36 -3 -16 -59 -8
right_child=1 4 5 17 19 7 9 8 33 44 13 12 21 -15 22 16 -18 -19 -20 -21 -22 -23 52 -25 27 43 28 40 35 30 -32 51 46 45 58 42 -38 -39 -40 -41 -42 -43 -44 56 -46 -47 -48 49 57 -51 -52 -53 -54 -55 -56 -57 -58 61 -60 -61 -62 -63 -64
leaf_value=3.1899999558925627 3.277499955892563 3.3349999547004701 3.2599999547004699 3.2949999570846558 3.3449999451637269 3.2999999523162842 3.2099999547004701 3.2649999499320983 3.3049999594688417 3.2499999523162844 3.2449999570846559 3.2124999552965163 3.2799999594688414 3.3049999594688417 3.2624999523162841 3.3249999523162841 3.3649999499320984 3.3199999570846557 3.2999999523162842 3.3799999594688415 3.3849999547004699 3.29749995470047 3.2849999547004698 3.2449999570846559 3.2649999499320983 3.287499952316284 3.3049999594688417 3.2849999547004698 3.3149999499320986 3.2449999570846559 3.2699999570846559 3.229999953508377 3.3149999499320986 3.2949999570846558 3.2999999523162842 3.3074999570846559 3.3199999570846557 3.3149999499320986 3.2949999570846558 3.2649999499320983 3.2799999594688414 3.3099999547004701 3.3149999499320986 3.2799999594688414 3.2849999547004698 3.2999999523162842 3.3099999547004701 3.3249999523162841 3.3199999570846557 3.3199999570846557 3.3349999547004701 3.2449999570846559 3.2799999594688414 3.3249999523162841 3.2699999570846559 3.2549999594688415 3.2849999547004698 3.3249999523162841 3.3049999594688417 3.3399999499320985 3.2699999570846559 3.3249999523162841 3.2499999523162844
leaf_weight=263 108 141 149 107 171 205 2297 183 170 107 119 300 178 170 280 145 345 225 143 3936 570 164 113 347 217 134 165 158 117 428 171 241 101 172 103 112 189 125 198 169 230 143 142 112 120 171 107 104 140 143 118 150 186 131 148 137 102 156 199 137 143 146 961
leaf_count=263 108 141 149 107 171 205 2297 183 170 107 119 300 178 170 280 145 345 225 143 3936 570 164 113 347 217 134 165 158 117 428 171 241 101 172 103 112 189 125 198 169 230 143 142 112 120 171 107 104 140 143 118 150 186 131 148 137 102 156 199 137 143 146 961
internal_value=3.29943 3.33151 3.26734 3.2907 3.34232 3.28496 3.26105 3.29137 3.28483 3.25657 3.27246 3.25515 3.26947 3.27992 3.27417 3.32785 3.3376 3.31087 3.27506 3.34648 3.34012 3.28363 3.26697 3.26099 3.27553 3.27018 3.32132 3.28033 3.31754 3.25276 3.25835 3.25879 3.30446 3.30049 3.30037 3.32102 3.30819 3.30379 3.29118 3.26871 3.28557 3.32292 3.31516 3.27701 3.2848 3.29606 3.3125 3.33461 3.33695 3.33068 3.33559 3.26343 3.27726 3.32702 3.26299 3.26406 3.27243 3.33394 3.30447 3.3304 3.25969 3.33642 3.25173
internal_weight=17862 8932 8930 1870 7062 2350 6580 1854 1335 4726 1854 4499 642 1200 1028 1578 633 842 822 5484 1548 342 722 496 1030 679 945 605 667 3857 599 654 617 513 409 502 519 330 306 425 388 288 254 348 227 343 208 978 613 365 222 391 299 248 331 256 214 442 302 278 423 302 3258
internal_count=17862 8932 8930 1870 7062 2350 6580 1854 1335 4726 1854 4499 642 1200 1028 1578 633 842 822 5484 1548 342 722 496 1030 679 945 605 667 3857 599 654 617 513 409 502 519 330 306 425 388 288 254 348 227 343 208 978 613 365 222 391 299 248 331 256 214 442 302 278 423 302 3258
is_linear=0
shrinkage=1


Tree=1
num_leaves=64
num_cat=0
split_feature=16 10 16 16 16 10 0 3 16 10 16 16 0 0 13 10 13 10 10 13 10 16 0 16 16 0 13 9 16 12 16 9 4 10 16 0 7 0 3 8 8 9 0 11 0 3 10 3 8 13 4 9 12 16 7 7 2 6 10 7 16 9 4
split_gain=7044.1 1515.01 398.35 208.439 194.168 141.767 138.709 82.7485 73.2365 68.2362 66.2415 65.0571 61.2768 48.2734 44.8531 43.2797 56.9404 41.7129 41.4257 35.5137 30.1882 21.7324 17.3706 14.3092 14.2336 14.1771 12.6509 12.5143 8.93111 8.4912 8.26249 9.44371 8.02203 7.88075 7.85806 7.35957 6.71383 6.32991 5.28521 5.16109 8.32036 6.667 5.57243 5.12744 5.07863 4.93277 4.74079 4.5301 4.44226 4.10488 10.534 3.99597 3.71539 3.5883 3.3707 3.21383 3.19211 2.90898 4.04708 2.49303 2.2438 2.22481 2.55262
threshold=3.4219763342954139 3.0472893615234664 2.938429602728982 4.0534356516282779 4.5196676790139891 3.0472893615234664 -1.0000000180025095e-35 0.93301270189221952 2.1065510255158917 3.9274477523488946 2.6021321348318978 3.1704036799313875 -1.0000000180025095e-35 -1.0000000180025095e-35 3.2840114392680269 3.5580428228444179 3.6984889446499198 3.9274477523488946 3.5580428228444179 3.8647572082040802 3.9274477523488946 4.2201619967458939 -1.0000000180025095e-35 2.4862015744623904 2.1537064117629159 -1.0000000180025095e-35 3.8647572082040802 3.0750000000000006 1.5278845173254523 3.4688338965060752 2.4862015744623904 4.1250000000000009 1.0250000000000001 3.4158868825838882 3.6689697096642719 -1.0000000180025095e-35 1.3100120481927713 1.0000000180025095e-35 0.25000000000000017 0.018056441929816969 0.021958969968976564 3.4750000000000005 -1.0000000180025095e-35 3.4011863562559768 -1.0000000180025095e-35 -0.68301270189221952 3.3861759639774185 1.0000000180025095e-35 0.014557358814904697 3.6984889446499198 1.4150000000000003 2.5250000000000004 3.4140944227590508 2.2990666967574773 1.4106024096385543 1.3326807228915665 0.25000000000000011 1.153120481927711 3.3897193128733267 1.7311144578313256 2.7944512326090627 3.2250000000000005 1.0250000000000001
decision_type=2 2 2 2 2 2 2 2 2 2 2 2 2 2 2 2 2 2 2 2 2 2 2 2 2 2 2 2 2 2 2 2 2 2 2 2 2 2 2 2 2 2 2 2 2 2 2 2 2 2 2 2 2 2 2 2 2 2 2 2 2 2 2
left_child=2 4 6 15 13 22 8 9 28 30 24 12 33 36 18 25 -17 23 39 44 26 -15 -4 38 -11 55 32 -25 -1 35 -8 -32 -14 -7 -27 -13 -2 -18 56 42 -41 -42 -5 -36 -6 -29 -45 -28 -30 50 -46 -23 -34 -9 -47 -3 -10 58 -37 -21 -12 -44 -63
right_child=1 3 5 14 19 11 7 53 17 10 60 29 20 21 -16 16 37 -19 -20 59 -22 51 -24 27 -26 34 47 45 48 -31 31 -33 52 -35 43 57 -38 -39 -40 40 41 -43 61 46 49 54 -48 -49 -50 -51 -52 -53 -54 -55 -56 -57 -58 -59 -60 -61 -62 62 -64
leaf_value=-0.10449999660253524 -0.018874993026256573 0.033125002384185788 -0.037999997735023494 0.042749993205070495 0.012249999940395351 -0.004999995231628418 -0.085499997735023509 -0.047500000000000014 -0.052249995470047009 -0.083124997168779372 -0.0048749953508377079 0.023999999761581427 -0.018999993205070488 -0.033125002384185788 0.07600000679492952 0.061749997735023501 0.023750000000000007 0.0047500067949294957 0.080750002264976514 0.019000004529953009 0 -0.019249992966651908 -0.052249995470047009 -0.0332500022649765 -0.018999993205070488 0.0047500067949294957 -0.0332500022649765 -0.024000000357627862 -0.066499998867511748 -0.0010000002384185746 -0.047500000000000014 -0.032500002384185801 -0.013874997794628141 0.01424999773502349 0.018750004768371589 -0.00025000035762787757 -0.0047499954700469978 0.014499997496604911 -0.0332500022649765 0.018750004768371589 0.0332500022649765 0.019000004529953009 0.019000004529953009 0.01424999773502349 -0.005249995589256296 -0.0039999955892562776 0.01424999773502349 -0.028499995470047002 -0.052249995470047009 0.0092500025033950724 0.0047500067949294957 -0.01424999773502349 -0.0143749976158142 -0.01424999773502349 -0.01424999773502349 0.0332500022649765 -0.042749993205070495 -0.0047499954700469978 0.0050000071525573737 0.019000004529953009 -0.0048749953508377079 0.023750000000000007 0.023750000000000007
leaf_weight=263 107 106 149 171 170 144 2362 107 119 300 103 135 115 423 3936 333 148 170 570 106 143 117 347 217 139 165 155 113 241 196 1378 117 118 186 206 100 199 152 169 102 156 107 140 147 132 107 149 118 150 155 160 182 173 120 168 172 137 101 170 119 100 144 158
leaf_count=263 107 106 149 171 170 144 2362 107 119 300 103 135 115 423 3936 333 148 170 570 106 143 117 347 217 139 165 155 113 241 196 1378 117 118 186 206 100 199 152 169 102 156 107 140 147 132 107 149 118 150 155 160 182 173 120 168 172 137 101 170 119 100 144 158
internal_value=-0.000629829 0.0307658 -0.0320325 0.0413622 -0.00925134 -0.0143617 -0.0383435 -0.0428904 -0.026753 -0.0443765 -0.0292835 -0.00800971 -0.0153212 -0.0238327 0.0459701 0.0253485 0.035466 -0.0194167 0.0387597 0.00855107 -0.0226277 -0.0308864 -0.0381048 -0.0232039 -0.040205 0.0185714 -0.027025 -0.0182645 -0.0402141 0.0039886 -0.0468888 -0.0439799 -0.0214286 0.00287879 0.0146177 0.00741107 -0.00718954 0.0196667 -0.0302353 0.0325153 0.0278082 0.0325095 0.0353181 0.0177291 0.00235008 -0.0128866 0.0135135 -0.035348 -0.035422 -0.000447427 -0.00393836 -0.0205686 -0.0170103 -0.0134361 -0.00927273 0.0280576 -0.0347656 0.00377358 0.00648148 0.0255556 -0.00566502 0.0323529 0.0347682
internal_weight=17862 8932 8930 7062 1870 2350 6580 4726 1854 4499 642 1854 1152 1028 5484 1578 633 1200 1548 842 822 722 496 1030 439 945 679 605 654 702 3857 1495 406 330 667 506 306 300 425 978 365 263 613 502 617 388 296 273 391 447 292 299 291 227 275 278 256 371 270 225 203 442 302
internal_count=17862 8932 8930 7062 1870 2350 6580 4726 1854 4499 642 1854 1152 1028 5484 1578 633 1200 1548 842 822 722 496 1030 439 945 679 605 654 702 3857 1495 406 330 667 506 306 300 425 978 365 263 613 502 617 388 296 273 391 447 292 299 291 227 275 278 256 371 270 225 203 442 302
is_linear=0
shrinkage=0.05


Tree=2
num_leaves=64
num_cat=0
split_feature=16 9 16 16 16 0 9 14 0 16 9 0 9 16 16 13 9 9 13 9 16 0 13 16 9 16 9 15 2 16 0 15 9 0 9 9 9 7 14 8 16 9 12 2 5 2 8 13 9 15 4 9 9 5 15 12 9 0 13 8 12 15 7
split_gain=6885.49 1068.3 379.79 206.265 158.576 144.846 120.858 65.8594 59.8786 55.1211 51.4826 48.3182 44.9844 39.0499 38.901 32.5715 30.9816 27.9885 24.2969 22.4359 18.6088 17.0422 13.6737 13.6221 12.923 12.4982 12.2284 11.8412 11.3213 10.22 9.64264 8.50238 8.41985 7.90313 7.747 7.4393 7.12003 7.03485 6.14111 5.86204 7.8649 10.5728 5.81066 5.44463 5.25181 7.70577 8.04213 5.25097 5.07398 4.98534 4.83873 4.77301 4.7712 4.71319 4.60784 5.00895 5.33171 4.49035 4.42373 4.28743 4.1176 6.71954 3.98801
threshold=3.4219763342954139 2.7750000000000004 2.938429602728982 4.0534356516282779 4.5196676790139891 -1.0000000180025095e-35 2.8750000000000004 2.0281703700624059 -1.0000000180025095e-35 3.1704036799313875 2.9750000000000005 -1.0000000180025095e-35 3.8250000000000006 2.2990666967574773 3.6689697096642719 3.2840114392680269 3.6250000000000004 3.9250000000000007 3.8647572082040802 3.7750000000000004 4.2201619967458939 -1.0000000180025095e-35 3.2840114392680269 2.4862015744623904 3.7750000000000004 2.4862015744623904 3.0750000000000006 3.4471750770448528 1.0000000180025095e-35 2.6021321348318978 0.6078576107927941 2.5146627206797842 2.5750000000000006 -1.0000000180025095e-35 3.4750000000000005 4.5750000000000011 2.9750000000000005 1.2629096385542173 2.0281703700624059 0.023126418403964538 3.1704036799313875 3.4750000000000005 3.4688338965060752 0.25000000000000011 200.62000000000003 1.0000000180025095e-35 0.013447366485911895 3.4239587291450735 3.1250000000000004 4.3558780876292227 3.0950000000000002 4.0750000000000002 2.6250000000000004 113.28400000000001 2.4147325036881564 3.4140944227590508 3.1750000000000007 -1.0000000180025095e-35 3.5859019695679897 0.0091585707700864525 3.4140944227590508 2.5146627206797842 1.7311144578313256
decision_type=2 2 2 2 2 2 2 2 2 2 2 2 2 2 2 2 2 2 2 2 2 2 2 2 2 2 2 2 2 2 2 2 2 2 2 2 2 2 2 2 2 2 2 2 2 2 2 2 2 2 2 2 2 2 2 2 2 2 2 2 2 2 2
left_child=2 4 5 14 11 7 21 47 39 19 22 37 25 38 30 24 36 23 33 31 50 -4 -5 54 49 -7 -25 -18 -21 -19 -3 -10 -22 -6 -27 42 -16 -2 -14 40 41 -8 -15 -40 45 -11 -47 -1 58 -12 -13 -29 -23 -33 -9 -56 -57 -38 -17 -55 -28 -62 -20
right_child=1 3 6 10 18 12 8 17 9 44 15 20 13 35 16 48 27 29 62 28 32 52 -24 26 -26 34 60 51 -30 -31 -32 53 -34 -35 -36 -37 57 -39 43 -41 -42 -43 -44 -45 -46 46 -48 -49 -50 -51 -52 -53 -54 59 55 56 -58 -59 -60 -61 61 -63 -64
leaf_value=-0.099274996772408475 -0.012931248143315323 0.012562497615814206 -0.026099995464086524 0.013103124707937243 0.023637500122189504 -0.081224997848272334 -0.010712502270936964 -0.04811249773204327 -0.03207500284910203 0.0097625020444393144 0.022562499999999999 -0.026468745112419124 -0.10122499665617944 -0.033050003081560121 0.01469999732077122 0.037199992150068285 0.022812499761581419 -0.021587499767541887 0.023049999535083777 0.0029249995350837613 -0.018037493556737894 -0.044637500464916241 0.042200011223554615 -0.031587502151727676 0.066712511688470852 -0.045125000000000019 -0.023412500351667399 0.042812492609024047 -0.013543747849762434 0.0045125064551830183 -0.00048750069737435453 -0.016524995580315584 -0.0084125027358531897 0.0045125064551830183 -0.034631252735853192 -0.01137499761581421 0.036465622499585147 0.0054875066876411529 -0.046224995464086538 0.01853750500082969 0.017800004541873939 0.0095000022649764926 -0.018049993544816956 -0.051225002616643915 -0.0049812455177307147 -0.0047624954581260599 0.00029999977350234633 -0.06390624909847975 0.077200001686811459 0.036712492614984528 -0.031468752264976495 0.063662493079900753 -0.03957499569654465 -0.022075000464916242 -0.050612495929002771 -0.043112496539950376 -0.019393750406801705 0.017812504529953001 0.062199992150068287 -0.018656242966651915 -0.018049992948770521 0.00094999966025353108 0.01805000430345536
leaf_weight=263 101 255 169 128 164 2235 103 152 112 125 191 309 299 239 102 127 124 132 105 115 139 254 302 219 485 1046 134 187 142 124 144 174 136 424 383 100 186 195 141 129 140 127 157 126 126 119 127 224 3355 764 107 169 152 108 153 118 122 420 206 128 104 109 107
leaf_count=263 101 255 169 128 164 2235 103 152 112 125 191 309 299 239 102 127 124 132 105 115 139 254 302 219 485 1046 134 187 142 124 144 174 136 424 383 100 186 195 141 129 140 127 157 126 126 119 127 224 3355 764 107 169 152 108 153 118 122 420 206 128 104 109 107
internal_value=-0.000632628 0.0304075 -0.0316797 0.0390553 -0.004169 -0.0378419 -0.0144255 -0.0259978 -0.00797183 -0.0137147 0.0435948 -0.0175785 -0.0424884 -0.0334275 0.0231569 0.0449883 0.0276936 -0.0203731 0.012375 -0.0220154 -0.0248191 -0.0343478 0.0269767 -0.0238074 0.0386111 -0.0451146 -0.0183746 0.0375 -0.00992218 -0.00546875 0.00964912 -0.0279693 -0.0147273 0.00714286 -0.0414626 -0.0231855 0.0210452 -0.000675676 -0.0424028 0.00671343 0.00351351 -0.00217391 -0.0262626 -0.0368914 -0.000704225 0.00229111 -0.00284553 -0.0417864 0.0474783 0.0352356 -0.0314904 0.0421348 -0.0399015 -0.0246341 -0.0294495 -0.0265903 -0.0220833 0.0231023 0.0415916 -0.0292373 -0.012536 -0.00821596 0.0268868
internal_weight=17862 8932 8930 7145 1787 6580 2350 1854 1775 1276 5558 987 4726 1062 1587 5128 1188 1367 800 779 691 575 430 1111 1440 3664 566 480 257 256 399 522 275 588 1429 496 708 296 566 499 370 230 396 267 497 371 246 487 3688 955 416 356 406 410 545 393 240 606 333 236 347 213 212
internal_count=17862 8932 8930 7145 1787 6580 2350 1854 1775 1276 5558 987 4726 1062 1587 5128 1188 1367 800 779 691 575 430 1111 1440 3664 566 480 257 256 399 522 275 588 1429 496 708 296 566 499 370 230 396 267 497 371 246 487 3688 955 416 356 406 410 545 393 240 606 333 236 347 213 212
is_linear=0
shrinkage=0.05


Tree=3
num_leaves=64
num_cat=0
split_feature=15 9 14 13 9 0 13 3 13 14 0 9 15 9 13 0 13 13 9 13 9 9 13 9 0 9 13 9 13 0 0 9 0 15 2 9 8 8 3 15 8 0 3 11 9 13 13 13 9 13 7 13 4 5 13 4 7 8 9 8 11 15 9
split_gain=6337.63 906.941 521.351 245.473 215.321 151.337 118.893 90.4984 87.1265 71.1589 66.6257 51.5559 49.0942 56.3534 38.5802 37.0857 37.031 32.1347 26.8204 25.664 23.0699 20.7946 21.6118 19.4799 18.2539 15.3211 15.2586 13.6427 11.9171 9.68529 8.98622 8.78231 7.80504 7.60384 7.53863 7.36929 7.23201 6.92707 6.56484 6.51263 6.93502 6.03839 5.91714 5.90803 5.46715 5.16455 5.13939 5.05151 4.78021 4.57201 4.23989 4.0555 5.18683 4.01601 3.98094 3.94506 3.84625 3.38258 3.37955 3.35752 3.29277 3.24575 3.53685
threshold=3.4471750770448528 2.7750000000000004 2.8513866405065915 3.4239587291450735 2.7750000000000004 -1.0000000180025095e-35 3.4239587291450735 0.93301270189221952 3.2840114392680269 2.0281703700624059 -1.0000000180025095e-35 3.8250000000000006 2.5146627206797842 3.4750000000000005 3.8647572082040802 -1.0000000180025095e-35 3.5859019695679897 3.2840114392680269 2.9750000000000005 3.8647572082040802 3.1750000000000007 2.7750000000000004 3.14149496774098 2.9250000000000007 -1.0000000180025095e-35 3.6750000000000007 3.0134067510723104 3.8750000000000004 3.14149496774098 -1.0000000180025095e-35 -1.0000000180025095e-35 2.5750000000000006 1.0000000180025095e-35 4.5086276033475601 1.0000000180025095e-35 3.7250000000000005 0.019048961856146528 0.0080136443990630468 0.25000000000000017 4.3558780876292227 0.018056441929816969 0.6078576107927941 -0.24999999999999997 3.4011863562559768 3.8750000000000004 3.6984889446499198 3.4239587291450735 3.14149496774098 4.0750000000000002 3.2840114392680269 1.1200150602409642 3.5859019695679897 2.2750000000000004 102.82200000000002 3.6984889446499198 1.3750000000000002 1.7311144578313256 0.01323905455916153 2.9750000000000005 0.023126418403964538 3.4519937098936038 4.3558780876292227 3.9250000000000007
decision_type=2 2 2 2 2 2 2 2 2 2 2 2 2 2 2 2 2 2 2 2 2 2 2 2 2 2 2 2 2 2 2 2 2 2 2 2 2 2 2 2 2 2 2 2 2 2 2 2 2 2 2 2 2 2 2 2 2 2 2 2 2 2 2
left_child=2 6 5 10 29 9 15 12 11 49 18 23 -7 54 24 47 27 -15 -4 30 45 -12 37 -3 57 38 33 43 53 -5 -8 -30 -16 -25 42 -24 -20 -23 -18 -28 -41 60 -26 -11 -43 58 61 -2 -13 -1 -32 -36 -53 -17 -14 -9 -21 -6 -10 -45 -19 -22 -63
right_child=1 8 3 4 14 7 19 55 20 16 21 48 13 17 32 28 25 41 36 56 46 22 35 26 34 -27 39 -29 31 -31 50 -33 -34 -35 51 -37 -38 -39 -40 40 -42 44 -44 59 -46 -47 -48 -49 -50 -51 -52 52 -54 -55 -56 -57 -58 -59 -60 -61 -62 62 -64
leaf_value=-0.099311248125880949 -0.0047868710309266985 0.013964997454732665 -0.043444993312656881 -0.024794995690882195 0.016910004314780246 -0.072163746763765829 0.022455625116080038 -0.027426870446652166 0.035089991588890548 -0.04687937508374454 -0.067405625441670419 0.047449379660934224 -0.057163749147951616 -0.044948123336583379 0.029642346142977484 -0.020520312863588332 -0.019611246316134923 -0.0087046859323978605 -0.0059749954640865525 0.021897499558329581 0.028339996834099292 -0.028868752622604379 -0.017525618230924002 0.017896877211332318 -0.00059437555223703644 0.0072746919311583065 0.021434375000000006 -0.015508117626607421 -0.017135618878901006 -0.037405618289113041 -0.0014381253287196307 -0.0078668777182698164 0.01263437263369558 0.032646877390146246 -0.0047618710547685742 -0.012488435810431832 0.0080625025033950869 -0.031139377724379292 -0.0032996832057833659 0.034876867984235303 0.034751872752606876 -0.032899690099060533 0.0092743769422173553 -0.035008122275769708 -0.014222492574155332 0.056777501706778977 0.073340001602470881 0.0077153190322220237 0.068376881335675724 -0.066442188009992242 0.0047868812516331577 -0.00083187531083823713 0.0052506319433450743 -0.025270307737588895 -0.032405623057484623 -0.0062812526166438959 0.017147504088282584 0.016294379589706653 0.040340011616051212 -0.026057498972117898 -0.017978743045032022 0.048340001602470872 0.083339992065727717
leaf_weight=192 137 162 141 100 149 2630 165 100 162 187 247 212 657 314 172 101 214 111 241 105 111 157 340 340 116 142 213 163 140 254 128 138 179 181 165 138 107 326 110 504 337 105 143 359 143 293 2737 114 472 295 299 208 135 184 210 116 108 152 231 112 133 354 171
leaf_count=192 137 162 141 100 149 2630 165 100 162 187 247 212 657 314 172 101 214 111 241 105 111 157 340 340 116 142 213 163 140 254 128 138 179 181 165 138 107 326 110 504 337 105 143 359 143 293 2737 114 472 295 299 208 135 184 210 116 108 152 231 112 133 354 171
internal_value=-0.000738999 0.0319607 -0.0278654 -0.0123055 0.00070502 -0.0364453 -0.00151328 -0.0413034 0.0403241 -0.0240699 -0.0258986 0.032817 -0.0428887 -0.0361925 0.00940803 -0.0149877 -0.0179099 -0.0266749 -0.0103272 0.0121118 0.0448017 -0.032202 -0.0288762 0.0282383 0.00468165 -0.00665236 0.0299365 -0.0242996 -0.0221137 -0.0341808 0.00675676 -0.0147482 0.0237892 0.0229367 0.000586701 -0.0213389 -0.00287356 -0.0363354 -0.0126543 0.0333966 0.0353746 -0.0186992 0.00752896 -0.0275076 -0.0241935 0.0364431 0.0465016 0.000996016 0.0444444 -0.0403491 0.0029274 -0.00295276 0.000145773 -0.0292982 -0.0450404 -0.00972222 0.0269953 0.0151163 0.0326972 -0.0245223 -0.0131148 0.0424528 0.0440952
internal_weight=17862 8099 9763 3470 1773 6293 1619 4519 6480 1774 1697 2421 4303 1673 1419 814 1287 806 489 805 4059 1208 961 1737 1068 466 1575 821 563 354 592 278 351 521 767 478 348 483 324 1054 841 492 259 658 248 686 3373 251 684 487 427 508 343 285 867 216 213 301 393 471 244 636 525
internal_count=17862 8099 9763 3470 1773 6293 1619 4519 6480 1774 1697 2421 4303 1673 1419 814 1287 806 489 805 4059 1208 961 1737 1068 466 1575 821 563 354 592 278 351 521 767 478 348 483 324 1054 841 492 259 658 248 686 3373 251 684 487 427 508 343 285 867 216 213 301 393 471 244 636 525
is_linear=0
shrinkage=0.05


Tree=4
num_leaves=64
num_cat=0
split_feature=16 10 16 16 16 0 10 10 10 15 16 16 16 0 10 0 13 10 10 13 16 9 13 16 0 16 1 10 16 16 9 9 14 10 13 5 4 13 7 4 4 16 10 2 7 7 13 12 13 7 16 0 7 12 1 2 13 1 4 12 12 5 9
split_gain=6238.37 1383.12 386.325 179.51 174.613 150.031 139.035 87.5051 79.6442 76.3883 65.882 60.0938 59.1709 55.6975 48.1072 40.1396 38.6859 36.5453 34.8368 26.3335 22.8513 19.2407 18.2126 15.3948 15.1549 13.2817 12.3032 10.9992 10.4073 9.90383 9.23396 8.96357 8.5745 7.29016 8.95661 7.7716 9.49111 6.65498 7.77071 6.35558 6.22655 8.64425 6.22229 6.02947 5.49673 4.88809 5.69341 4.79641 4.68971 4.61845 4.53072 4.32487 4.28752 4.27741 4.16132 4.06688 3.48373 3.167 3.14793 3.11496 3.1092 3.24385 3.05465
threshold=3.4219763342954139 3.0472893615234664 2.938429602728982 4.2201619967458939 4.5196676790139891 -1.0000000180025095e-35 3.0472893615234664 3.9274477523488946 3.5580428228444179 3.4471750770448528 2.1065510255158917 3.1704036799313875 2.1537064117629159 -1.0000000180025095e-35 3.9274477523488946 -1.0000000180025095e-35 3.8647572082040802 3.5580428228444179 3.9274477523488946 3.4239587291450735 2.2990666967574773 3.7750000000000004 3.2840114392680269 4.3580729155228353 -1.0000000180025095e-35 3.6689697096642719 -0.22252093395631442 3.6689531901586188 2.4862015744623904 1.6479778506708145 3.7250000000000005 3.0750000000000006 2.0281703700624059 3.4405872838312512 3.0134067510723104 86.41500000000002 3.3350000000000004 3.6984889446499198 1.1501325301204821 1.0750000000000004 1.0250000000000001 3.0818721780713854 3.4158868825838882 -0.24999999999999997 1.2629096385542173 0.98003012048192772 3.2840114392680269 3.4140944227590508 3.4239587291450735 0.71006626506024106 4.0534356516282779 1.0000000180025095e-35 2.2309638554216873 3.4688338965060752 1.0000000180025095e-35 1.0000000180025095e-35 3.8647572082040802 1.0000000180025095e-35 1.7050000000000003 3.4350359221175584 3.4140944227590508 116.1135 3.1750000000000007
decision_type=2 2 2 2 2 2 2 2 2 2 2 2 2 2 2 2 2 2 2 2 2 2 2 2 2 2 2 2 2 2 2 2 2 2 2 2 2 2 2 2 2 2 2 2 2 2 2 2 2 2 2 2 2 2 2 2 2 2 2 2 2 2 2
left_child=2 4 5 8 15 10 24 20 25 51 29 13 32 42 28 44 37 19 30 45 -7 49 -14 50 -4 54 47 -23 43 -1 40 -30 -9 34 39 -36 58 38 -6 -27 -15 -42 -8 -12 -2 -5 62 -13 -33 -22 -17 -10 -31 -51 -3 -28 59 -52 -37 60 -21 -62 -47
right_child=1 3 6 17 16 7 11 12 9 -11 14 26 22 18 -16 23 -18 -19 -20 56 21 27 -24 -25 -26 33 55 -29 31 52 -32 48 -34 -35 35 36 -38 -39 -40 -41 41 -43 -44 -45 -46 46 -48 -49 -50 53 57 -53 -54 -55 -56 -57 -58 -59 -60 -61 61 -63 -64
leaf_value=-0.085167409838298333 -0.019357692627590163 0.013914090815260982 -0.033555248290523879 0.028983034354224804 -0.0052024648375064153 -0.078555561809763336 -0.0043334408389404389 -0.092799309543296696 0.021119656139723955 0.058139274346604958 -0.044300062515623864 0.010349657732993357 -0.016741344638131549 -0.020833719646278771 0.0050622870137542186 -0.031072164167538288 0.016290128883868448 0.089958037268891941 0.0011124216891080119 0.043335506314560762 -0.03621188357464971 -0.027910108446199434 -0.0012546984415501283 -0.011278842703327531 -0.044035339401215318 0.010583278640508655 0.0040416001126915013 -0.038511367945447565 -0.029027564728334544 -0.054268966791257256 -0.012946826141793256 -0.0037381208106875398 -0.021660096377097073 0.028964759856499735 0.010606403633356099 0.018983031970039012 0.015612660779953004 0.0085725327544659228 0.0018328505359962444 0.015502036509811879 -0.026423858659835531 -0.0087971569952554948 0.012246888001672908 -0.029732721282020202 -0.0045475274793803644 0.023514288770928982 0.02801397070951761 0.0063180017193406714 -0.017732509617880001 -0.042836468715406965 -0.026278840319141739 0.0072526585319637963 -0.045463272526031356 -0.040010562542602428 0.0040731626429408646 -0.0042237771324813433 0.059673011059090487 -0.019375547348558897 0.025850162937641155 0.044673001522347322 0.044673001522347322 0.039673006290718904 0.022483038168922054
leaf_weight=324 102 134 149 230 125 2123 144 197 145 620 128 102 135 160 170 280 225 1876 143 699 178 158 229 163 347 136 150 167 217 208 163 119 120 203 150 187 129 208 284 269 240 116 186 297 204 103 329 181 269 1151 127 143 122 268 101 269 504 152 101 414 130 166 293
leaf_count=324 102 134 149 230 125 2123 144 197 145 620 128 102 135 160 170 280 225 1876 143 699 178 158 229 163 347 136 150 167 217 208 163 119 120 203 150 187 129 208 284 269 240 116 186 297 204 103 329 181 269 1151 127 143 122 268 101 269 504 152 101 414 130 166 293
internal_value=-0.000828575 0.028717 -0.0303807 0.0388417 -0.00951872 -0.0365957 -0.0129787 -0.0413246 0.0274374 0.0389868 -0.0245415 -0.00668824 -0.024743 -0.0137153 -0.0175833 -0.0233463 0.00736342 0.044414 -0.0206813 0.0408647 -0.0441162 -0.0401665 -0.010989 -0.0297784 -0.0364919 0.02 0.0048433 -0.0290769 -0.0216505 -0.0373089 -0.025405 -0.017438 -0.0405363 0.0221702 0.0203704 0.0244268 0.0279376 0.00089141 -0.00281174 0.0146914 -0.0286822 -0.025 0.00363636 -0.0276471 -0.00816993 0.0340838 0.032069 0.0128975 -0.0128866 -0.0424233 -0.0337209 0.0177083 -0.0312121 -0.0433756 0.00914894 -0.000596659 0.0442499 -0.0292115 0.0329861 0.0429737 0.0414573 0.0371622 0.0280303
internal_weight=17862 8932 8930 7062 1870 6580 2350 4726 2318 908 1854 1854 681 1152 1200 1028 842 4744 822 2868 4045 1922 364 722 496 1410 702 325 1030 654 679 605 317 1175 972 567 417 617 409 405 516 356 330 425 306 955 725 283 388 1597 559 288 330 1419 235 419 1913 279 288 1409 995 296 396
internal_count=17862 8932 8930 7062 1870 6580 2350 4726 2318 908 1854 1854 681 1152 1200 1028 842 4744 822 2868 4045 1922 364 722 496 1410 702 325 1030 654 679 605 317 1175 972 567 417 617 409 405 516 356 330 425 306 955 725 283 388 1597 559 288 330 1419 235 419 1913 279 288 1409 995 296 396
is_linear=0
shrinkage=0.05


Tree=5
num_leaves=64
num_cat=0
split_feature=16 9 16 15 16 0 3 16 0 9 9 9 15 14 13 0 9 16 0 9 9 15 9 16 13 0 5 9 15 16 15 3 15 2 3 1 4 0 4 13 13 15 9 3 5 4 4 8 9 9 16 4 15 9 15 9 8 13 13 1 13 7 0
split_gain=6095.41 990.815 314.749 274.106 156.548 120.308 114.05 87.2269 85.8234 68.7634 68.5612 40.2448 39.959 34.7862 32.2811 29.7452 26.4505 24.679 20.6961 19.4846 19.4812 17.396 18.4436 13.8419 11.8377 11.7055 11.6017 11.5034 10.2737 8.79434 8.71799 8.14108 7.84916 7.76974 6.69452 6.10375 5.88656 5.79668 5.72183 5.45842 5.43069 5.15877 4.96777 6.85788 4.92431 4.67975 5.77512 4.66577 4.40985 4.29193 5.97363 4.245 4.11439 4.08026 7.90322 4.00973 3.93764 3.73925 3.71238 3.52584 3.49562 3.51631 3.45664
threshold=3.2863891704744419 2.7750000000000004 2.709268343844609 3.4471750770448528 4.3580729155228353 -1.0000000180025095e-35 0.93301270189221952 4.5196676790139891 -1.0000000180025095e-35 3.9750000000000005 2.8750000000000004 3.6750000000000007 2.5146627206797842 2.0281703700624059 3.6984889446499198 -1.0000000180025095e-35 2.9750000000000005 3.1704036799313875 -1.0000000180025095e-35 3.7750000000000004 3.1750000000000007 2.5146627206797842 3.5250000000000004 4.2201619967458939 3.2840114392680269 -1.0000000180025095e-35 124.48200000000001 3.2750000000000008 3.1305624818706401 2.938429602728982 2.3411207702401282 -0.5 4.5086276033475601 1.0000000180025095e-35 -0.24999999999999997 1.0000000180025095e-35 0.8650000000000001 -1.0000000180025095e-35 4.6450000000000005 3.4239587291450735 3.8647572082040802 4.5726956077619816 2.8250000000000006 1.0000000180025095e-35 141.71550000000005 2.8550000000000004 1.925 0.013123992289327792 3.6750000000000007 3.4250000000000007 3.0156936082814076 1.2150000000000001 4.4350502627152153 3.1250000000000004 2.5146627206797842 3.9750000000000005 0.013345119509190576 3.6984889446499198 3.8647572082040802 1.0000000180025095e-35 3.8647572082040802 1.5203855421686747 -1.0000000180025095e-35
decision_type=2 2 2 2 2 2 2 2 2 2 2 2 2 2 2 2 2 2 2 2 2 2 2 2 2 2 2 2 2 2 2 2 2 2 2 2 2 2 2 2 2 2 2 2 2 2 2 2 2 2 2 2 2 2 2 2 2 2 2 2 2 2 2
left_child=2 4 6 25 15 11 8 9 13 16 -7 27 36 39 18 31 52 19 -6 49 42 -10 -23 32 55 -3 -21 -4 -17 -29 -8 -2 38 34 -27 -30 -12 -25 45 -1 -16 -39 -9 -44 51 46 -18 -28 60 50 56 -20 -5 -15 -55 -24 -14 -45 -35 -51 61 -22 -63
right_child=1 3 5 7 14 10 30 20 21 -11 12 -13 17 53 40 28 23 -19 44 26 48 22 24 37 -26 33 47 29 35 -31 -32 -33 -34 58 -36 -37 -38 41 -40 -41 -42 -43 43 57 -46 -47 -48 -49 -50 59 -52 -53 -54 54 -56 -57 -58 -59 -60 -61 -62 62 -64
leaf_value=-0.090087315227671994 0.0024708753279223949 0.026272648446504034 -0.022136670960549255 0.0053089067291486993 0.021866201035453003 -0.038333577557154011 -0.041321904647696778 0.032684663478706022 -0.07462778371927517 0.064153574946906419 -0.022260036918867399 0.0088481527565531289 -0.023919960300615075 -0.033552724843656637 0.0082051566841788489 -0.028333575172968219 0.02240435322729406 -0.0016539246702231615 -0.0048810916242413294 -0.013230779071543353 0.047506221438247703 -0.050439486578859397 -0.044501406138809423 0.05345525202800705 -0.021759063592996442 0.0048767078547142136 0.00029029045048916123 -0.01233309215374292 -0.022692850334752348 0.0030597689068783021 0.0033807051104055574 -0.016702562288009572 0.031338035191767866 0.00028778264541178266 0.0116400210754126 -0.01675474668976662 -0.030541867667095282 0.026922298194658013 0.026013121711809195 -0.058944129921242587 0.019988118136219681 0.049522298218499877 0.054839341885644946 0.029906216646034257 -0.0057941074835155208 0.010740529288902879 0.026242440517444177 -0.012273905176620459 0.085175104427274329 -0.019555825567507901 -0.015479526451802818 0.0043308947814609811 0.024332509147091775 -0.040857428605187686 -0.020178953955311354 -0.030783521219081247 -0.029013299279706573 0.047685486230237398 0.0058723382817506666 -0.015632519343098172 0.061689355737764379 0.062439356214601553 0.046307220784194775
leaf_weight=247 108 310 373 110 174 587 102 124 2089 754 121 291 105 346 195 138 386 253 105 175 496 796 196 299 180 133 149 137 233 164 148 141 364 329 143 241 330 652 108 230 216 159 229 107 192 109 107 112 1247 154 188 128 140 218 307 190 108 108 166 165 360 178 448
leaf_count=247 108 310 373 110 174 587 102 124 2089 754 121 291 105 346 195 138 386 253 105 175 496 796 196 299 180 133 149 137 233 164 148 141 364 329 143 241 330 652 108 230 216 159 229 107 192 109 107 112 1247 154 188 128 140 218 307 190 108 108 166 165 360 178 448
internal_value=-0.000581071 0.0270478 -0.031397 0.0351044 -0.0055318 -0.0196659 -0.0393246 0.03899 -0.0410398 0.0330928 -0.0255619 -0.00471503 -0.0208602 -0.0303412 0.00782178 -0.0211963 0.0290058 -0.016714 0.000417362 -0.0198097 0.0446921 -0.0452188 -0.0408223 0.0307692 -0.0339223 0.0117946 -0.0114679 -0.0114243 -0.0271242 -0.00415282 -0.0064 -0.00662651 0.0267225 0.00849546 0.0152174 -0.0236287 -0.0338137 0.0346847 0.023662 -0.041195 0.0186131 0.0324908 0.0362676 0.0387387 -0.00552941 0.0217608 0.0238337 -0.00478927 0.0464456 -0.0248611 -0.0283042 -0.000643777 0.0136 -0.0243972 -0.021619 -0.0388601 -0.0340376 0.0323256 0.00474747 -0.0205329 0.0446019 0.0432264 0.0407348
internal_weight=17898 9437 8461 7566 1871 3412 5049 6485 4799 3188 2447 965 1860 1348 1010 861 2434 1409 599 1156 3297 3451 1362 2184 566 1081 436 674 612 301 250 249 1074 771 276 474 451 1110 710 477 411 811 568 444 425 602 493 261 2729 720 401 233 250 871 525 386 213 215 495 319 1482 1122 626
internal_count=17898 9437 8461 7566 1871 3412 5049 6485 4799 3188 2447 965 1860 1348 1010 861 2434 1409 599 1156 3297 3451 1362 2184 566 1081 436 674 612 301 250 249 1074 771 276 474 451 1110 710 477 411 811 568 444 425 602 493 261 2729 720 401 233 250 871 525 386 213 215 495 319 1482 1122 626
is_linear=0
shrinkage=0.05


Tree=6
num_leaves=64
num_cat=0
split_feature=16 10 16 15 16 10 10 16 0 0 10 9 16 0 13 14 14 13 10 16 16 10 16 0 16 9 15 13 13 10 0 9 9 13 15 0 0 0 4 0 15 6 6 7 4 10 13 13 6 0 6 16 10 10 9 12 0 0 15 7 2 4 1
split_gain=5789.73 1422.62 312.82 266.209 177.875 137.378 125.251 116.678 99.5497 91.6578 47.5864 46.0522 49.7521 42.9076 41.3295 41.0609 38.1379 29.9376 25.7066 23.714 20.3383 19.5695 16.1397 12.7674 12.7437 13.1566 11.828 11.7993 9.86731 8.08846 7.6288 6.60679 6.53324 6.35396 6.30818 6.25959 5.93407 5.67275 5.6212 5.58588 5.51777 5.26342 4.89422 4.71413 4.68016 4.58394 6.10772 3.78156 3.72589 4.1001 5.43839 3.68039 4.29779 3.72288 3.5572 3.54592 3.49364 3.04891 2.99084 2.98008 4.65248 2.96966 2.88392
threshold=3.2863891704744419 3.0472893615234664 2.709268343844609 3.4471750770448528 4.3580729155228353 3.5580428228444179 3.9274477523488946 4.5196676790139891 -1.0000000180025095e-35 -1.0000000180025095e-35 3.9274477523488946 2.8750000000000004 2.938429602728982 -1.0000000180025095e-35 3.6984889446499198 2.0281703700624059 2.0281703700624059 3.4239587291450735 4.003709119292524 4.2201619967458939 3.1704036799313875 3.3268200171505904 3.0156936082814076 -1.0000000180025095e-35 2.2990666967574773 3.7750000000000004 2.851080199956165 3.2840114392680269 3.8647572082040802 4.0427787299690587 -1.0000000180025095e-35 3.0750000000000006 3.8250000000000006 3.4239587291450735 3.0816702931811242 -1.0000000180025095e-35 -1.0000000180025095e-35 1.0000000180025095e-35 0.83500000000000008 -1.0000000180025095e-35 3.3070001485822043 0.70441265060240965 0.88105722891566274 1.9310843373493978 1.1050000000000002 3.3164355425908707 3.6984889446499198 3.8647572082040802 0.87625301204819284 1.0000000180025095e-35 0.55329518072289174 4.0534356516282779 3.3861759639774185 3.3861759639774185 3.7250000000000005 3.4140944227590508 0.6078576107927941 -1.0000000180025095e-35 3.2294016361922795 1.5008433734939761 0.25000000000000011 1.7050000000000003 1.0000000180025095e-35
decision_type=2 2 2 2 2 2 2 2 2 2 2 2 2 2 2 2 2 2 2 2 2 2 2 2 2 2 2 2 2 2 2 2 2 2 2 2 2 2 2 2 2 2 2 2 2 2 2 2 2 2 2 2 2 2 2 2 2 2 2 2 2 2 2
left_child=2 4 8 28 13 7 9 19 15 21 24 45 26 41 23 33 -12 -8 34 32 54 31 43 -6 -10 -26 38 29 35 -18 -21 -4 39 -1 -17 -3 -16 -19 -13 -5 -15 -2 44 -23 -25 46 -11 57 49 -32 -51 52 -41 -53 -14 -22 -50 -9 -30 -37 -61 -35 -42
right_child=1 3 6 5 14 -7 17 47 10 11 16 12 20 40 36 18 27 37 -20 30 55 22 -24 42 25 -27 -28 -29 58 -31 48 -33 -34 61 -36 59 -38 -39 -40 51 62 -43 -44 -45 -46 -47 -48 -49 56 50 -52 53 -54 -55 -56 -57 -58 -59 -60 60 -62 -63 -64
leaf_value=-0.082226401279989925 -0.021042355377411417 0.019233384021694767 -0.029838152446881483 0.030203300958541936 0.0056478931890522116 0.075916353974282189 -0.011109900619630353 0.052342374093541304 -0.07089639453331141 -0.046188324895999222 -0.089427956072261006 -0.025365985304885853 -0.018527271202180364 -0.030304742359502979 0.020743959149925217 -0.032945259606231091 -0.010865093954294958 0.013379909855163375 0.00091717094391108311 0.045597780224408628 -0.0070389990447217721 -0.013355988899445715 0.0078792457544276436 -0.0092418562397472599 -0.042682347995936336 -0.031581601410184228 -0.021754472435792805 -0.001866933175619856 0.01105802002164198 -0.026852011952977151 0.016187765342594852 -0.0074497883588944052 0.023945159409149944 -0.062459419005496057 -0.021574146601744573 0.007893002433081232 0.0077948988499699119 0.0052430210296997796 -0.032655973294812735 0.0084475248155209577 -0.026431048641061584 -0.0043428114230022576 -0.01029114039691933 -0.011712925868956016 -0.00050440687771131649 -0.023698041934883986 -0.026666896056691949 0.053604892719247732 0.019551092137700045 0.022469289945976623 0.025544017065169091 0.012401167013627723 0.010439900471272323 0.012257984239109166 -0.011745329339509093 0.00081697842770087634 0.013376192595170611 0.034564276360049287 0.020022387980895485 0.0077954522800356202 -0.0001062587660159764 -0.04789970610294314 -0.024888754668936832
leaf_weight=267 103 202 217 262 184 2535 183 397 2144 314 183 119 467 190 117 697 107 153 113 264 102 163 204 104 808 165 203 108 207 101 104 102 120 121 111 220 315 161 345 144 215 152 190 134 152 119 153 511 152 152 129 149 157 132 166 107 158 1058 147 141 157 124 217
leaf_count=267 103 202 217 262 184 2535 183 397 2144 314 183 119 467 190 117 697 107 153 113 264 102 163 204 104 808 165 203 108 207 101 104 102 120 121 111 220 315 161 345 144 215 152 190 134 152 119 153 511 152 152 129 149 157 132 166 107 158 1058 147 141 157 124 217
internal_value=-0.000536373 0.0263908 -0.0305697 0.036263 -0.0117844 0.0401152 -0.0188746 0.0342119 -0.038473 -0.0228302 -0.0428927 -0.0283771 -0.0237575 -0.0284493 0.0019774 -0.0273203 -0.0285571 0.00432596 -0.0210098 0.025455 -0.015677 -0.00865854 -0.00249501 -0.00619048 -0.0451877 -0.0404419 -0.033958 -0.018038 0.0132216 -0.025 0.0310219 -0.0183386 0.019917 -0.0386719 -0.0241337 0.00986111 0.0138889 0.0136943 -0.0383621 0.0183649 -0.0355305 -0.0111765 -0.0107623 -0.00993266 -0.00625 -0.040273 -0.0425054 0.0427772 0.0282734 0.0315584 0.0346975 0.0156357 0.011794 0.0197509 -0.0201422 -0.00215311 0.0241935 0.0414777 0.0200565 0.00694981 0.00369128 -0.0328571 -0.0324074
internal_weight=17898 9437 8461 7498 1939 6424 3412 3889 5049 2915 3616 2095 1509 877 1062 1433 499 497 921 1923 842 820 501 630 3117 973 667 316 1074 208 959 319 964 512 808 720 432 314 464 844 622 255 446 297 256 586 467 1966 695 385 281 582 301 281 633 209 310 1455 354 518 298 245 432
internal_count=17898 9437 8461 7498 1939 6424 3412 3889 5049 2915 3616 2095 1509 877 1062 1433 499 497 921 1923 842 820 501 630 3117 973 667 316 1074 208 959 319 964 512 808 720 432 314 464 844 622 255 446 297 256 586 467 1966 695 385 281 582 301 281 633 209 310 1455 354 518 298 245 432
is_linear=0
shrinkage=0.05


Tree=7
num_leaves=64
num_cat=0
split_feature=16 10 16 16 10 16 0 10 16 15 10 0 10 14 14 0 10 13 10 13 13 15 0 16 9 16 16 9 0 0 9 15 16 13 10 10 0 0 10 16 13 10 11 13 2 16 8 16 8 9 10 10 4 9 16 12 0 2 2 8 11 13 7
split_gain=5547.91 1265.18 409.254 178.992 150.065 149.975 119.188 85.3024 72.6242 71.1802 70.4881 69.1471 68.626 52.998 46.6975 39.8454 35.1039 33.9988 30.4179 22.7811 22.5723 21.4415 21.4331 20.8719 16.8568 15.8895 14.2868 13.2226 9.72518 9.47568 9.15879 8.67021 8.38244 7.40087 7.39925 7.29695 7.00162 6.53581 6.48883 6.44182 6.15852 6.06461 6.74496 5.67597 5.37902 5.28249 5.14353 5.02152 4.45417 4.38541 4.29562 4.04184 4.40171 3.72406 3.97119 3.379 4.71494 4.98144 3.35819 3.31116 3.28979 3.19613 3.09609
threshold=3.4219763342954139 3.0472893615234664 2.7944512326090627 4.2201619967458939 3.0472893615234664 4.5196676790139891 -1.0000000180025095e-35 3.5580428228444179 3.1704036799313875 3.4471750770448528 3.5580428228444179 -1.0000000180025095e-35 3.9274477523488946 2.0281703700624059 2.0281703700624059 -1.0000000180025095e-35 4.003709119292524 3.4239587291450735 3.9274477523488946 3.8647572082040802 3.2840114392680269 2.851080199956165 -1.0000000180025095e-35 2.2990666967574773 3.8750000000000004 3.0818721780713854 4.3580729155228353 3.7750000000000004 -1.0000000180025095e-35 -1.0000000180025095e-35 3.7250000000000005 2.6161931254682211 2.4862015744623904 3.4239587291450735 3.4301803268756705 4.0427787299690587 -1.0000000180025095e-35 -1.0000000180025095e-35 3.6689531901586188 4.0534356516282779 3.6984889446499198 3.3861759639774185 3.4011863562559768 3.6984889446499198 1.0000000180025095e-35 2.938429602728982 0.013345119509190576 4.2201619967458939 0.013447366485911895 3.1250000000000004 3.6689531901586188 3.3861759639774185 2.9450000000000007 2.8750000000000004 2.4862015744623904 3.4350359221175584 -1.0000000180025095e-35 0.68301270189221941 -0.24999999999999997 0.012136905370489526 3.4238601676986158 3.6984889446499198 2.2142771084337354
decision_type=2 2 2 2 2 2 2 2 2 2 2 2 2 2 2 2 2 2 2 2 2 2 2 2 2 2 2 2 2 2 2 2 2 2 2 2 2 2 2 2 2 2 2 2 2 2 2 2 2 2 2 2 2 2 2 2 2 2 2 2 2 2 2
left_child=2 5 6 7 22 15 14 28 11 62 17 24 23 -14 33 47 32 37 25 36 35 -20 -4 -8 45 30 -17 53 34 -10 46 -24 58 -1 59 -15 -7 -5 -32 41 55 42 -30 -38 -31 -6 49 -2 -46 -13 -29 52 -39 -25 -55 56 -19 -58 -16 -3 -34 -43 -9
right_child=1 3 4 10 8 19 12 9 29 -11 -12 18 13 20 16 26 -18 40 21 -21 -22 -23 31 27 -26 -27 -28 50 39 44 38 -33 60 -35 -36 -37 43 51 -40 -41 -42 61 -44 -45 48 -47 -48 -49 -50 -51 -52 -53 -54 54 -56 -57 57 -59 -60 -61 -62 -63 -64
leaf_value=-0.078115081215990423 -0.013835742105067207 0.017481130368678998 -0.028812494765081777 0.0433178912131882 -0.014494698140456187 0.009456759046661746 -0.067351574806645845 0.0077575880888883344 0.014754083625917947 0.050047581873873842 0.078768978148718027 -0.022800777665071426 -0.084956558268647953 -0.010321839256580213 -0.042387061297568224 -0.024242141281981655 0.0023563158594254842 0.045630342743835331 0.010808566622008221 0.013598972055281778 0.00050579867057896075 -0.013213029008802835 -0.019485144320753413 -0.041253235024466609 0.012558619517849246 -0.0095610190588288693 -0.011105324534796603 -0.024258330908851503 0.0098746185445721009 0.0042122338183542829 -0.015079627842596956 -0.042860609699472856 -0.013910588742338316 -0.052873952474905651 0.040064920141018638 -0.025509411355328294 -0.0036749441118326012 0.019753005934974921 -0.024278777900264295 0.011885255225332625 0.045924629009799017 0.015452766584235911 0.0039657778695219468 0.0024051586758429889 -0.0040082409577706811 9.2602914157546853e-05 -0.023958844793760183 0.0033910273641870603 0.00047612913676702289 -0.018124128941783991 -0.036278852419993783 0.020045930220874409 0.011100209813635888 -0.045713846416751351 -0.033212647378092312 0.033335831324686718 0.028462660886150262 0.028462660886150262 -0.02976784076943394 0.026923652365697229 -0.023719018593679465 0.0083132731854909329 0.016199135434840861
leaf_weight=267 180 140 200 264 150 179 2144 174 181 622 1908 104 183 107 179 551 133 189 122 226 156 138 106 375 161 199 162 105 125 180 116 380 218 245 108 101 284 266 121 320 1000 163 207 150 161 236 333 109 177 241 121 320 109 190 532 282 316 179 378 177 172 157 119
leaf_count=267 180 140 200 264 150 179 2144 174 181 622 1908 104 183 107 179 551 133 189 122 226 156 138 106 375 161 199 162 105 125 180 116 380 218 245 108 101 284 266 121 320 1000 163 207 150 161 236 333 109 177 241 121 320 109 190 532 282 316 179 378 177 172 157 119
internal_value=-0.000458152 0.0272646 -0.0284111 0.036788 -0.0144586 -0.00969582 -0.0366393 0.025346 -0.00900763 0.0372131 0.0422615 -0.0140292 -0.0412307 -0.0247715 -0.0250628 -0.0227545 -0.0191667 0.0373846 -0.0200146 0.00589988 -0.0137363 -0.00461538 -0.035277 -0.0438275 0.00100548 -0.0236086 -0.0291024 -0.0388889 0.0175734 0.00479256 -0.0263934 -0.0409465 -0.0225449 -0.0375 0.0238824 -0.0245192 0.000897227 0.0296663 -0.0179325 0.0148148 0.0411495 0.0119632 0.00722892 -0.00253456 0.00135135 -0.00466321 -0.029351 -0.00709343 -0.00236686 -0.0250725 -0.0278761 0.0271223 0.0236 -0.0411577 -0.0390582 0.0383023 0.0364035 0.0338384 -0.0264811 0.0200315 -0.0169231 0.016875 0.0168942
internal_weight=17898 8986 8912 7145 3306 1841 5606 2312 2620 915 4833 1921 4014 547 1592 1002 1080 2925 1374 839 364 260 686 3467 547 1114 713 1323 1397 699 915 486 947 512 425 208 613 959 237 972 1966 652 332 434 518 386 678 289 338 345 226 695 375 1097 722 966 684 495 557 317 390 320 293
internal_count=17898 8986 8912 7145 3306 1841 5606 2312 2620 915 4833 1921 4014 547 1592 1002 1080 2925 1374 839 364 260 686 3467 547 1114 713 1323 1397 699 915 486 947 512 425 208 613 959 237 972 1966 652 332 434 518 386 678 289 338 345 226 695 375 1097 722 966 684 495 557 317 390 320 293
is_linear=0
shrinkage=0.05


Tree=8
num_leaves=64
num_cat=0
split_feature=16 10 16 16 16 10 0 10 0 13 9 16 10 13 10 16 14 0 13 13 16 9 10 9 16 16 13 8 0 8 16 16 8 2 0 13 0 16 10 8 4 0 8 8 16 10 13 2 11 9 13 9 4 4 16 5 2 5 10 4 7 0 13
split_gain=5314.32 1259.71 313.749 261.063 146.699 116.53 105.873 105.605 75.2566 61.6742 46.9897 46.5482 41.5484 73.1502 40.3983 40.3147 38.9841 35.8948 28.4575 24.8568 18.4127 17.0951 14.3659 14.3347 13.2916 13.2314 12.1695 10.3737 9.73309 7.91245 7.41644 7.26531 7.1211 7.06959 7.01453 6.92637 6.22322 6.16934 9.50015 5.76031 6.50341 5.64538 5.40351 5.52001 5.02226 4.90606 9.0509 4.66744 8.58796 4.33225 6.12585 4.17054 4.02251 4.01501 3.9527 4.56629 3.76128 3.72491 4.94 3.98193 3.82977 3.6767 3.40633
threshold=3.2863891704744419 3.0472893615234664 2.709268343844609 4.0534356516282779 4.5196676790139891 3.5580428228444179 -1.0000000180025095e-35 3.9274477523488946 -1.0000000180025095e-35 3.4239587291450735 2.8750000000000004 3.0818721780713854 3.4409174796135864 3.5859019695679897 3.9274477523488946 1.6479778506708145 2.0281703700624059 -1.0000000180025095e-35 3.4239587291450735 3.6984889446499198 2.2990666967574773 3.8750000000000004 4.003709119292524 3.7750000000000004 4.3580729155228353 2.938429602728982 3.0134067510723104 0.021558704808425609 -1.0000000180025095e-35 0.014557358814904697 3.6689697096642719 2.4862015744623904 0.0076645006527082532 1.0000000180025095e-35 -1.0000000180025095e-35 3.6984889446499198 -1.0000000180025095e-35 2.938429602728982 3.3164355425908707 0.0052420716493251822 1.0250000000000001 1.0000000180025095e-35 0.0067137586086326211 0.015847949506675112 4.2201619967458939 3.3164355425908707 3.6984889446499198 0.25000000000000011 3.3663892086718139 2.7750000000000004 3.2840114392680269 3.5750000000000006 2.0650000000000004 3.4450000000000007 3.4219763342954139 144.65000000000001 -0.5 91.847000000000023 3.3548937855169414 1.9650000000000001 1.460346385542169 -1.0000000180025095e-35 3.2840114392680269
decision_type=2 2 2 2 2 2 2 2 2 2 2 2 2 2 2 2 2 2 2 2 2 2 2 2 2 2 2 2 2 2 2 2 2 2 2 2 2 2 2 2 2 2 2 2 2 2 2 2 2 2 2 2 2 2 2 2 2 2 2 2 2 2 2
left_child=2 4 6 12 17 9 15 8 21 34 45 25 47 -14 20 -1 -16 44 -9 61 -8 27 31 49 30 29 -18 37 -15 51 -19 39 -13 -27 -5 -11 -21 -4 -39 -17 -41 -20 -30 -44 -2 46 -10 48 -3 -22 -51 -12 -35 57 -49 -56 -50 58 -36 60 -59 -6 -28
right_child=1 3 7 5 19 -7 14 18 10 35 11 32 13 28 16 22 26 24 41 36 23 -23 -24 -25 -26 33 62 -29 42 -31 -32 -33 -34 52 53 -37 -38 38 -40 40 -42 -43 43 -45 -46 -47 -48 54 56 50 -52 -53 -54 -55 55 -57 -58 59 -60 -61 -62 -63 -64
leaf_value=-0.069413317151843068 -0.013498419796327732 0.017780205657026094 -0.024780113780692472 0.039942087996215486 0.0048926605772665168 0.073182082599760584 -0.063983996066313553 -0.011159150249910588 -0.041816246899975922 0.031142083619459693 -0.022629156822001197 -0.01055649445780027 0.044117467078987387 0.027034989576160441 -0.080708730355215558 -0.028813408372964578 -0.022623516367800058 -0.032452393230243237 0.012634188886936504 0.019233923240095874 -0.043485570037009084 0.0064048434490297738 -0.0092820548371527201 -0.028188578718675306 -0.010550058308056776 -0.014244805138877737 -0.010792667676619195 -0.0037914896234907403 0.0010598480947185186 -0.028074602641029567 -0.02257740294580033 -0.019309488341973369 -0.0038962346120531401 -0.022743285843679763 0.013016800480649028 0.043628397559309057 0.0072848959736792514 -0.019872925515651063 -0.0017439251772308761 -0.044841895642539403 -0.039178645945226936 0.0051812820261033293 0.011282216917523591 0.0052335509184539223 0.0032214759959777075 -0.021373100954886204 -0.023190520768883706 -2.7222765368362103e-05 0.010509724727952663 -0.027603226666227523 -0.041481217268092618 -0.022629976729399925 -0.016646715751070507 0.015375081935144232 0.013675803502839857 0.0040538257047246342 0.0071566515573360696 0.015056171961889631 0.019190061220791768 0.020377442896590249 0.014841659011057762 -0.0034911969062409788 -0.0017988764503678034
leaf_weight=334 207 101 214 402 123 2184 2144 183 314 966 218 101 412 155 183 137 104 142 153 117 230 130 138 165 162 171 104 189 100 313 480 251 302 164 108 1000 315 110 177 108 465 161 134 151 109 119 153 110 160 161 417 136 104 239 223 179 206 250 148 150 120 284 108
leaf_count=334 207 101 214 402 123 2184 2144 183 314 966 218 101 412 155 183 137 104 142 153 117 230 130 138 165 162 171 104 189 100 313 480 251 302 164 108 1000 315 110 177 108 465 161 134 151 109 119 153 110 160 161 417 136 104 239 223 179 206 250 148 150 120 284 108
internal_value=-0.000318471 0.0254795 -0.0290923 0.0347693 -0.0104435 0.0402641 -0.0370073 -0.0173798 -0.021012 0.0344517 -0.0260382 -0.0213718 0.018928 0.0263655 -0.0415653 -0.0255059 -0.0283567 -0.0224545 0.00392354 0.00530393 -0.0436798 -0.00817073 -0.0208826 -0.0379753 -0.0281888 -0.0266727 -0.0177215 -0.0113043 0.0142593 -0.0311094 -0.0315113 -0.0230489 -0.00682382 -0.0199317 0.0264996 0.0401831 0.0136574 -0.0150699 -0.0102787 -0.0256338 -0.027836 0.0130573 0.01 0.0135088 -0.00822785 -0.0380546 -0.040364 0.0116956 0.0153105 -0.0407178 -0.0384083 -0.0259887 -0.025 0.0242857 0.00839844 0.0106965 0.0117486 0.0260309 0.0210938 0.0284615 0.0256757 -0.00356265 -0.0108491
internal_weight=17898 9437 8461 7498 1939 5567 5049 3412 2915 3383 2095 1509 1931 952 3616 1433 499 1100 497 839 3117 820 1099 973 784 1106 316 690 540 667 622 961 403 439 1417 1966 432 501 287 710 573 314 385 285 316 586 467 979 467 808 578 354 268 1015 512 402 366 776 256 520 370 407 212
internal_count=17898 9437 8461 7498 1939 5567 5049 3412 2915 3383 2095 1509 1931 952 3616 1433 499 1100 497 839 3117 820 1099 973 784 1106 316 690 540 667 622 961 403 439 1417 1966 432 501 287 710 573 314 385 285 316 586 467 979 467 808 578 354 268 1015 512 402 366 776 256 520 370 407 212
is_linear=0
shrinkage=0.05


Tree=9
num_leaves=64
num_cat=0
split_feature=16 10 16 16 3 16 9 0 10 10 16 0 13 10 10 14 14 13 0 0 10 13 10 13 16 16 13 4 16 0 13 10 10 13 13 0 10 0 16 13 8 0 2 3 2 10 16 16 4 13 5 2 8 3 8 9 3 12 5 3 4 0 2
split_gain=5113.47 1152.34 402.152 191.411 137.203 131.189 121.042 102.418 93.3105 83.7661 70.6188 66.724 61.6918 40.8248 39.2846 38.9507 38.0005 32.8654 31.0191 27.8983 25.8662 23.4584 22.6256 20.9068 19.1893 15.0205 12.8259 12.7106 10.9476 10.9247 10.9194 10.4511 10.1147 9.87809 9.84336 9.67383 9.36308 8.72047 8.49829 6.87133 6.30003 6.22322 6.21665 6.0799 6.02736 6.16216 6.02693 5.90325 5.60303 5.26097 4.8566 7.76239 4.75505 4.59957 5.06511 4.49638 4.39114 4.14952 7.07334 6.89445 5.3788 4.52593 3.72831
threshold=3.4219763342954139 3.0472893615234664 2.709268343844609 4.2201619967458939 0.93301270189221952 4.5196676790139891 2.8750000000000004 -1.0000000180025095e-35 3.5580428228444179 3.5580428228444179 3.1704036799313875 -1.0000000180025095e-35 3.6984889446499198 3.9274477523488946 3.9274477523488946 2.0281703700624059 2.0281703700624059 3.5859019695679897 -1.0000000180025095e-35 -1.0000000180025095e-35 3.9274477523488946 3.6984889446499198 4.003709119292524 3.5859019695679897 2.938429602728982 2.2990666967574773 3.2840114392680269 0.69500000000000006 4.3580729155228353 -1.0000000180025095e-35 3.5859019695679897 3.3164355425908707 3.4405872838312512 3.5859019695679897 3.5859019695679897 -1.0000000180025095e-35 3.4301803268756705 -1.0000000180025095e-35 2.1537064117629159 3.6984889446499198 0.0059753592990074329 -1.0000000180025095e-35 0.68301270189221941 -0.24999999999999997 0.68301270189221941 3.3861759639774185 2.4862015744623904 3.0818721780713854 0.88500000000000012 3.4239587291450735 199.06800000000001 -0.24999999999999997 0.04356501479041313 0.25000000000000017 0.01651626934705654 3.5250000000000004 -0.24999999999999997 3.3282903979067151 210.91200000000006 1.0000000180025095e-35 3.2050000000000005 0.87837969732492682 0.68301270189221941
decision_type=2 2 2 2 2 2 2 2 2 2 2 2 2 2 2 2 2 2 2 2 2 2 2 2 2 2 2 2 2 2 2 2 2 2 2 2 2 2 2 2 2 2 2 2 2 2 2 2 2 2 2 2 2 2 2 2 2 2 2 2 2 2 2
left_child=2 5 4 9 7 18 19 16 17 29 11 20 -11 24 25 -16 49 35 43 33 27 50 46 -15 30 -9 -17 -8 -20 36 -13 39 -27 -4 -29 -5 -3 -12 -6 -21 -26 -23 56 -2 45 -37 62 53 -32 -1 51 -7 -19 54 -42 -34 -39 59 60 -31 61 -59 -18
right_child=1 3 6 8 38 21 10 14 -10 12 37 13 -14 23 15 26 22 52 28 31 -22 41 -24 -25 40 32 -28 34 -30 57 48 -33 55 -35 -36 44 -38 42 -40 -41 47 -43 -44 -45 -46 -47 -48 -49 -50 -51 -52 -53 -54 -55 -56 -57 -58 58 -60 -61 -62 -63 -64
leaf_value=-0.074095209483897237 -0.0010026979252256707 0.02200251899158874 -0.036716047989294578 0.037806652389938633 -0.015953729306359511 -0.0056271248277993237 -0.018036921634696834 -0.060784796262997889 0.071171425111294095 0.044055714982469719 0.014349562556891904 -0.01837807671006433 0.012117303991341833 -0.012242845429862204 -0.07667329383745479 -0.015288668513482873 -0.039850457764024717 0.039393018793645256 -0.021612412265243464 -0.038646709962120433 0.016809101433088513 0.018272227078091088 0.0011680704777837115 0.0088836732023734773 -0.01673863608826176 -0.036374053476851125 -0.0017089326278494133 0.0064737580635819475 -0.010022555392653933 -6.739729737645917e-05 -0.022945459555168125 -0.016299092866442846 -0.043147893341801719 -0.011288295924163361 -0.010140465975053116 0.016800359667206988 0.036709924655159674 -0.00032555274645851284 0.013292468437432549 -0.022030994730439526 -0.016346681190425261 0.0069206511749952959 -0.003132142617024658 -0.016823099726070944 0.023458500064945667 0.018221271583436584 -0.019909326302885933 -0.0081840944886165667 -0.027445863100406667 -0.049625696490113003 0.001118457073829049 -0.00035196768322522944 0.03593531031752302 -0.01195820326649244 -0.026222082822898063 -0.026246775152462834 0.004359112692280254 0.009897134854519353 0.013105057765779637 0.010290939755120122 0.003046318694692296 0.0041523652950473224 -0.022789445295755863
leaf_weight=247 154 317 129 395 140 104 120 2055 1908 610 176 190 305 135 176 197 347 1400 551 382 125 117 108 172 135 670 103 186 162 128 126 133 108 131 220 379 108 173 110 153 104 315 168 135 324 327 239 163 351 230 101 202 100 126 105 142 160 360 152 115 104 113 177
leaf_count=247 154 317 129 395 140 104 120 2055 1908 610 176 190 305 135 176 197 347 1400 551 382 125 117 108 172 135 670 103 186 162 128 126 133 108 131 220 379 108 173 110 153 104 315 168 135 324 327 239 163 351 230 101 202 100 126 105 142 160 360 152 115 104 113 177
internal_value=-0.000385518 0.0262297 -0.0272217 0.0353184 -0.0365122 -0.009044 -0.015079 -0.0383934 0.0409787 0.0234862 -0.0101022 -0.014349 0.0352459 -0.0198195 -0.0429586 -0.0296218 -0.0267062 0.0353675 -0.0212575 -0.030819 -0.000844854 0.00554231 -0.0204937 -0.0034202 -0.0236923 -0.0450924 -0.0186667 -0.00570342 -0.0268583 0.0157838 -0.0296102 -0.0362275 -0.0397826 -0.0169231 -0.00147783 0.0299298 0.0224706 0.00406204 -0.0004 -0.0393458 -0.0174566 0.0136574 0.000698603 -0.00743945 0.0273786 0.0247875 -0.0235256 -0.0148594 -0.0336478 -0.0380503 -0.00307125 -0.00620915 0.0405333 -0.0186567 -0.0232057 -0.0312 0.00465465 0.0128601 0.0147462 0.00720165 0.0122184 0.014482 -0.0265267
internal_weight=17898 8986 8912 7145 5049 1841 3863 4799 4833 2312 2935 2258 915 1607 3451 476 1348 2925 1002 928 651 839 871 307 1300 2975 300 526 713 1397 667 668 920 260 406 1425 425 677 250 535 633 432 501 289 1030 706 763 498 477 477 407 306 1500 335 209 250 333 972 729 243 577 473 524
internal_count=17898 8986 8912 7145 5049 1841 3863 4799 4833 2312 2935 2258 915 1607 3451 476 1348 2925 1002 928 651 839 871 307 1300 2975 300 526 713 1397 667 668 920 260 406 1425 425 677 250 535 633 432 501 289 1030 706 763 498 477 477 407 306 1500 335 209 250 333 972 729 243 577 473 524
is_linear=0
shrinkage=0.05


Tree=10
num_leaves=64
num_cat=0
split_feature=15 10 14 10 10 10 3 14 0 0 14 0 14 0 3 0 9 0 1 10 3 3 3 11 7 7 15 7 7 0 9 8 7 4 9 7 8 11 7 9 5 8 1 4 7 8 4 9 9 10 8 8 3 8 7 11 4 7 8 9 5 5 3
split_gain=4799.12 934.104 432.12 244.021 222.319 172.983 157.073 155.77 110.393 58.4617 30.9853 30.6974 26.18 25.9322 14.2696 12.9489 11.4716 11.4579 9.00901 8.5597 7.34719 6.76838 7.21364 6.63847 6.39124 11.2185 6.34793 6.3746 6.06996 5.73423 5.97657 5.55825 5.31113 10.1542 5.24403 4.96637 5.68734 5.16374 4.89847 4.42536 4.45792 8.4714 5.08961 4.44287 4.00591 3.98058 4.94152 3.83734 3.79595 3.5383 3.35033 3.64749 3.30112 3.17837 3.39409 3.12935 3.6783 3.06694 3.6587 3.94459 2.95051 4.27378 3.42321
threshold=3.4471750770448528 3.0472893615234664 2.8513866405065915 3.0472893615234664 3.5580428228444179 4.003709119292524 0.93301270189221952 2.0281703700624059 -1.0000000180025095e-35 -1.0000000180025095e-35 2.0281703700624059 -1.0000000180025095e-35 2.0281703700624059 -1.0000000180025095e-35 0.93301270189221952 -1.0000000180025095e-35 4.4250000000000016 -1.0000000180025095e-35 -0.56174490092936669 3.6689531901586188 1.0000000180025095e-35 0.25000000000000017 -0.68301270189221952 3.4011863562559768 0.99001807228915661 1.3326807228915665 5.0652123481740992 1.5203855421686747 1.7713614457831326 -0.8783796973249266 2.8250000000000006 0.0043231317091064368 2.6016867469879523 4.3750000000000009 3.6750000000000007 8.7750000000000004 0.036557913092443647 3.4011863562559768 1.1100451807228919 3.7750000000000004 191.41800000000003 0.0049961572327015162 1.0000000180025095e-35 0.99500000000000011 3.3650000000000007 0.016403077113267928 0.93500000000000016 3.4250000000000007 3.1250000000000004 3.3897193128733267 0.013797634888097723 0.0074373495880947034 -0.24999999999999997 0.012039050657812267 1.1200150602409642 3.4238601676986158 1.885 4.620361445783133 0.023126418403964538 2.7250000000000005 146.25550000000004 76.470000000000013 1.0000000180025095e-35
decision_type=2 2 2 2 2 2 2 2 2 2 2 2 2 2 2 2 2 2 2 2 2 2 2 2 2 2 2 2 2 2 2 2 2 2 2 2 2 2 2 2 2 2 2 2 2 2 2 2 2 2 2 2 2 2 2 2 2 2 2 2 2 2 2
left_child=2 11 5 15 14 6 8 -7 10 20 48 38 -10 -9 17 -4 -14 55 -8 39 50 22 -15 -13 -21 -26 27 31 -29 -12 -31 52 -27 -34 -22 36 -30 -38 -2 40 41 -11 -42 -43 45 46 -32 49 -1 -45 51 -5 -19 -33 -55 -3 -57 58 59 60 61 -25 -63
right_child=1 4 3 9 -6 7 18 13 12 19 29 23 16 21 -16 -17 -18 26 -20 24 34 -23 -24 57 25 32 -28 28 35 30 44 53 33 -35 -36 -37 37 -39 -40 -41 42 43 -44 47 -46 -47 -48 -49 -50 -51 -52 -53 -54 54 -56 56 -58 -59 -60 -61 -62 62 -64
leaf_value=-0.052383640824010771 0.012375888718636275 0.039901388806173645 -0.030164206669918439 0.000213834058888418 0.061356196392744894 -0.063339626731593934 0.024697130908891342 0.011014389839569417 -0.072745554065662216 0.0066245433689909984 -0.018420797810701207 -0.011576310445978 -0.035286231113561183 -0.00061482106484045396 0.071830200297980026 -0.039624155160840772 -0.02471093384314417 0.022799486127442738 -0.013985154195080752 -0.010581596328462251 0.0093357714297666594 0.0027832892317094407 -0.0094886008671140956 -0.0081671669007106883 0.0025484909382862408 -0.012411922423174749 0.063984687763523382 0.014362916296884277 0.019309479584136136 -0.02200652345352011 -0.023931544920269988 0.022357701821464439 0.0021630400098442415 -0.0059547041734741013 0.020413565436807658 0.015415167550404396 0.020388184471586891 0.010479134858463902 0.0021902839223020944 0.0033058497750539264 -0.014162634118868712 -0.0085593669748407659 -0.003478956419225532 -0.0082510890429844837 -0.021221304369562023 -0.035513220738056593 -0.019555032672272724 0.00066341204785425045 -0.060648454102774779 -0.0034458285671946421 -0.00057702052836903215 0.0071651209909691094 0.016576862397519997 0.016955389511823606 0.021955408585309935 0.031705524172182822 0.040765444763472339 -0.0013845058751662976 -0.0093371029071382949 -0.0096540796203677184 -0.0077877493687123489 -0.0041778680990923415 0.0026974351848043643
leaf_weight=136 138 607 220 102 2532 248 111 184 1099 104 195 184 2582 141 190 525 114 148 185 188 208 172 137 100 103 211 126 180 918 238 180 598 104 128 155 124 102 107 358 169 146 173 155 180 119 112 162 189 242 123 202 119 136 111 147 242 182 153 149 126 240 148 107
leaf_count=136 138 607 220 102 2532 248 111 184 1099 104 195 184 2582 141 190 525 114 148 185 188 208 172 137 100 103 211 126 180 918 238 180 598 104 128 155 124 102 107 358 169 146 173 155 180 119 112 162 189 242 123 202 119 136 111 147 242 182 153 149 126 240 148 107
internal_value=-0.000877096 0.0275052 -0.0243434 -0.0102454 0.0362016 -0.0321142 -0.0354247 -0.0115646 -0.0374493 -0.00338891 -0.0253613 -0.00543159 -0.0418577 0.00157729 0.0287392 -0.0356376 -0.0392062 0.0280579 0 -0.00798277 0.00814249 -0.00488889 -0.00971223 -0.00973488 -0.0122616 -0.00952381 0.0263441 0.0258071 0.0235849 -0.0207753 -0.0226264 0.0285965 -0.0129797 -0.00775862 0.0133609 0.0248201 0.0258651 0.0184211 0.00504032 -0.00544794 -0.00663551 -0.00461638 -0.011794 -0.00669173 -0.0253927 -0.027533 -0.0248538 -0.00426829 -0.0375661 -0.00775578 0.0036643 0.00791855 0.0225352 0.0306075 0.025969 0.0325412 0.0292453 -0.00816227 -0.00931034 -0.00783634 -0.00613445 -0.00323944 0.000196078
internal_weight=18014 8153 9861 3504 6450 6357 5475 882 5179 2759 1384 1703 3795 634 3918 745 2696 3728 296 1973 786 450 278 1207 734 546 2697 2571 1431 1006 811 1140 443 232 363 1251 1127 209 496 1239 1070 769 301 665 573 454 342 492 378 303 423 221 284 856 258 1031 424 1023 870 721 595 355 255
internal_count=18014 8153 9861 3504 6450 6357 5475 882 5179 2759 1384 1703 3795 634 3918 745 2696 3728 296 1973 786 450 278 1207 734 546 2697 2571 1431 1006 811 1140 443 232 363 1251 1127 209 496 1239 1070 769 301 665 573 454 342 492 378 303 423 221 284 856 258 1031 424 1023 870 721 595 355 255
is_linear=0
shrinkage=0.05


Tree=11
num_leaves=64
num_cat=0
split_feature=15 10 14 10 10 10 13 14 0 13 13 0 13 14 13 14 0 13 13 13 13 0 2 0 9 13 13 13 9 13 8 8 13 0 4 0 0 5 0 13 9 10 13 13 8 0 2 5 10 0 2 8 1 13 8 5 12 9 13 13 5 0 8
split_gain=4549.23 898.278 420.677 233.911 219.912 164.773 154.709 144.191 132.639 98.4658 81.0641 42.3988 41.2115 40.559 39.1354 30.4703 28.0366 20.6596 17.3203 15.396 15.1004 14.1097 13.3605 12.5334 11.3202 10.6684 10.2974 9.20575 9.15957 8.55047 8.4732 8.23474 7.59551 7.25395 7.14482 6.72849 6.62338 6.56778 6.49475 6.37016 6.28923 5.85592 5.82989 5.45541 5.12753 5.07659 5.07357 4.94993 5.82051 4.5977 4.57082 4.5637 5.32007 4.43958 6.32197 6.15524 4.91457 4.68836 4.14759 3.98869 3.87333 3.42376 3.99038
threshold=3.4471750770448528 3.0472893615234664 2.8513866405065915 3.0472893615234664 3.5580428228444179 4.003709119292524 3.4239587291450735 2.0281703700624059 -1.0000000180025095e-35 3.4239587291450735 3.5859019695679897 -1.0000000180025095e-35 3.4239587291450735 2.0281703700624059 3.6984889446499198 2.0281703700624059 -1.0000000180025095e-35 3.0134067510723104 3.2840114392680269 3.5859019695679897 3.0134067510723104 1.0000000180025095e-35 -0.5 -1.0000000180025095e-35 4.4250000000000016 3.5859019695679897 3.14149496774098 3.8647572082040802 2.8250000000000006 3.5859019695679897 0.010581684181323006 0.014928603706082401 3.4239587291450735 -0.8783796973249266 3.1350000000000002 1.0000000180025095e-35 -1.0000000180025095e-35 126.065 -1.0000000180025095e-35 3.6984889446499198 3.3250000000000006 3.3752580381322606 3.14149496774098 3.4239587291450735 0.013015280658213097 1.0000000180025095e-35 0.68301270189221941 166.15750000000003 3.7735945303279048 0.6078576107927941 -0.24999999999999997 0.010289112888356985 1.0000000180025095e-35 3.2840114392680269 0.007165141967506311 66.580000000000027 3.4140944227590508 3.4250000000000007 3.8647572082040802 3.2840114392680269 128.59000000000003 0.6078576107927941 0.024778259130059384
decision_type=2 2 2 2 2 2 2 2 2 2 2 2 2 2 2 2 2 2 2 2 2 2 2 2 2 2 2 2 2 2 2 2 2 2 2 2 2 2 2 2 2 2 2 2 2 2 2 2 2 2 2 2 2 2 2 2 2 2 2 2 2 2 2
left_child=2 10 5 23 9 8 11 -7 15 17 16 42 30 -10 24 59 50 38 -17 40 -18 39 -13 -4 32 36 -6 35 -19 -25 -9 51 -15 -20 -33 -12 -11 -35 -3 -21 -8 -24 -5 -22 -37 -14 -23 48 -43 -40 -2 52 -16 54 -30 -56 60 -58 -27 -1 -55 62 -57
right_child=1 4 3 6 26 7 19 12 13 25 27 22 45 14 31 18 20 28 33 21 43 46 41 29 -26 58 -28 -29 53 -31 -32 34 -34 37 -36 44 -38 -39 49 -41 -42 47 -44 -45 -46 -47 -48 -49 -50 -51 -52 -53 -54 56 55 61 57 -59 -60 -61 -62 -63 -64
leaf_value=-0.067358026304563626 -0.0084609489171734061 0.020942340932163461 -0.028655996336422507 -0.011649307999946635 0.039330993219694403 -0.060172645395014247 0.0031652934733731766 -0.011914700827047832 -0.069108276362379109 0.03454693031222935 0.0080130915942279168 -0.019459628540687137 0.011419131320885546 -0.04098124131789125 -0.014494247158652308 -0.036604725617722836 -0.031435021516333927 0.026196100051026128 -0.0022523471637905246 0.0071592912682509674 -0.012539205090333627 0.0068951374543722473 -0.0097019700121386502 -0.044460094798655071 -0.025563003875245661 0.032185637840571955 0.062896597394570583 0.010774248260579246 0.017291401622183067 -0.0227224611253392 -0.0036354250825938574 -0.028391077704385228 -0.028935520410079366 -0.016778478544565469 -0.017615316601173835 0.0017181386568034141 0.021488589497351798 -0.012679684350724453 0.0011378732424702999 0.015814886315902311 -0.0037434909382946246 -0.013659705600426675 0.0034798353065152998 -0.0044884406630668616 -0.0043970848666997856 0.004525808068038018 -0.00023526293647844199 -0.011509702321288362 -0.015833526950221333 0.0067825048019229395 0.0051332873294876241 -0.013782903355141075 -0.022849585626023197 0.023317585077148539 0.0055043286684840712 0.016840292542191992 0.020482085207105663 0.020211761922068971 0.041307988940363499 -0.044414719974296274 0.0084839042500567171 0.0099962309721234998 0.027038903056089626
leaf_weight=155 116 138 220 184 599 248 111 132 1147 126 181 218 161 1364 152 421 147 103 133 154 450 367 190 323 100 996 1933 230 210 202 178 137 673 253 155 116 325 272 174 355 246 224 203 140 121 163 181 193 133 174 202 106 148 106 117 283 123 101 511 259 105 225 101
leaf_count=155 116 138 220 184 599 248 111 132 1147 126 181 218 161 1364 152 421 147 103 133 154 450 367 190 323 100 996 1933 230 210 202 178 137 673 253 155 116 325 272 174 355 246 224 203 140 121 163 181 193 133 174 202 106 148 106 117 283 123 101 511 259 105 225 101
internal_value=-0.000766071 0.0268674 -0.0236132 -0.0097032 0.0353953 -0.0312805 -0.00299021 -0.0112245 -0.0345114 0.0279735 -0.00543159 -0.0151301 0.00141956 -0.0392767 -0.036067 -0.0218017 -0.013981 0.020051 -0.0173772 0.00855728 -0.0193351 0.0115894 -0.0207724 -0.0345638 -0.0394244 0.035904 0.0468799 0.00848765 0.0229986 -0.0387619 -0.0116129 -0.025788 -0.0402307 -0.01231 -0.0321918 0.00406699 0.0291574 -0.0149524 0.0111111 0.0175835 -0.000420168 -0.0175676 -0.00116279 -0.0157627 -0.00147679 0.0138889 0.0060219 -0.0201818 -0.0236695 0.00747126 -0.00157233 -0.0211823 -0.0243333 0.0219183 0.0199786 0.0177686 0.026092 0.03125 0.037923 -0.0333333 0.0206161 0.0197865 0.0226563
internal_weight=18014 8153 9861 3504 6450 6357 2759 882 5475 3918 1703 1345 634 3982 2835 1493 1055 1960 1079 1414 737 1057 958 745 2137 1958 2532 648 1474 525 310 698 2037 658 292 418 451 525 486 509 357 740 387 590 237 324 548 550 357 348 318 406 300 1371 936 726 435 224 1507 414 211 609 384
internal_count=18014 8153 9861 3504 6450 6357 2759 882 5475 3918 1703 1345 634 3982 2835 1493 1055 1960 1079 1414 737 1057 958 745 2137 1958 2532 648 1474 525 310 698 2037 658 292 418 451 525 486 509 357 740 387 590 237 324 548 550 357 348 318 406 300 1371 936 726 435 224 1507 414 211 609 384
is_linear=0
shrinkage=0.05


Tree=12
num_leaves=64
num_cat=0
split_feature=16 10 16 16 0 10 16 10 3 3 0 10 15 16 10 10 0 13 16 13 15 16 10 13 13 16 10 10 16 15 0 0 16 12 13 2 0 8 10 15 5 13 5 3 2 8 4 5 5 5 12 8 10 4 12 11 3 4 16 10 16 4 3
split_gain=4499.78 977.46 306.351 246.813 146.051 128.918 102.828 89.512 77.7118 75.0072 65.3501 59.9676 93.7266 47.9265 37.169 32.4158 29.8359 29.3411 24.3549 24.1413 18.1719 17.4455 26.988 16.1679 16.0821 12.9104 14.5604 11.6486 11.6351 11.1472 8.95838 8.82454 8.4283 8.22673 7.69694 6.32238 6.19626 5.98423 5.82712 5.61262 5.29347 4.35276 4.19684 4.13738 10.5325 3.95541 3.9135 3.90149 10.6721 3.76541 3.72427 3.61064 3.46958 3.33941 9.90857 4.82658 3.29059 3.24467 3.22956 3.22917 3.09204 3.58143 3.08497
threshold=3.2863891704744419 3.0472893615234664 2.2990666967574773 4.2201619967458939 -1.0000000180025095e-35 3.5580428228444179 4.5196676790139891 3.9274477523488946 0.93301270189221952 0.93301270189221952 -1.0000000180025095e-35 3.5580428228444179 3.4471750770448528 2.7944512326090627 3.9274477523488946 3.0472893615234664 -1.0000000180025095e-35 3.5859019695679897 3.0818721780713854 3.4239587291450735 2.4147325036881564 1.8575116043622943 3.9274477523488946 3.6984889446499198 3.6984889446499198 2.938429602728982 3.0472893615234664 3.4282407889990307 4.0534356516282779 3.1305624818706401 -1.0000000180025095e-35 -1.0000000180025095e-35 4.0534356516282779 3.4350359221175584 3.8647572082040802 0.68301270189221941 -1.0000000180025095e-35 0.016828844688954039 3.3393032873814605 2.851080199956165 97.607000000000014 3.2840114392680269 175.10800000000003 -0.68301270189221952 0.68301270189221941 0.014928603706082401 4.8250000000000011 168.48500000000004 96.325000000000003 86.41500000000002 3.4688338965060752 0.017399344095400848 3.3897193128733267 2.5250000000000004 3.4140944227590508 3.4238601676986158 -0.24999999999999997 0.7350000000000001 2.4862015744623904 3.8399304424691842 1.5278845173254523 1.7050000000000003 -0.24999999999999997
decision_type=2 2 2 2 2 2 2 2 2 2 2 2 2 2 2 2 2 2 2 2 2 2 2 2 2 2 2 2 2 2 2 2 2 2 2 2 2 2 2 2 2 2 2 2 2 2 2 2 2 2 2 2 2 2 2 2 2 2 2 2 2 2 2
left_child=2 6 8 11 14 17 16 9 10 13 20 30 31 29 25 24 62 35 39 -9 60 -12 -23 33 -15 -4 -27 -22 -18 50 49 -13 53 -8 46 36 41 38 -38 45 -34 -5 51 -41 -45 -17 -19 48 -25 -3 58 -20 -51 55 -55 -32 -28 -40 -6 -33 -1 -62 -2
right_child=1 3 4 5 7 -7 23 19 -10 -11 21 12 -14 15 -16 18 28 34 42 -21 27 22 -24 47 -26 26 56 -29 -30 -31 32 59 40 -35 -36 -37 37 -39 57 43 -42 -43 -44 44 -46 -47 -48 -49 -50 52 -52 -53 -54 54 -56 -57 -58 -59 -60 -61 61 -63 -64
leaf_value=-0.063990124989335456 -0.00032794119892753937 0.015436876822763713 -0.016238321250505252 0.025906395348467261 -0.036619945638966721 0.06030284447569767 0.0013239429077659183 -0.010989038135847862 -0.011927464572449576 0.007888544058751357 -0.066664015539251636 0.0231006720431036 0.037529886031446719 -0.038990214462675879 0.012753251210437045 -0.020583765222066952 -0.024559417145082741 0.030938007313208907 -0.0086700816492764742 0.0033247369065498413 -0.039414988904900153 -0.040891593989808156 -0.014009523551760184 0.0066976050883599926 -0.017866941168721475 -0.020018175273115703 -0.0026793757311288414 -0.012796825562839054 -0.011912244835816954 -0.020977459693749402 0.007936022763614093 0.0046908881718948029 0.0047042947713642376 -0.0077128365599009596 0.039445559783731925 0.02172893869813345 0.017560561777877969 0.012717226559409446 0.020193530532158378 -0.0098806161053004438 0.013630723067238526 0.037315760260887142 -0.0030736780515569165 -0.017392252019414547 -0.014355389022653688 -0.021344737313341744 0.024988125878105994 0.0055176089018473375 0.012312033046071626 0.018433380891587081 -0.027001094541607887 -0.0060870342292012715 0.031764580202948638 0.0072092907294110222 -0.0030329575696359194 0.0035592563644242462 0.0060556315570718172 0.013291612414025201 -0.029345742045292656 0.0014674514580063748 -0.044627038018192372 -0.03670514819183586 -0.013242067670583824
leaf_weight=222 177 113 732 105 260 1897 289 232 173 164 1112 105 604 237 207 277 349 824 155 280 196 1143 192 133 162 124 163 168 450 175 333 118 106 119 500 438 143 270 104 123 222 182 135 143 148 201 149 150 155 197 233 118 168 160 140 195 184 188 606 174 167 161 164
leaf_count=222 177 113 732 105 260 1897 289 232 173 164 1112 105 604 237 207 277 349 824 155 280 196 1143 192 133 162 124 163 168 450 175 333 118 106 119 500 438 143 270 104 123 222 182 135 143 148 201 149 150 155 197 233 118 168 160 140 195 184 188 606 174 167 161 164
internal_value=-0.000710558 0.0231557 -0.0268765 0.0314795 -0.018986 0.0382292 -0.00800604 -0.0242669 -0.038172 -0.0274307 -0.0398542 0.0191841 0.0288212 -0.0292466 -0.00531915 -0.0237493 -0.017807 0.0316052 -0.0199231 -0.00488281 -0.0284464 -0.0441152 -0.0402622 0.00520095 -0.0362155 -0.00868662 -0.0022293 -0.0197802 -0.0230914 -0.0365777 0.0132803 0.00994962 0.0108997 -0.00196078 0.036558 0.0265035 0.0242944 0.021773 0.0254023 -0.0245516 0.0176829 0.0304878 -0.00980392 -0.0202899 -0.0235395 -0.0282427 0.0339671 0.0118721 0.0152778 0.0190377 -0.038444 -0.01337 0.0215068 0.00821256 0.004 0.0106061 0.00302594 0.0294521 -0.0399538 0.00547945 -0.0341818 -0.0310976 -0.00542522
internal_weight=18014 9421 8593 7435 5059 4800 1986 3649 3534 3137 3361 2635 1001 2973 1410 1699 1140 2903 1300 512 914 2447 1335 846 399 1203 471 364 799 1274 1634 397 1156 408 1473 1430 992 705 435 892 328 287 408 414 291 478 973 438 288 478 1099 273 365 828 300 528 347 292 866 292 550 328 341
internal_count=18014 9421 8593 7435 5059 4800 1986 3649 3534 3137 3361 2635 1001 2973 1410 1699 1140 2903 1300 512 914 2447 1335 846 399 1203 471 364 799 1274 1634 397 1156 408 1473 1430 992 705 435 892 328 287 408 414 291 478 973 438 288 478 1099 273 365 828 300 528 347 292 866 292 550 328 341
is_linear=0
shrinkage=0.05


Tree=13
num_leaves=64
num_cat=0
split_feature=16 10 16 10 16 10 15 16 16 10 15 10 16 13 1 13 13 1 15 10 13 1 1 1 16 13 12 8 16 12 13 1 12 8 9 7 7 15 9 4 9 5 5 4 16 8 4 8 2 8 9 5 16 4 9 8 4 13 9 9 8 2 4
split_gain=4257.1 889.131 368.084 212.897 108.945 106.798 105.608 100.591 88.4227 71.2638 41.2576 39.5919 32.0506 30.6613 27.9456 17.4512 16.2401 16.1663 15.6134 35.1001 14.5691 13.111 12.5158 12.361 12.0238 11.3301 10.2094 10.0736 8.51855 8.4219 7.39003 6.49975 6.23043 6.07136 6.01231 5.83925 5.79021 5.66453 5.95393 6.30034 6.10492 5.01784 10.6721 4.8997 4.85726 4.61999 6.21929 4.55702 4.48834 9.4518 4.25698 4.1861 4.08836 3.9682 3.93281 5.35978 4.56338 3.88961 7.91008 4.613 3.88483 3.87608 3.79553
threshold=3.4219763342954139 3.0472893615234664 2.2990666967574773 3.5580428228444179 4.3580729155228353 3.9274477523488946 3.4471750770448528 2.938429602728982 4.5196676790139891 3.0472893615234664 2.4147325036881564 4.003709119292524 3.1704036799313875 3.14149496774098 -0.22252093395631442 3.8647572082040802 3.6984889446499198 -0.22252093395631442 2.851080199956165 3.0472893615234664 3.6984889446499198 -0.22252093395631442 -0.22252093395631442 -0.56174490092936669 4.0534356516282779 3.14149496774098 3.4140944227590508 0.010581684181323006 3.6689697096642719 3.4688338965060752 3.6984889446499198 -0.22252093395631442 3.4350359221175584 0.016124357480697658 3.8250000000000006 0.72014457831325307 3.4031325301204824 3.0816702931811242 3.7250000000000005 0.89500000000000013 3.2750000000000008 168.48500000000004 96.325000000000003 1.4450000000000001 1.4650142531555714 0.007165141967506311 1.385 0.0097352617267873927 1.0000000180025095e-35 0.0091585707700864525 2.5750000000000006 196.02850000000004 4.2201619967458939 2.3750000000000004 3.3750000000000004 0.019426366097984999 2.9450000000000007 3.5859019695679897 3.3250000000000006 3.5750000000000006 0.0044906714516838335 0.25000000000000011 2.2750000000000004
decision_type=2 2 2 2 2 2 2 2 2 2 2 2 2 2 2 2 2 2 2 2 2 2 2 2 2 2 2 2 2 2 2 2 2 2 2 2 2 2 2 2 2 2 2 2 2 2 2 2 2 2 2 2 2 2 2 2 2 2 2 2 2 2 2
left_child=2 8 10 4 24 7 62 14 28 15 22 17 37 -7 23 -9 36 53 29 -20 32 33 44 34 35 -8 -21 -13 -2 -16 47 61 50 -15 -4 -3 60 48 39 -39 -41 42 -22 -31 -1 -26 -47 -23 -11 -50 -10 -38 -33 -12 56 -56 -48 58 -14 -59 -6 -30 -5
right_child=1 3 5 6 16 13 25 9 20 12 11 27 57 21 18 -17 -18 -19 19 26 41 30 -24 -25 45 -27 -28 -29 31 43 -32 52 -34 -35 -36 -37 51 38 -40 40 -42 -43 -44 -45 -46 46 54 -49 49 -51 -52 -53 -54 -55 55 -57 -58 59 -60 -61 -62 -63 -64
leaf_value=-0.060790618739868685 -0.018953841334320421 0.017276022741858254 -0.021245568335336952 0.0039483642148621994 0.019641890817778743 -0.018671191471636418 0.035818834202611428 -0.030540708150285801 0.01002134732212452 -0.0109141917937025 -0.029104861017045916 -0.011965524561610498 0.0027042472218509195 0.0054022362323786323 -0.027626702951496919 -0.011310178950495754 0.034474175326249766 -0.038847014290317741 -0.05556064528244134 -0.0068601678799798844 0.0063627248339420024 0.0053707136257525219 -0.057319660575204684 -0.0099667242601411809 0.015966788186859628 0.056944485456768362 -0.017731261272153898 -0.0014986510297015478 -0.0056911935934628516 -0.0258993041815061 0.008346824276833132 -0.01388260827786122 -0.0073271947319059061 0.011663713513122521 -0.012543650098511017 0.0072636663686325379 0.017337093462450315 -0.0091376673411389664 0.0012034946845097651 0.0011815318913807049 -0.0080073898239287344 0.0052417284567549682 0.011696431393768037 -0.023411175895816427 -0.043608284036862635 0.0063739777019240053 0.018417293604243479 -0.0051410907163136239 -0.019601359839476543 -0.012093334792790955 -0.002584290007623924 0.0227581082583872 -0.009639013832437017 -0.040597014409527059 0.018264139332493913 0.010501684254919387 0.017328603710044566 0.0038813432748508129 -0.0051133519994569498 0.0098926050140053737 0.023868217289034856 -0.015764092133361985 0.013767989359228617
leaf_weight=266 102 110 817 163 204 126 590 384 125 170 292 104 113 159 865 115 979 669 110 146 133 104 1317 142 222 1908 198 135 212 117 101 312 119 103 145 840 149 100 116 101 188 150 155 128 596 179 142 174 104 189 164 184 243 155 131 170 142 169 188 128 863 175 114
leaf_count=266 102 110 817 163 204 126 590 384 125 170 292 104 113 159 865 115 979 669 110 146 133 104 1317 142 222 1908 198 135 212 117 101 312 119 103 145 840 149 100 116 101 188 150 155 128 596 179 142 174 104 189 164 184 243 155 131 170 142 169 188 128 863 175 114
internal_value=-0.000838237 0.0235412 -0.025072 0.0316643 0.0247161 -0.0169818 0.0424685 -0.0197866 -0.00693122 -0.0115012 -0.0376627 -0.0308118 -0.00625798 0.000325945 -0.0261994 -0.0279559 0.0318831 -0.034767 -0.0304987 -0.0226872 0.00508274 0.00475819 -0.0419229 -0.0201087 0.0159091 0.0457166 -0.0148256 -0.0123431 -0.0166667 -0.0336937 -0.00118734 -0.0151805 -0.00171569 0.0133588 -0.0221414 0.0118947 0.0284286 -0.0118802 -0.00821782 -0.0111825 -0.00743945 0.0114155 0.0152778 -0.0255102 -0.037239 0.0197769 0.0179319 -0.00539568 -0.0158747 -0.0196246 0.00224913 0.0226727 -0.0186486 -0.0274049 0.0204274 0.0164452 0.0246479 0.00284281 -0.00116279 0.00690236 0.0302249 -0.0102067 0.0131769
internal_weight=18014 8980 9034 7090 4315 5500 2775 4733 1890 2065 3534 1355 1566 767 2668 499 2379 1116 1564 454 846 641 2179 1104 1936 2498 344 239 1044 1110 379 942 408 262 962 950 1400 968 505 389 289 438 288 245 862 986 764 278 463 293 289 333 555 447 585 301 284 598 301 297 1067 387 277
internal_count=18014 8980 9034 7090 4315 5500 2775 4733 1890 2065 3534 1355 1566 767 2668 499 2379 1116 1564 454 846 641 2179 1104 1936 2498 344 239 1044 1110 379 942 408 262 962 950 1400 968 505 389 289 438 288 245 862 986 764 278 463 293 289 333 555 447 585 301 284 598 301 297 1067 387 277
is_linear=0
shrinkage=0.05


Tree=14
num_leaves=64
num_cat=0
split_feature=16 10 16 10 16 15 3 10 16 16 3 10 15 10 16 13 1 13 1 13 13 10 15 16 13 16 1 1 3 7 1 1 13 7 5 12 7 5 12 16 9 13 13 12 7 9 5 5 16 1 13 5 10 16 4 4 5 3 13 7 13 10 15
split_gain=4010.23 821.257 367.78 221.7 107.04 106.92 103.539 102.765 78.9684 76.2311 76.0861 58.6177 44.3193 36.6501 32.0624 24.8109 22.3034 18.6504 16.2643 15.3052 13.0536 12.5004 13.8946 10.8848 10.5322 9.4639 9.03819 8.94586 8.77864 6.54 6.47666 6.14877 6.06044 5.87023 5.5347 5.48393 5.17687 4.51849 4.45209 4.30633 4.24431 4.15857 3.94111 3.8843 3.83359 3.82526 3.79939 3.75251 3.55282 3.52222 3.52166 3.40862 3.39614 3.37199 3.86086 3.34423 3.30442 4.05508 3.26423 3.69987 3.21941 3.2082 3.23845
threshold=3.4219763342954139 3.0472893615234664 2.2990666967574773 3.5580428228444179 4.3580729155228353 3.4471750770448528 0.93301270189221952 3.9274477523488946 2.938429602728982 4.5196676790139891 0.93301270189221952 3.0472893615234664 2.3411207702401282 4.003709119292524 3.0818721780713854 3.2840114392680269 -0.22252093395631442 3.6984889446499198 -0.22252093395631442 3.8647572082040802 3.6984889446499198 3.3861759639774185 2.851080199956165 4.0534356516282779 3.4239587291450735 2.938429602728982 -0.22252093395631442 -0.56174490092936669 0.6830127018922193 0.72014457831325307 -0.22252093395631442 -0.22252093395631442 3.4239587291450735 2.0901927710843373 123.82300000000002 3.4350359221175584 3.4031325301204824 209.06400000000002 3.4350359221175584 2.7944512326090627 2.7750000000000004 3.8647572082040802 3.5859019695679897 3.4140944227590508 1.5203855421686747 3.2250000000000005 162.23950000000005 175.10800000000003 4.2201619967458939 0.81174490092936691 3.8647572082040802 64.424500000000009 3.4812967819970306 1.4650142531555714 1.6850000000000003 0.54500000000000015 169.61600000000004 0.25000000000000017 3.0134067510723104 1.2116566265060242 3.6984889446499198 3.3268200171505904 4.4350502627152153
decision_type=2 2 2 2 2 2 2 2 2 2 2 2 2 2 2 2 2 2 2 2 2 2 2 2 2 2 2 2 2 2 2 2 2 2 2 2 2 2 2 2 2 2 2 2 2 2 2 2 2 2 2 2 2 2 2 2 2 2 2 2 2 2 2
left_child=2 9 10 4 23 46 7 8 16 31 12 19 30 18 28 -9 27 36 -14 34 35 55 -23 29 58 -8 -17 39 -13 -3 53 -2 47 -15 -10 -11 42 -38 50 40 -4 -19 56 -44 -28 -41 -5 -16 -33 -34 -22 -25 -24 -1 -55 -18 57 -6 59 -7 -32 -53 -63
right_child=1 3 6 5 17 24 25 15 11 20 -12 14 13 33 32 26 21 41 -20 -21 38 22 52 51 -26 -27 44 -29 -30 -31 60 48 49 -35 -36 -37 37 -39 -40 45 -42 -43 43 -45 -46 -47 -48 -49 -50 -51 -52 61 -54 54 -56 -57 -58 -59 -60 -61 -62 62 -64
leaf_value=-0.057751087802875259 -0.011502515149902082 0.016412221604765333 -0.019766758288874933 0.0029503986255120297 0.019593614254872417 0.037508535327854413 0.0057989940898944608 -0.013249870272119513 -0.033831341341046976 0.0013869602627588186 -0.0093012406233507604 -0.011677363674735198 -0.033895140050432572 -0.011267039453418693 -0.006853528529158881 0.0086803863575234726 -0.025903860678601801 0.029668102363819095 -0.036904663575801848 -0.011286728315430962 0.006144321062285363 -0.025565997732772395 -0.010654566322950211 0.0084866583960140577 0.060063683694322689 0.043588791853421321 0.0044118251091839868 -0.01483707523082849 -0.015815988102363076 0.0069004830502009014 -0.059969468868319754 -0.014545068057710497 0.0016219916310932449 -0.0020700752260591981 -0.028607219473734704 -0.0069608349953106169 0.015735298622167028 0.022008199619807756 0.0014239627563179093 -0.025261829442721897 -0.021878516222015476 0.035749573028232833 0.023197700851468286 0.030564332701395837 -0.0038554260867156524 -0.0084681453082641415 0.015346564431338416 -0.00075404674311327921 -0.0091570631408151703 -0.0021492732587717446 0.012864959380541309 0.017918489962780428 -0.016673093652634897 -0.044245157043381146 -0.04470718773484892 -0.02746688161812736 0.015944447726117562 0.025229231987932366 0.040744491525949111 0.031537230506640812 -0.040742301008102388 0.010424471131605851 0.017010054869993407
leaf_weight=253 435 110 150 168 338 105 171 174 157 289 173 516 513 126 184 232 125 479 761 111 138 451 105 123 1281 136 134 127 108 840 865 366 457 101 199 119 157 176 145 128 486 500 203 174 185 143 109 102 243 111 155 203 103 234 239 705 194 158 896 216 269 297 363
leaf_count=253 435 110 150 168 338 105 171 174 157 289 173 516 513 126 184 232 125 479 761 111 138 451 105 123 1281 136 134 127 108 840 865 366 457 101 199 119 157 176 145 128 486 500 203 174 185 143 109 102 243 111 155 203 103 234 239 705 194 158 896 216 269 297 363
internal_value=-0.000566226 0.0230958 -0.0240868 0.0309027 0.0238123 0.0419279 -0.016 -0.017668 -0.0205013 -0.00619048 -0.0366723 -0.0129306 -0.0383368 -0.0319454 -0.00805142 -0.000206897 -0.0263377 0.0309164 -0.0352433 -0.0283726 0.00496454 -0.0302552 -0.0251138 0.0150826 0.0451962 0.012215 0.00499093 -0.0206963 -0.0166667 0.0112632 -0.0434946 -0.0152299 -0.00175644 -0.0134361 -0.033427 -0.00147059 0.0272143 0.0217718 0.0109589 -0.0224366 -0.0246855 0.0362104 0.0289128 0.0330239 -0.000470219 -0.0171587 0.0124549 -0.00769231 -0.0184729 0.00123239 0.0145051 0.0187627 -0.0144231 -0.0398072 -0.037315 -0.0343373 0.0266667 0.0288306 0.0418652 0.0375389 -0.0458554 0.0198725 0.0181818
internal_weight=18014 8980 9034 7090 4315 2775 5500 5193 4468 1890 3534 1945 3361 1501 1478 725 2523 2379 1274 467 846 1489 659 1936 2498 307 551 1034 624 950 1860 1044 854 227 356 408 1400 333 438 907 636 979 1067 377 319 271 277 286 609 568 293 986 208 726 473 830 690 496 1217 321 1134 863 660
internal_count=18014 8980 9034 7090 4315 2775 5500 5193 4468 1890 3534 1945 3361 1501 1478 725 2523 2379 1274 467 846 1489 659 1936 2498 307 551 1034 624 950 1860 1044 854 227 356 408 1400 333 438 907 636 979 1067 377 319 271 277 286 609 568 293 986 208 726 473 830 690 496 1217 321 1134 863 660
is_linear=0
shrinkage=0.05


Tree=15
num_leaves=64
num_cat=0
split_feature=16 10 16 16 10 16 10 3 3 16 10 16 16 10 13 13 10 1 1 13 16 13 2 13 13 13 1 13 7 1 3 1 13 10 2 2 5 7 7 2 5 5 10 13 1 7 1 8 1 1 4 16 13 2 4 7 4 13 12 9 9 9 2
split_gain=3588.1 800.366 280.44 275.202 154.265 118.902 106.497 101.297 69.1752 63.5649 92.9392 38.0966 34.6663 33.5821 28.4115 23.3835 22.092 15.7895 15.3173 14.6864 13.9326 13.5821 11.6114 10.7646 10.6582 10.1695 9.62525 9.07008 8.7619 7.78259 7.67394 7.50155 7.40176 7.37498 6.89511 6.88313 6.64839 6.44247 6.42762 6.42175 6.02011 5.59571 5.50908 5.83734 5.33855 5.27799 5.23349 5.11904 5.93936 5.05773 4.75334 4.58423 4.47086 4.16042 4.036 5.25586 4.04174 4.07977 4.00794 4.55326 4.98213 4.53898 4.14815
threshold=3.1704036799313875 3.0472893615234664 4.2201619967458939 2.2990666967574773 3.5580428228444179 4.5196676790139891 3.9274477523488946 0.93301270189221952 0.93301270189221952 3.6689697096642719 3.5580428228444179 1.8575116043622943 2.7944512326090627 3.9274477523488946 3.5859019695679897 3.5859019695679897 2.7848496141979031 -0.22252093395631442 -0.22252093395631442 3.8647572082040802 4.2201619967458939 3.6984889446499198 0.25000000000000011 3.2840114392680269 3.8647572082040802 3.2840114392680269 -0.22252093395631442 3.14149496774098 2.3510000000000004 -0.56174490092936669 -0.5 -0.22252093395631442 3.8647572082040802 3.4301803268756705 -0.6830127018922193 0.25000000000000011 200.62000000000003 0.98003012048192772 1.1402168674698796 1.0000000180025095e-35 121.45550000000004 93.163500000000013 3.3088121543284159 3.2840114392680269 -0.22252093395631442 1.5703253012048195 -0.22252093395631442 0.0094397180133548673 1.0000000180025095e-35 -0.22252093395631442 1.5250000000000001 3.4219763342954139 3.4239587291450735 0.25000000000000011 1.885 1.4317500000000003 2.7950000000000004 3.2840114392680269 3.4350359221175584 3.6750000000000007 3.2750000000000008 3.4750000000000005 1.0000000180025095e-35
decision_type=2 2 2 2 2 2 2 2 2 2 2 2 2 2 2 2 2 2 2 2 2 2 2 2 2 2 2 2 2 2 2 2 2 2 2 2 2 2 2 2 2 2 2 2 2 2 2 2 2 2 2 2 2 2 2 2 2 2 2 2 2 2 2
left_child=3 5 9 8 14 20 7 12 11 35 33 31 17 18 30 27 23 29 -13 -12 46 39 -22 -14 34 -6 -23 -8 -15 52 41 -1 58 -11 -7 38 47 -32 -3 -18 -24 -4 -19 -44 -29 -17 53 -37 -49 -35 -43 -48 -5 -2 55 -39 -56 -58 59 60 -16 -60 -62
right_child=1 2 4 6 25 24 15 -9 -10 10 19 13 16 28 32 45 21 42 -20 -21 22 26 40 -25 -26 -27 -28 44 -30 -31 37 -33 -34 49 -36 36 -38 54 -40 -41 -42 50 43 -45 -46 -47 51 48 -50 -51 -52 -53 -54 -55 56 -57 57 -59 61 -61 62 -63 -64
leaf_value=-0.051392575248067486 -0.011506623114350346 0.0007300567764700228 0.017302665730436439 -0.019088242045155159 0.036999645628960874 -0.0041382584077955592 -0.013854152113082142 0.023846127854721767 -0.0081964305573374863 0.0064819559417531487 0.030944292832446287 -0.033737599499132354 -0.042719721817104574 -0.015801402039444846 0.025864533655938104 0.010491000260388451 -0.011095022026703871 -0.027723620535657759 -0.035059430397011759 0.017718411831374882 -0.0031075611309831167 -0.013499795630983781 -0.01312183950784971 -0.021217795615528404 0.010878206313533468 0.055886212075131031 -0.01538389641347946 0.0031489975779021573 -0.0066845621862604461 -0.014507406769783338 0.0238822899309338 -0.057466358290112818 0.034933411520910077 0.018166781639626341 0.0037229596653794109 -0.0015456884498767809 -0.0038661989527960074 0.01518837359636508 0.0081639248288479793 -0.0066614014413633798 -0.010908486764208192 0.0046471298483395712 -0.016181643356634745 -0.026295053542566116 -0.004377388596084786 0.0093142602753739315 -0.02383017973573669 0.009996849841259892 0.00012768017911808373 0.011384105086474184 0.013362905059959374 -0.017631919110408689 -0.020560271840871058 -0.020995219738059269 0.019007204112768017 0.0091801585221080728 0.0099646519635601793 0.020643614022430368 0.029502790792843736 0.034909200730321867 0.017724471188057669 0.023590636248549002 0.021922078476937581
leaf_weight=603 180 163 156 313 306 121 123 234 164 866 601 643 155 168 188 104 294 304 937 148 211 267 102 278 239 1523 455 108 108 100 210 877 500 126 518 152 137 158 372 541 109 129 144 565 170 118 107 180 129 176 256 369 344 158 149 115 101 162 162 119 126 103 252
leaf_count=603 180 163 156 313 306 121 123 234 164 866 601 643 155 168 188 104 294 304 937 148 211 267 102 278 239 1523 455 108 108 100 210 877 500 126 518 152 137 158 372 541 109 129 144 565 170 118 107 180 129 176 256 369 344 158 149 115 101 162 162 119 126 103 252
internal_value=-0.000766837 0.0194706 0.0268963 -0.0253973 0.0345387 -0.00780511 -0.0173814 -0.0203806 -0.0359714 0.015082 0.0206312 -0.03753 -0.022367 -0.0327586 0.0273389 0.00184591 -0.0178392 -0.0274576 -0.0355696 0.0343792 -0.0177994 -0.015061 -0.0104265 -0.0278291 0.00626424 0.0458994 -0.0200831 -0.0053616 -0.0166667 -0.0219947 0.0223538 -0.0435135 0.0322759 0.0118151 0.00289515 0.00569285 0.00200669 0.0251955 0.00981308 -0.0107186 -0.0187204 0.0176525 -0.03154 -0.0291255 -0.000359712 0.0148649 -0.0216216 0.00488069 0.00857605 0.018543 0.0144156 -0.025 -0.0239726 -0.0168639 0.0228467 0.0181319 0.0259709 0.0222433 0.0296842 0.0276642 0.0257951 0.0349057 0.0224868
internal_weight=17996 9879 7765 8117 4715 2114 4617 3994 3500 3050 1917 3336 3760 1856 2886 623 1990 1770 1580 749 1236 1557 422 433 878 1829 722 401 276 757 1436 1480 1450 1168 639 1133 598 895 535 835 211 541 1013 709 278 222 814 461 309 302 385 476 657 338 685 273 412 263 950 685 566 265 378
internal_count=17996 9879 7765 8117 4715 2114 4617 3994 3500 3050 1917 3336 3760 1856 2886 623 1990 1770 1580 749 1236 1557 422 433 878 1829 722 401 276 757 1436 1480 1450 1168 639 1133 598 895 535 835 211 541 1013 709 278 222 814 461 309 302 385 476 657 338 685 273 412 263 950 685 566 265 378
is_linear=0
shrinkage=0.05


Tree=16
num_leaves=64
num_cat=0
split_feature=15 10 15 10 10 0 14 10 13 3 13 13 14 13 10 13 13 13 0 0 13 13 0 13 13 3 13 0 0 13 9 9 13 13 0 7 3 13 12 8 3 3 6 15 13 8 9 11 7 8 10 4 6 6 12 6 8 8 10 10 3 9 9
split_gain=3297.03 667.888 361.682 249.604 172.627 160.362 106.42 111.791 80.79 77.4606 74.2732 72.4616 51.4588 39.0903 37.7314 23.2858 23.0276 22.5297 21.4184 20.4196 17.4659 16.1316 14.9059 11.9259 9.84557 9.61009 9.58943 9.26165 8.89382 8.28539 7.99502 7.85824 7.54253 6.77784 6.68393 7.00229 6.6374 6.59413 5.68044 5.42862 5.20524 5.18371 5.99943 4.89069 4.75841 4.73899 4.73694 4.62236 4.45181 5.59501 4.24116 4.02825 3.89269 3.8904 3.74868 3.7145 5.74825 3.71336 6.26372 3.6345 3.6227 5.28509 5.5524
threshold=3.4471750770448528 3.0472893615234664 2.851080199956165 3.5580428228444179 3.0472893615234664 -1.0000000180025095e-35 2.0281703700624059 4.003709119292524 3.4239587291450735 0.93301270189221952 3.4239587291450735 3.4239587291450735 2.0281703700624059 3.5859019695679897 4.003709119292524 3.4239587291450735 3.14149496774098 3.2840114392680269 -1.0000000180025095e-35 -1.0000000180025095e-35 3.14149496774098 3.2840114392680269 -1.0000000180025095e-35 3.8647572082040802 3.0134067510723104 -0.68301270189221952 3.6984889446499198 -1.0000000180025095e-35 -1.0000000180025095e-35 3.0134067510723104 3.1250000000000004 3.0750000000000006 3.8647572082040802 3.6984889446499198 -1.0000000180025095e-35 0.95002108433734944 -0.68301270189221952 3.5859019695679897 3.4688338965060752 0.013684440664050172 -0.24999999999999997 0.25000000000000017 0.92822590361445789 3.3070001485822043 3.2840114392680269 0.010581684181323006 3.6250000000000004 3.4238601676986158 1.1100451807228919 0.026973084197862218 3.3752580381322606 0.50500000000000012 0.84856325301204827 0.85360240963855438 3.4140944227590508 1.1992048192771085 0.0083719530244561451 0.010997366095378108 3.3752580381322606 3.4301803268756705 -0.5 4.3750000000000009 4.0750000000000002
decision_type=2 2 2 2 2 2 2 2 2 2 2 2 2 2 2 2 2 2 2 2 2 2 2 2 2 2 2 2 2 2 2 2 2 2 2 2 2 2 2 2 2 2 2 2 2 2 2 2 2 2 2 2 2 2 2 2 2 2 2 2 2 2 2
left_child=2 10 5 11 16 12 32 9 19 13 18 20 44 38 21 45 -4 60 40 36 27 41 33 34 53 -23 55 39 -18 -20 -22 -15 -7 -10 -13 51 -6 -30 -8 -3 -2 42 -14 -24 -1 -9 -38 -31 -29 52 -46 -36 -50 -21 -27 56 -12 -26 -59 -35 -5 62 -62
right_child=1 3 4 17 8 6 7 15 22 -11 26 23 14 31 -16 -17 28 -19 29 24 30 25 43 -25 57 54 -28 48 37 47 -32 -33 -34 59 35 -37 46 -39 -40 -41 -42 -43 -44 -45 50 -47 -48 -49 49 -51 -52 -53 -54 -55 -56 -57 -58 58 -60 -61 61 -63 -64
leaf_value=-0.0520528443531868 0.0090638240153474887 0.013408417373526728 -0.045185849134486249 0.034874861359477552 -0.010115099260756622 -0.054593040375607173 -0.031359392099599308 -0.010043953372115812 0.0086842517228682189 0.0048306661459409763 -0.0067989412288140599 0.033676058201182094 -0.03391288048903749 -0.018279381948357432 0.0093288593725971199 0.0056810099869856415 -0.020855808226314179 0.053091901471374485 -0.025896260041178155 -0.017843312079739836 0.015968309431092599 -0.014408731799312969 0.0030609022050460235 0.033186740944864561 -0.0064891447944331665 -0.015345703134342182 0.0063868032632470213 0.0007291399561903944 -0.03100808588815256 -0.012904772961892342 0.012566103082443537 -0.018076824439671936 -0.036952214437846687 0.013626193767943717 0.018570524378638899 0.018311243899436436 -0.0030603362428035744 -0.018120666410486631 -0.023807068785702091 0.026772443173648398 -0.011905946382945221 -0.021351058319919236 -0.027468308361444385 -0.0011361800066022165 -0.022225972711475597 -0.0094101591111245726 0.0072496018844894986 -0.0080274443798012962 0.015168635851275725 0.0004479883070716451 -0.038175219031642588 0.025726130994948415 0.005923229997052349 -0.013228354522914133 -0.00074882415188687323 0.0038989043089465605 0.0011314642663519114 -0.003644065767612348 -0.01217658545881839 0.022561913004983628 0.029219087487922346 0.051338301622664728 0.021338306391036312
leaf_weight=190 127 144 173 343 133 1071 1280 101 201 144 101 395 177 371 174 205 168 1551 159 131 221 213 837 511 305 196 458 200 181 177 790 593 160 103 116 793 175 212 357 136 132 137 103 246 123 126 114 272 112 137 185 118 233 111 284 112 207 102 353 134 323 130 129
leaf_count=190 127 144 173 343 133 1071 1280 101 201 144 101 395 177 371 174 205 168 1551 159 131 221 213 837 511 305 196 458 200 181 177 790 593 160 103 116 793 175 212 357 136 132 137 103 246 123 126 114 272 112 137 185 118 233 111 284 112 207 102 353 134 323 130 129
internal_value=-0.00072794 0.0228559 -0.020149 0.030351 -0.00773308 -0.0275283 -0.0326452 -0.0278093 -0.00232598 -0.0315301 -0.00455587 0.0224782 -0.0148709 -0.0335063 -0.00957944 -0.00416667 -0.0294278 0.0427706 -0.0149366 -0.0108848 0.0157375 -0.012973 0.00568705 0.0293585 -0.0147705 -0.00829726 0.00569476 0.0109148 -0.0245098 -0.0200658 0.0203264 -0.0255187 -0.0451259 0.0134703 0.0270042 0.0248783 -0.00165877 -0.028626 -0.0382101 0.0185714 -0.00289575 -0.0207434 -0.0246429 0.00253924 -0.0285141 -0.0151982 0.00259516 -0.0165924 0.00777126 0.0103734 -0.0246753 0.0324786 0.0137681 -0.0235537 -0.004375 0.000238095 -0.0025974 -0.0119737 -0.0148352 0.0191983 0.0365946 0.0341924 0.0316372
internal_weight=17996 8127 9869 6382 3679 6190 4408 3177 2945 2745 1745 3906 1782 2601 1284 432 734 2476 867 1424 1973 1110 1521 1933 1002 693 878 962 561 608 1011 964 1231 438 1422 1027 422 393 1637 280 259 417 280 1083 498 227 289 449 682 482 308 234 345 242 480 420 308 760 455 237 925 582 452
internal_count=17996 8127 9869 6382 3679 6190 4408 3177 2945 2745 1745 3906 1782 2601 1284 432 734 2476 867 1424 1973 1110 1521 1933 1002 693 878 962 561 608 1011 964 1231 438 1422 1027 422 393 1637 280 259 417 280 1083 498 227 289 449 682 482 308 234 345 242 480 420 308 760 455 237 925 582 452
is_linear=0
shrinkage=0.05


Tree=17
num_leaves=64
num_cat=0
split_feature=16 10 16 16 10 0 16 10 0 3 16 10 15 10 13 15 10 16 0 13 10 0 13 13 16 13 15 5 16 16 13 16 3 5 0 2 2 2 8 0 5 2 16 8 0 3 10 16 13 2 3 13 1 8 12 0 10 4 4 5 12 8 4
